################################################################################
# Neural network connection values (weights and biases).
################################################################################
# Col  Name       Description
################################################################################
# 1    connection Neural network connection value.
# 2    t          Connection type (a = weight, b = bias).
# 3    index      Index enumerating weights.
# 4    l_s        Starting point layer (end point layer for biases).
# 5    n_s        Starting point neuron in starting layer (end point neuron for biases).
# 6    l_e        End point layer.
# 7    n_e        End point neuron in end layer.
################################################################################
#                      1 2         3     4     5     6     7
#             connection t     index   l_s   n_s   l_e   n_e
############################################################
 -2.2773504151484888E-01 a         1     0     1     1     1
  1.6857706153790236E-01 a         2     0     1     1     2
  1.5011055109743060E-01 a         3     0     1     1     3
 -2.2724471537772715E-02 a         4     0     1     1     4
  1.5568366090607308E-01 a         5     0     1     1     5
 -2.4023412876505384E-01 a         6     0     1     1     6
  1.8436154627628332E-01 a         7     0     1     1     7
  3.9049680495394407E-01 a         8     0     1     1     8
  2.6539319424366969E-01 a         9     0     1     1     9
  8.6622730883084631E-01 a        10     0     1     1    10
  9.0916978356546330E-02 a        11     0     1     1    11
 -6.1591482124656392E-02 a        12     0     1     1    12
 -3.1968578279221493E-01 a        13     0     1     1    13
 -5.5764167755909776E-02 a        14     0     1     1    14
 -1.1066886171417179E-02 a        15     0     1     1    15
  3.2809064691198930E-01 a        16     0     1     1    16
  3.8653649500777798E-01 a        17     0     1     1    17
 -2.9571192393713536E-01 a        18     0     1     1    18
 -7.0430172408714811E-02 a        19     0     1     1    19
  5.2230979099129482E-01 a        20     0     1     1    20
  2.3630163497659265E-01 a        21     0     2     1     1
  8.5566963150525546E-02 a        22     0     2     1     2
 -7.8817739080779339E-02 a        23     0     2     1     3
 -2.2456217173235593E-01 a        24     0     2     1     4
 -1.9229758433323443E-01 a        25     0     2     1     5
 -9.4601936653495672E-02 a        26     0     2     1     6
 -2.8769969471385465E-01 a        27     0     2     1     7
 -2.5619324541995010E-02 a        28     0     2     1     8
  1.8762357199303473E-01 a        29     0     2     1     9
 -6.2498181437769730E-02 a        30     0     2     1    10
  1.3110576256947065E-01 a        31     0     2     1    11
  3.0382082835559188E-01 a        32     0     2     1    12
 -2.1300436736964412E-01 a        33     0     2     1    13
  6.9740844611832914E-02 a        34     0     2     1    14
 -3.8268521851956970E-02 a        35     0     2     1    15
 -7.5860249022178639E-02 a        36     0     2     1    16
 -2.8859731423034749E-02 a        37     0     2     1    17
 -1.0052038097912588E-01 a        38     0     2     1    18
 -6.8803464590062686E-03 a        39     0     2     1    19
 -5.1994549005508643E-02 a        40     0     2     1    20
  1.3101832868213042E-01 a        41     0     3     1     1
 -5.2989936914928648E-03 a        42     0     3     1     2
 -2.5203928147249433E-01 a        43     0     3     1     3
  1.9217266541928441E-01 a        44     0     3     1     4
 -1.7793646912704966E-01 a        45     0     3     1     5
  7.9627519764997531E-02 a        46     0     3     1     6
  1.0141240682718449E-02 a        47     0     3     1     7
 -2.1714743281181503E-01 a        48     0     3     1     8
  9.9938669326789104E-02 a        49     0     3     1     9
 -1.5459986961590072E-01 a        50     0     3     1    10
  1.2824832737637781E-01 a        51     0     3     1    11
  9.8616851118511734E-02 a        52     0     3     1    12
 -1.8957290609549057E-01 a        53     0     3     1    13
 -5.5975701316388606E-02 a        54     0     3     1    14
  9.1369817367375566E-02 a        55     0     3     1    15
 -4.8016702278827188E-03 a        56     0     3     1    16
  9.9741090273539307E-02 a        57     0     3     1    17
 -1.8686025487877994E-01 a        58     0     3     1    18
  3.3617361473376933E-01 a        59     0     3     1    19
 -6.0386727966777569E-02 a        60     0     3     1    20
 -4.6987755858748460E-02 a        61     0     4     1     1
  1.7419472874663897E-01 a        62     0     4     1     2
  1.1178590541249071E-01 a        63     0     4     1     3
  3.6379165719393973E-02 a        64     0     4     1     4
  5.6533199620045799E-02 a        65     0     4     1     5
  5.7568075874460785E-02 a        66     0     4     1     6
  1.1190751924375622E-02 a        67     0     4     1     7
  1.0700421358078149E-02 a        68     0     4     1     8
  5.6459860171586697E-02 a        69     0     4     1     9
 -2.7757469555363167E-03 a        70     0     4     1    10
 -1.8717907071899212E-01 a        71     0     4     1    11
 -2.1502387747141319E-01 a        72     0     4     1    12
 -1.3661617882142707E-01 a        73     0     4     1    13
  1.4628523299219021E-01 a        74     0     4     1    14
  1.1770323704563757E-01 a        75     0     4     1    15
  3.8467218203679383E-02 a        76     0     4     1    16
  1.2963544061083293E-01 a        77     0     4     1    17
  7.0923082309754526E-02 a        78     0     4     1    18
 -7.7862062335554413E-02 a        79     0     4     1    19
  2.4211153874509392E-01 a        80     0     4     1    20
 -6.9128914358674437E-02 a        81     0     5     1     1
  8.4408469349691789E-02 a        82     0     5     1     2
  1.4169645960614681E-02 a        83     0     5     1     3
 -2.6954212153073348E-03 a        84     0     5     1     4
 -3.8928433157124742E-02 a        85     0     5     1     5
 -3.9509690219535779E-02 a        86     0     5     1     6
 -1.4473574370121656E-01 a        87     0     5     1     7
 -5.9431586478223927E-02 a        88     0     5     1     8
  1.8504002116931581E-02 a        89     0     5     1     9
 -1.1443374421275186E-02 a        90     0     5     1    10
 -1.4195279307698300E-01 a        91     0     5     1    11
 -2.1240121940579668E-01 a        92     0     5     1    12
  9.6636942853238188E-03 a        93     0     5     1    13
 -4.7669663820980330E-03 a        94     0     5     1    14
  1.8170501006520018E-01 a        95     0     5     1    15
  1.3408552066473892E-01 a        96     0     5     1    16
 -2.6754891017192028E-01 a        97     0     5     1    17
 -1.3059152445799180E-01 a        98     0     5     1    18
 -2.1640199969831349E-02 a        99     0     5     1    19
 -1.6531483363511087E-01 a       100     0     5     1    20
 -2.4769293923205557E-01 a       101     0     6     1     1
 -2.1479246123478041E-01 a       102     0     6     1     2
  1.9101271712092568E-02 a       103     0     6     1     3
  4.5932690640774937E-01 a       104     0     6     1     4
 -1.3518985800614347E-01 a       105     0     6     1     5
  4.0487453247768285E-01 a       106     0     6     1     6
 -7.3923011658674687E-01 a       107     0     6     1     7
  1.5485789141297315E-01 a       108     0     6     1     8
 -5.7895119526822358E-02 a       109     0     6     1     9
 -3.4004169386695121E-01 a       110     0     6     1    10
  2.7739811883511689E-01 a       111     0     6     1    11
  4.0906994852461888E-02 a       112     0     6     1    12
  3.4411020844772246E-02 a       113     0     6     1    13
  2.8960495200652973E-02 a       114     0     6     1    14
 -1.8400919294726192E-01 a       115     0     6     1    15
 -4.5023924334728999E-01 a       116     0     6     1    16
  1.9762078051349333E-01 a       117     0     6     1    17
  4.9040049554118365E-01 a       118     0     6     1    18
  5.4708121222862871E-01 a       119     0     6     1    19
  2.6846624061462937E-01 a       120     0     6     1    20
  6.7020165089034703E-02 a       121     0     7     1     1
 -1.0116009345411643E-01 a       122     0     7     1     2
  1.0251072208114236E-02 a       123     0     7     1     3
 -5.6082240918207515E-02 a       124     0     7     1     4
 -1.8856614918118531E-01 a       125     0     7     1     5
  6.0211125502859938E-02 a       126     0     7     1     6
  3.1947777131324828E-01 a       127     0     7     1     7
 -2.4031461457924680E-01 a       128     0     7     1     8
 -3.9586494901323821E-02 a       129     0     7     1     9
 -2.2985035717092057E-02 a       130     0     7     1    10
  1.5932727418251691E-01 a       131     0     7     1    11
 -8.5343360997116161E-02 a       132     0     7     1    12
 -2.2358707230059097E-01 a       133     0     7     1    13
 -3.1608463969417355E-02 a       134     0     7     1    14
  2.0608787981270416E-02 a       135     0     7     1    15
  6.9243617824237935E-02 a       136     0     7     1    16
 -1.2267665864247167E-01 a       137     0     7     1    17
  1.4518141818314842E-01 a       138     0     7     1    18
 -1.6294141481697072E-01 a       139     0     7     1    19
 -1.6822028706808684E-01 a       140     0     7     1    20
  1.9007122821748459E-02 a       141     0     8     1     1
  1.2963966416622405E-01 a       142     0     8     1     2
  8.4745712724785871E-02 a       143     0     8     1     3
 -8.7334242761383019E-02 a       144     0     8     1     4
 -8.2347152062584875E-02 a       145     0     8     1     5
 -1.8606775943493959E-02 a       146     0     8     1     6
 -1.4106175431315043E-01 a       147     0     8     1     7
  1.2456362706022550E-01 a       148     0     8     1     8
 -5.9972568346926838E-02 a       149     0     8     1     9
  1.6235693500842757E-01 a       150     0     8     1    10
 -1.5849268456385138E-02 a       151     0     8     1    11
 -1.0505836837297582E-01 a       152     0     8     1    12
  2.3396845691595397E-01 a       153     0     8     1    13
  8.1905335314303329E-02 a       154     0     8     1    14
 -1.5622092961356554E-01 a       155     0     8     1    15
  5.2321441785102868E-02 a       156     0     8     1    16
 -2.8730765472425401E-01 a       157     0     8     1    17
 -2.4230131784889763E-01 a       158     0     8     1    18
  9.8930404048726342E-02 a       159     0     8     1    19
  3.4192151850416082E-02 a       160     0     8     1    20
  8.8614159698110831E-02 a       161     0     9     1     1
 -1.6298143535415271E-01 a       162     0     9     1     2
  1.4685151512770175E-01 a       163     0     9     1     3
  5.8360900267296789E-02 a       164     0     9     1     4
 -5.2618458875170734E-02 a       165     0     9     1     5
 -4.7212881190209111E-02 a       166     0     9     1     6
  5.2987927264734030E-02 a       167     0     9     1     7
  5.2871576812366664E-02 a       168     0     9     1     8
 -4.3548337782045518E-02 a       169     0     9     1     9
 -1.4669761042292600E-02 a       170     0     9     1    10
  3.0313823016319763E-01 a       171     0     9     1    11
  2.1911527464574321E-01 a       172     0     9     1    12
  7.7781787773684816E-02 a       173     0     9     1    13
  1.3298426899819552E-01 a       174     0     9     1    14
 -5.7293926744539717E-04 a       175     0     9     1    15
 -1.6241039485403078E-02 a       176     0     9     1    16
 -6.6853137197161530E-02 a       177     0     9     1    17
  7.4567940906664857E-04 a       178     0     9     1    18
 -8.3693376489786406E-02 a       179     0     9     1    19
 -1.5179240567336416E-01 a       180     0     9     1    20
 -5.8990799172161365E-02 a       181     0    10     1     1
  1.6871040919347757E-01 a       182     0    10     1     2
 -3.9930590165948212E-03 a       183     0    10     1     3
 -1.6655038184672899E-01 a       184     0    10     1     4
 -7.7062330635660078E-02 a       185     0    10     1     5
  1.6824147676889856E-01 a       186     0    10     1     6
  1.4374948764818471E-01 a       187     0    10     1     7
 -4.1040182477471647E-02 a       188     0    10     1     8
  2.4150221494749096E-03 a       189     0    10     1     9
  5.5337164426989660E-02 a       190     0    10     1    10
  6.5247668240863699E-02 a       191     0    10     1    11
 -1.0682047664782739E-01 a       192     0    10     1    12
  3.8048862755989898E-02 a       193     0    10     1    13
 -1.0818939581158536E-01 a       194     0    10     1    14
 -3.8083771134463262E-02 a       195     0    10     1    15
 -1.1300069396869544E-01 a       196     0    10     1    16
  1.0998312615790737E-01 a       197     0    10     1    17
  1.7943626585371480E-01 a       198     0    10     1    18
  1.4640261603231144E-01 a       199     0    10     1    19
  1.6619748965685599E-01 a       200     0    10     1    20
 -1.3490289241921524E-01 a       201     0    11     1     1
  1.0219913218543958E-01 a       202     0    11     1     2
  6.2429550964979368E-02 a       203     0    11     1     3
  2.1392043677811362E-01 a       204     0    11     1     4
  2.4724146861462959E-01 a       205     0    11     1     5
 -3.6296093364813993E-02 a       206     0    11     1     6
  1.2666132823529208E-01 a       207     0    11     1     7
 -9.4076091301860343E-02 a       208     0    11     1     8
  1.6529617100738037E-01 a       209     0    11     1     9
  8.3673447284255631E-02 a       210     0    11     1    10
  1.8871861461679620E-01 a       211     0    11     1    11
  5.3092688497489292E-02 a       212     0    11     1    12
  1.7754501030129843E-01 a       213     0    11     1    13
  1.1983020498181968E-01 a       214     0    11     1    14
 -7.2448082149217025E-02 a       215     0    11     1    15
  4.5295539104587279E-01 a       216     0    11     1    16
 -6.5786794686290881E-02 a       217     0    11     1    17
  2.3622804215389755E-02 a       218     0    11     1    18
  1.5638191502546073E-02 a       219     0    11     1    19
 -9.0340375140232701E-03 a       220     0    11     1    20
 -3.2551620537273596E-01 a       221     0    12     1     1
 -2.1958301852248313E-01 a       222     0    12     1     2
  1.3336395117359462E-01 a       223     0    12     1     3
  1.7194258776627869E-01 a       224     0    12     1     4
  2.5346896714781488E-02 a       225     0    12     1     5
 -1.5960342052649579E-01 a       226     0    12     1     6
 -3.9484304048969320E-02 a       227     0    12     1     7
  2.1361751797746245E-01 a       228     0    12     1     8
  5.4823803141549880E-02 a       229     0    12     1     9
  4.6119191427262840E-02 a       230     0    12     1    10
  7.1790143951777671E-02 a       231     0    12     1    11
  2.3335627752651231E-01 a       232     0    12     1    12
  2.8092639620453141E-01 a       233     0    12     1    13
  6.5317582676408152E-03 a       234     0    12     1    14
 -1.4558971719408581E-01 a       235     0    12     1    15
  3.1833064274807576E-01 a       236     0    12     1    16
  3.1800697769404751E-01 a       237     0    12     1    17
 -2.0749859583005142E-01 a       238     0    12     1    18
  1.2476189886594652E-01 a       239     0    12     1    19
 -2.4282211020052430E-02 a       240     0    12     1    20
  1.5008386427281623E-01 a       241     0    13     1     1
  4.0014389870855857E-02 a       242     0    13     1     2
 -1.8347733700392602E-01 a       243     0    13     1     3
 -2.3700630122517985E-01 a       244     0    13     1     4
  1.3144254443078449E-01 a       245     0    13     1     5
 -8.0519878051728347E-02 a       246     0    13     1     6
  3.0815244625443711E-01 a       247     0    13     1     7
 -2.8232590867404327E-02 a       248     0    13     1     8
  1.0450591416041254E-02 a       249     0    13     1     9
  1.4505240020721575E-02 a       250     0    13     1    10
  8.9284704081373616E-03 a       251     0    13     1    11
 -1.2886525465598397E-01 a       252     0    13     1    12
  6.1166750970651662E-02 a       253     0    13     1    13
  1.5550461843568477E-02 a       254     0    13     1    14
 -3.2919020037333047E-02 a       255     0    13     1    15
 -1.5738244735739088E-01 a       256     0    13     1    16
 -8.5214206872364362E-02 a       257     0    13     1    17
  2.5755282663416057E-01 a       258     0    13     1    18
 -1.1154249623285050E-02 a       259     0    13     1    19
 -4.8908463108415061E-02 a       260     0    13     1    20
  5.7245295048102884E-02 a       261     0    14     1     1
  9.8753576462126277E-02 a       262     0    14     1     2
 -7.3034243772149690E-02 a       263     0    14     1     3
  2.3055948169506724E-01 a       264     0    14     1     4
  7.6432353922196411E-02 a       265     0    14     1     5
 -3.7516233912633888E-02 a       266     0    14     1     6
 -1.6038317412103262E-01 a       267     0    14     1     7
  1.9906843694870427E-01 a       268     0    14     1     8
  1.7306765466550833E-01 a       269     0    14     1     9
  1.3626458416242385E-01 a       270     0    14     1    10
  2.9011159681723675E-03 a       271     0    14     1    11
  1.2668371422910088E-01 a       272     0    14     1    12
  7.8618410440302627E-02 a       273     0    14     1    13
  1.7608571699954095E-01 a       274     0    14     1    14
 -2.9124193445025318E-02 a       275     0    14     1    15
 -3.8729293667096733E-03 a       276     0    14     1    16
  1.2593163923950593E-01 a       277     0    14     1    17
  5.3138398892923509E-02 a       278     0    14     1    18
  1.7486126161659871E-02 a       279     0    14     1    19
 -7.8374390882728843E-04 a       280     0    14     1    20
  7.4361280431412047E-02 a       281     0    15     1     1
 -3.6255082138730944E-02 a       282     0    15     1     2
 -1.6287742384016490E-02 a       283     0    15     1     3
  6.8456072921750724E-02 a       284     0    15     1     4
  1.1662093711489949E-01 a       285     0    15     1     5
 -5.8747216940185823E-02 a       286     0    15     1     6
 -1.2341453697602749E-01 a       287     0    15     1     7
  1.8150149459457801E-01 a       288     0    15     1     8
  1.5793579755616460E-02 a       289     0    15     1     9
 -3.7657847611021047E-02 a       290     0    15     1    10
  1.9255638597114688E-01 a       291     0    15     1    11
  1.1564015767853115E-02 a       292     0    15     1    12
 -1.0481198970051059E-01 a       293     0    15     1    13
 -1.5524119166924533E-01 a       294     0    15     1    14
  1.3866031464534687E-01 a       295     0    15     1    15
 -1.0336347246574565E-01 a       296     0    15     1    16
 -1.4377406138492266E-01 a       297     0    15     1    17
  2.3719307696780986E-01 a       298     0    15     1    18
 -7.2565946002583079E-02 a       299     0    15     1    19
 -2.4400425816758703E-01 a       300     0    15     1    20
 -1.1849302185667317E-01 a       301     0    16     1     1
 -2.2211089998035169E-01 a       302     0    16     1     2
 -1.4116636756362376E-02 a       303     0    16     1     3
  1.2485033607936201E-01 a       304     0    16     1     4
 -8.0341928506834290E-03 a       305     0    16     1     5
  9.1086237996017561E-02 a       306     0    16     1     6
 -5.2649256447694437E-01 a       307     0    16     1     7
  3.9529197901151963E-01 a       308     0    16     1     8
 -1.7465235813567456E-01 a       309     0    16     1     9
 -4.7248579562149333E-02 a       310     0    16     1    10
  3.6940096494975155E-01 a       311     0    16     1    11
 -1.3490613023668740E-01 a       312     0    16     1    12
 -8.6715783199755994E-02 a       313     0    16     1    13
 -1.7787510378110699E-01 a       314     0    16     1    14
  1.8131529013628633E-02 a       315     0    16     1    15
 -4.1796965831514715E-01 a       316     0    16     1    16
 -2.4747946637178990E-02 a       317     0    16     1    17
 -9.1130178689806857E-02 a       318     0    16     1    18
  2.8401185337627582E-01 a       319     0    16     1    19
 -1.8802386120188720E-03 a       320     0    16     1    20
  8.2322924623807234E-02 a       321     0    17     1     1
  1.0052729346704298E-01 a       322     0    17     1     2
  8.7837825463857572E-02 a       323     0    17     1     3
  6.5738012626379558E-02 a       324     0    17     1     4
  4.9862438030763958E-03 a       325     0    17     1     5
  6.0708984972720259E-02 a       326     0    17     1     6
 -3.9685992568439625E-02 a       327     0    17     1     7
  2.0759595220106744E-02 a       328     0    17     1     8
 -9.6103434740349256E-02 a       329     0    17     1     9
  1.3232255656550221E-01 a       330     0    17     1    10
 -9.7560741785822969E-02 a       331     0    17     1    11
 -3.0798757749845449E-02 a       332     0    17     1    12
  1.3819229328407268E-01 a       333     0    17     1    13
  7.6327501899965580E-02 a       334     0    17     1    14
  1.2894525647871607E-01 a       335     0    17     1    15
  1.3402666987619008E-01 a       336     0    17     1    16
 -1.3577113807624613E-01 a       337     0    17     1    17
  2.5584040543621478E-01 a       338     0    17     1    18
  1.0699498054479760E-01 a       339     0    17     1    19
 -9.9475026049845122E-02 a       340     0    17     1    20
  1.9170782587783325E-01 a       341     0    18     1     1
  3.1881438462872676E-02 a       342     0    18     1     2
  1.0698212414771184E-01 a       343     0    18     1     3
 -1.6628093098004756E-01 a       344     0    18     1     4
 -2.6127384217502264E-01 a       345     0    18     1     5
  1.9221467352725596E-01 a       346     0    18     1     6
  8.3417534935435356E-02 a       347     0    18     1     7
  9.2229504025375761E-02 a       348     0    18     1     8
  6.7103926371491471E-02 a       349     0    18     1     9
 -2.7919657637008105E-01 a       350     0    18     1    10
 -1.4116302843530754E-01 a       351     0    18     1    11
 -4.4034337756500487E-02 a       352     0    18     1    12
  9.6639462050787148E-02 a       353     0    18     1    13
  1.5808639948817409E-02 a       354     0    18     1    14
 -1.7279366665208820E-01 a       355     0    18     1    15
 -5.9514336826445649E-02 a       356     0    18     1    16
  1.0294616493254494E-01 a       357     0    18     1    17
  2.6500112536276388E-01 a       358     0    18     1    18
  2.9959742053033395E-01 a       359     0    18     1    19
 -6.0802917357583586E-02 a       360     0    18     1    20
  1.1001277003873294E-01 a       361     0    19     1     1
  2.7351139837770780E-02 a       362     0    19     1     2
  5.2682997460525682E-02 a       363     0    19     1     3
  5.7370042715154855E-02 a       364     0    19     1     4
 -3.9639479483875757E-02 a       365     0    19     1     5
  2.6037063380809516E-03 a       366     0    19     1     6
 -9.7364816967070583E-03 a       367     0    19     1     7
  1.9165800036446001E-01 a       368     0    19     1     8
  9.0612217833105718E-02 a       369     0    19     1     9
 -4.8450108387129077E-02 a       370     0    19     1    10
  1.7133073755494277E-01 a       371     0    19     1    11
  1.6398010080339423E-01 a       372     0    19     1    12
  1.2732851212434496E-01 a       373     0    19     1    13
  1.6007486789084246E-01 a       374     0    19     1    14
  1.2551600949110672E-01 a       375     0    19     1    15
  5.4271841834572246E-02 a       376     0    19     1    16
 -5.7083619639480478E-02 a       377     0    19     1    17
 -8.0917973021331871E-02 a       378     0    19     1    18
  8.7345736532457160E-04 a       379     0    19     1    19
  8.9854850368151440E-02 a       380     0    19     1    20
  1.7555826999104268E-02 a       381     0    20     1     1
 -3.7360941047521461E-02 a       382     0    20     1     2
 -7.8334571871262582E-02 a       383     0    20     1     3
  1.6185885010801142E-02 a       384     0    20     1     4
 -5.4203246086509255E-03 a       385     0    20     1     5
 -3.5360190561143957E-02 a       386     0    20     1     6
 -2.3534644312771351E-03 a       387     0    20     1     7
 -1.6865767062671420E-02 a       388     0    20     1     8
 -3.3881165729052330E-02 a       389     0    20     1     9
 -5.7644250343774853E-03 a       390     0    20     1    10
  8.6876349933567451E-02 a       391     0    20     1    11
  1.8018014503283497E-01 a       392     0    20     1    12
  1.7063882769235150E-01 a       393     0    20     1    13
  1.0507865603606789E-01 a       394     0    20     1    14
 -2.9588408609210773E-04 a       395     0    20     1    15
  1.4878758143246884E-01 a       396     0    20     1    16
  2.1537797855863755E-01 a       397     0    20     1    17
  1.0439686206373562E-01 a       398     0    20     1    18
 -1.0532061086554173E-01 a       399     0    20     1    19
  1.8479316378152730E-01 a       400     0    20     1    20
 -4.1741894559460188E-02 a       401     0    21     1     1
 -1.4345833864053859E-01 a       402     0    21     1     2
  1.5871004672604258E-01 a       403     0    21     1     3
  3.6344022210093413E-01 a       404     0    21     1     4
  3.3342295148504586E-01 a       405     0    21     1     5
 -2.6876403140310388E-02 a       406     0    21     1     6
  2.3890946057696952E-01 a       407     0    21     1     7
 -2.7700067564867281E-01 a       408     0    21     1     8
  1.7629834419237639E-01 a       409     0    21     1     9
 -1.3682619359224699E-01 a       410     0    21     1    10
  1.5536846849869690E-01 a       411     0    21     1    11
  1.4759049604206079E-01 a       412     0    21     1    12
 -3.3966554685786632E-01 a       413     0    21     1    13
 -1.5381039326303819E-01 a       414     0    21     1    14
 -1.3353631824789358E-01 a       415     0    21     1    15
  3.8524403119533646E-01 a       416     0    21     1    16
  1.2353793979500779E-02 a       417     0    21     1    17
 -1.6716655655693383E-01 a       418     0    21     1    18
 -1.4373925150581633E-02 a       419     0    21     1    19
  9.8437622876207109E-02 a       420     0    21     1    20
 -3.8422422294430811E-02 a       421     0    22     1     1
 -5.4443238115937445E-02 a       422     0    22     1     2
 -5.5842596901394620E-02 a       423     0    22     1     3
 -2.5638218180535653E-02 a       424     0    22     1     4
 -1.6664821614917441E-01 a       425     0    22     1     5
 -2.8133129293009280E-03 a       426     0    22     1     6
 -4.8294528014522900E-02 a       427     0    22     1     7
 -1.7597026803891413E-01 a       428     0    22     1     8
 -1.1248054324686903E-01 a       429     0    22     1     9
  1.4033127501741974E-01 a       430     0    22     1    10
  6.6835782089741128E-02 a       431     0    22     1    11
  5.7750906345134669E-02 a       432     0    22     1    12
 -1.9715636611245738E-01 a       433     0    22     1    13
  5.7171500491150787E-02 a       434     0    22     1    14
  3.0180278746941842E-03 a       435     0    22     1    15
  9.7641389652112272E-03 a       436     0    22     1    16
  1.0592011959592618E-01 a       437     0    22     1    17
 -3.7216757491750706E-02 a       438     0    22     1    18
 -2.7846605675472192E-02 a       439     0    22     1    19
 -1.3268333692001047E-02 a       440     0    22     1    20
  1.3672460035673401E-03 a       441     0    23     1     1
  2.0346983759191395E-01 a       442     0    23     1     2
  7.8864969892829068E-02 a       443     0    23     1     3
 -3.3369939128851105E-02 a       444     0    23     1     4
 -2.1692570394167082E-01 a       445     0    23     1     5
  8.9502542811795968E-02 a       446     0    23     1     6
 -1.0480066976024510E-01 a       447     0    23     1     7
 -5.1834632576905931E-02 a       448     0    23     1     8
 -2.9773248693741008E-02 a       449     0    23     1     9
  1.1072588176951220E-01 a       450     0    23     1    10
 -1.1905196996688076E-01 a       451     0    23     1    11
 -4.2071631943340577E-02 a       452     0    23     1    12
 -2.0290802020110826E-02 a       453     0    23     1    13
  1.8883963350639379E-01 a       454     0    23     1    14
  1.3464442080229827E-01 a       455     0    23     1    15
 -1.3650753117983244E-01 a       456     0    23     1    16
  1.1362350230890900E-01 a       457     0    23     1    17
  2.4470635985517467E-01 a       458     0    23     1    18
  3.0962577946604838E-02 a       459     0    23     1    19
 -2.8942505127946760E-01 a       460     0    23     1    20
 -8.1706320694915305E-02 a       461     0    24     1     1
 -1.2267453017586409E-01 a       462     0    24     1     2
  1.0229044704929749E-01 a       463     0    24     1     3
  9.7179301281674305E-02 a       464     0    24     1     4
  2.6209368181972575E-01 a       465     0    24     1     5
  8.8491007560516755E-02 a       466     0    24     1     6
 -6.0345812059069623E-03 a       467     0    24     1     7
  5.6468719437724371E-02 a       468     0    24     1     8
  9.2658483570039932E-02 a       469     0    24     1     9
 -4.2752524457567595E-02 a       470     0    24     1    10
  1.8641535503369458E-01 a       471     0    24     1    11
 -3.0887503272321096E-02 a       472     0    24     1    12
 -1.1684747654179693E-03 a       473     0    24     1    13
  2.8273004011036529E-01 a       474     0    24     1    14
 -1.8885400227518798E-01 a       475     0    24     1    15
 -8.6081584830286925E-02 a       476     0    24     1    16
 -8.7281955762599714E-02 a       477     0    24     1    17
  4.5736634525631488E-02 a       478     0    24     1    18
  9.4162480833096474E-02 a       479     0    24     1    19
  1.4289875923958739E-01 a       480     0    24     1    20
  1.2266586322281650E-01 a       481     0    25     1     1
  1.3776567081954105E-01 a       482     0    25     1     2
  4.7950526662501131E-02 a       483     0    25     1     3
  1.8024997240894600E-01 a       484     0    25     1     4
 -1.9744475032573455E-01 a       485     0    25     1     5
  1.2960307652457384E-01 a       486     0    25     1     6
  1.1150096189185801E-01 a       487     0    25     1     7
 -5.1755216012659346E-02 a       488     0    25     1     8
 -8.1136779283704136E-02 a       489     0    25     1     9
 -3.0963308910565191E-02 a       490     0    25     1    10
 -1.0213246907884913E-01 a       491     0    25     1    11
 -1.7143663545146545E-01 a       492     0    25     1    12
  2.9431869753978095E-02 a       493     0    25     1    13
 -3.3047124215256872E-02 a       494     0    25     1    14
  8.1320303952937718E-03 a       495     0    25     1    15
 -3.8457172492759761E-02 a       496     0    25     1    16
 -7.6882091239028949E-02 a       497     0    25     1    17
  9.3981133214802101E-02 a       498     0    25     1    18
  5.6262993499494915E-02 a       499     0    25     1    19
 -4.8561791653431597E-03 a       500     0    25     1    20
 -1.8967236350969302E-01 a       501     0    26     1     1
 -2.6985327699702411E-01 a       502     0    26     1     2
 -1.2864512909315867E-01 a       503     0    26     1     3
 -2.7857704549742901E-01 a       504     0    26     1     4
  1.6614846638876485E-01 a       505     0    26     1     5
 -2.5323380574781749E-02 a       506     0    26     1     6
 -2.1510718459413866E-01 a       507     0    26     1     7
  1.6287617223002787E-02 a       508     0    26     1     8
  1.6805195149775970E-01 a       509     0    26     1     9
 -1.8511642143958296E-01 a       510     0    26     1    10
  2.5391301592133386E-01 a       511     0    26     1    11
 -1.2999213621216757E-01 a       512     0    26     1    12
 -2.3032544279554143E-01 a       513     0    26     1    13
  4.8595808353889956E-02 a       514     0    26     1    14
  4.9476394345036459E-03 a       515     0    26     1    15
 -2.5848093594752442E-01 a       516     0    26     1    16
  7.6990761689043022E-02 a       517     0    26     1    17
 -5.0673118638120823E-02 a       518     0    26     1    18
 -4.0567553525360615E-03 a       519     0    26     1    19
  1.4391269898725251E-01 a       520     0    26     1    20
  8.7967083169302698E-02 a       521     0    27     1     1
  3.0087690983459040E-02 a       522     0    27     1     2
 -5.6665848180487470E-02 a       523     0    27     1     3
  1.2971338701363935E-01 a       524     0    27     1     4
 -7.8495205292483869E-02 a       525     0    27     1     5
 -1.6908472424218741E-02 a       526     0    27     1     6
 -6.1806772660644689E-03 a       527     0    27     1     7
  1.3973168568784811E-01 a       528     0    27     1     8
 -1.3413385885234860E-01 a       529     0    27     1     9
  8.3105949061583778E-02 a       530     0    27     1    10
  1.4473643577007781E-02 a       531     0    27     1    11
  6.8691213174850815E-02 a       532     0    27     1    12
  1.9069287299645479E-01 a       533     0    27     1    13
  4.4709646824724038E-02 a       534     0    27     1    14
 -8.8967200045600769E-02 a       535     0    27     1    15
  1.2698232421058112E-02 a       536     0    27     1    16
 -1.0528056553178677E-02 a       537     0    27     1    17
 -5.3472860960291968E-02 a       538     0    27     1    18
 -1.8174929926379343E-01 a       539     0    27     1    19
  7.0026692316359676E-02 a       540     0    27     1    20
  2.3571359321631263E-01 a       541     0    28     1     1
  2.0019707546936047E-01 a       542     0    28     1     2
 -7.0724506554948940E-02 a       543     0    28     1     3
 -8.3684414554440992E-02 a       544     0    28     1     4
 -3.3572661584125596E-01 a       545     0    28     1     5
 -2.5586152705013222E-02 a       546     0    28     1     6
  1.2744493121705830E-01 a       547     0    28     1     7
  2.7227748415869005E-02 a       548     0    28     1     8
 -1.8680998273474969E-01 a       549     0    28     1     9
  7.1526150046878345E-02 a       550     0    28     1    10
 -3.2753682905266063E-01 a       551     0    28     1    11
  8.5929722004487522E-03 a       552     0    28     1    12
 -8.1078941218388576E-03 a       553     0    28     1    13
 -1.0871481450135115E-01 a       554     0    28     1    14
  5.1719981792746764E-03 a       555     0    28     1    15
  1.3625225253901707E-01 a       556     0    28     1    16
  1.4487562963990222E-01 a       557     0    28     1    17
  2.9528548756114131E-01 a       558     0    28     1    18
 -3.2152054750620156E-02 a       559     0    28     1    19
 -2.7805679896596813E-01 a       560     0    28     1    20
 -1.6741275703680867E-02 a       561     0    29     1     1
  3.2332017194704660E-02 a       562     0    29     1     2
 -7.0444631760139986E-02 a       563     0    29     1     3
 -6.6368408289194117E-02 a       564     0    29     1     4
  8.7762486359397068E-02 a       565     0    29     1     5
 -8.8278962305566477E-02 a       566     0    29     1     6
 -6.2868584491122523E-02 a       567     0    29     1     7
  4.4128569694303087E-02 a       568     0    29     1     8
  8.3189056953410140E-02 a       569     0    29     1     9
 -7.8430069040195102E-02 a       570     0    29     1    10
  5.9760653260734292E-02 a       571     0    29     1    11
 -7.7280538329616830E-02 a       572     0    29     1    12
 -1.6345491359173298E-01 a       573     0    29     1    13
 -1.1718168885500435E-01 a       574     0    29     1    14
  1.6045428526363037E-01 a       575     0    29     1    15
  6.7473657828367756E-02 a       576     0    29     1    16
  1.1425671975074421E-01 a       577     0    29     1    17
 -2.2334499801427172E-02 a       578     0    29     1    18
 -1.3044764629745306E-01 a       579     0    29     1    19
 -7.2388607336232744E-02 a       580     0    29     1    20
 -3.7560387142294531E-02 a       581     0    30     1     1
  1.0085052054279278E-01 a       582     0    30     1     2
 -1.6720711847120831E-01 a       583     0    30     1     3
 -1.9938437211156546E-01 a       584     0    30     1     4
 -1.5003882286672676E-01 a       585     0    30     1     5
  5.9896225577427955E-03 a       586     0    30     1     6
 -1.2559787576420628E-01 a       587     0    30     1     7
  1.1853446368107727E-01 a       588     0    30     1     8
  7.0535930429111077E-02 a       589     0    30     1     9
  1.0072529890818402E-01 a       590     0    30     1    10
  3.8949743986202196E-04 a       591     0    30     1    11
  2.2624219077712653E-02 a       592     0    30     1    12
  7.1762526658430997E-02 a       593     0    30     1    13
 -8.0107509768335861E-02 a       594     0    30     1    14
  3.9746526593970738E-02 a       595     0    30     1    15
 -5.0255177252373660E-03 a       596     0    30     1    16
  5.3142640499548990E-02 a       597     0    30     1    17
  2.3265328347246855E-01 a       598     0    30     1    18
 -1.1765718051351457E-02 a       599     0    30     1    19
 -5.3017779111508102E-02 a       600     0    30     1    20
  9.4378069385824895E-02 a       601     0    31     1     1
 -5.0984087126005162E-02 a       602     0    31     1     2
  7.0630727947566530E-02 a       603     0    31     1     3
  1.5525522406994349E-01 a       604     0    31     1     4
  2.9251897980727742E-01 a       605     0    31     1     5
  1.2253037344171790E-01 a       606     0    31     1     6
  1.3680571322675014E-01 a       607     0    31     1     7
  1.6935395284909177E-01 a       608     0    31     1     8
 -3.9996619987171618E-03 a       609     0    31     1     9
 -1.4467777091053237E-02 a       610     0    31     1    10
  1.8085276351805249E-01 a       611     0    31     1    11
  1.5574892132093041E-01 a       612     0    31     1    12
 -9.7844560675388201E-02 a       613     0    31     1    13
 -1.5208077176729656E-01 a       614     0    31     1    14
  7.6756901522854498E-02 a       615     0    31     1    15
  2.0771499913529161E-02 a       616     0    31     1    16
 -3.3715511651737362E-01 a       617     0    31     1    17
 -7.7165162449365207E-02 a       618     0    31     1    18
 -1.3988177325882770E-02 a       619     0    31     1    19
  1.8922011358166743E-01 a       620     0    31     1    20
 -3.4737400821337203E-03 a       621     0    32     1     1
 -7.3482591475337771E-03 a       622     0    32     1     2
 -1.1859374975970190E-01 a       623     0    32     1     3
  1.2530101798778034E-01 a       624     0    32     1     4
  6.7075756493884545E-02 a       625     0    32     1     5
  6.8363726741076070E-04 a       626     0    32     1     6
 -9.1824387979268243E-02 a       627     0    32     1     7
  1.1205317421091843E-01 a       628     0    32     1     8
 -2.7223164286385432E-01 a       629     0    32     1     9
  1.5976635779874206E-02 a       630     0    32     1    10
 -1.2355432519536008E-01 a       631     0    32     1    11
 -1.1991998588761631E-01 a       632     0    32     1    12
 -6.6804603901921750E-02 a       633     0    32     1    13
 -4.9477437363736235E-02 a       634     0    32     1    14
  6.2672726350862962E-02 a       635     0    32     1    15
  7.8503753553652120E-02 a       636     0    32     1    16
  2.7936216863836127E-02 a       637     0    32     1    17
 -8.7511537768566169E-02 a       638     0    32     1    18
 -6.9144709243586996E-02 a       639     0    32     1    19
 -2.9296591606315880E-01 a       640     0    32     1    20
 -5.6334638196740873E-02 a       641     0    33     1     1
  5.8256394342165882E-02 a       642     0    33     1     2
  2.1882001806700266E-01 a       643     0    33     1     3
  1.2861003442386093E-01 a       644     0    33     1     4
 -8.7127809094327227E-02 a       645     0    33     1     5
  3.3018181502531607E-02 a       646     0    33     1     6
 -1.2023817492654164E-01 a       647     0    33     1     7
  1.2839590042944739E-03 a       648     0    33     1     8
 -2.1280583492139046E-01 a       649     0    33     1     9
  1.2824428612752489E-01 a       650     0    33     1    10
 -7.0100606150643271E-02 a       651     0    33     1    11
  2.4979957243019026E-02 a       652     0    33     1    12
  5.9741287294617321E-02 a       653     0    33     1    13
  1.9774707464301322E-01 a       654     0    33     1    14
 -5.0176527483881072E-04 a       655     0    33     1    15
 -4.7504918932229863E-02 a       656     0    33     1    16
 -3.2190396961688524E-02 a       657     0    33     1    17
  3.7726603731696742E-02 a       658     0    33     1    18
 -5.2850386104582807E-02 a       659     0    33     1    19
 -2.8477087371414450E-01 a       660     0    33     1    20
 -1.4854192422270842E-02 a       661     0    34     1     1
 -7.2831744637001927E-02 a       662     0    34     1     2
  5.0353867026680307E-02 a       663     0    34     1     3
 -8.0595808376133837E-02 a       664     0    34     1     4
  1.3358003165056112E-01 a       665     0    34     1     5
  2.3064291448645930E-02 a       666     0    34     1     6
  4.5133913266589540E-02 a       667     0    34     1     7
  6.4436294441284079E-03 a       668     0    34     1     8
  2.7313167695740700E-02 a       669     0    34     1     9
 -4.0736786371019561E-03 a       670     0    34     1    10
  2.3011602294273754E-02 a       671     0    34     1    11
  5.3925358836241818E-02 a       672     0    34     1    12
 -5.5425893273889316E-03 a       673     0    34     1    13
 -7.0950337459247281E-02 a       674     0    34     1    14
 -1.2162656857496786E-01 a       675     0    34     1    15
 -4.7728191382694303E-02 a       676     0    34     1    16
 -7.2874378524010797E-02 a       677     0    34     1    17
  2.9739446673440518E-02 a       678     0    34     1    18
  1.1221413309385016E-01 a       679     0    34     1    19
  7.3512643871028724E-02 a       680     0    34     1    20
  1.1247202441422548E-01 a       681     0    35     1     1
  2.2625353451066088E-02 a       682     0    35     1     2
  8.3768208001574890E-02 a       683     0    35     1     3
  8.2186806149720279E-02 a       684     0    35     1     4
  1.3119727337011058E-01 a       685     0    35     1     5
  2.5641597981639510E-03 a       686     0    35     1     6
  5.2975316859220772E-02 a       687     0    35     1     7
 -6.1379281235105318E-02 a       688     0    35     1     8
 -1.6256761138258935E-01 a       689     0    35     1     9
 -8.6346944339772136E-02 a       690     0    35     1    10
  1.5372474040442126E-02 a       691     0    35     1    11
  8.8462930403785209E-02 a       692     0    35     1    12
 -1.9418287757916819E-01 a       693     0    35     1    13
 -1.3698469011390094E-01 a       694     0    35     1    14
  1.7627754343602581E-01 a       695     0    35     1    15
  5.9645244394270512E-02 a       696     0    35     1    16
  2.9085278382093536E-02 a       697     0    35     1    17
  1.6854827802434455E-01 a       698     0    35     1    18
 -5.2095934750323487E-02 a       699     0    35     1    19
 -1.9555560460616123E-01 a       700     0    35     1    20
 -1.0251757091532093E-01 a       701     0    36     1     1
 -1.3148326241512470E-01 a       702     0    36     1     2
 -1.3589545751260923E-01 a       703     0    36     1     3
 -1.7038127578274187E-01 a       704     0    36     1     4
 -1.9387731900398664E-02 a       705     0    36     1     5
 -7.1978100949483797E-03 a       706     0    36     1     6
 -4.7328316566194552E-02 a       707     0    36     1     7
 -7.7254976045304291E-02 a       708     0    36     1     8
  6.7235095353421245E-02 a       709     0    36     1     9
 -1.9471197178503455E-01 a       710     0    36     1    10
  3.8713838779984966E-02 a       711     0    36     1    11
 -9.7036644784116721E-02 a       712     0    36     1    12
 -1.9906966856752101E-01 a       713     0    36     1    13
  2.9959994719538748E-02 a       714     0    36     1    14
  3.7122372036304210E-02 a       715     0    36     1    15
 -3.1375795652518280E-02 a       716     0    36     1    16
 -1.7282367880332716E-01 a       717     0    36     1    17
 -2.1655695914178938E-01 a       718     0    36     1    18
  1.6498084072016125E-01 a       719     0    36     1    19
  1.3662694922656549E-01 a       720     0    36     1    20
  2.5111370749318799E-02 a       721     0    37     1     1
  5.8311791543807445E-02 a       722     0    37     1     2
 -1.9178036566231876E-02 a       723     0    37     1     3
 -1.1560560985619606E-01 a       724     0    37     1     4
  1.1952622759608395E-02 a       725     0    37     1     5
 -1.7744660523836440E-03 a       726     0    37     1     6
  4.4925870595385442E-02 a       727     0    37     1     7
  2.4408721957543097E-01 a       728     0    37     1     8
 -1.0392602802334301E-01 a       729     0    37     1     9
  9.4901812685999360E-03 a       730     0    37     1    10
  1.9566864177834276E-01 a       731     0    37     1    11
 -1.3145740566337449E-01 a       732     0    37     1    12
 -1.0756688121403123E-01 a       733     0    37     1    13
 -1.2425707682296630E-01 a       734     0    37     1    14
  2.2499576379239411E-02 a       735     0    37     1    15
 -5.9946740236317436E-02 a       736     0    37     1    16
 -1.4225373133997973E-01 a       737     0    37     1    17
 -1.6875539544139406E-02 a       738     0    37     1    18
 -4.4710074259239577E-02 a       739     0    37     1    19
  8.4792896004468044E-03 a       740     0    37     1    20
 -3.8187688742676224E-03 a       741     0    38     1     1
  1.0938907348320447E-01 a       742     0    38     1     2
  3.5352681119715700E-02 a       743     0    38     1     3
 -8.0229404027732168E-02 a       744     0    38     1     4
 -2.2569531928427405E-01 a       745     0    38     1     5
 -1.1203660459982960E-01 a       746     0    38     1     6
  7.7588102925220712E-02 a       747     0    38     1     7
 -7.6699708208510214E-02 a       748     0    38     1     8
 -2.3594649714322312E-02 a       749     0    38     1     9
  1.1953828891464531E-01 a       750     0    38     1    10
 -4.0208739256649022E-02 a       751     0    38     1    11
 -4.8037005014728684E-02 a       752     0    38     1    12
 -5.9953678985668847E-03 a       753     0    38     1    13
  1.0951515096851340E-01 a       754     0    38     1    14
 -9.9261058501142307E-02 a       755     0    38     1    15
  1.3122925869461557E-01 a       756     0    38     1    16
  2.1392347008388049E-01 a       757     0    38     1    17
  1.3929413766387247E-01 a       758     0    38     1    18
 -5.2927857448426589E-02 a       759     0    38     1    19
 -2.0391827788509975E-01 a       760     0    38     1    20
  6.6399247534534911E-02 a       761     0    39     1     1
 -1.0797204420616994E-02 a       762     0    39     1     2
 -3.4005994789098194E-02 a       763     0    39     1     3
  9.5714024203956902E-02 a       764     0    39     1     4
  2.0187490658429251E-02 a       765     0    39     1     5
  6.8758180811212433E-02 a       766     0    39     1     6
  2.1743700922509806E-02 a       767     0    39     1     7
  1.4930773873107749E-02 a       768     0    39     1     8
  1.1783897074940176E-01 a       769     0    39     1     9
 -8.7081503799296925E-02 a       770     0    39     1    10
 -2.2540288680079221E-02 a       771     0    39     1    11
 -8.1184433671886037E-03 a       772     0    39     1    12
 -3.1287561510864409E-04 a       773     0    39     1    13
 -1.9644460918239362E-02 a       774     0    39     1    14
  8.7667435429931939E-02 a       775     0    39     1    15
  3.2201706694146341E-02 a       776     0    39     1    16
 -3.8428375362598792E-02 a       777     0    39     1    17
 -8.1924871135786725E-02 a       778     0    39     1    18
  6.8285286138972959E-02 a       779     0    39     1    19
  1.6329524218381106E-01 a       780     0    39     1    20
 -8.3725144228810819E-02 a       781     0    40     1     1
  1.0751806110221532E-01 a       782     0    40     1     2
  5.7007667844064067E-02 a       783     0    40     1     3
 -1.0929708829945106E-01 a       784     0    40     1     4
 -1.4096585589456681E-01 a       785     0    40     1     5
 -4.1070312289315748E-03 a       786     0    40     1     6
 -9.0448787000698916E-02 a       787     0    40     1     7
  1.8045413615697423E-02 a       788     0    40     1     8
  1.5001879147412844E-01 a       789     0    40     1     9
  1.2454741905285480E-01 a       790     0    40     1    10
 -7.9992827024678415E-02 a       791     0    40     1    11
 -8.7938090637864175E-02 a       792     0    40     1    12
  1.3250398036299821E-01 a       793     0    40     1    13
 -1.5647057767022639E-02 a       794     0    40     1    14
 -6.6411973872172264E-02 a       795     0    40     1    15
 -2.9298770164135676E-02 a       796     0    40     1    16
  1.0310468964349122E-01 a       797     0    40     1    17
  1.4747110961215440E-01 a       798     0    40     1    18
 -3.4459515228664632E-02 a       799     0    40     1    19
 -1.6031091001352374E-02 a       800     0    40     1    20
  1.3032827883943490E-01 a       801     0    41     1     1
  9.8688101201721144E-04 a       802     0    41     1     2
  6.0504897354366457E-03 a       803     0    41     1     3
  5.2375212714419077E-02 a       804     0    41     1     4
  7.4859656320301282E-02 a       805     0    41     1     5
 -7.6065487818378842E-04 a       806     0    41     1     6
  6.8946571326399600E-02 a       807     0    41     1     7
  3.7896226373775814E-02 a       808     0    41     1     8
 -9.2783244165216633E-02 a       809     0    41     1     9
  4.9364084816668242E-02 a       810     0    41     1    10
  5.2343678792832186E-02 a       811     0    41     1    11
  1.1884271228335685E-01 a       812     0    41     1    12
  7.7316993219840022E-02 a       813     0    41     1    13
  1.1391674169185238E-01 a       814     0    41     1    14
 -7.5202902372903682E-02 a       815     0    41     1    15
  3.5135707762306806E-03 a       816     0    41     1    16
  4.5248786861285223E-02 a       817     0    41     1    17
 -5.7027294258320337E-02 a       818     0    41     1    18
  1.4132015066477047E-03 a       819     0    41     1    19
 -2.8470713391517990E-02 a       820     0    41     1    20
 -5.2033587283892804E-02 a       821     0    42     1     1
  1.6882263599432748E-01 a       822     0    42     1     2
  1.2102490911491219E-01 a       823     0    42     1     3
 -2.1498473239179104E-02 a       824     0    42     1     4
  3.0406884318025011E-02 a       825     0    42     1     5
 -2.8024155135162748E-02 a       826     0    42     1     6
 -1.3578471256960462E-01 a       827     0    42     1     7
 -2.3064189493487502E-01 a       828     0    42     1     8
 -2.3303798946820279E-02 a       829     0    42     1     9
  4.8148993398200550E-02 a       830     0    42     1    10
 -4.2507933571292768E-02 a       831     0    42     1    11
 -4.0311981232850666E-02 a       832     0    42     1    12
 -6.7319126072782842E-02 a       833     0    42     1    13
  2.3229311645172848E-01 a       834     0    42     1    14
  8.4307319178099027E-02 a       835     0    42     1    15
 -9.3548110801755461E-03 a       836     0    42     1    16
 -3.6484029084747772E-02 a       837     0    42     1    17
  2.6472884168882244E-02 a       838     0    42     1    18
  1.3512137502945653E-02 a       839     0    42     1    19
 -1.2558618229995858E-01 a       840     0    42     1    20
  8.9099020497133474E-02 a       841     0    43     1     1
  5.6453329281944055E-02 a       842     0    43     1     2
 -6.7003616885782047E-02 a       843     0    43     1     3
  7.1953371928408213E-02 a       844     0    43     1     4
  3.3796582914571535E-02 a       845     0    43     1     5
  5.1885106163214387E-02 a       846     0    43     1     6
 -7.9930420731460755E-02 a       847     0    43     1     7
  3.1787455956586816E-02 a       848     0    43     1     8
  1.5847659075171789E-02 a       849     0    43     1     9
  3.9681203691159322E-02 a       850     0    43     1    10
 -1.4017329660319586E-01 a       851     0    43     1    11
 -7.7842234058404777E-02 a       852     0    43     1    12
 -3.3244513670190642E-02 a       853     0    43     1    13
 -1.8415671794229949E-01 a       854     0    43     1    14
  1.0967175792866012E-01 a       855     0    43     1    15
 -3.9564573665891105E-02 a       856     0    43     1    16
  6.8026664378730589E-02 a       857     0    43     1    17
 -5.7871640629423814E-02 a       858     0    43     1    18
  1.0821382731650916E-01 a       859     0    43     1    19
 -1.6517830191958985E-01 a       860     0    43     1    20
 -6.0212362489527223E-02 a       861     0    44     1     1
 -7.4655866278022745E-02 a       862     0    44     1     2
  3.3637817923998697E-02 a       863     0    44     1     3
 -1.9788238296598346E-01 a       864     0    44     1     4
  6.6556138252398991E-02 a       865     0    44     1     5
 -1.1183136872877758E-02 a       866     0    44     1     6
  5.8234077195565677E-02 a       867     0    44     1     7
 -1.3541928799045511E-01 a       868     0    44     1     8
  6.8836218565935955E-02 a       869     0    44     1     9
 -3.9508358777890197E-02 a       870     0    44     1    10
  6.4026535465439627E-02 a       871     0    44     1    11
  9.5483758129898871E-02 a       872     0    44     1    12
 -9.6876143065761991E-02 a       873     0    44     1    13
  3.6019236745417092E-02 a       874     0    44     1    14
 -6.9485150564213921E-02 a       875     0    44     1    15
 -2.2636124325144953E-02 a       876     0    44     1    16
  7.1442862090032491E-02 a       877     0    44     1    17
  1.8420238693106791E-01 a       878     0    44     1    18
  2.5268000322455169E-02 a       879     0    44     1    19
  1.9198489670867339E-03 a       880     0    44     1    20
  1.1964101984199077E-01 a       881     0    45     1     1
 -4.7643029119660526E-04 a       882     0    45     1     2
 -6.5267880163154393E-02 a       883     0    45     1     3
  1.0844865185958759E-01 a       884     0    45     1     4
  1.2481740470799178E-01 a       885     0    45     1     5
 -1.4935323343063859E-02 a       886     0    45     1     6
  6.6642544957247835E-02 a       887     0    45     1     7
 -7.9839030824896406E-02 a       888     0    45     1     8
 -8.1095009655116845E-02 a       889     0    45     1     9
 -8.6329583039482419E-02 a       890     0    45     1    10
  4.4947835771594093E-02 a       891     0    45     1    11
  5.0595095819904691E-03 a       892     0    45     1    12
  7.5444496360166534E-03 a       893     0    45     1    13
  1.7956841284305558E-01 a       894     0    45     1    14
 -3.6675695707608859E-03 a       895     0    45     1    15
  4.5509667640451459E-02 a       896     0    45     1    16
  1.4052808747406587E-01 a       897     0    45     1    17
 -8.8702480584059357E-02 a       898     0    45     1    18
  1.1485185422667810E-01 a       899     0    45     1    19
 -1.1090533642173747E-01 a       900     0    45     1    20
 -4.0498270518849806E-02 a       901     0    46     1     1
  3.9195924747232193E-02 a       902     0    46     1     2
  6.0264486928659995E-02 a       903     0    46     1     3
 -1.0785048766146145E-01 a       904     0    46     1     4
  1.9924487375380137E-01 a       905     0    46     1     5
  1.9203229558755770E-02 a       906     0    46     1     6
 -4.0146701587648013E-02 a       907     0    46     1     7
  6.5675121182565452E-02 a       908     0    46     1     8
 -5.3474214261047343E-02 a       909     0    46     1     9
 -6.6719614412042702E-02 a       910     0    46     1    10
 -1.6213096351299163E-02 a       911     0    46     1    11
 -1.1233414422326100E-01 a       912     0    46     1    12
 -5.3122729258736040E-02 a       913     0    46     1    13
  2.2295748013198544E-02 a       914     0    46     1    14
 -3.1041576077912528E-02 a       915     0    46     1    15
 -4.2808134285124234E-02 a       916     0    46     1    16
 -9.5715580041414075E-02 a       917     0    46     1    17
 -3.6205824932344741E-02 a       918     0    46     1    18
  6.8276679443360980E-02 a       919     0    46     1    19
  4.2724899988392365E-02 a       920     0    46     1    20
  7.9108484402994811E-02 a       921     0    47     1     1
 -3.2909970174140366E-02 a       922     0    47     1     2
 -7.2665002422960742E-02 a       923     0    47     1     3
  3.2708991217042472E-03 a       924     0    47     1     4
  2.5151686564142618E-02 a       925     0    47     1     5
  6.6685050598490267E-03 a       926     0    47     1     6
  3.2821119064835924E-02 a       927     0    47     1     7
  1.8811792218884241E-02 a       928     0    47     1     8
  3.4883593304009038E-02 a       929     0    47     1     9
 -5.1573523223163525E-02 a       930     0    47     1    10
 -4.2277827725281649E-03 a       931     0    47     1    11
  6.4490350118211109E-02 a       932     0    47     1    12
  1.8831997480847514E-02 a       933     0    47     1    13
 -1.9076477006502246E-01 a       934     0    47     1    14
 -1.6142220729755471E-03 a       935     0    47     1    15
  2.4966665870822841E-03 a       936     0    47     1    16
  1.5238113427046310E-01 a       937     0    47     1    17
  9.4436873553500403E-02 a       938     0    47     1    18
 -9.4085258166389275E-03 a       939     0    47     1    19
  5.4266003407126492E-02 a       940     0    47     1    20
 -1.0812546284067791E-01 a       941     0    48     1     1
  4.1758577159214549E-02 a       942     0    48     1     2
  5.0152317236609074E-02 a       943     0    48     1     3
 -2.2746655424051153E-02 a       944     0    48     1     4
 -4.5793968539256547E-02 a       945     0    48     1     5
 -5.6571070416441362E-02 a       946     0    48     1     6
 -1.7092052989341078E-02 a       947     0    48     1     7
  3.0903487279093207E-02 a       948     0    48     1     8
 -1.0527621482538464E-01 a       949     0    48     1     9
  2.5473354011211240E-02 a       950     0    48     1    10
  7.3935271571731215E-02 a       951     0    48     1    11
 -4.3183541206549214E-02 a       952     0    48     1    12
  1.4460587914343835E-02 a       953     0    48     1    13
 -2.6138122175199906E-02 a       954     0    48     1    14
  7.8491910057432914E-03 a       955     0    48     1    15
  3.5629219812300092E-02 a       956     0    48     1    16
 -2.0679278032857146E-02 a       957     0    48     1    17
  1.3935027917258697E-01 a       958     0    48     1    18
 -1.9130679812422899E-01 a       959     0    48     1    19
 -4.7064123841366268E-02 a       960     0    48     1    20
  4.8301933144961687E-02 a       961     0    49     1     1
  4.2591035514813039E-02 a       962     0    49     1     2
 -7.0242271853915794E-02 a       963     0    49     1     3
  7.7716106469338436E-02 a       964     0    49     1     4
  4.2271361424456498E-02 a       965     0    49     1     5
  4.2006422116015142E-03 a       966     0    49     1     6
 -3.3048099436830264E-02 a       967     0    49     1     7
  6.4196873171991617E-02 a       968     0    49     1     8
  7.3601571281215500E-02 a       969     0    49     1     9
 -1.5170626022421606E-02 a       970     0    49     1    10
 -3.1065693782801346E-02 a       971     0    49     1    11
 -5.2871072106345195E-02 a       972     0    49     1    12
  1.1650072357559399E-01 a       973     0    49     1    13
 -7.0815218821283291E-02 a       974     0    49     1    14
  3.6540213912143731E-02 a       975     0    49     1    15
  9.1876350298677328E-03 a       976     0    49     1    16
  3.0418977104776004E-02 a       977     0    49     1    17
 -7.1948567492331320E-02 a       978     0    49     1    18
  2.3231171293703029E-02 a       979     0    49     1    19
  5.0468688435076077E-02 a       980     0    49     1    20
 -6.3232280397150953E-02 a       981     0    50     1     1
  4.5708658792518723E-02 a       982     0    50     1     2
  6.2021325056837516E-02 a       983     0    50     1     3
 -1.0159358226228195E-01 a       984     0    50     1     4
 -9.9932229402975980E-03 a       985     0    50     1     5
 -3.0174841592401542E-02 a       986     0    50     1     6
 -7.1711115077970095E-02 a       987     0    50     1     7
  3.9949198075422958E-02 a       988     0    50     1     8
 -5.3423722777051416E-02 a       989     0    50     1     9
  3.5118740781547926E-02 a       990     0    50     1    10
 -4.8535482358735817E-02 a       991     0    50     1    11
  2.4142078639613276E-02 a       992     0    50     1    12
 -2.8919584136882136E-02 a       993     0    50     1    13
 -1.4370357302458223E-01 a       994     0    50     1    14
 -3.5458666332393488E-02 a       995     0    50     1    15
 -2.0801878095478808E-02 a       996     0    50     1    16
  7.1102631498040870E-03 a       997     0    50     1    17
  1.5171400322259310E-01 a       998     0    50     1    18
 -1.6074919263072493E-01 a       999     0    50     1    19
 -6.4042206952521904E-03 a      1000     0    50     1    20
  3.6970459358470614E-01 a      1001     0    51     1     1
 -2.2565194558069157E-01 a      1002     0    51     1     2
  9.5418288797960188E-02 a      1003     0    51     1     3
 -1.6348857891817678E-01 a      1004     0    51     1     4
  1.5591731019922667E-01 a      1005     0    51     1     5
  1.4558523095035103E-02 a      1006     0    51     1     6
  3.9412988535520660E-01 a      1007     0    51     1     7
  1.0543709307295204E-01 a      1008     0    51     1     8
  2.8366683094237416E-01 a      1009     0    51     1     9
  3.3129575922364631E-02 a      1010     0    51     1    10
  1.2239452858291265E-01 a      1011     0    51     1    11
  2.2402974438583287E-01 a      1012     0    51     1    12
 -1.6291173503768730E-01 a      1013     0    51     1    13
  6.8892076372370666E-03 a      1014     0    51     1    14
  2.6037100652827561E-01 a      1015     0    51     1    15
 -2.3855220156454396E-01 a      1016     0    51     1    16
  8.1937794703102418E-02 a      1017     0    51     1    17
  8.5880793293278107E-02 a      1018     0    51     1    18
 -3.7963285618757109E-01 a      1019     0    51     1    19
  1.3976333019970089E-01 a      1020     0    51     1    20
 -5.5781786288448848E-02 a      1021     0    52     1     1
  1.9043228390452757E-01 a      1022     0    52     1     2
  1.0105618357918819E-01 a      1023     0    52     1     3
 -2.9048700435568930E-01 a      1024     0    52     1     4
 -1.1823112893768640E-03 a      1025     0    52     1     5
 -2.0390310251705304E-01 a      1026     0    52     1     6
  1.5300483941276122E-01 a      1027     0    52     1     7
  1.1942723446868814E-01 a      1028     0    52     1     8
  4.4069559431492419E-02 a      1029     0    52     1     9
  3.8947611948002749E-03 a      1030     0    52     1    10
  1.2545316169802836E-01 a      1031     0    52     1    11
 -1.0165761614198374E-01 a      1032     0    52     1    12
  1.5551977856168267E-01 a      1033     0    52     1    13
  7.1999237431864564E-03 a      1034     0    52     1    14
  3.5191773684203648E-02 a      1035     0    52     1    15
  9.7446146602947689E-02 a      1036     0    52     1    16
  1.2127634263875918E-01 a      1037     0    52     1    17
  2.5012745703823388E-02 a      1038     0    52     1    18
  1.3860834209931354E-02 a      1039     0    52     1    19
 -8.3930933907306840E-02 a      1040     0    52     1    20
 -3.3159539367552582E-01 a      1041     0    53     1     1
  6.4088999131031532E-01 a      1042     0    53     1     2
  3.1243088168946559E-01 a      1043     0    53     1     3
 -4.1795905420604762E-01 a      1044     0    53     1     4
 -2.0727513437795075E-01 a      1045     0    53     1     5
 -1.8277222010832214E-01 a      1046     0    53     1     6
 -3.8860767685559738E-01 a      1047     0    53     1     7
 -7.1974611603652941E-02 a      1048     0    53     1     8
 -1.0799004304968605E-02 a      1049     0    53     1     9
 -1.0923394284215894E-01 a      1050     0    53     1    10
 -2.3070703262352990E-01 a      1051     0    53     1    11
  1.5888727863203504E-02 a      1052     0    53     1    12
 -2.3906718135706956E-01 a      1053     0    53     1    13
  1.7207024026277548E-01 a      1054     0    53     1    14
 -6.9076385181229438E-01 a      1055     0    53     1    15
  1.6996577146406125E-01 a      1056     0    53     1    16
 -1.9576427299050511E-01 a      1057     0    53     1    17
  4.3469784837860154E-01 a      1058     0    53     1    18
  7.4885385517642719E-02 a      1059     0    53     1    19
 -3.0992897738276215E-01 a      1060     0    53     1    20
 -2.2278023742168571E-02 a      1061     0    54     1     1
  1.3055371954679656E-01 a      1062     0    54     1     2
 -4.8270948382751484E-02 a      1063     0    54     1     3
  4.5414990769751251E-02 a      1064     0    54     1     4
  1.4027616851769151E-01 a      1065     0    54     1     5
  1.6548931836450342E-01 a      1066     0    54     1     6
 -1.4952009245265502E-01 a      1067     0    54     1     7
  1.7019125337693825E-01 a      1068     0    54     1     8
 -1.7503394862465618E-01 a      1069     0    54     1     9
 -1.4538229001530245E-01 a      1070     0    54     1    10
 -3.7045277169209601E-01 a      1071     0    54     1    11
 -1.5580277528122272E-01 a      1072     0    54     1    12
 -1.1801486949237716E-01 a      1073     0    54     1    13
  2.8431835391957133E-01 a      1074     0    54     1    14
  7.4910485517411973E-02 a      1075     0    54     1    15
 -7.6734447555388025E-02 a      1076     0    54     1    16
 -2.4495686025589349E-02 a      1077     0    54     1    17
 -3.9031429581651164E-02 a      1078     0    54     1    18
  9.9324136023222154E-02 a      1079     0    54     1    19
 -1.1913131075201074E-01 a      1080     0    54     1    20
 -1.4843234557913393E-01 a      1081     0    55     1     1
 -1.0711983894465346E-01 a      1082     0    55     1     2
  1.2094858770751625E-01 a      1083     0    55     1     3
 -7.0796331199103307E-02 a      1084     0    55     1     4
 -1.5427302387451786E-02 a      1085     0    55     1     5
  1.3934247970968807E-02 a      1086     0    55     1     6
  5.0983609643135600E-02 a      1087     0    55     1     7
 -2.0879249416627138E-01 a      1088     0    55     1     8
  2.1398797129890074E-01 a      1089     0    55     1     9
  7.0938833193781942E-02 a      1090     0    55     1    10
 -1.3063593619425609E-01 a      1091     0    55     1    11
  2.0004366339188351E-01 a      1092     0    55     1    12
  1.2294001675525668E-01 a      1093     0    55     1    13
 -2.0089050854590233E-02 a      1094     0    55     1    14
 -1.7291312385184082E-01 a      1095     0    55     1    15
 -5.0167590579093722E-02 a      1096     0    55     1    16
 -1.1574154039166307E-01 a      1097     0    55     1    17
  7.1014843822972448E-02 a      1098     0    55     1    18
  1.5584175587013807E-01 a      1099     0    55     1    19
  1.0351397151046812E-01 a      1100     0    55     1    20
 -7.2502537459111283E-02 a      1101     0    56     1     1
  1.4838125492844573E-01 a      1102     0    56     1     2
  3.5333261808284153E-02 a      1103     0    56     1     3
  4.0894778286533776E-02 a      1104     0    56     1     4
 -1.3747361559089191E-01 a      1105     0    56     1     5
 -7.4085436102902275E-02 a      1106     0    56     1     6
 -4.8468795326126600E-02 a      1107     0    56     1     7
 -1.2066724334733447E-01 a      1108     0    56     1     8
  1.5218197387895219E-01 a      1109     0    56     1     9
 -1.6770595586824458E-01 a      1110     0    56     1    10
  1.5082066067103142E-01 a      1111     0    56     1    11
  4.8879061375717889E-02 a      1112     0    56     1    12
  1.4102907350444141E-01 a      1113     0    56     1    13
  1.7837971068532535E-01 a      1114     0    56     1    14
 -1.3235595688060739E-01 a      1115     0    56     1    15
 -1.9226500078561387E-02 a      1116     0    56     1    16
  1.2708523285060310E-02 a      1117     0    56     1    17
 -5.2039544680419396E-03 a      1118     0    56     1    18
 -6.3745868670765732E-02 a      1119     0    56     1    19
  6.3470022841428470E-02 a      1120     0    56     1    20
 -2.1183000042393879E-01 a      1121     0    57     1     1
 -7.4610754368944793E-02 a      1122     0    57     1     2
 -2.5410003985811624E-01 a      1123     0    57     1     3
 -3.4901022991792358E-01 a      1124     0    57     1     4
  3.8033051722763285E-02 a      1125     0    57     1     5
  9.7016004643918824E-02 a      1126     0    57     1     6
 -3.1889770203284422E-02 a      1127     0    57     1     7
  1.8137164234958528E-01 a      1128     0    57     1     8
  2.0546381830306381E-03 a      1129     0    57     1     9
 -3.5159747139645321E-02 a      1130     0    57     1    10
  2.1242158024865279E-01 a      1131     0    57     1    11
 -5.1257679294913303E-02 a      1132     0    57     1    12
 -3.2025237177663690E-01 a      1133     0    57     1    13
  1.9784201393853348E-01 a      1134     0    57     1    14
 -7.7158266454046109E-02 a      1135     0    57     1    15
  6.8568519805755263E-02 a      1136     0    57     1    16
  7.9212629288955463E-02 a      1137     0    57     1    17
 -2.8738118712705046E-01 a      1138     0    57     1    18
 -5.2059941388357477E-02 a      1139     0    57     1    19
 -2.3180249199435586E-02 a      1140     0    57     1    20
 -1.8280815027251354E-01 a      1141     0    58     1     1
  6.8605889199951961E-02 a      1142     0    58     1     2
  9.0776943602248805E-02 a      1143     0    58     1     3
 -4.2402387993683927E-01 a      1144     0    58     1     4
  2.1332520861243345E-01 a      1145     0    58     1     5
 -7.9780865141998933E-02 a      1146     0    58     1     6
 -5.0213364407585351E-02 a      1147     0    58     1     7
  1.1294271082603208E-01 a      1148     0    58     1     8
 -1.3319603452614528E-02 a      1149     0    58     1     9
 -1.0622994534425452E-01 a      1150     0    58     1    10
  1.2545297770214101E-01 a      1151     0    58     1    11
 -7.9321403247072764E-02 a      1152     0    58     1    12
  3.7362714679461471E-02 a      1153     0    58     1    13
  7.0252270504693570E-02 a      1154     0    58     1    14
 -2.5936743060416168E-01 a      1155     0    58     1    15
 -1.9931369323245938E-02 a      1156     0    58     1    16
 -2.1297246718162138E-01 a      1157     0    58     1    17
  8.3651114511500025E-03 a      1158     0    58     1    18
 -1.3198533338498469E-01 a      1159     0    58     1    19
 -1.6367375605324705E-01 a      1160     0    58     1    20
  7.3872809492429678E-02 a      1161     0    59     1     1
  8.9545394575074211E-02 a      1162     0    59     1     2
 -3.6067970334237226E-02 a      1163     0    59     1     3
  4.7248376002898086E-02 a      1164     0    59     1     4
  9.3380517533275240E-02 a      1165     0    59     1     5
 -9.3990193035090222E-02 a      1166     0    59     1     6
  1.8416712992960615E-02 a      1167     0    59     1     7
 -8.7624978286597738E-02 a      1168     0    59     1     8
  1.7990323847611986E-01 a      1169     0    59     1     9
 -2.4129583757053059E-02 a      1170     0    59     1    10
 -1.6031565062095868E-01 a      1171     0    59     1    11
  8.6369670765831533E-02 a      1172     0    59     1    12
  9.0752625325635286E-02 a      1173     0    59     1    13
  1.7283872408022319E-01 a      1174     0    59     1    14
 -1.3698622304014782E-01 a      1175     0    59     1    15
 -1.1300484676466764E-01 a      1176     0    59     1    16
 -2.0454536016617758E-01 a      1177     0    59     1    17
 -6.6040891546277986E-02 a      1178     0    59     1    18
  2.3788439933292372E-02 a      1179     0    59     1    19
  9.6726566820881904E-02 a      1180     0    59     1    20
 -9.5606519365528136E-02 a      1181     0    60     1     1
  2.7930599006793577E-02 a      1182     0    60     1     2
  4.1998518514569060E-02 a      1183     0    60     1     3
  7.3436649267242027E-02 a      1184     0    60     1     4
  3.3711776244716235E-01 a      1185     0    60     1     5
  1.0286089636486848E-01 a      1186     0    60     1     6
  3.9294046209916905E-01 a      1187     0    60     1     7
  2.2731154666113298E-01 a      1188     0    60     1     8
  2.4383468461738886E-01 a      1189     0    60     1     9
  7.2922925247875678E-02 a      1190     0    60     1    10
  1.1928240483115075E-01 a      1191     0    60     1    11
  2.2638239332217727E-03 a      1192     0    60     1    12
  1.4617460169660360E-01 a      1193     0    60     1    13
  1.8389882096218366E-01 a      1194     0    60     1    14
  3.7611767777341504E-01 a      1195     0    60     1    15
  8.3161177895498262E-02 a      1196     0    60     1    16
 -8.1406989798477394E-02 a      1197     0    60     1    17
 -1.7163092625240833E-01 a      1198     0    60     1    18
  2.7370221785689378E-02 a      1199     0    60     1    19
 -1.2967542030039686E-01 a      1200     0    60     1    20
 -7.7981493544460226E-02 a      1201     0    61     1     1
  1.7169858676139387E-02 a      1202     0    61     1     2
 -1.4970394760076364E-02 a      1203     0    61     1     3
  4.3787581762555247E-02 a      1204     0    61     1     4
 -4.6102560703521797E-02 a      1205     0    61     1     5
  1.3347474153146095E-02 a      1206     0    61     1     6
  8.2746330876859041E-04 a      1207     0    61     1     7
  1.2494890625083212E-02 a      1208     0    61     1     8
 -2.0320144227139733E-01 a      1209     0    61     1     9
 -1.1048843989668647E-01 a      1210     0    61     1    10
 -4.0912230932280587E-02 a      1211     0    61     1    11
 -1.3710698837944665E-01 a      1212     0    61     1    12
 -1.2096054904624964E-01 a      1213     0    61     1    13
 -9.4161758046712642E-03 a      1214     0    61     1    14
  9.8267309926470939E-02 a      1215     0    61     1    15
  4.0519628517882614E-02 a      1216     0    61     1    16
 -2.2646856034571183E-01 a      1217     0    61     1    17
  1.2040000490388235E-01 a      1218     0    61     1    18
 -2.4593021722079195E-01 a      1219     0    61     1    19
 -3.7120759293545608E-02 a      1220     0    61     1    20
 -8.1610873990673877E-03 a      1221     0    62     1     1
 -7.7210742110108033E-02 a      1222     0    62     1     2
  8.2150655730675218E-02 a      1223     0    62     1     3
 -2.8323031632233080E-02 a      1224     0    62     1     4
  5.3749733077191428E-02 a      1225     0    62     1     5
 -1.1778245466616278E-02 a      1226     0    62     1     6
  1.7283502880570758E-02 a      1227     0    62     1     7
 -1.1036373888039026E-02 a      1228     0    62     1     8
 -7.1746322802717866E-02 a      1229     0    62     1     9
 -4.2283045057961786E-02 a      1230     0    62     1    10
 -1.8566195458736542E-01 a      1231     0    62     1    11
  6.7854043621214624E-02 a      1232     0    62     1    12
 -8.0535974299755717E-02 a      1233     0    62     1    13
 -3.2990443562982277E-05 a      1234     0    62     1    14
 -1.1820034926537761E-01 a      1235     0    62     1    15
 -7.8976873561952107E-04 a      1236     0    62     1    16
 -6.4848167561455368E-03 a      1237     0    62     1    17
 -1.9386183864312861E-01 a      1238     0    62     1    18
 -1.9298664822794770E-02 a      1239     0    62     1    19
 -1.4092680732539498E-02 a      1240     0    62     1    20
 -3.8394948732549616E-02 a      1241     0    63     1     1
  6.7486258592150683E-02 a      1242     0    63     1     2
  8.5933768838919473E-03 a      1243     0    63     1     3
 -1.3362072109309270E-01 a      1244     0    63     1     4
  3.2403498048048054E-02 a      1245     0    63     1     5
  1.3082613417886943E-01 a      1246     0    63     1     6
  6.1936845347879008E-02 a      1247     0    63     1     7
  1.1743896948485712E-01 a      1248     0    63     1     8
 -3.2375012992140441E-02 a      1249     0    63     1     9
  3.8669684324447186E-03 a      1250     0    63     1    10
 -8.8173845025320882E-03 a      1251     0    63     1    11
 -7.1684568395645965E-02 a      1252     0    63     1    12
  4.2807898620154008E-02 a      1253     0    63     1    13
 -1.5718186847792076E-01 a      1254     0    63     1    14
 -1.1224427731513142E-01 a      1255     0    63     1    15
 -6.9905879799271750E-02 a      1256     0    63     1    16
  7.1063956758845220E-02 a      1257     0    63     1    17
  2.1226416496097467E-02 a      1258     0    63     1    18
  6.7237919471788268E-02 a      1259     0    63     1    19
  1.6899764408026641E-01 a      1260     0    63     1    20
  1.1391314328828386E-01 a      1261     0    64     1     1
  6.7987653447419721E-02 a      1262     0    64     1     2
  1.2254801593119816E-01 a      1263     0    64     1     3
 -9.6902927641041803E-02 a      1264     0    64     1     4
  7.1631381577180284E-02 a      1265     0    64     1     5
  4.5094146510636784E-02 a      1266     0    64     1     6
  9.0071757554992901E-02 a      1267     0    64     1     7
 -2.4650866702167904E-04 a      1268     0    64     1     8
 -7.9956332358440727E-02 a      1269     0    64     1     9
 -3.5631728090069141E-02 a      1270     0    64     1    10
  2.6512961361328281E-02 a      1271     0    64     1    11
 -6.3458998794486784E-02 a      1272     0    64     1    12
  1.9593194115064088E-02 a      1273     0    64     1    13
  1.3154918382584999E-01 a      1274     0    64     1    14
 -1.0884354943473294E-01 a      1275     0    64     1    15
 -1.8391956231554846E-02 a      1276     0    64     1    16
 -9.5048273716931100E-02 a      1277     0    64     1    17
 -7.7288171301358122E-02 a      1278     0    64     1    18
  1.7527580499853923E-01 a      1279     0    64     1    19
  1.2193601152334647E-01 a      1280     0    64     1    20
 -8.8982353622164376E-02 a      1281     0    65     1     1
 -7.9005402132737421E-02 a      1282     0    65     1     2
 -4.0749466854414419E-02 a      1283     0    65     1     3
 -1.6658874248429140E-01 a      1284     0    65     1     4
  5.8943140397614724E-02 a      1285     0    65     1     5
 -1.4893005757549666E-02 a      1286     0    65     1     6
  1.6571064303305752E-02 a      1287     0    65     1     7
  7.8577485830848032E-02 a      1288     0    65     1     8
 -1.4123305647694265E-01 a      1289     0    65     1     9
 -2.8810288402072955E-02 a      1290     0    65     1    10
 -1.5334714822860546E-01 a      1291     0    65     1    11
  9.4311520633166376E-02 a      1292     0    65     1    12
 -1.0650535834341891E-01 a      1293     0    65     1    13
 -1.5391225814014134E-01 a      1294     0    65     1    14
  3.5166503445875560E-02 a      1295     0    65     1    15
  6.5591873760215630E-03 a      1296     0    65     1    16
 -3.2436318792346978E-02 a      1297     0    65     1    17
 -6.0992369701320638E-02 a      1298     0    65     1    18
  4.1446043933271427E-02 a      1299     0    65     1    19
  3.6765968450572825E-02 a      1300     0    65     1    20
 -2.1666432459308319E-01 a      1301     0    66     1     1
  1.8558161671232684E-01 a      1302     0    66     1     2
 -1.5205855721463063E-01 a      1303     0    66     1     3
 -6.8424949335901569E-02 a      1304     0    66     1     4
 -1.6099934851926220E-01 a      1305     0    66     1     5
  8.5247626737552165E-02 a      1306     0    66     1     6
 -3.2554472793955336E-01 a      1307     0    66     1     7
  3.6957653666175133E-01 a      1308     0    66     1     8
 -4.0549317595899320E-01 a      1309     0    66     1     9
 -1.8315878846550068E-01 a      1310     0    66     1    10
 -2.9801123253137024E-01 a      1311     0    66     1    11
  5.6772681563904623E-03 a      1312     0    66     1    12
  1.6870224767899489E-01 a      1313     0    66     1    13
 -1.3625810950303677E-01 a      1314     0    66     1    14
 -2.6118593390744410E-01 a      1315     0    66     1    15
 -3.9674452825635254E-02 a      1316     0    66     1    16
  4.1786675617286280E-02 a      1317     0    66     1    17
  3.5347600592891232E-01 a      1318     0    66     1    18
  4.8917912475859582E-01 a      1319     0    66     1    19
 -3.7725494283601613E-02 a      1320     0    66     1    20
 -1.2524944010295874E-01 a      1321     0    67     1     1
  2.2104027189724912E-01 a      1322     0    67     1     2
 -2.0917752252886532E-02 a      1323     0    67     1     3
 -1.4257499460041767E-02 a      1324     0    67     1     4
 -1.3266731833065359E-01 a      1325     0    67     1     5
 -9.3407130958933215E-02 a      1326     0    67     1     6
 -6.1328173438071933E-02 a      1327     0    67     1     7
 -1.8818205758413203E-01 a      1328     0    67     1     8
  3.1592355479894182E-02 a      1329     0    67     1     9
 -1.3707731409038543E-01 a      1330     0    67     1    10
  8.4159875063662071E-02 a      1331     0    67     1    11
 -1.0100465374335450E-01 a      1332     0    67     1    12
  3.2531446086601086E-02 a      1333     0    67     1    13
 -3.3261662831855117E-02 a      1334     0    67     1    14
 -9.9625827364476643E-02 a      1335     0    67     1    15
 -1.1947926327516901E-01 a      1336     0    67     1    16
 -3.9447937340723382E-02 a      1337     0    67     1    17
  2.0401409311237639E-01 a      1338     0    67     1    18
  2.5781963275225230E-02 a      1339     0    67     1    19
  3.4811754559075070E-01 a      1340     0    67     1    20
 -9.2082459280323672E-02 a      1341     0    68     1     1
 -1.0479014410623194E-01 a      1342     0    68     1     2
 -4.0543478733556147E-02 a      1343     0    68     1     3
  2.6538332494331122E-02 a      1344     0    68     1     4
 -1.6250934521712274E-01 a      1345     0    68     1     5
  1.0734678722715497E-01 a      1346     0    68     1     6
  4.2174368266156070E-01 a      1347     0    68     1     7
  7.1291501148216543E-02 a      1348     0    68     1     8
  2.0712388334532661E-01 a      1349     0    68     1     9
  3.3028573594208249E-01 a      1350     0    68     1    10
  1.3947671454120786E-01 a      1351     0    68     1    11
  1.8157859990483252E-01 a      1352     0    68     1    12
  1.8153917805845429E-01 a      1353     0    68     1    13
  1.9244466959453196E-01 a      1354     0    68     1    14
  5.4484896503982039E-01 a      1355     0    68     1    15
  1.0940884670767888E-01 a      1356     0    68     1    16
  8.9005113083668666E-02 a      1357     0    68     1    17
 -6.1533098564737776E-01 a      1358     0    68     1    18
 -1.7404390313092724E-01 a      1359     0    68     1    19
  1.7728977168089052E-01 a      1360     0    68     1    20
 -7.0088340668979746E-02 a      1361     0    69     1     1
 -1.4633587901926001E-01 a      1362     0    69     1     2
  7.7556081412037681E-02 a      1363     0    69     1     3
 -1.2409858919259339E-01 a      1364     0    69     1     4
 -9.9012247928457087E-02 a      1365     0    69     1     5
 -8.2853639384680960E-02 a      1366     0    69     1     6
  1.5408758981588089E-01 a      1367     0    69     1     7
 -2.5065320583142259E-01 a      1368     0    69     1     8
  1.3767387773427725E-01 a      1369     0    69     1     9
 -5.7500162205446806E-02 a      1370     0    69     1    10
  2.6152356342274508E-01 a      1371     0    69     1    11
 -5.9729369057911028E-02 a      1372     0    69     1    12
 -1.1065210922321066E-01 a      1373     0    69     1    13
 -2.1385944689466405E-01 a      1374     0    69     1    14
 -1.2885483214190105E-01 a      1375     0    69     1    15
  4.9270570603420306E-02 a      1376     0    69     1    16
  2.4593767796056215E-01 a      1377     0    69     1    17
  6.4791895096389135E-02 a      1378     0    69     1    18
  6.2720166532433785E-02 a      1379     0    69     1    19
  9.4689929360388420E-02 a      1380     0    69     1    20
  1.9443395271928043E-01 a      1381     0    70     1     1
 -2.2055445095108178E-02 a      1382     0    70     1     2
  1.2927135232962758E-01 a      1383     0    70     1     3
  1.4930190938800464E-01 a      1384     0    70     1     4
  1.1517266848948058E-02 a      1385     0    70     1     5
  3.5092324086002186E-02 a      1386     0    70     1     6
  1.8643688056411100E-02 a      1387     0    70     1     7
 -2.8841861319041422E-02 a      1388     0    70     1     8
  6.7182353033292772E-02 a      1389     0    70     1     9
  3.3219177079125903E-02 a      1390     0    70     1    10
  1.4639217141217784E-01 a      1391     0    70     1    11
  4.0384240023980861E-02 a      1392     0    70     1    12
 -5.8299711383296350E-02 a      1393     0    70     1    13
  1.6528212664625576E-04 a      1394     0    70     1    14
  1.5573935389128424E-01 a      1395     0    70     1    15
  4.2372972622070709E-02 a      1396     0    70     1    16
  8.3814358461355043E-02 a      1397     0    70     1    17
 -3.6218709725402996E-02 a      1398     0    70     1    18
 -2.9876690016829144E-01 a      1399     0    70     1    19
  2.7475721769573812E-02 a      1400     0    70     1    20
  1.0586706666251847E-01 a      1401     0    71     1     1
  9.9832283922098915E-03 a      1402     0    71     1     2
 -1.7895257240660062E-01 a      1403     0    71     1     3
  1.0568019135374740E-01 a      1404     0    71     1     4
 -5.7136640430064146E-02 a      1405     0    71     1     5
 -1.9713819979991590E-01 a      1406     0    71     1     6
 -7.9061996282816738E-02 a      1407     0    71     1     7
  1.5218116035303342E-02 a      1408     0    71     1     8
  1.4730833622859099E-01 a      1409     0    71     1     9
  1.2784392928843688E-01 a      1410     0    71     1    10
 -2.2808461317036841E-01 a      1411     0    71     1    11
 -9.1052456498822654E-02 a      1412     0    71     1    12
 -2.0756140476774442E-02 a      1413     0    71     1    13
  8.9582898518508168E-03 a      1414     0    71     1    14
  1.3759348911565217E-01 a      1415     0    71     1    15
 -7.1193777635208691E-02 a      1416     0    71     1    16
 -8.6323947192418871E-02 a      1417     0    71     1    17
 -2.3046182015393712E-01 a      1418     0    71     1    18
 -2.1768436008643794E-03 a      1419     0    71     1    19
  1.5331942313943839E-01 a      1420     0    71     1    20
 -2.5557294652650143E-02 a      1421     0    72     1     1
 -9.6756771150705023E-02 a      1422     0    72     1     2
 -2.1874284441410441E-01 a      1423     0    72     1     3
  6.5932780517521843E-03 a      1424     0    72     1     4
 -1.9930140506387783E-01 a      1425     0    72     1     5
 -2.2613794775294427E-01 a      1426     0    72     1     6
 -2.0324833085987884E-02 a      1427     0    72     1     7
  1.4634470563296909E-01 a      1428     0    72     1     8
  3.2928603835919862E-01 a      1429     0    72     1     9
  2.6935941326501089E-01 a      1430     0    72     1    10
  1.3502644169797570E-01 a      1431     0    72     1    11
 -1.0225186653443689E-01 a      1432     0    72     1    12
 -1.5035076147132854E-02 a      1433     0    72     1    13
  1.8691072465616781E-01 a      1434     0    72     1    14
  1.1061443106890523E-02 a      1435     0    72     1    15
 -1.8771991395298547E-03 a      1436     0    72     1    16
  2.3374521802567774E-01 a      1437     0    72     1    17
 -9.7989166917196072E-02 a      1438     0    72     1    18
 -1.6250382934916910E-01 a      1439     0    72     1    19
  1.0997135188525402E-01 a      1440     0    72     1    20
 -2.3175875003648311E-01 a      1441     0    73     1     1
 -1.0691020696797457E-01 a      1442     0    73     1     2
  4.3889796644687167E-02 a      1443     0    73     1     3
  9.9546748617224678E-03 a      1444     0    73     1     4
 -6.7118524966785109E-02 a      1445     0    73     1     5
 -8.3658294512351017E-02 a      1446     0    73     1     6
 -5.2567051437372551E-02 a      1447     0    73     1     7
 -7.7682227377877236E-02 a      1448     0    73     1     8
 -1.7065338803984528E-01 a      1449     0    73     1     9
 -9.0958434579476055E-02 a      1450     0    73     1    10
 -1.3189315125185117E-01 a      1451     0    73     1    11
 -1.1132296988751125E-01 a      1452     0    73     1    12
  3.1298536343512671E-02 a      1453     0    73     1    13
 -2.1219746175140053E-01 a      1454     0    73     1    14
  8.1384023158298346E-02 a      1455     0    73     1    15
  8.2584008448798821E-03 a      1456     0    73     1    16
  1.1933245416884623E-01 a      1457     0    73     1    17
  2.1620373479717389E-02 a      1458     0    73     1    18
 -1.1790064986434451E-01 a      1459     0    73     1    19
  1.5657450511703301E-02 a      1460     0    73     1    20
 -1.9470957408218631E-01 a      1461     0    74     1     1
  6.2884296791765118E-02 a      1462     0    74     1     2
  1.5856867686244083E-01 a      1463     0    74     1     3
  2.5482480577140771E-02 a      1464     0    74     1     4
 -1.3191182072139906E-01 a      1465     0    74     1     5
  2.0079666010139566E-02 a      1466     0    74     1     6
 -1.5221738594215981E-01 a      1467     0    74     1     7
  3.2305437670203982E-02 a      1468     0    74     1     8
  6.6159774367204036E-02 a      1469     0    74     1     9
  1.8091043556806127E-01 a      1470     0    74     1    10
 -7.5496060431591780E-02 a      1471     0    74     1    11
 -5.8764944004648843E-02 a      1472     0    74     1    12
 -1.6457166484574229E-01 a      1473     0    74     1    13
 -1.3917551335335959E-01 a      1474     0    74     1    14
 -1.3799121613100032E-01 a      1475     0    74     1    15
 -1.9347919559939638E-02 a      1476     0    74     1    16
 -3.8336220658911881E-02 a      1477     0    74     1    17
 -8.8992695338261901E-02 a      1478     0    74     1    18
  1.0470556254947706E-01 a      1479     0    74     1    19
 -1.7741587090105604E-01 a      1480     0    74     1    20
  2.3514194438554925E-01 a      1481     0    75     1     1
 -4.5596137979941415E-01 a      1482     0    75     1     2
 -5.1689018989519976E-02 a      1483     0    75     1     3
  1.8934605828352549E-01 a      1484     0    75     1     4
  6.3374526681644602E-02 a      1485     0    75     1     5
 -3.0679219755381792E-01 a      1486     0    75     1     6
 -6.1510948232264540E-01 a      1487     0    75     1     7
 -1.6639203403470221E-02 a      1488     0    75     1     8
  2.9002907869012007E-01 a      1489     0    75     1     9
  4.5865498839815985E-02 a      1490     0    75     1    10
  3.8928762410918825E-02 a      1491     0    75     1    11
 -3.9247253297187390E-01 a      1492     0    75     1    12
 -3.0251555384247671E-02 a      1493     0    75     1    13
  1.6722653432704657E-03 a      1494     0    75     1    14
 -1.1904101581212782E-01 a      1495     0    75     1    15
 -8.0524995878420991E-02 a      1496     0    75     1    16
  1.7643666382011114E-01 a      1497     0    75     1    17
  1.7821696289718436E-01 a      1498     0    75     1    18
 -2.4307968147057904E-01 a      1499     0    75     1    19
 -1.7125300471356872E-01 a      1500     0    75     1    20
  3.2032259991167322E-02 a      1501     0    76     1     1
  1.4742098948009186E-01 a      1502     0    76     1     2
 -1.1024514967661662E-02 a      1503     0    76     1     3
 -1.5448951352084137E-01 a      1504     0    76     1     4
  7.8095233090400118E-02 a      1505     0    76     1     5
 -1.1371073379401225E-01 a      1506     0    76     1     6
 -3.7747293391677261E-02 a      1507     0    76     1     7
  1.7292774691975703E-02 a      1508     0    76     1     8
 -1.5573785903609938E-01 a      1509     0    76     1     9
  1.2920952200795102E-01 a      1510     0    76     1    10
 -1.9930519404038990E-01 a      1511     0    76     1    11
  5.9523907976615237E-03 a      1512     0    76     1    12
 -1.1738314928539093E-01 a      1513     0    76     1    13
 -2.2082647568129846E-01 a      1514     0    76     1    14
 -9.2180241286232298E-02 a      1515     0    76     1    15
 -4.8040437329648182E-02 a      1516     0    76     1    16
  1.0824741189383384E-01 a      1517     0    76     1    17
 -4.9448157325010983E-02 a      1518     0    76     1    18
 -1.0750913645504832E-01 a      1519     0    76     1    19
  1.8440595158777620E-01 a      1520     0    76     1    20
 -1.0304048257030531E-01 a      1521     0    77     1     1
 -3.7300120170679872E-02 a      1522     0    77     1     2
  5.7051908439430974E-03 a      1523     0    77     1     3
  5.7978903163282740E-02 a      1524     0    77     1     4
  2.2378920063880588E-02 a      1525     0    77     1     5
 -1.5678387740711333E-01 a      1526     0    77     1     6
 -9.7942238027061826E-02 a      1527     0    77     1     7
  8.7854801734509547E-02 a      1528     0    77     1     8
  7.7569538440268732E-02 a      1529     0    77     1     9
  8.8057894004447940E-02 a      1530     0    77     1    10
  6.6878333159712561E-02 a      1531     0    77     1    11
 -3.5200391331160229E-02 a      1532     0    77     1    12
  3.7851841472562611E-02 a      1533     0    77     1    13
  9.5880323088144113E-03 a      1534     0    77     1    14
 -1.1227030981585591E-01 a      1535     0    77     1    15
  3.9051895609993434E-02 a      1536     0    77     1    16
  3.5931031693785871E-02 a      1537     0    77     1    17
 -1.7605283840968623E-03 a      1538     0    77     1    18
 -5.3126386455078736E-02 a      1539     0    77     1    19
 -1.9544662276977673E-01 a      1540     0    77     1    20
 -1.4319284202156751E-01 a      1541     0    78     1     1
 -1.6084434795875813E-01 a      1542     0    78     1     2
  6.5209675067032513E-02 a      1543     0    78     1     3
 -7.3503594076506834E-02 a      1544     0    78     1     4
  1.6298670963362449E-01 a      1545     0    78     1     5
 -2.9532414508089508E-02 a      1546     0    78     1     6
 -6.9442403876196504E-02 a      1547     0    78     1     7
 -1.8722632574172374E-01 a      1548     0    78     1     8
  1.7339347149838957E-01 a      1549     0    78     1     9
 -5.7430901554772200E-02 a      1550     0    78     1    10
 -1.2370338773484869E-01 a      1551     0    78     1    11
  4.0680505691052887E-02 a      1552     0    78     1    12
 -3.2508675861837845E-02 a      1553     0    78     1    13
 -1.4702183086337828E-01 a      1554     0    78     1    14
  1.3803942382500523E-01 a      1555     0    78     1    15
  1.0330466419365668E-01 a      1556     0    78     1    16
 -1.5572557818921032E-01 a      1557     0    78     1    17
  1.5104378854326159E-01 a      1558     0    78     1    18
  1.4488316125316136E-01 a      1559     0    78     1    19
 -2.4678107474739852E-01 a      1560     0    78     1    20
  4.6940058833995386E-02 a      1561     0    79     1     1
  1.4132078858973423E-02 a      1562     0    79     1     2
 -3.6109398573511954E-02 a      1563     0    79     1     3
  1.4584638107795550E-01 a      1564     0    79     1     4
  8.7707677584678817E-02 a      1565     0    79     1     5
 -3.7640572480995560E-02 a      1566     0    79     1     6
 -1.2432362483390988E-02 a      1567     0    79     1     7
 -1.4188124437373012E-01 a      1568     0    79     1     8
  7.4500553408857625E-02 a      1569     0    79     1     9
 -1.2261822981833827E-01 a      1570     0    79     1    10
  1.4372709389757858E-03 a      1571     0    79     1    11
  1.5200228028337986E-01 a      1572     0    79     1    12
 -4.8088841188531406E-02 a      1573     0    79     1    13
  5.2634916644982883E-02 a      1574     0    79     1    14
  2.9519954982653297E-02 a      1575     0    79     1    15
  6.2823412546878149E-02 a      1576     0    79     1    16
  2.7675809645540383E-01 a      1577     0    79     1    17
  1.9301346698745700E-01 a      1578     0    79     1    18
 -5.3601209856411494E-02 a      1579     0    79     1    19
 -2.2738660045764592E-01 a      1580     0    79     1    20
  1.6150653300186876E-01 a      1581     0    80     1     1
 -2.6919298231618028E-02 a      1582     0    80     1     2
 -7.3727756292683341E-02 a      1583     0    80     1     3
  1.6668551021904524E-01 a      1584     0    80     1     4
  2.8737350014627044E-02 a      1585     0    80     1     5
 -1.7481573652106718E-03 a      1586     0    80     1     6
 -3.2857362835191042E-02 a      1587     0    80     1     7
  1.0985227590578418E-02 a      1588     0    80     1     8
 -1.1243622508409690E-01 a      1589     0    80     1     9
  1.0359292107992144E-01 a      1590     0    80     1    10
 -6.5069745756714259E-02 a      1591     0    80     1    11
 -9.4922412004348783E-02 a      1592     0    80     1    12
  1.5490986871795931E-01 a      1593     0    80     1    13
 -2.1349209857235435E-01 a      1594     0    80     1    14
 -7.3502065087676829E-02 a      1595     0    80     1    15
 -6.3816885866113143E-02 a      1596     0    80     1    16
  6.8664594246387781E-02 a      1597     0    80     1    17
 -9.8856595055228522E-02 a      1598     0    80     1    18
 -1.3143421856720636E-01 a      1599     0    80     1    19
  3.8103991688254908E-02 a      1600     0    80     1    20
  6.6310674380736331E-02 a      1601     0    81     1     1
 -2.6240247352696899E-01 a      1602     0    81     1     2
 -1.6387486556042768E-01 a      1603     0    81     1     3
  3.3595943243514219E-02 a      1604     0    81     1     4
  2.0258186647578616E-01 a      1605     0    81     1     5
  3.0529703287767919E-02 a      1606     0    81     1     6
  6.4933610788804594E-02 a      1607     0    81     1     7
  6.5469390437557826E-02 a      1608     0    81     1     8
 -1.1952867502636939E-01 a      1609     0    81     1     9
  3.2170917335044374E-01 a      1610     0    81     1    10
  5.7866880247245027E-03 a      1611     0    81     1    11
  1.4037938115807977E-01 a      1612     0    81     1    12
 -2.3138001413761869E-01 a      1613     0    81     1    13
 -2.9864397786358798E-01 a      1614     0    81     1    14
  3.1910152898153070E-02 a      1615     0    81     1    15
 -6.9794616758748859E-02 a      1616     0    81     1    16
 -5.0538615682895982E-01 a      1617     0    81     1    17
 -7.4463874534083055E-02 a      1618     0    81     1    18
  3.9606122754242981E-02 a      1619     0    81     1    19
  2.1126442494861286E-01 a      1620     0    81     1    20
  3.1675716368900853E-01 a      1621     0    82     1     1
 -5.5040386581209086E-03 a      1622     0    82     1     2
  7.7537892543151299E-02 a      1623     0    82     1     3
