################################################################################
# Neural network connection values (weights and biases).
################################################################################
# Col  Name       Description
################################################################################
# 1    connection Neural network connection value.
# 2    t          Connection type (a = weight, b = bias).
# 3    index      Index enumerating weights.
# 4    l_s        Starting point layer (end point layer for biases).
# 5    n_s        Starting point neuron in starting layer (end point neuron for biases).
# 6    l_e        End point layer.
# 7    n_e        End point neuron in end layer.
################################################################################
#                      1 2         3     4     5     6     7
#             connection t     index   l_s   n_s   l_e   n_e
############################################################
 -1.1623305504442052E-01 a         1     0     1     1     1
  1.1165359417504736E-01 a         2     0     1     1     2
 -6.3265161465562186E-02 a         3     0     1     1     3
 -1.1493535278226395E-01 a         4     0     1     1     4
  5.8842919865996435E-02 a         5     0     1     1     5
 -2.9437332082607241E-02 a         6     0     1     1     6
  2.1736204339786905E-01 a         7     0     1     1     7
 -8.7224232488629136E-02 a         8     0     1     1     8
 -1.9360805186203003E-01 a         9     0     1     1     9
  3.0330612075121949E-01 a        10     0     1     1    10
  1.0873357830935694E-01 a        11     0     1     1    11
  1.3942534193938808E-01 a        12     0     1     1    12
  9.4970044883048736E-04 a        13     0     1     1    13
  1.7561306366042970E-01 a        14     0     1     1    14
  8.8964541299979674E-02 a        15     0     1     1    15
 -1.5879910381561610E-01 a        16     0     1     1    16
  1.9015395862379502E-02 a        17     0     1     1    17
  3.1076199923924563E-01 a        18     0     1     1    18
  2.1034025076878052E-01 a        19     0     1     1    19
  1.9807708736310332E-02 a        20     0     1     1    20
  1.6209281035451631E-01 a        21     0     2     1     1
  9.5564304191183558E-02 a        22     0     2     1     2
 -3.9074626279181221E-02 a        23     0     2     1     3
  1.8441326988502077E-01 a        24     0     2     1     4
 -1.6559706554203232E-01 a        25     0     2     1     5
  1.3384402545119365E-02 a        26     0     2     1     6
  6.5561790178289961E-02 a        27     0     2     1     7
 -4.1981720305507209E-01 a        28     0     2     1     8
  2.7798599651174843E-02 a        29     0     2     1     9
 -2.2685284415355400E-01 a        30     0     2     1    10
  1.4636924124456416E-02 a        31     0     2     1    11
  2.7711422898525129E-01 a        32     0     2     1    12
  2.1626393737036670E-04 a        33     0     2     1    13
 -9.2858787288969583E-02 a        34     0     2     1    14
  3.9988636141968037E-01 a        35     0     2     1    15
 -1.5819296656828016E-01 a        36     0     2     1    16
 -5.0417543034110682E-02 a        37     0     2     1    17
 -3.1021301602178630E-01 a        38     0     2     1    18
  1.7678171146809629E-01 a        39     0     2     1    19
 -9.8250973670602135E-03 a        40     0     2     1    20
  4.1645205431078319E-01 a        41     0     3     1     1
  8.5944710761446289E-02 a        42     0     3     1     2
  1.0983888875865679E-01 a        43     0     3     1     3
  8.3901546832687890E-01 a        44     0     3     1     4
 -2.2474479585383447E-01 a        45     0     3     1     5
 -2.1981975045488625E-01 a        46     0     3     1     6
  2.3315205274863038E-01 a        47     0     3     1     7
  5.4537986376212821E-02 a        48     0     3     1     8
  5.6777622698633046E-01 a        49     0     3     1     9
 -7.8166680193162685E-01 a        50     0     3     1    10
  1.3192643601594770E-01 a        51     0     3     1    11
 -1.4305005754275599E-01 a        52     0     3     1    12
 -2.1773973454966858E-01 a        53     0     3     1    13
  6.6395786047279504E-01 a        54     0     3     1    14
  5.8005216695614104E-01 a        55     0     3     1    15
 -2.5038916341275003E-01 a        56     0     3     1    16
  1.9007509778500262E-01 a        57     0     3     1    17
 -3.7503916846622204E-01 a        58     0     3     1    18
  1.5480282863571171E-01 a        59     0     3     1    19
  1.4078539233905366E-01 a        60     0     3     1    20
  4.8946206409364118E-02 a        61     0     4     1     1
 -1.1468225208159649E-01 a        62     0     4     1     2
 -1.1683302513405701E-01 a        63     0     4     1     3
  3.0705424731911304E-02 a        64     0     4     1     4
  5.4152306800107394E-02 a        65     0     4     1     5
  1.8277439716115999E-02 a        66     0     4     1     6
  6.1083694727207372E-02 a        67     0     4     1     7
  9.1900893062623029E-04 a        68     0     4     1     8
  1.8930528145010722E-01 a        69     0     4     1     9
  3.4942020731110975E-02 a        70     0     4     1    10
 -1.5743149082100380E-01 a        71     0     4     1    11
 -4.2611552318262740E-02 a        72     0     4     1    12
 -2.5234398480772854E-02 a        73     0     4     1    13
  5.1766134896385770E-02 a        74     0     4     1    14
  1.2868411421206530E-01 a        75     0     4     1    15
  6.4376430162080877E-03 a        76     0     4     1    16
 -5.1574355030122594E-02 a        77     0     4     1    17
  1.1331683170470734E-01 a        78     0     4     1    18
 -3.8969587156090002E-02 a        79     0     4     1    19
 -1.2212803776067285E-01 a        80     0     4     1    20
  1.4240961020640830E-01 a        81     0     5     1     1
  5.1239090373991922E-02 a        82     0     5     1     2
  1.2860352825911489E-01 a        83     0     5     1     3
  1.7601506512326964E-01 a        84     0     5     1     4
 -1.7280952067116662E-01 a        85     0     5     1     5
 -2.0306279382284223E-01 a        86     0     5     1     6
 -6.9888593123088441E-02 a        87     0     5     1     7
 -1.2453556123640266E-02 a        88     0     5     1     8
 -7.3086856064516073E-03 a        89     0     5     1     9
 -3.5857292844416078E-02 a        90     0     5     1    10
  1.4665448788641478E-02 a        91     0     5     1    11
  3.9455681508319643E-02 a        92     0     5     1    12
 -1.8814983160984905E-01 a        93     0     5     1    13
  1.7921475642075566E-02 a        94     0     5     1    14
  2.0186196277754856E-01 a        95     0     5     1    15
 -7.6830805807597269E-02 a        96     0     5     1    16
 -4.3197926135495224E-02 a        97     0     5     1    17
 -5.3230847839137591E-02 a        98     0     5     1    18
 -5.1773758856032297E-02 a        99     0     5     1    19
 -5.7182046982477280E-02 a       100     0     5     1    20
  4.5274015621438929E-01 a       101     0     6     1     1
  1.4030891100547163E-01 a       102     0     6     1     2
 -5.2990180045891166E-01 a       103     0     6     1     3
  1.1280581536935702E-01 a       104     0     6     1     4
 -4.5805868362962848E-01 a       105     0     6     1     5
 -1.1981419812556801E-01 a       106     0     6     1     6
 -5.1283585201253190E-01 a       107     0     6     1     7
  1.4611939321023090E-01 a       108     0     6     1     8
 -8.3496836691625789E-02 a       109     0     6     1     9
 -8.8811322097022283E-01 a       110     0     6     1    10
 -7.6282582087148429E-02 a       111     0     6     1    11
 -6.4791547687059781E-01 a       112     0     6     1    12
  5.6106619333489849E-01 a       113     0     6     1    13
 -2.0712347823961361E-01 a       114     0     6     1    14
 -6.6489805788570033E-01 a       115     0     6     1    15
 -1.7823682893703091E-01 a       116     0     6     1    16
 -1.4818430407498978E-01 a       117     0     6     1    17
  9.5155603356315099E-01 a       118     0     6     1    18
 -2.2335859550257561E-01 a       119     0     6     1    19
 -1.3680041797981290E-01 a       120     0     6     1    20
 -2.8952657451438207E-01 a       121     0     7     1     1
  2.1123573373640592E-01 a       122     0     7     1     2
 -9.3863725693945993E-02 a       123     0     7     1     3
 -2.1632873895737920E-01 a       124     0     7     1     4
 -1.8290047606957854E-01 a       125     0     7     1     5
 -9.2346709117934911E-02 a       126     0     7     1     6
 -2.2173388484951989E-01 a       127     0     7     1     7
  1.4129176883866185E-01 a       128     0     7     1     8
  1.6263182308313551E-01 a       129     0     7     1     9
 -1.9251448409292474E-01 a       130     0     7     1    10
 -2.0490672797267548E-01 a       131     0     7     1    11
 -3.3166019830317089E-01 a       132     0     7     1    12
  7.7721303877765239E-03 a       133     0     7     1    13
 -3.2543392047274999E-01 a       134     0     7     1    14
  7.8559293670812866E-02 a       135     0     7     1    15
 -1.1189597120289147E-03 a       136     0     7     1    16
 -4.1493730549414749E-02 a       137     0     7     1    17
  1.8820862270718083E-01 a       138     0     7     1    18
  1.0006658202027006E-01 a       139     0     7     1    19
  1.5610914457741354E-01 a       140     0     7     1    20
 -1.8410451713311385E-01 a       141     0     8     1     1
 -3.4722247667792078E-01 a       142     0     8     1     2
 -3.7375567447835351E-01 a       143     0     8     1     3
 -1.4181369517106715E-01 a       144     0     8     1     4
 -5.3622058165136571E-03 a       145     0     8     1     5
  2.1982630697164718E-02 a       146     0     8     1     6
 -3.8593403658873504E-01 a       147     0     8     1     7
 -2.2114377809643732E-01 a       148     0     8     1     8
 -8.4695574286265074E-01 a       149     0     8     1     9
 -4.5880174869928569E-02 a       150     0     8     1    10
  1.7311050924984930E-01 a       151     0     8     1    11
  2.5414849916610599E-01 a       152     0     8     1    12
 -1.1394995042002520E-01 a       153     0     8     1    13
 -1.2000835763836506E+00 a       154     0     8     1    14
 -9.6230706937766433E-02 a       155     0     8     1    15
 -1.2375763804645260E-02 a       156     0     8     1    16
 -3.3747697560885609E-02 a       157     0     8     1    17
  1.9432301500615723E-01 a       158     0     8     1    18
 -1.0856491300834087E-01 a       159     0     8     1    19
 -5.6682415303530931E-01 a       160     0     8     1    20
 -2.1274047172717511E-02 a       161     0     9     1     1
  6.6677062803592285E-02 a       162     0     9     1     2
 -6.6186961604799890E-03 a       163     0     9     1     3
 -5.7182607546690398E-02 a       164     0     9     1     4
 -1.5581660990638366E-01 a       165     0     9     1     5
 -1.0285065437858182E-01 a       166     0     9     1     6
  1.2252549156962596E-01 a       167     0     9     1     7
  7.3817634097765811E-04 a       168     0     9     1     8
 -1.7011432077365146E-01 a       169     0     9     1     9
  8.7215455819452517E-02 a       170     0     9     1    10
  3.7702293046270610E-02 a       171     0     9     1    11
  1.9210394691193183E-01 a       172     0     9     1    12
 -2.0857106566808750E-01 a       173     0     9     1    13
  7.6843487687407688E-02 a       174     0     9     1    14
 -2.1379063775357671E-02 a       175     0     9     1    15
  2.2841785905981075E-02 a       176     0     9     1    16
 -2.3642512821678716E-02 a       177     0     9     1    17
 -1.2356607736572996E-01 a       178     0     9     1    18
 -3.8891786823591748E-02 a       179     0     9     1    19
  2.0150071941622416E-01 a       180     0     9     1    20
 -1.5689666577695621E-01 a       181     0    10     1     1
 -1.2857794871725142E-01 a       182     0    10     1     2
 -1.6249589430996417E-01 a       183     0    10     1     3
 -1.2263332295592266E-01 a       184     0    10     1     4
  2.1295569033671145E-03 a       185     0    10     1     5
 -3.8733018455537963E-02 a       186     0    10     1     6
  2.4614575204722478E-02 a       187     0    10     1     7
  8.2885474588871036E-02 a       188     0    10     1     8
 -1.7688624023321139E-01 a       189     0    10     1     9
 -1.1744000210524171E-01 a       190     0    10     1    10
  2.7330158088164025E-01 a       191     0    10     1    11
  4.4887544241846426E-02 a       192     0    10     1    12
 -1.5103905575143550E-01 a       193     0    10     1    13
 -1.1325102036183202E-01 a       194     0    10     1    14
 -5.5096181415632432E-02 a       195     0    10     1    15
 -1.6680317178325580E-02 a       196     0    10     1    16
 -4.3689191944395328E-02 a       197     0    10     1    17
  1.4551128960097670E-01 a       198     0    10     1    18
  2.1445260862569579E-01 a       199     0    10     1    19
 -9.4914639457454857E-03 a       200     0    10     1    20
 -3.0226383395877809E-01 a       201     0    11     1     1
 -2.2155383397285258E-01 a       202     0    11     1     2
  4.7045998208931228E-01 a       203     0    11     1     3
 -1.5310585933925437E-02 a       204     0    11     1     4
  5.0202159270217506E-01 a       205     0    11     1     5
  4.2648880593076220E-02 a       206     0    11     1     6
  2.9699319918579892E-01 a       207     0    11     1     7
 -3.4318870188544976E-03 a       208     0    11     1     8
  2.2021069295642137E-01 a       209     0    11     1     9
  5.7975854092566548E-01 a       210     0    11     1    10
  9.3274535579026333E-02 a       211     0    11     1    11
  4.9178049523718143E-01 a       212     0    11     1    12
  1.1696457016242283E-01 a       213     0    11     1    13
  2.4160774911662650E-01 a       214     0    11     1    14
  2.5287420300433117E-01 a       215     0    11     1    15
  4.9802864538094999E-01 a       216     0    11     1    16
  9.6651151653986606E-02 a       217     0    11     1    17
 -1.1669329707254399E+00 a       218     0    11     1    18
  2.7044083689105314E-01 a       219     0    11     1    19
  1.2174214262856808E-01 a       220     0    11     1    20
 -5.2558703798174726E-02 a       221     0    12     1     1
  1.4946740510334075E-01 a       222     0    12     1     2
 -1.3458126212118723E-01 a       223     0    12     1     3
  3.0677385023145365E-01 a       224     0    12     1     4
 -4.8646216902697284E-02 a       225     0    12     1     5
 -2.1917029034826460E-01 a       226     0    12     1     6
 -1.4510185806105913E-01 a       227     0    12     1     7
  1.6421265561703280E-01 a       228     0    12     1     8
  1.3561026031535015E-01 a       229     0    12     1     9
 -4.5811002448280520E-02 a       230     0    12     1    10
 -7.4717473101606049E-02 a       231     0    12     1    11
 -8.4994106861094307E-02 a       232     0    12     1    12
  7.6008996602588780E-02 a       233     0    12     1    13
  4.9549104385561087E-02 a       234     0    12     1    14
  2.4010472649107042E-01 a       235     0    12     1    15
  3.1182360686428566E-02 a       236     0    12     1    16
 -1.3350308406795230E-01 a       237     0    12     1    17
  1.9970390259551363E-01 a       238     0    12     1    18
  1.9900896693233716E-01 a       239     0    12     1    19
 -2.7928976403687472E-01 a       240     0    12     1    20
 -1.3825897301276077E-01 a       241     0    13     1     1
  1.9618563473980780E-01 a       242     0    13     1     2
  1.0356984487442009E-01 a       243     0    13     1     3
  3.8367999329421115E-01 a       244     0    13     1     4
 -2.5371975341975139E-01 a       245     0    13     1     5
  2.1833237289433605E-01 a       246     0    13     1     6
 -9.1876421325836136E-02 a       247     0    13     1     7
 -3.4822587643703018E-01 a       248     0    13     1     8
  3.0991939783689021E-01 a       249     0    13     1     9
  3.2176654612051388E-02 a       250     0    13     1    10
 -1.3056076358325296E-02 a       251     0    13     1    11
 -3.4528686473876152E-01 a       252     0    13     1    12
 -1.1058632142855732E-01 a       253     0    13     1    13
  2.7323392937062424E-01 a       254     0    13     1    14
  6.0949015566408842E-03 a       255     0    13     1    15
  2.2687265782832022E-01 a       256     0    13     1    16
 -2.3442762485235327E-01 a       257     0    13     1    17
 -1.4833417880534666E-01 a       258     0    13     1    18
  4.1447833541758414E-03 a       259     0    13     1    19
  6.3359189842844887E-02 a       260     0    13     1    20
  1.9222527110323618E-02 a       261     0    14     1     1
  8.8826334066750737E-02 a       262     0    14     1     2
 -1.0703247977564686E-02 a       263     0    14     1     3
  2.3447008562595694E-02 a       264     0    14     1     4
  1.6750173397295498E-01 a       265     0    14     1     5
  1.1536426154109382E-01 a       266     0    14     1     6
 -1.0430275602373233E-01 a       267     0    14     1     7
  6.6390364963194642E-02 a       268     0    14     1     8
  9.8260425845659638E-02 a       269     0    14     1     9
 -1.8312452789541017E-01 a       270     0    14     1    10
 -7.0285488098600551E-02 a       271     0    14     1    11
 -2.1568004742230914E-02 a       272     0    14     1    12
  1.6190430365398858E-01 a       273     0    14     1    13
 -2.6808167643218889E-02 a       274     0    14     1    14
 -1.0302811208552744E-01 a       275     0    14     1    15
 -6.0755863940485294E-02 a       276     0    14     1    16
 -1.2928651955005913E-01 a       277     0    14     1    17
  4.2141108915522883E-02 a       278     0    14     1    18
 -2.0845370551991781E-02 a       279     0    14     1    19
 -1.6085210085114701E-01 a       280     0    14     1    20
 -8.2445242363984456E-02 a       281     0    15     1     1
 -7.3525312146219907E-02 a       282     0    15     1     2
  1.2177997881202551E-02 a       283     0    15     1     3
  1.9424119184244329E-01 a       284     0    15     1     4
 -1.3573889273657030E-01 a       285     0    15     1     5
 -1.6713253274984430E-01 a       286     0    15     1     6
 -6.6644763535755908E-02 a       287     0    15     1     7
 -1.2049050053754030E-01 a       288     0    15     1     8
  1.9760141254243072E-01 a       289     0    15     1     9
  3.7922018102127877E-02 a       290     0    15     1    10
 -1.1200371763434069E-01 a       291     0    15     1    11
 -3.1539624139863227E-02 a       292     0    15     1    12
  1.2725052987428362E-01 a       293     0    15     1    13
  2.1189730325423522E-02 a       294     0    15     1    14
 -2.1550414403405362E-02 a       295     0    15     1    15
  3.4829189522417404E-02 a       296     0    15     1    16
 -5.1971993088289523E-02 a       297     0    15     1    17
 -1.7362042303812306E-02 a       298     0    15     1    18
 -7.7360862406418929E-02 a       299     0    15     1    19
 -1.4708637555443291E-01 a       300     0    15     1    20
  2.1278158983506151E-01 a       301     0    16     1     1
  1.5062830120252110E-01 a       302     0    16     1     2
 -2.2763746472698726E-01 a       303     0    16     1     3
 -1.3462116395834871E-02 a       304     0    16     1     4
 -2.3094655110624779E-01 a       305     0    16     1     5
 -3.6906895897401482E-01 a       306     0    16     1     6
 -9.0334380784116403E-02 a       307     0    16     1     7
 -9.9561416895628765E-02 a       308     0    16     1     8
 -5.1206179034576735E-02 a       309     0    16     1     9
 -3.1968769739960895E-01 a       310     0    16     1    10
 -2.3123471476446153E-02 a       311     0    16     1    11
 -2.8562422180135483E-01 a       312     0    16     1    12
 -1.1749420790483325E-01 a       313     0    16     1    13
  1.7601201379181548E-02 a       314     0    16     1    14
 -8.9095169757578807E-02 a       315     0    16     1    15
 -1.2616423998235973E-01 a       316     0    16     1    16
 -2.4351332419490457E-01 a       317     0    16     1    17
  9.4096475671451807E-01 a       318     0    16     1    18
 -1.0256147611604882E-01 a       319     0    16     1    19
 -3.3683573351525947E-01 a       320     0    16     1    20
 -1.2762171938064371E-01 a       321     0    17     1     1
  9.3828794072206914E-02 a       322     0    17     1     2
 -7.9196089080158905E-02 a       323     0    17     1     3
 -9.5011260348026927E-02 a       324     0    17     1     4
  3.6520363554771652E-02 a       325     0    17     1     5
  2.4868177216185913E-01 a       326     0    17     1     6
  7.2510566577944358E-02 a       327     0    17     1     7
 -1.9285355169441951E-01 a       328     0    17     1     8
  1.4919557163728051E-01 a       329     0    17     1     9
 -8.6862890721120384E-02 a       330     0    17     1    10
 -1.4159691083004755E-01 a       331     0    17     1    11
  2.1076684540064887E-02 a       332     0    17     1    12
 -1.5031261989519282E-01 a       333     0    17     1    13
 -9.9144709052712804E-02 a       334     0    17     1    14
 -1.5106406346414009E-01 a       335     0    17     1    15
  3.0822674236532527E-02 a       336     0    17     1    16
  3.2611959865674826E-02 a       337     0    17     1    17
 -1.5151654970351067E-01 a       338     0    17     1    18
 -1.7628658764079749E-01 a       339     0    17     1    19
 -5.3846182203929720E-02 a       340     0    17     1    20
 -2.6504466480577493E-01 a       341     0    18     1     1
 -1.1810345728712340E-02 a       342     0    18     1     2
 -2.4055843209483865E-01 a       343     0    18     1     3
 -1.7834452376278304E-01 a       344     0    18     1     4
 -1.9015849248481209E-01 a       345     0    18     1     5
 -9.0052748229993984E-03 a       346     0    18     1     6
  9.6329380704271383E-02 a       347     0    18     1     7
  2.7269321458566648E-01 a       348     0    18     1     8
  2.5223690364615292E-01 a       349     0    18     1     9
  3.3609357343406011E-02 a       350     0    18     1    10
  8.5170125160151156E-02 a       351     0    18     1    11
  2.6181680804806384E-01 a       352     0    18     1    12
  1.5359533562340003E-01 a       353     0    18     1    13
 -4.9202110719060260E-01 a       354     0    18     1    14
  2.7120796996292712E-01 a       355     0    18     1    15
 -3.5405053323313346E-01 a       356     0    18     1    16
  2.1330934060291233E-02 a       357     0    18     1    17
  7.9948611873895140E-02 a       358     0    18     1    18
 -9.8146590146876546E-04 a       359     0    18     1    19
  2.2803262321393031E-01 a       360     0    18     1    20
  3.6779729637079532E-02 a       361     0    19     1     1
  1.9301728112911226E-02 a       362     0    19     1     2
 -8.6368223510943920E-02 a       363     0    19     1     3
  8.1112801832296189E-02 a       364     0    19     1     4
 -5.9081908280592052E-02 a       365     0    19     1     5
 -1.8218016648557855E-01 a       366     0    19     1     6
 -3.0171685879712938E-03 a       367     0    19     1     7
  1.4912392658588092E-01 a       368     0    19     1     8
  1.2216463219409200E-01 a       369     0    19     1     9
  6.9324377517809996E-02 a       370     0    19     1    10
 -1.3900911259839871E-01 a       371     0    19     1    11
  2.6310913352414734E-03 a       372     0    19     1    12
 -3.2622297612481893E-02 a       373     0    19     1    13
  1.3211897597380259E-01 a       374     0    19     1    14
  2.0426989765609613E-02 a       375     0    19     1    15
  2.1157620384057277E-01 a       376     0    19     1    16
 -3.4091439347387863E-03 a       377     0    19     1    17
  6.1634432814550458E-02 a       378     0    19     1    18
 -9.4281081356738058E-02 a       379     0    19     1    19
 -9.7325895208075108E-02 a       380     0    19     1    20
  5.8113446922904766E-02 a       381     0    20     1     1
  7.8127005943656264E-02 a       382     0    20     1     2
  9.2979050947540574E-03 a       383     0    20     1     3
 -1.4107629104751421E-02 a       384     0    20     1     4
 -1.1454668054203095E-01 a       385     0    20     1     5
  5.9984831714945126E-02 a       386     0    20     1     6
 -7.4536071751983346E-02 a       387     0    20     1     7
  2.2228478042556760E-01 a       388     0    20     1     8
 -1.1523901315942950E-01 a       389     0    20     1     9
 -1.7247796178377843E-03 a       390     0    20     1    10
  1.6966481100697814E-01 a       391     0    20     1    11
  1.1333276356684987E-02 a       392     0    20     1    12
 -4.9431869193454873E-03 a       393     0    20     1    13
 -1.0224581149229776E-01 a       394     0    20     1    14
  8.3183088435448499E-02 a       395     0    20     1    15
  2.7400989321085485E-02 a       396     0    20     1    16
 -1.8533360280787711E-01 a       397     0    20     1    17
  6.1076347705682002E-02 a       398     0    20     1    18
  5.9295708961344784E-02 a       399     0    20     1    19
 -4.4636707201888733E-02 a       400     0    20     1    20
  1.1912359934694571E-02 a       401     0    21     1     1
 -6.5260236517954678E-02 a       402     0    21     1     2
 -1.6162094666971778E-03 a       403     0    21     1     3
  4.8898375182572319E-02 a       404     0    21     1     4
  1.3360023101283444E-01 a       405     0    21     1     5
 -2.1316466265902151E-01 a       406     0    21     1     6
 -6.5271608082235241E-02 a       407     0    21     1     7
  2.8176843986825600E-01 a       408     0    21     1     8
 -1.3023779269050190E-01 a       409     0    21     1     9
 -2.0833633228128898E-02 a       410     0    21     1    10
 -1.2011570147450687E-01 a       411     0    21     1    11
  1.1794777341742684E-02 a       412     0    21     1    12
  3.0648880970600062E-01 a       413     0    21     1    13
  8.1851126856046355E-02 a       414     0    21     1    14
 -3.0068289588703517E-01 a       415     0    21     1    15
  8.9002571243839951E-02 a       416     0    21     1    16
 -3.7424517504926487E-02 a       417     0    21     1    17
 -4.0936180493208157E-01 a       418     0    21     1    18
  2.4117272733402229E-01 a       419     0    21     1    19
  5.6245007095487534E-02 a       420     0    21     1    20
  1.0803475729454352E-01 a       421     0    22     1     1
  1.8745860369653250E-01 a       422     0    22     1     2
 -7.9046625535790088E-02 a       423     0    22     1     3
  9.9183779529255986E-02 a       424     0    22     1     4
 -1.7180482594113972E-01 a       425     0    22     1     5
 -1.1743613491642841E-02 a       426     0    22     1     6
 -1.3688091671447392E-01 a       427     0    22     1     7
 -4.1126673452885253E-02 a       428     0    22     1     8
 -1.8581263727118708E-01 a       429     0    22     1     9
 -1.1809052924333094E-01 a       430     0    22     1    10
 -8.0742851272541952E-02 a       431     0    22     1    11
 -2.7090254263030702E-02 a       432     0    22     1    12
 -2.0182149119514825E-01 a       433     0    22     1    13
 -8.0966185941097071E-02 a       434     0    22     1    14
 -2.9744753135528421E-02 a       435     0    22     1    15
 -1.2454007196833079E-02 a       436     0    22     1    16
 -3.7159627825985406E-02 a       437     0    22     1    17
 -8.8465318303385457E-04 a       438     0    22     1    18
  4.8571080643814407E-02 a       439     0    22     1    19
  1.4792369303722476E-02 a       440     0    22     1    20
  1.0305106818944818E-01 a       441     0    23     1     1
 -2.2049129403978313E-01 a       442     0    23     1     2
  7.3018638126202601E-02 a       443     0    23     1     3
  3.0050098325162197E-02 a       444     0    23     1     4
  5.6137242047932516E-02 a       445     0    23     1     5
  9.3183060347384494E-02 a       446     0    23     1     6
  4.5346021659346286E-02 a       447     0    23     1     7
 -3.0191884978038297E-01 a       448     0    23     1     8
 -1.0553941507811376E-01 a       449     0    23     1     9
 -1.7336511747129044E-01 a       450     0    23     1    10
  2.1390046525791484E-01 a       451     0    23     1    11
 -2.8965179429174265E-01 a       452     0    23     1    12
 -6.4729129227585780E-02 a       453     0    23     1    13
  1.0569862405904963E-01 a       454     0    23     1    14
 -4.4311709094855989E-02 a       455     0    23     1    15
 -7.4608761052289124E-03 a       456     0    23     1    16
 -5.9446293140435001E-02 a       457     0    23     1    17
  1.2580837460471362E-02 a       458     0    23     1    18
  3.8403245658956607E-02 a       459     0    23     1    19
  2.6310222729352226E-02 a       460     0    23     1    20
  9.2435424447108283E-02 a       461     0    24     1     1
 -1.2118625102846040E-01 a       462     0    24     1     2
  1.6500522533138617E-02 a       463     0    24     1     3
 -7.4312243830947427E-03 a       464     0    24     1     4
 -1.2317721264426082E-02 a       465     0    24     1     5
 -7.2127132952166675E-02 a       466     0    24     1     6
 -1.1204900033458705E-02 a       467     0    24     1     7
 -9.6174885730252032E-04 a       468     0    24     1     8
 -4.6842168972274861E-02 a       469     0    24     1     9
 -9.0841064565883700E-02 a       470     0    24     1    10
  1.8780786686782802E-01 a       471     0    24     1    11
  1.4393716988876751E-01 a       472     0    24     1    12
  5.3150295660142954E-02 a       473     0    24     1    13
 -9.1783311950790869E-02 a       474     0    24     1    14
 -3.0816882220187074E-02 a       475     0    24     1    15
 -3.6504501154481526E-02 a       476     0    24     1    16
 -6.8851092419552617E-02 a       477     0    24     1    17
  2.5720128138456873E-02 a       478     0    24     1    18
 -1.1881696590814564E-01 a       479     0    24     1    19
  1.9663034926149403E-01 a       480     0    24     1    20
 -1.0957801708866620E-01 a       481     0    25     1     1
 -4.5465114737553936E-02 a       482     0    25     1     2
 -2.6903923233946022E-02 a       483     0    25     1     3
  1.1970268866906851E-02 a       484     0    25     1     4
  4.8895889473902270E-02 a       485     0    25     1     5
  2.7399674973929711E-01 a       486     0    25     1     6
 -4.1282337800068833E-02 a       487     0    25     1     7
 -5.0149203330610660E-02 a       488     0    25     1     8
  6.0466902106396971E-02 a       489     0    25     1     9
 -2.5031026931054717E-02 a       490     0    25     1    10
  1.2484596473237134E-02 a       491     0    25     1    11
 -9.4673806241172082E-02 a       492     0    25     1    12
  1.8271992344120924E-02 a       493     0    25     1    13
  3.9282795586326184E-02 a       494     0    25     1    14
 -1.6728948493788646E-02 a       495     0    25     1    15
 -1.0039201816654837E-01 a       496     0    25     1    16
  1.7177558502562273E-01 a       497     0    25     1    17
 -3.1172709683101362E-03 a       498     0    25     1    18
 -7.4449842723703901E-03 a       499     0    25     1    19
  1.2422551411603600E-01 a       500     0    25     1    20
 -6.7967329921193531E-02 a       501     0    26     1     1
  2.6261940588461197E-01 a       502     0    26     1     2
  1.9044715181504990E-01 a       503     0    26     1     3
  6.5949455209516256E-02 a       504     0    26     1     4
 -8.0733178442704917E-02 a       505     0    26     1     5
 -2.4725348033061251E-01 a       506     0    26     1     6
  9.8754019810896682E-02 a       507     0    26     1     7
 -1.7014785598323814E-01 a       508     0    26     1     8
  7.0469143474570783E-02 a       509     0    26     1     9
  2.4558202531202451E-02 a       510     0    26     1    10
  8.9284370279251943E-02 a       511     0    26     1    11
  1.2682799309723741E-01 a       512     0    26     1    12
 -1.5980246602502826E-01 a       513     0    26     1    13
 -3.5243950184880413E-02 a       514     0    26     1    14
  5.4911977453344703E-02 a       515     0    26     1    15
  9.8242532869673660E-02 a       516     0    26     1    16
 -9.6266973606842179E-02 a       517     0    26     1    17
  7.3036845658578861E-02 a       518     0    26     1    18
 -1.8115140878746011E-01 a       519     0    26     1    19
  5.7836870300028764E-02 a       520     0    26     1    20
 -6.5371177070642161E-02 a       521     0    27     1     1
 -7.1407132633323822E-02 a       522     0    27     1     2
  3.4460125676245054E-02 a       523     0    27     1     3
 -8.3504816480351157E-02 a       524     0    27     1     4
  2.8363596791290562E-02 a       525     0    27     1     5
 -1.6655760893766472E-01 a       526     0    27     1     6
  8.2354683416159175E-02 a       527     0    27     1     7
  3.4100540045430859E-02 a       528     0    27     1     8
  9.0498898729565055E-02 a       529     0    27     1     9
  1.2083511441675769E-02 a       530     0    27     1    10
  2.1460241855405841E-02 a       531     0    27     1    11
  1.6153296268819509E-02 a       532     0    27     1    12
  7.3011697746840909E-02 a       533     0    27     1    13
  3.8781450345051469E-02 a       534     0    27     1    14
 -6.3350222557988195E-02 a       535     0    27     1    15
 -1.2684783862342616E-02 a       536     0    27     1    16
 -1.0944414167210956E-01 a       537     0    27     1    17
  2.0876864050010373E-02 a       538     0    27     1    18
  4.2408731837949201E-02 a       539     0    27     1    19
 -1.0744861427151423E-02 a       540     0    27     1    20
 -1.2005458609795919E-01 a       541     0    28     1     1
 -1.1672396525566180E-01 a       542     0    28     1     2
  4.9489556027736375E-04 a       543     0    28     1     3
 -1.6146312788666288E-02 a       544     0    28     1     4
 -5.4510415537283120E-02 a       545     0    28     1     5
  3.7266962706238838E-01 a       546     0    28     1     6
 -8.1949678792177738E-02 a       547     0    28     1     7
  7.2160696914796665E-02 a       548     0    28     1     8
  7.2178015216944599E-02 a       549     0    28     1     9
  8.4063335790671975E-02 a       550     0    28     1    10
 -2.5984837242490288E-01 a       551     0    28     1    11
  2.2467215123520107E-01 a       552     0    28     1    12
  7.6899903438667691E-02 a       553     0    28     1    13
 -1.9992662357452665E-01 a       554     0    28     1    14
  1.2399648695620955E-01 a       555     0    28     1    15
 -3.7927317655141297E-02 a       556     0    28     1    16
  2.3800214263973488E-01 a       557     0    28     1    17
  2.0684418839480981E-02 a       558     0    28     1    18
  2.8669779841021349E-02 a       559     0    28     1    19
  3.2087059170226383E-02 a       560     0    28     1    20
 -6.3938497567464059E-02 a       561     0    29     1     1
  2.3296021612896511E-01 a       562     0    29     1     2
  1.0729600499236587E-02 a       563     0    29     1     3
  1.5592630476552662E-02 a       564     0    29     1     4
 -4.5374476496630699E-02 a       565     0    29     1     5
 -3.2144056593027787E-01 a       566     0    29     1     6
 -4.4165356104332650E-02 a       567     0    29     1     7
  1.8249435927461591E-01 a       568     0    29     1     8
 -2.1868668939783998E-02 a       569     0    29     1     9
  2.4526319435549407E-02 a       570     0    29     1    10
 -1.4326536061143344E-01 a       571     0    29     1    11
 -3.8709448823232871E-02 a       572     0    29     1    12
 -1.5562359575602836E-02 a       573     0    29     1    13
  1.5530817533169436E-01 a       574     0    29     1    14
 -7.7081168043597895E-02 a       575     0    29     1    15
 -6.2750084761028580E-03 a       576     0    29     1    16
  1.0247368437016952E-02 a       577     0    29     1    17
  1.1182484640639397E-02 a       578     0    29     1    18
  9.6030028138029300E-02 a       579     0    29     1    19
 -1.2501362852952694E-01 a       580     0    29     1    20
  7.5354499814285172E-02 a       581     0    30     1     1
  1.1205705868755156E-01 a       582     0    30     1     2
 -1.7336180254083833E-02 a       583     0    30     1     3
 -2.2111369949106296E-02 a       584     0    30     1     4
 -1.2349007285635245E-01 a       585     0    30     1     5
 -1.9698309041434246E-02 a       586     0    30     1     6
  4.5660059629664638E-04 a       587     0    30     1     7
 -4.4047635406603829E-02 a       588     0    30     1     8
 -7.5150319755866571E-02 a       589     0    30     1     9
  3.1570763548617035E-02 a       590     0    30     1    10
  8.7192752948605290E-02 a       591     0    30     1    11
  1.0955752664951579E-01 a       592     0    30     1    12
 -7.9660419071738126E-02 a       593     0    30     1    13
 -3.7864547482657149E-02 a       594     0    30     1    14
  3.5496483332880316E-02 a       595     0    30     1    15
  2.9716652002355657E-02 a       596     0    30     1    16
 -9.8886048992048586E-02 a       597     0    30     1    17
 -3.8347851415721085E-02 a       598     0    30     1    18
 -7.9480522763559630E-02 a       599     0    30     1    19
  3.9359174127055419E-02 a       600     0    30     1    20
  8.0045551484082364E-02 a       601     0    31     1     1
  1.5738219874382317E-01 a       602     0    31     1     2
 -1.8362509500820956E-01 a       603     0    31     1     3
 -2.9003441622545308E-02 a       604     0    31     1     4
 -6.0228419810238916E-03 a       605     0    31     1     5
 -3.1441512027645901E-01 a       606     0    31     1     6
 -9.0617338795605545E-02 a       607     0    31     1     7
  1.2949257801074060E-01 a       608     0    31     1     8
 -1.5231361002346300E-01 a       609     0    31     1     9
 -1.8769406383736464E-01 a       610     0    31     1    10
 -4.7157622045569756E-03 a       611     0    31     1    11
 -1.5618985342103969E-01 a       612     0    31     1    12
  7.0837718686285647E-02 a       613     0    31     1    13
  5.0053135163639940E-02 a       614     0    31     1    14
 -2.6944081825103033E-01 a       615     0    31     1    15
 -6.2211225291759001E-02 a       616     0    31     1    16
 -1.3845556054866281E-01 a       617     0    31     1    17
 -6.5809966827322944E-02 a       618     0    31     1    18
  6.0509361090010857E-02 a       619     0    31     1    19
 -1.4155233601225399E-02 a       620     0    31     1    20
  7.2156816440333837E-02 a       621     0    32     1     1
  3.4838489419447845E-02 a       622     0    32     1     2
 -1.8348558241867079E-02 a       623     0    32     1     3
  6.1274009110907746E-02 a       624     0    32     1     4
  8.2559588364369038E-02 a       625     0    32     1     5
  1.1987275022261415E-01 a       626     0    32     1     6
 -3.3666705184139473E-02 a       627     0    32     1     7
  6.7116348152648928E-02 a       628     0    32     1     8
 -3.1815659253133372E-02 a       629     0    32     1     9
  2.4208655553593049E-02 a       630     0    32     1    10
 -6.9662295617856709E-02 a       631     0    32     1    11
 -1.1103108072184096E-02 a       632     0    32     1    12
  3.8651598295185711E-02 a       633     0    32     1    13
 -4.1022864447779660E-02 a       634     0    32     1    14
  1.0909068834129948E-01 a       635     0    32     1    15
  1.1144115942742880E-03 a       636     0    32     1    16
  6.7312015868131639E-02 a       637     0    32     1    17
  9.1534346047694344E-03 a       638     0    32     1    18
  2.4819513956577152E-02 a       639     0    32     1    19
 -1.0678225042152061E-01 a       640     0    32     1    20
  5.5604771738131747E-02 a       641     0    33     1     1
 -7.1754948549718020E-02 a       642     0    33     1     2
 -2.3779619149390589E-02 a       643     0    33     1     3
 -4.1112437091232856E-02 a       644     0    33     1     4
  7.8541265712993052E-02 a       645     0    33     1     5
  1.8412921684563019E-01 a       646     0    33     1     6
  4.7454751803191871E-02 a       647     0    33     1     7
 -1.1015856437767374E-01 a       648     0    33     1     8
  2.1805193599358542E-02 a       649     0    33     1     9
  1.2198372854476195E-02 a       650     0    33     1    10
  1.8102186987141791E-01 a       651     0    33     1    11
 -2.1940925222965990E-01 a       652     0    33     1    12
 -3.9687389725880498E-02 a       653     0    33     1    13
  1.0265681346605356E-01 a       654     0    33     1    14
  1.0285853137683752E-01 a       655     0    33     1    15
 -3.7804914975745341E-02 a       656     0    33     1    16
  1.8593546917199807E-03 a       657     0    33     1    17
  1.4578934936090223E-02 a       658     0    33     1    18
  2.6207486494754909E-02 a       659     0    33     1    19
 -6.0580438452842604E-02 a       660     0    33     1    20
  4.4223137206216664E-02 a       661     0    34     1     1
  7.4158536795695318E-03 a       662     0    34     1     2
  6.8633309693190453E-02 a       663     0    34     1     3
  2.9480491237728380E-02 a       664     0    34     1     4
 -5.3809018264831303E-02 a       665     0    34     1     5
 -1.0140765145447690E-02 a       666     0    34     1     6
 -2.4581139922819358E-02 a       667     0    34     1     7
  1.5354740306186929E-02 a       668     0    34     1     8
 -5.8057142049753291E-02 a       669     0    34     1     9
  7.3848236009985812E-03 a       670     0    34     1    10
 -7.2129066006852705E-02 a       671     0    34     1    11
  1.3585075274572209E-01 a       672     0    34     1    12
 -1.0470856516564807E-01 a       673     0    34     1    13
 -1.1997311341807136E-01 a       674     0    34     1    14
 -7.7837469757467163E-03 a       675     0    34     1    15
 -8.7764215693520390E-03 a       676     0    34     1    16
 -1.0888173885155697E-01 a       677     0    34     1    17
 -3.6715661818537249E-02 a       678     0    34     1    18
 -5.9050974104041275E-02 a       679     0    34     1    19
  1.5162146501800250E-01 a       680     0    34     1    20
 -5.9151967244342157E-02 a       681     0    35     1     1
 -5.0335369735457720E-02 a       682     0    35     1     2
  2.0036775304680975E-02 a       683     0    35     1     3
  9.2728534935240421E-03 a       684     0    35     1     4
 -3.4360546417367271E-03 a       685     0    35     1     5
  1.7860009276732239E-01 a       686     0    35     1     6
 -6.4482726999389145E-02 a       687     0    35     1     7
  4.3916180972955500E-02 a       688     0    35     1     8
  4.5908245436960565E-02 a       689     0    35     1     9
  1.8314542106198088E-02 a       690     0    35     1    10
 -8.2950063881822703E-02 a       691     0    35     1    11
 -4.6537507199661730E-02 a       692     0    35     1    12
 -1.0901900489703678E-01 a       693     0    35     1    13
  2.5209615995546022E-02 a       694     0    35     1    14
  2.5514020648490992E-02 a       695     0    35     1    15
 -2.8765522460175462E-02 a       696     0    35     1    16
  7.9684406070059249E-02 a       697     0    35     1    17
  2.5870830130810011E-03 a       698     0    35     1    18
 -8.4409847414960992E-03 a       699     0    35     1    19
  1.2642957477023211E-02 a       700     0    35     1    20
 -1.2167929232018249E-01 a       701     0    36     1     1
  1.9388255347408698E-01 a       702     0    36     1     2
  2.0793845358578888E-01 a       703     0    36     1     3
  7.1794455582336866E-02 a       704     0    36     1     4
 -1.4147882579936630E-01 a       705     0    36     1     5
 -1.6451631632312863E-01 a       706     0    36     1     6
  3.3163802469509632E-02 a       707     0    36     1     7
 -1.3946256002385365E-01 a       708     0    36     1     8
  8.9332569479735585E-02 a       709     0    36     1     9
  1.4798331459268058E-01 a       710     0    36     1    10
 -5.8096413205961102E-02 a       711     0    36     1    11
  1.2494465580115315E-01 a       712     0    36     1    12
  5.7227006644192731E-02 a       713     0    36     1    13
 -2.2538266597764832E-02 a       714     0    36     1    14
  8.3444375812155455E-02 a       715     0    36     1    15
  1.2055890411949620E-01 a       716     0    36     1    16
  8.2154967261548070E-02 a       717     0    36     1    17
 -8.8854015692272151E-02 a       718     0    36     1    18
 -5.7067905320473095E-02 a       719     0    36     1    19
  2.6734166009562320E-02 a       720     0    36     1    20
 -4.2801244938927112E-02 a       721     0    37     1     1
  6.3852414798881860E-02 a       722     0    37     1     2
  8.5708994971625332E-02 a       723     0    37     1     3
 -1.6616550453363205E-02 a       724     0    37     1     4
 -1.1296594961893353E-01 a       725     0    37     1     5
 -1.1998488178297888E-02 a       726     0    37     1     6
 -1.2200554804354502E-01 a       727     0    37     1     7
 -7.0429043148304560E-02 a       728     0    37     1     8
 -1.0545888872094268E-01 a       729     0    37     1     9
 -4.1775287437255976E-02 a       730     0    37     1    10
 -8.1772773811110092E-03 a       731     0    37     1    11
 -7.7197279958018172E-02 a       732     0    37     1    12
 -9.3707069716731872E-02 a       733     0    37     1    13
  1.3839458072683266E-02 a       734     0    37     1    14
 -1.0790718638842507E-01 a       735     0    37     1    15
  3.9297249339306277E-02 a       736     0    37     1    16
  1.6285122002574724E-02 a       737     0    37     1    17
 -2.9698879334560137E-02 a       738     0    37     1    18
  6.9314070009121917E-02 a       739     0    37     1    19
 -2.8261568189621680E-02 a       740     0    37     1    20
 -6.7349527367274356E-02 a       741     0    38     1     1
  4.8429278503136714E-03 a       742     0    38     1     2
  3.0079062799876752E-02 a       743     0    38     1     3
  1.4892347585805303E-03 a       744     0    38     1     4
 -1.2057091680255526E-01 a       745     0    38     1     5
  2.2157685246071521E-01 a       746     0    38     1     6
 -3.4311320579113368E-02 a       747     0    38     1     7
 -1.1650070997579980E-01 a       748     0    38     1     8
 -5.2994767851086297E-02 a       749     0    38     1     9
  2.1554723909001476E-02 a       750     0    38     1    10
 -1.7641270063512141E-01 a       751     0    38     1    11
  1.1703257079350768E-01 a       752     0    38     1    12
 -5.3168626298980656E-02 a       753     0    38     1    13
 -9.3314763370926215E-02 a       754     0    38     1    14
  1.8706709781010775E-02 a       755     0    38     1    15
 -2.8126338492244059E-02 a       756     0    38     1    16
  1.9981094965320029E-01 a       757     0    38     1    17
 -9.3938091732371665E-02 a       758     0    38     1    18
 -3.2024145101457756E-05 a       759     0    38     1    19
  6.7818921691867387E-02 a       760     0    38     1    20
  5.5976836975255198E-02 a       761     0    39     1     1
  2.4186455180337012E-02 a       762     0    39     1     2
 -9.3430919368449813E-02 a       763     0    39     1     3
 -2.5790260530035948E-02 a       764     0    39     1     4
  5.3632024575145508E-02 a       765     0    39     1     5
 -1.9327560218803214E-01 a       766     0    39     1     6
  1.9759870250092047E-02 a       767     0    39     1     7
  5.3432643853908487E-02 a       768     0    39     1     8
  2.7319750535438111E-02 a       769     0    39     1     9
 -5.9425583678354064E-02 a       770     0    39     1    10
  5.0581990208801379E-02 a       771     0    39     1    11
 -4.8740860183882203E-03 a       772     0    39     1    12
  3.7210391979329439E-02 a       773     0    39     1    13
  8.8971054838527672E-02 a       774     0    39     1    14
 -4.0878611982520387E-02 a       775     0    39     1    15
  4.3824480624757002E-02 a       776     0    39     1    16
 -2.6577331171526736E-02 a       777     0    39     1    17
  6.9853949930054199E-02 a       778     0    39     1    18
 -1.9596614543891042E-02 a       779     0    39     1    19
 -1.2027719184985103E-01 a       780     0    39     1    20
  7.9521357697131853E-02 a       781     0    40     1     1
  2.2652018138043073E-01 a       782     0    40     1     2
 -5.4685522290431422E-02 a       783     0    40     1     3
 -2.9491937492868124E-02 a       784     0    40     1     4
  2.1541909069981904E-02 a       785     0    40     1     5
  1.7214497263572848E-01 a       786     0    40     1     6
 -9.3630445421118199E-03 a       787     0    40     1     7
 -6.9849456799952317E-02 a       788     0    40     1     8
 -7.2063513366907819E-02 a       789     0    40     1     9
 -1.8782280255984430E-02 a       790     0    40     1    10
 -3.5953918299588231E-02 a       791     0    40     1    11
  3.5652162310028677E-02 a       792     0    40     1    12
 -3.5307124628803706E-02 a       793     0    40     1    13
 -2.0920664319517307E-02 a       794     0    40     1    14
 -1.6170294207423375E-02 a       795     0    40     1    15
  9.3827319659017892E-03 a       796     0    40     1    16
 -7.7311811500504840E-02 a       797     0    40     1    17
 -5.4854716015391852E-02 a       798     0    40     1    18
 -3.0137478462564891E-02 a       799     0    40     1    19
 -9.1632283876341258E-02 a       800     0    40     1    20
  2.9778397952602884E-02 a       801     0    41     1     1
 -4.9154054113462069E-02 a       802     0    41     1     2
 -3.1599276296544146E-02 a       803     0    41     1     3
 -4.2117933409688536E-02 a       804     0    41     1     4
  1.6158165148730300E-01 a       805     0    41     1     5
 -1.6700751555746277E-01 a       806     0    41     1     6
  6.9507158405609972E-03 a       807     0    41     1     7
  8.1120639338930073E-02 a       808     0    41     1     8
 -1.3147109195127044E-01 a       809     0    41     1     9
 -1.5622699924268699E-01 a       810     0    41     1    10
  5.7876866137908153E-03 a       811     0    41     1    11
 -8.0205012996534444E-02 a       812     0    41     1    12
 -8.5940276595349793E-02 a       813     0    41     1    13
  1.5213615040441010E-02 a       814     0    41     1    14
 -1.2332543040266260E-01 a       815     0    41     1    15
 -8.8249646449345021E-02 a       816     0    41     1    16
 -1.0465922938061847E-01 a       817     0    41     1    17
  2.4570994078111690E-02 a       818     0    41     1    18
  1.5336924104222624E-01 a       819     0    41     1    19
 -6.5764305426582528E-02 a       820     0    41     1    20
  2.3834603534196044E-02 a       821     0    42     1     1
 -1.5523860766923945E-02 a       822     0    42     1     2
 -4.2939041025186711E-02 a       823     0    42     1     3
 -5.7869129426044476E-03 a       824     0    42     1     4
  7.2219230666169518E-02 a       825     0    42     1     5
 -1.8045633333622105E-01 a       826     0    42     1     6
  1.1075852327750775E-01 a       827     0    42     1     7
  4.7447480782154723E-02 a       828     0    42     1     8
  9.5269598100362785E-02 a       829     0    42     1     9
  3.5097477367819756E-02 a       830     0    42     1    10
  1.3330058283515243E-02 a       831     0    42     1    11
  8.4133552036900358E-02 a       832     0    42     1    12
  9.8798603136660432E-02 a       833     0    42     1    13
 -1.2726408126167795E-02 a       834     0    42     1    14
  8.9545145933202328E-02 a       835     0    42     1    15
 -3.6794678097826446E-02 a       836     0    42     1    16
  7.2342274870029460E-03 a       837     0    42     1    17
  1.4850072371997834E-02 a       838     0    42     1    18
 -8.5995139331841941E-02 a       839     0    42     1    19
  4.5242586317241304E-02 a       840     0    42     1    20
  2.5547916156417296E-02 a       841     0    43     1     1
  5.6895401286007567E-03 a       842     0    43     1     2
 -2.0376846824912281E-02 a       843     0    43     1     3
  3.4780953916768958E-04 a       844     0    43     1     4
  6.7414698277534296E-02 a       845     0    43     1     5
  1.0518901652387124E-02 a       846     0    43     1     6
 -4.7354879116388434E-03 a       847     0    43     1     7
  4.2324552729639989E-02 a       848     0    43     1     8
  2.1824605534569216E-02 a       849     0    43     1     9
 -1.0118384832674431E-02 a       850     0    43     1    10
  7.3205173278496988E-02 a       851     0    43     1    11
 -6.6850849527587936E-02 a       852     0    43     1    12
 -6.6812984018999586E-02 a       853     0    43     1    13
  3.6049903726911373E-02 a       854     0    43     1    14
 -5.3997744062619932E-03 a       855     0    43     1    15
 -9.3373715278796173E-03 a       856     0    43     1    16
 -7.4921835682579888E-02 a       857     0    43     1    17
  4.7147751326450750E-02 a       858     0    43     1    18
 -1.4183961068337747E-02 a       859     0    43     1    19
 -4.1122197041994449E-02 a       860     0    43     1    20
 -4.5585076659719538E-02 a       861     0    44     1     1
  5.2680461671028127E-02 a       862     0    44     1     2
  1.1700363483350680E-01 a       863     0    44     1     3
  5.3078834231706949E-03 a       864     0    44     1     4
  2.1717184930124079E-02 a       865     0    44     1     5
  9.4681269894201267E-02 a       866     0    44     1     6
 -3.1020742848875418E-02 a       867     0    44     1     7
  4.8623239988229268E-02 a       868     0    44     1     8
 -7.9511199224766335E-02 a       869     0    44     1     9
 -8.5062901925325243E-03 a       870     0    44     1    10
  1.9272548827598549E-02 a       871     0    44     1    11
 -1.8105997462857504E-02 a       872     0    44     1    12
 -5.1035319405966423E-02 a       873     0    44     1    13
 -5.3991077573662213E-02 a       874     0    44     1    14
 -3.9706973135169778E-02 a       875     0    44     1    15
 -7.0077735298011215E-02 a       876     0    44     1    16
 -1.6844148602746793E-02 a       877     0    44     1    17
 -5.8652272833397509E-02 a       878     0    44     1    18
  5.8904552365285377E-02 a       879     0    44     1    19
  9.7956597432461393E-02 a       880     0    44     1    20
 -2.6044855350441633E-02 a       881     0    45     1     1
  1.6008666879700029E-02 a       882     0    45     1     2
 -3.1139245832627152E-03 a       883     0    45     1     3
 -1.1574461638824980E-02 a       884     0    45     1     4
 -2.0202997598778586E-02 a       885     0    45     1     5
 -1.0866713209400919E-01 a       886     0    45     1     6
 -8.1481783183595679E-04 a       887     0    45     1     7
  1.3177216931215246E-02 a       888     0    45     1     8
  2.2440178812779587E-03 a       889     0    45     1     9
 -1.7966749346906275E-03 a       890     0    45     1    10
  1.7655334319197535E-01 a       891     0    45     1    11
  2.5613227579465558E-02 a       892     0    45     1    12
 -5.8753420155003254E-02 a       893     0    45     1    13
  2.0213458980908861E-02 a       894     0    45     1    14
 -5.5773044883327952E-03 a       895     0    45     1    15
 -9.0889795139577484E-03 a       896     0    45     1    16
 -2.2158908132697382E-02 a       897     0    45     1    17
  1.3826942852549899E-04 a       898     0    45     1    18
 -2.2943515899337581E-02 a       899     0    45     1    19
  1.5678835408330916E-01 a       900     0    45     1    20
  2.6145129010684068E-02 a       901     0    46     1     1
  1.0878018171255743E-01 a       902     0    46     1     2
  7.1425757797057982E-03 a       903     0    46     1     3
 -1.1740370903432084E-02 a       904     0    46     1     4
  5.0881319937498677E-02 a       905     0    46     1     5
 -4.3630161752305954E-02 a       906     0    46     1     6
  1.3477648209309081E-02 a       907     0    46     1     7
  2.2565814704526368E-02 a       908     0    46     1     8
  1.5882473503883155E-02 a       909     0    46     1     9
  2.9640250437730782E-02 a       910     0    46     1    10
 -7.7611526256220364E-02 a       911     0    46     1    11
  2.5306306696647726E-02 a       912     0    46     1    12
  4.5613533910564129E-02 a       913     0    46     1    13
  1.4971978424285097E-02 a       914     0    46     1    14
  3.6116495569488503E-02 a       915     0    46     1    15
  3.4072023858370701E-02 a       916     0    46     1    16
 -3.9920230155331464E-02 a       917     0    46     1    17
  3.0014913003002285E-03 a       918     0    46     1    18
  2.6991050005400342E-02 a       919     0    46     1    19
 -7.2991338660955224E-02 a       920     0    46     1    20
 -4.4992459708180582E-02 a       921     0    47     1     1
  2.3255493285624339E-02 a       922     0    47     1     2
  4.5902584815590571E-02 a       923     0    47     1     3
  1.5395711572345596E-02 a       924     0    47     1     4
 -1.3738660031377289E-01 a       925     0    47     1     5
  1.6190434588987342E-02 a       926     0    47     1     6
 -4.6608962026198519E-02 a       927     0    47     1     7
 -7.8558956917307118E-02 a       928     0    47     1     8
 -5.4821969737607674E-02 a       929     0    47     1     9
 -7.0129833965714644E-03 a       930     0    47     1    10
 -7.9842765623190412E-02 a       931     0    47     1    11
 -2.0683276583178128E-02 a       932     0    47     1    12
 -1.0717194231500399E-01 a       933     0    47     1    13
 -1.7294311288080602E-03 a       934     0    47     1    14
 -5.8011921768068131E-02 a       935     0    47     1    15
  5.1685411765306014E-03 a       936     0    47     1    16
  3.3925200586940360E-02 a       937     0    47     1    17
 -5.5600104705786475E-02 a       938     0    47     1    18
  4.6560972298402593E-02 a       939     0    47     1    19
 -2.1995457909445272E-02 a       940     0    47     1    20
 -2.6740342333442649E-02 a       941     0    48     1     1
 -1.1232489452029469E-01 a       942     0    48     1     2
  1.3991489630130170E-02 a       943     0    48     1     3
  1.7282393596709843E-03 a       944     0    48     1     4
 -7.2880196327461677E-02 a       945     0    48     1     5
  1.2059507157249537E-01 a       946     0    48     1     6
  8.5698706177100518E-03 a       947     0    48     1     7
 -7.8316711566095931E-02 a       948     0    48     1     8
  1.2177961602024095E-02 a       949     0    48     1     9
  9.8060359331873532E-03 a       950     0    48     1    10
 -1.7999866877962407E-02 a       951     0    48     1    11
 -3.2499113477745964E-02 a       952     0    48     1    12
  7.8610323535885110E-02 a       953     0    48     1    13
 -2.4236560473147681E-02 a       954     0    48     1    14
  3.2781396285420129E-02 a       955     0    48     1    15
 -8.2038082838971245E-03 a       956     0    48     1    16
  1.1953458704163120E-01 a       957     0    48     1    17
 -2.9532328257940253E-02 a       958     0    48     1    18
 -1.3581405869170159E-02 a       959     0    48     1    19
  1.1091056501272428E-02 a       960     0    48     1    20
  2.8374192219342873E-02 a       961     0    49     1     1
  1.3897035498481172E-01 a       962     0    49     1     2
 -2.9964867476044973E-02 a       963     0    49     1     3
 -1.6915440214739876E-02 a       964     0    49     1     4
 -9.2465395720011927E-03 a       965     0    49     1     5
 -1.6531469322593362E-01 a       966     0    49     1     6
 -5.7821263743245369E-03 a       967     0    49     1     7
  2.1297832073870911E-03 a       968     0    49     1     8
 -2.7712112236462451E-02 a       969     0    49     1     9
 -1.0432936350550591E-02 a       970     0    49     1    10
 -2.6759909369628101E-02 a       971     0    49     1    11
  5.7924167575043040E-02 a       972     0    49     1    12
 -5.2387786797265141E-02 a       973     0    49     1    13
  2.2946547462852854E-02 a       974     0    49     1    14
 -1.7264275906765967E-02 a       975     0    49     1    15
  1.1640670700023031E-02 a       976     0    49     1    16
 -3.6876155588656846E-02 a       977     0    49     1    17
 -2.0113019517285068E-03 a       978     0    49     1    18
  2.4450470638436592E-03 a       979     0    49     1    19
 -2.2178860269201836E-02 a       980     0    49     1    20
  2.8984350887476341E-02 a       981     0    50     1     1
 -1.1883964093117208E-01 a       982     0    50     1     2
  1.1943238265066944E-02 a       983     0    50     1     3
  1.2675654561273524E-02 a       984     0    50     1     4
 -4.7507982126752675E-02 a       985     0    50     1     5
  1.1354455408700291E-01 a       986     0    50     1     6
 -3.9358309003606436E-02 a       987     0    50     1     7
  8.2075854811282378E-02 a       988     0    50     1     8
  1.6852330471301472E-02 a       989     0    50     1     9
  3.8398046829188813E-02 a       990     0    50     1    10
 -9.9726181451155554E-02 a       991     0    50     1    11
  1.9600583618681722E-02 a       992     0    50     1    12
  4.0325267649648437E-02 a       993     0    50     1    13
 -1.2696816686809673E-02 a       994     0    50     1    14
  2.8056023616345474E-02 a       995     0    50     1    15
 -5.7301379979318393E-03 a       996     0    50     1    16
  7.8881587572082867E-03 a       997     0    50     1    17
  4.8830848633885038E-02 a       998     0    50     1    18
 -1.9600337436253813E-02 a       999     0    50     1    19
 -5.2503156983278926E-02 a      1000     0    50     1    20
 -5.4790930320322541E-02 a      1001     0    51     1     1
  2.1272699272695816E-01 a      1002     0    51     1     2
  2.8438569336095043E-01 a      1003     0    51     1     3
 -1.3739763830570539E-01 a      1004     0    51     1     4
 -1.2455713980582329E-01 a      1005     0    51     1     5
 -1.1851464323247362E-02 a      1006     0    51     1     6
 -7.9186739603332390E-02 a      1007     0    51     1     7
  1.3820997127241183E-01 a      1008     0    51     1     8
 -5.3759450241968064E-02 a      1009     0    51     1     9
  1.8027570747398844E-02 a      1010     0    51     1    10
  1.4381650722751965E-01 a      1011     0    51     1    11
  1.7473222268438920E-01 a      1012     0    51     1    12
  1.8294388476531062E-01 a      1013     0    51     1    13
  4.0150846262513237E-02 a      1014     0    51     1    14
 -1.2240522279781260E-01 a      1015     0    51     1    15
 -5.3197055713208777E-02 a      1016     0    51     1    16
  1.4353740581216812E-01 a      1017     0    51     1    17
  1.4015671054717585E-01 a      1018     0    51     1    18
  1.2319326333055601E-02 a      1019     0    51     1    19
  2.0126064720907802E-01 a      1020     0    51     1    20
 -6.2171591186947629E-02 a      1021     0    52     1     1
  6.5463302137245230E-02 a      1022     0    52     1     2
  4.8993979968947339E-02 a      1023     0    52     1     3
  7.6052145008075181E-02 a      1024     0    52     1     4
 -1.8231288609936422E-01 a      1025     0    52     1     5
 -1.4194858850982567E-01 a      1026     0    52     1     6
  1.6423597870442669E-01 a      1027     0    52     1     7
 -2.2621924340660290E-01 a      1028     0    52     1     8
  1.1283776974685467E-01 a      1029     0    52     1     9
  1.2923640009428949E-01 a      1030     0    52     1    10
  5.8455736149047026E-02 a      1031     0    52     1    11
  9.1809754696506776E-02 a      1032     0    52     1    12
 -7.3393781168646088E-02 a      1033     0    52     1    13
 -1.0444975088148983E-02 a      1034     0    52     1    14
 -4.3129036476027394E-02 a      1035     0    52     1    15
  8.4266038170931604E-02 a      1036     0    52     1    16
 -1.7412710496533815E-02 a      1037     0    52     1    17
 -1.2906471022856444E-01 a      1038     0    52     1    18
 -1.2075732208177382E-02 a      1039     0    52     1    19
 -9.1678430102411099E-02 a      1040     0    52     1    20
 -1.2250111378981271E-01 a      1041     0    53     1     1
 -5.3090289973789360E-02 a      1042     0    53     1     2
 -3.3843893815632425E-01 a      1043     0    53     1     3
  1.6760396018014428E-01 a      1044     0    53     1     4
  1.4447533003800736E-01 a      1045     0    53     1     5
 -2.7024843999984471E-01 a      1046     0    53     1     6
  6.9410063230223404E-02 a      1047     0    53     1     7
 -2.6074715904185192E-01 a      1048     0    53     1     8
  2.4647119603621828E-02 a      1049     0    53     1     9
  7.8392026876574608E-02 a      1050     0    53     1    10
  1.8052803516112631E-01 a      1051     0    53     1    11
 -1.5492490853066310E-01 a      1052     0    53     1    12
  4.4528407563412409E-01 a      1053     0    53     1    13
 -4.2993069297831199E-01 a      1054     0    53     1    14
  5.7218617116695947E-01 a      1055     0    53     1    15
 -2.6264378919083098E-01 a      1056     0    53     1    16
  4.0906551146059106E-01 a      1057     0    53     1    17
 -1.8855881552277451E-01 a      1058     0    53     1    18
  2.9780733537311432E-01 a      1059     0    53     1    19
 -6.1639895056369270E-02 a      1060     0    53     1    20
 -2.1380132787260597E-02 a      1061     0    54     1     1
  4.3464406786877754E-02 a      1062     0    54     1     2
  8.3967669846264664E-02 a      1063     0    54     1     3
 -1.7446352023681229E-02 a      1064     0    54     1     4
 -1.0417709827892374E-01 a      1065     0    54     1     5
 -1.3322583970654747E-01 a      1066     0    54     1     6
 -1.4184844961440280E-02 a      1067     0    54     1     7
  2.0732080203598829E-01 a      1068     0    54     1     8
  9.6537278050698019E-02 a      1069     0    54     1     9
  6.1985838007379002E-02 a      1070     0    54     1    10
  2.7078321804984137E-02 a      1071     0    54     1    11
  1.1745266953618883E-01 a      1072     0    54     1    12
 -1.7974969775550846E-02 a      1073     0    54     1    13
  2.1057788184235260E-02 a      1074     0    54     1    14
 -1.7825030578319967E-02 a      1075     0    54     1    15
  4.3997236821905747E-02 a      1076     0    54     1    16
 -2.1258944843361055E-01 a      1077     0    54     1    17
  1.3932298547697058E-01 a      1078     0    54     1    18
  3.1033260985929175E-02 a      1079     0    54     1    19
  3.8867746091450196E-02 a      1080     0    54     1    20
 -6.3190876101963583E-02 a      1081     0    55     1     1
 -2.1543091653071583E-01 a      1082     0    55     1     2
 -3.1190341825352123E-02 a      1083     0    55     1     3
  6.5920739976662618E-02 a      1084     0    55     1     4
 -2.3673469707934758E-01 a      1085     0    55     1     5
 -8.4479419974384795E-02 a      1086     0    55     1     6
  1.4817015184978960E-02 a      1087     0    55     1     7
 -1.3239339640646666E-01 a      1088     0    55     1     8
 -8.1443767161727812E-02 a      1089     0    55     1     9
  5.9977060294513107E-02 a      1090     0    55     1    10
  1.3568848869830122E-01 a      1091     0    55     1    11
 -4.2739701540863720E-02 a      1092     0    55     1    12
 -1.1267265423652101E-01 a      1093     0    55     1    13
 -1.1127646617185601E-02 a      1094     0    55     1    14
 -2.8828797236082292E-02 a      1095     0    55     1    15
 -1.0659600214696419E-01 a      1096     0    55     1    16
  4.1897286737614509E-01 a      1097     0    55     1    17
 -4.1772552004860658E-02 a      1098     0    55     1    18
 -1.6232099031333942E-02 a      1099     0    55     1    19
 -1.1683511102510446E-03 a      1100     0    55     1    20
 -8.6172614727141120E-02 a      1101     0    56     1     1
  7.8815151192177024E-02 a      1102     0    56     1     2
  4.5443417483085380E-01 a      1103     0    56     1     3
 -2.2807942867453926E-01 a      1104     0    56     1     4
 -9.4694951000247787E-02 a      1105     0    56     1     5
 -1.4285727996817138E-01 a      1106     0    56     1     6
 -2.3766233710543985E-01 a      1107     0    56     1     7
  7.6638189256204803E-02 a      1108     0    56     1     8
 -2.8331583195264180E-02 a      1109     0    56     1     9
  2.2007087100555922E-01 a      1110     0    56     1    10
 -1.2167391587416415E-01 a      1111     0    56     1    11
 -3.6115048098075792E-01 a      1112     0    56     1    12
  5.1917132314577827E-02 a      1113     0    56     1    13
  1.2931447334800003E-01 a      1114     0    56     1    14
 -8.9345157782643639E-02 a      1115     0    56     1    15
 -2.5739702756307709E-01 a      1116     0    56     1    16
 -3.7550814809333852E-02 a      1117     0    56     1    17
 -6.5050119190901076E-02 a      1118     0    56     1    18
 -1.3073210753868783E-01 a      1119     0    56     1    19
 -4.6236317224077027E-02 a      1120     0    56     1    20
 -1.4235356148794545E-01 a      1121     0    57     1     1
 -5.5134267313160228E-02 a      1122     0    57     1     2
 -1.2452219654335793E-01 a      1123     0    57     1     3
  1.4406606326681343E-01 a      1124     0    57     1     4
  7.9456277031014932E-02 a      1125     0    57     1     5
 -4.2838661527969342E-02 a      1126     0    57     1     6
  1.7432857685714009E-02 a      1127     0    57     1     7
  9.6231287852451015E-03 a      1128     0    57     1     8
  1.4559722753264379E-01 a      1129     0    57     1     9
  2.8306795455842115E-01 a      1130     0    57     1    10
 -5.7603949342941378E-02 a      1131     0    57     1    11
  2.7267309724067706E-01 a      1132     0    57     1    12
 -1.6811922724679390E-01 a      1133     0    57     1    13
 -1.9515954818273631E-03 a      1134     0    57     1    14
  8.0088962591346569E-02 a      1135     0    57     1    15
 -1.8105014474185019E-01 a      1136     0    57     1    16
  2.5930554094837677E-01 a      1137     0    57     1    17
  6.0678483699363892E-02 a      1138     0    57     1    18
 -3.1172889890920502E-01 a      1139     0    57     1    19
  3.1435349973639609E-01 a      1140     0    57     1    20
  1.5764194616337515E-01 a      1141     0    58     1     1
  5.4223803102846524E-02 a      1142     0    58     1     2
 -2.0793261830628168E-01 a      1143     0    58     1     3
 -1.1868434052625774E-02 a      1144     0    58     1     4
 -7.7536930682435640E-02 a      1145     0    58     1     5
  6.9321267349671561E-02 a      1146     0    58     1     6
 -7.1985196946161706E-02 a      1147     0    58     1     7
  3.5921763862616188E-04 a      1148     0    58     1     8
  6.9349708457278281E-02 a      1149     0    58     1     9
  2.1120558403043741E-03 a      1150     0    58     1    10
  2.9866849679021444E-02 a      1151     0    58     1    11
  3.8977278698778199E-02 a      1152     0    58     1    12
  1.6083146613783630E-01 a      1153     0    58     1    13
 -2.6064654294145239E-02 a      1154     0    58     1    14
  2.2730357619729974E-01 a      1155     0    58     1    15
  7.0663522892770766E-02 a      1156     0    58     1    16
 -1.9607854893675983E-01 a      1157     0    58     1    17
  1.9416330076275887E-01 a      1158     0    58     1    18
  8.9347559680636540E-02 a      1159     0    58     1    19
 -1.7589929767485527E-01 a      1160     0    58     1    20
 -1.2896204318109863E-02 a      1161     0    59     1     1
 -1.2726153641894920E-02 a      1162     0    59     1     2
  1.1979408026148337E-02 a      1163     0    59     1     3
 -2.8771685888915849E-02 a      1164     0    59     1     4
  2.0262632290515573E-02 a      1165     0    59     1     5
 -1.1706654495096271E-01 a      1166     0    59     1     6
  5.6850298128802351E-02 a      1167     0    59     1     7
  7.9559195266745347E-02 a      1168     0    59     1     8
 -1.7893770466711164E-03 a      1169     0    59     1     9
 -1.7729175630380337E-01 a      1170     0    59     1    10
  8.2226067772792795E-03 a      1171     0    59     1    11
 -5.1863369516050632E-02 a      1172     0    59     1    12
  1.4723609087161331E-02 a      1173     0    59     1    13
 -9.9450335799548484E-02 a      1174     0    59     1    14
 -1.1088122654546193E-01 a      1175     0    59     1    15
 -2.1559725777431399E-01 a      1176     0    59     1    16
 -1.1163388744404905E-01 a      1177     0    59     1    17
  5.4134934225084870E-02 a      1178     0    59     1    18
  4.5728769430133459E-02 a      1179     0    59     1    19
 -8.5262014716770071E-02 a      1180     0    59     1    20
  2.6459059001608681E-01 a      1181     0    60     1     1
 -2.6496260827065166E-01 a      1182     0    60     1     2
  3.4863016306922417E-01 a      1183     0    60     1     3
 -3.5746769689727337E-01 a      1184     0    60     1     4
  2.3080850139567938E-01 a      1185     0    60     1     5
  3.1200315222533198E-01 a      1186     0    60     1     6
  1.0660571431807117E-01 a      1187     0    60     1     7
  2.3790033745887648E-01 a      1188     0    60     1     8
 -4.4675581566197012E-02 a      1189     0    60     1     9
 -3.3637286969080978E-02 a      1190     0    60     1    10
 -5.2991814581629659E-02 a      1191     0    60     1    11
  2.0127805755680037E-01 a      1192     0    60     1    12
 -2.0641465997896555E-01 a      1193     0    60     1    13
  6.2698291785690841E-01 a      1194     0    60     1    14
 -1.8380466878361346E-01 a      1195     0    60     1    15
  2.7888239469549669E-01 a      1196     0    60     1    16
 -1.6236789274717897E-01 a      1197     0    60     1    17
  1.2411110463899162E-01 a      1198     0    60     1    18
 -2.5810585675878278E-01 a      1199     0    60     1    19
  1.9412040590247800E-01 a      1200     0    60     1    20
  9.4837240158927458E-02 a      1201     0    61     1     1
 -2.6635067622118862E-02 a      1202     0    61     1     2
 -4.0726329042808061E-03 a      1203     0    61     1     3
 -1.2560436785712187E-02 a      1204     0    61     1     4
  2.6312624054751049E-01 a      1205     0    61     1     5
 -4.1627800911936729E-03 a      1206     0    61     1     6
 -2.2423149358352192E-02 a      1207     0    61     1     7
  1.6238685880972997E-01 a      1208     0    61     1     8
 -3.2640548932042751E-01 a      1209     0    61     1     9
  1.5168759484199831E-01 a      1210     0    61     1    10
  1.9923688347169663E-01 a      1211     0    61     1    11
  1.3773860911929772E-01 a      1212     0    61     1    12
  1.0968644535476704E-01 a      1213     0    61     1    13
 -8.7094512882682537E-02 a      1214     0    61     1    14
 -1.5385151924923479E-01 a      1215     0    61     1    15
 -1.9624550982773140E-01 a      1216     0    61     1    16
 -6.9965843247328907E-02 a      1217     0    61     1    17
  1.6222351810777352E-01 a      1218     0    61     1    18
  5.7762659301301533E-02 a      1219     0    61     1    19
  2.2906815434313468E-01 a      1220     0    61     1    20
  4.9235146498263611E-02 a      1221     0    62     1     1
  6.8983413888644346E-02 a      1222     0    62     1     2
 -4.5717935115461197E-02 a      1223     0    62     1     3
 -1.6727089356099389E-01 a      1224     0    62     1     4
 -2.1388629017118292E-02 a      1225     0    62     1     5
  2.3341692051844626E-01 a      1226     0    62     1     6
  9.6648499670136695E-02 a      1227     0    62     1     7
  9.5966027328986306E-02 a      1228     0    62     1     8
  1.1128579674509662E-01 a      1229     0    62     1     9
  1.4980007771212553E-01 a      1230     0    62     1    10
  6.1382553948133446E-02 a      1231     0    62     1    11
  7.8364630492188253E-02 a      1232     0    62     1    12
 -3.4709737112497134E-02 a      1233     0    62     1    13
  1.6183490885385621E-01 a      1234     0    62     1    14
  1.7214575644880564E-01 a      1235     0    62     1    15
 -8.6602015253160164E-02 a      1236     0    62     1    16
 -1.5778283525942671E-01 a      1237     0    62     1    17
 -4.9306959476813676E-02 a      1238     0    62     1    18
 -1.9501607853294045E-01 a      1239     0    62     1    19
  1.3544451146163486E-01 a      1240     0    62     1    20
 -1.2018379321151985E-01 a      1241     0    63     1     1
 -4.2697110824766724E-02 a      1242     0    63     1     2
 -2.5528966941551615E-02 a      1243     0    63     1     3
  4.6212659736646261E-02 a      1244     0    63     1     4
  2.7438301884906823E-03 a      1245     0    63     1     5
  7.0567960635271321E-02 a      1246     0    63     1     6
 -2.0420340887300388E-02 a      1247     0    63     1     7
  4.5256341338649787E-03 a      1248     0    63     1     8
 -1.0251712401937242E-01 a      1249     0    63     1     9
  4.8721385337531710E-02 a      1250     0    63     1    10
  2.1259856595996546E-01 a      1251     0    63     1    11
 -1.0757938890956512E-01 a      1252     0    63     1    12
  1.1861030359472580E-01 a      1253     0    63     1    13
  6.4755760757169420E-02 a      1254     0    63     1    14
 -1.5509267722706804E-02 a      1255     0    63     1    15
 -1.0635025294031980E-01 a      1256     0    63     1    16
  9.2744557082299145E-02 a      1257     0    63     1    17
  1.7157091029241585E-03 a      1258     0    63     1    18
  9.3293145865938468E-02 a      1259     0    63     1    19
  1.6901330098385481E-01 a      1260     0    63     1    20
  2.1288374309783968E-02 a      1261     0    64     1     1
 -4.0783985744743428E-02 a      1262     0    64     1     2
 -4.3053826377430909E-03 a      1263     0    64     1     3
  5.9681940317238426E-02 a      1264     0    64     1     4
 -1.1064277749201153E-01 a      1265     0    64     1     5
  7.8789357177036473E-02 a      1266     0    64     1     6
 -6.7063424378787873E-02 a      1267     0    64     1     7
  1.1989352447979307E-01 a      1268     0    64     1     8
 -2.4015609190734609E-02 a      1269     0    64     1     9
 -3.3480211605010587E-03 a      1270     0    64     1    10
 -7.8409416806820315E-02 a      1271     0    64     1    11
  6.0155310172189197E-02 a      1272     0    64     1    12
 -1.5875993285732712E-01 a      1273     0    64     1    13
 -4.3467932176121347E-02 a      1274     0    64     1    14
 -1.4118472049521208E-01 a      1275     0    64     1    15
  1.6692765331187830E-03 a      1276     0    64     1    16
 -8.5490127801268259E-02 a      1277     0    64     1    17
  7.6558547627559898E-02 a      1278     0    64     1    18
 -3.8955274363757453E-02 a      1279     0    64     1    19
 -8.2937574138455747E-03 a      1280     0    64     1    20
  3.0749839178479225E-02 a      1281     0    65     1     1
 -2.4634466804817848E-02 a      1282     0    65     1     2
 -6.3686214232578683E-02 a      1283     0    65     1     3
 -9.8844788910459284E-03 a      1284     0    65     1     4
 -3.4259892705108081E-03 a      1285     0    65     1     5
 -5.8156884369343860E-02 a      1286     0    65     1     6
  9.9550541526970404E-02 a      1287     0    65     1     7
 -8.0959311401075845E-02 a      1288     0    65     1     8
  1.3047901057671013E-01 a      1289     0    65     1     9
 -1.3569660500480102E-01 a      1290     0    65     1    10
 -1.7032947835318882E-01 a      1291     0    65     1    11
  1.4581316159927860E-01 a      1292     0    65     1    12
 -6.8092625760322323E-02 a      1293     0    65     1    13
  4.5038792664509469E-02 a      1294     0    65     1    14
 -3.1554908856477284E-02 a      1295     0    65     1    15
  1.3804987508972150E-01 a      1296     0    65     1    16
 -1.0262558033880490E-02 a      1297     0    65     1    17
  7.4874029537175937E-02 a      1298     0    65     1    18
 -5.4819273751429691E-02 a      1299     0    65     1    19
 -1.8109966882648567E-02 a      1300     0    65     1    20
 -9.9750093496943831E-02 a      1301     0    66     1     1
  8.4466289718770154E-02 a      1302     0    66     1     2
  9.1191745986797232E-02 a      1303     0    66     1     3
  9.1085678454627075E-02 a      1304     0    66     1     4
 -9.9769682745104366E-02 a      1305     0    66     1     5
 -1.1861765172862652E-01 a      1306     0    66     1     6
  5.1140178245196975E-02 a      1307     0    66     1     7
 -2.8131933336328876E-02 a      1308     0    66     1     8
  2.0745418227235804E-01 a      1309     0    66     1     9
  2.1895883676296907E-01 a      1310     0    66     1    10
  5.6345984458581869E-02 a      1311     0    66     1    11
 -3.3897243089837686E-02 a      1312     0    66     1    12
  3.7366150048083672E-03 a      1313     0    66     1    13
 -2.1309168655590328E-02 a      1314     0    66     1    14
 -1.8985480649117786E-01 a      1315     0    66     1    15
  8.4803751874169095E-02 a      1316     0    66     1    16
 -1.3602863649032043E-01 a      1317     0    66     1    17
 -4.1938521150151292E-01 a      1318     0    66     1    18
 -1.6595139507252260E-01 a      1319     0    66     1    19
  4.5713081141810753E-02 a      1320     0    66     1    20
 -7.0818910013738884E-02 a      1321     0    67     1     1
  8.2245278309030223E-02 a      1322     0    67     1     2
 -1.4478959229046658E-02 a      1323     0    67     1     3
 -6.5747726266037212E-02 a      1324     0    67     1     4
 -8.4105865640340324E-02 a      1325     0    67     1     5
 -1.4560784572512325E-01 a      1326     0    67     1     6
 -1.1847120392736156E-01 a      1327     0    67     1     7
  9.0717503571443842E-02 a      1328     0    67     1     8
 -2.3758417324638908E-03 a      1329     0    67     1     9
 -5.0018292759686479E-02 a      1330     0    67     1    10
 -2.2477914796912699E-01 a      1331     0    67     1    11
 -1.0787538096995130E-03 a      1332     0    67     1    12
 -4.7126422727285983E-02 a      1333     0    67     1    13
 -1.0303941914417032E-01 a      1334     0    67     1    14
  1.1872526451424860E-01 a      1335     0    67     1    15
 -6.0414614403436734E-02 a      1336     0    67     1    16
  1.3293033592539638E-01 a      1337     0    67     1    17
 -1.3449329607679558E-01 a      1338     0    67     1    18
 -4.8909281152413171E-02 a      1339     0    67     1    19
  3.1810509812458543E-01 a      1340     0    67     1    20
 -5.0812478526939500E-02 a      1341     0    68     1     1
  1.5089246736387177E-01 a      1342     0    68     1     2
  9.6264637468300388E-03 a      1343     0    68     1     3
 -6.5279072562319476E-02 a      1344     0    68     1     4
 -1.7318220213023916E-01 a      1345     0    68     1     5
  2.6791463125212844E-01 a      1346     0    68     1     6
 -2.2955963165056592E-01 a      1347     0    68     1     7
  4.6512725468851428E-03 a      1348     0    68     1     8
 -1.0194030340366465E-01 a      1349     0    68     1     9
 -4.3803526423842920E-01 a      1350     0    68     1    10
 -3.7117809497828821E-02 a      1351     0    68     1    11
 -4.2065477362796239E-01 a      1352     0    68     1    12
 -1.7764358295020052E-01 a      1353     0    68     1    13
  1.8139779648276744E-03 a      1354     0    68     1    14
 -2.8998856229589870E-01 a      1355     0    68     1    15
 -1.3406125632942530E-02 a      1356     0    68     1    16
 -8.0660906619611047E-02 a      1357     0    68     1    17
  8.6959622828106586E-01 a      1358     0    68     1    18
  1.2872352893150613E-01 a      1359     0    68     1    19
  6.1621419636904116E-02 a      1360     0    68     1    20
 -4.5049380478876300E-02 a      1361     0    69     1     1
  9.2696729887629406E-02 a      1362     0    69     1     2
 -4.1413275575928048E-02 a      1363     0    69     1     3
  4.5040255299387710E-02 a      1364     0    69     1     4
 -1.3208627075954166E-01 a      1365     0    69     1     5
  6.1402962277434615E-02 a      1366     0    69     1     6
 -4.3567919124270174E-02 a      1367     0    69     1     7
 -2.0338947391758858E-01 a      1368     0    69     1     8
  1.9776534100649926E-03 a      1369     0    69     1     9
 -4.0921995579069552E-02 a      1370     0    69     1    10
 -1.7526096029348409E-01 a      1371     0    69     1    11
 -2.3280087653663566E-03 a      1372     0    69     1    12
 -1.2172553540461087E-01 a      1373     0    69     1    13
 -1.9392215302876221E-02 a      1374     0    69     1    14
 -7.3232604225217240E-02 a      1375     0    69     1    15
  9.6619556894133717E-03 a      1376     0    69     1    16
  1.8297981454663026E-01 a      1377     0    69     1    17
 -2.0083113230549435E-01 a      1378     0    69     1    18
 -3.9392559254579025E-02 a      1379     0    69     1    19
  4.2237434779865322E-02 a      1380     0    69     1    20
 -3.1869804766995684E-02 a      1381     0    70     1     1
 -3.9600225708803172E-02 a      1382     0    70     1     2
  1.9021011258064105E-01 a      1383     0    70     1     3
 -4.2839543286883046E-02 a      1384     0    70     1     4
  1.6206197642287115E-01 a      1385     0    70     1     5
  1.7845909753570660E-01 a      1386     0    70     1     6
 -5.1684703154165672E-02 a      1387     0    70     1     7
  2.6985257028471648E-03 a      1388     0    70     1     8
  1.2198841386495801E-02 a      1389     0    70     1     9
 -1.0297137190377599E-01 a      1390     0    70     1    10
 -1.4939717636792710E-01 a      1391     0    70     1    11
 -9.9335707680948265E-02 a      1392     0    70     1    12
 -1.3297409156971787E-01 a      1393     0    70     1    13
 -3.1293345482221360E-02 a      1394     0    70     1    14
  6.0229035272179106E-02 a      1395     0    70     1    15
  5.1924634093279978E-02 a      1396     0    70     1    16
 -1.1962584805803610E-02 a      1397     0    70     1    17
 -1.4929641444870053E-02 a      1398     0    70     1    18
  5.7894658261356494E-02 a      1399     0    70     1    19
 -7.1174003476540584E-02 a      1400     0    70     1    20
  7.3938298001981406E-03 a      1401     0    71     1     1
  1.2073481790229563E-02 a      1402     0    71     1     2
  5.5496722681107523E-02 a      1403     0    71     1     3
 -4.9627566461364236E-02 a      1404     0    71     1     4
 -3.3550760427373635E-02 a      1405     0    71     1     5
  6.4802912166250989E-02 a      1406     0    71     1     6
  2.6596366522461312E-01 a      1407     0    71     1     7
 -2.6839799584115581E-01 a      1408     0    71     1     8
  9.4416479861519631E-02 a      1409     0    71     1     9
  3.9523179290845513E-02 a      1410     0    71     1    10
  5.8889050579436629E-02 a      1411     0    71     1    11
 -1.5697259297714586E-01 a      1412     0    71     1    12
  6.2020582507294572E-02 a      1413     0    71     1    13
 -1.4814526744551321E-01 a      1414     0    71     1    14
  1.2712104331198874E-03 a      1415     0    71     1    15
  5.5721627548034010E-02 a      1416     0    71     1    16
 -4.8808744136054544E-02 a      1417     0    71     1    17
  2.4014941914513666E-01 a      1418     0    71     1    18
 -9.7871510596092087E-02 a      1419     0    71     1    19
 -1.2157695292544039E-01 a      1420     0    71     1    20
  1.5263476735201642E-01 a      1421     0    72     1     1
 -1.8962117148052102E-01 a      1422     0    72     1     2
 -1.2246197768877448E-02 a      1423     0    72     1     3
 -7.6186047426804460E-02 a      1424     0    72     1     4
  1.0464211576770187E-01 a      1425     0    72     1     5
  2.3604976106764863E-01 a      1426     0    72     1     6
  8.4965799359072391E-02 a      1427     0    72     1     7
  3.1692268390757686E-02 a      1428     0    72     1     8
 -1.1350889007738935E-01 a      1429     0    72     1     9
  4.5018848994271256E-02 a      1430     0    72     1    10
  3.3639772564483683E-01 a      1431     0    72     1    11
 -3.9051157944597105E-02 a      1432     0    72     1    12
  6.8143282815256792E-02 a      1433     0    72     1    13
  7.7903513176305894E-02 a      1434     0    72     1    14
  1.2769501356936502E-01 a      1435     0    72     1    15
  3.0185828525354329E-04 a      1436     0    72     1    16
 -1.1716601717954375E-01 a      1437     0    72     1    17
 -5.1499442908326233E-02 a      1438     0    72     1    18
 -5.3641249783914741E-02 a      1439     0    72     1    19
  1.3750603427172053E-01 a      1440     0    72     1    20
  7.4005003123704546E-02 a      1441     0    73     1     1
 -1.0509376595809378E-01 a      1442     0    73     1     2
  1.4255504672986996E-01 a      1443     0    73     1     3
 -3.3579120663498586E-02 a      1444     0    73     1     4
  1.4803216876996139E-01 a      1445     0    73     1     5
  1.7794828044428061E-02 a      1446     0    73     1     6
  1.7301993679463543E-02 a      1447     0    73     1     7
  1.8275349039721853E-01 a      1448     0    73     1     8
 -8.5977702336748132E-02 a      1449     0    73     1     9
 -2.0047458411036896E-02 a      1450     0    73     1    10
 -4.9061772233172714E-02 a      1451     0    73     1    11
  3.2636933136447256E-02 a      1452     0    73     1    12
  1.2453353864012510E-01 a      1453     0    73     1    13
 -5.3573203805903295E-04 a      1454     0    73     1    14
 -1.4621297187680027E-01 a      1455     0    73     1    15
  3.6294793084985025E-02 a      1456     0    73     1    16
  1.6440631421275995E-01 a      1457     0    73     1    17
 -8.0838840122911468E-02 a      1458     0    73     1    18
  4.3783539034664982E-02 a      1459     0    73     1    19
 -3.0665940732138706E-02 a      1460     0    73     1    20
 -6.5431163363259257E-02 a      1461     0    74     1     1
  1.4451708748988346E-01 a      1462     0    74     1     2
  6.1030887290248123E-02 a      1463     0    74     1     3
 -6.8834127778090698E-02 a      1464     0    74     1     4
 -6.1413235149490347E-02 a      1465     0    74     1     5
  4.1765473005748281E-03 a      1466     0    74     1     6
  7.5128063752088442E-02 a      1467     0    74     1     7
  3.8080923477587236E-02 a      1468     0    74     1     8
  2.1359432667604886E-02 a      1469     0    74     1     9
  7.3610735178168310E-02 a      1470     0    74     1    10
  1.2032680674829133E-01 a      1471     0    74     1    11
  2.3733416670717520E-02 a      1472     0    74     1    12
 -9.8640545188197898E-02 a      1473     0    74     1    13
  1.3120842651545012E-01 a      1474     0    74     1    14
  2.8754773758357711E-02 a      1475     0    74     1    15
 -1.1909634686636800E-02 a      1476     0    74     1    16
  7.0171761628413751E-02 a      1477     0    74     1    17
 -1.7911576122270351E-01 a      1478     0    74     1    18
 -6.6590188721488877E-02 a      1479     0    74     1    19
  1.0652285391242411E-01 a      1480     0    74     1    20
  2.5362847587795895E-01 a      1481     0    75     1     1
 -8.1864282616178868E-02 a      1482     0    75     1     2
 -1.9685876013131734E-01 a      1483     0    75     1     3
 -2.2592604049474961E-02 a      1484     0    75     1     4
  1.2100061124298202E-01 a      1485     0    75     1     5
 -4.1257840583614130E-01 a      1486     0    75     1     6
  1.6946348762483261E-02 a      1487     0    75     1     7
 -1.1003077261815788E-01 a      1488     0    75     1     8
  2.3768120571032211E-02 a      1489     0    75     1     9
  2.4338999923282081E-01 a      1490     0    75     1    10
  1.0603443226221961E-01 a      1491     0    75     1    11
 -1.1596746480323510E-02 a      1492     0    75     1    12
  8.4707612851681074E-02 a      1493     0    75     1    13
 -3.1012742934793040E-03 a      1494     0    75     1    14
  5.9890483788012883E-01 a      1495     0    75     1    15
  4.2298474971251145E-02 a      1496     0    75     1    16
 -6.2529930342783674E-02 a      1497     0    75     1    17
 -4.2101041899859787E-01 a      1498     0    75     1    18
 -3.5488791367242034E-01 a      1499     0    75     1    19
 -3.6369283162506022E-01 a      1500     0    75     1    20
  3.2242756031529256E-02 a      1501     0    76     1     1
 -1.3195909947706580E-01 a      1502     0    76     1     2
  8.9345925560500253E-03 a      1503     0    76     1     3
 -1.0036228800173597E-01 a      1504     0    76     1     4
  1.8438900024274289E-03 a      1505     0    76     1     5
  2.5245615817699442E-02 a      1506     0    76     1     6
  5.0226009704766088E-02 a      1507     0    76     1     7
  2.1908134612251046E-01 a      1508     0    76     1     8
  5.7942883087535806E-02 a      1509     0    76     1     9
 -1.7196065161683405E-01 a      1510     0    76     1    10
  1.4097080601741521E-02 a      1511     0    76     1    11
 -1.2469940768799622E-02 a      1512     0    76     1    12
 -1.3786234055046576E-01 a      1513     0    76     1    13
  2.0171696069014269E-02 a      1514     0    76     1    14
  1.8791591383824371E-01 a      1515     0    76     1    15
 -9.1404074319961878E-02 a      1516     0    76     1    16
  3.9827100022320532E-02 a      1517     0    76     1    17
  4.1900435727261563E-02 a      1518     0    76     1    18
  1.2882380257619289E-01 a      1519     0    76     1    19
  1.1059238539495192E-01 a      1520     0    76     1    20
  5.9447946668364414E-02 a      1521     0    77     1     1
 -4.6234630503277453E-02 a      1522     0    77     1     2
 -1.3123690902624246E-03 a      1523     0    77     1     3
  5.2513385638258990E-02 a      1524     0    77     1     4
 -2.5372494902461473E-02 a      1525     0    77     1     5
 -1.7261796995598547E-01 a      1526     0    77     1     6
 -2.9818960737822836E-02 a      1527     0    77     1     7
 -6.2872249742186886E-02 a      1528     0    77     1     8
 -3.9248662491416675E-02 a      1529     0    77     1     9
 -6.1103383094389091E-02 a      1530     0    77     1    10
  5.1647795480618423E-02 a      1531     0    77     1    11
  3.7787345775563939E-02 a      1532     0    77     1    12
  1.5247562341022321E-02 a      1533     0    77     1    13
 -2.5935601856200773E-02 a      1534     0    77     1    14
 -1.3964555602513362E-01 a      1535     0    77     1    15
  1.1384966663983030E-01 a      1536     0    77     1    16
 -6.4627062685784553E-02 a      1537     0    77     1    17
  6.7182597349813066E-04 a      1538     0    77     1    18
 -2.0747508112329952E-02 a      1539     0    77     1    19
  3.9471162821687585E-03 a      1540     0    77     1    20
  3.8231666106398478E-02 a      1541     0    78     1     1
  9.6842472710498534E-02 a      1542     0    78     1     2
  1.4450069411545169E-01 a      1543     0    78     1     3
 -5.8915503218208938E-02 a      1544     0    78     1     4
 -1.7511318367527529E-01 a      1545     0    78     1     5
 -1.2635083700856112E-01 a      1546     0    78     1     6
 -5.6799308687519499E-02 a      1547     0    78     1     7
 -8.1326690230671433E-02 a      1548     0    78     1     8
  7.9933505681942990E-02 a      1549     0    78     1     9
 -4.5583244625032611E-02 a      1550     0    78     1    10
 -1.9908642661255457E-01 a      1551     0    78     1    11
  8.1106525757815746E-03 a      1552     0    78     1    12
 -6.5884255246864365E-02 a      1553     0    78     1    13
 -6.5931980156883702E-02 a      1554     0    78     1    14
 -1.6154641570797313E-02 a      1555     0    78     1    15
  9.8630969750441680E-02 a      1556     0    78     1    16
  1.8474613995841457E-01 a      1557     0    78     1    17
 -2.9721792073283723E-02 a      1558     0    78     1    18
 -4.5651210319159977E-03 a      1559     0    78     1    19
 -1.4925706717306741E-01 a      1560     0    78     1    20
 -2.4846845931664502E-02 a      1561     0    79     1     1
  8.0645017894370452E-02 a      1562     0    79     1     2
 -9.3996887574256515E-03 a      1563     0    79     1     3
 -2.8921365631887574E-02 a      1564     0    79     1     4
  9.3260705780667686E-03 a      1565     0    79     1     5
  7.4268013666530436E-02 a      1566     0    79     1     6
 -8.6720012744562289E-04 a      1567     0    79     1     7
 -9.1802933877440124E-02 a      1568     0    79     1     8
  5.4991199129961685E-03 a      1569     0    79     1     9
 -2.1028743633979070E-02 a      1570     0    79     1    10
 -5.4684569431461855E-02 a      1571     0    79     1    11
 -7.5842950557684381E-03 a      1572     0    79     1    12
 -1.8697473740432408E-01 a      1573     0    79     1    13
  2.3935322518313696E-02 a      1574     0    79     1    14
  4.5733064046663906E-02 a      1575     0    79     1    15
  3.2922900166496632E-03 a      1576     0    79     1    16
 -1.0943007966438767E-01 a      1577     0    79     1    17
 -1.1181213183066158E-01 a      1578     0    79     1    18
  6.1963682320983527E-04 a      1579     0    79     1    19
 -1.5212234839419722E-01 a      1580     0    79     1    20
 -7.3273975524255602E-02 a      1581     0    80     1     1
 -6.8894402309040370E-02 a      1582     0    80     1     2
  1.2519629160020085E-02 a      1583     0    80     1     3
  5.2122676630038146E-02 a      1584     0    80     1     4
 -1.5583438185496298E-01 a      1585     0    80     1     5
  1.7073359158937731E-01 a      1586     0    80     1     6
 -1.1167731851714208E-01 a      1587     0    80     1     7
  1.3061145334668786E-01 a      1588     0    80     1     8
  1.0060606336303138E-01 a      1589     0    80     1     9
  1.4005478138179009E-01 a      1590     0    80     1    10
  3.1464855771432369E-02 a      1591     0    80     1    11
 -1.2721993001889687E-01 a      1592     0    80     1    12
 -1.1467628513643285E-01 a      1593     0    80     1    13
 -7.3818772285680678E-02 a      1594     0    80     1    14
 -4.2608741633519728E-02 a      1595     0    80     1    15
 -1.0899113277841793E-01 a      1596     0    80     1    16
 -1.3019517255426352E-01 a      1597     0    80     1    17
 -2.4324444088050456E-02 a      1598     0    80     1    18
 -1.0102880260339345E-01 a      1599     0    80     1    19
 -1.1656073406009926E-01 a      1600     0    80     1    20
  4.3478944702652539E-02 a      1601     0    81     1     1
 -8.4733663880584287E-02 a      1602     0    81     1     2
  6.8982030734353519E-03 a      1603     0    81     1     3
  1.0022811354817267E-02 a      1604     0    81     1     4
 -5.4691643476705932E-03 a      1605     0    81     1     5
  7.6851416699472902E-02 a      1606     0    81     1     6
 -5.7228639950509412E-02 a      1607     0    81     1     7
  7.4369458952534218E-02 a      1608     0    81     1     8
  1.3694147920898747E-01 a      1609     0    81     1     9
 -9.1342669730554611E-03 a      1610     0    81     1    10
  5.3390305727444465E-02 a      1611     0    81     1    11
 -7.8834148775400403E-02 a      1612     0    81     1    12
  6.2404173024227051E-02 a      1613     0    81     1    13
 -2.3221429004068341E-02 a      1614     0    81     1    14
  5.3742737916984452E-02 a      1615     0    81     1    15
  1.0783267745929910E-01 a      1616     0    81     1    16
  5.2668822752817604E-02 a      1617     0    81     1    17
  7.1811781476849674E-03 a      1618     0    81     1    18
 -1.8968450495627881E-01 a      1619     0    81     1    19
 -1.7329972793902922E-02 a      1620     0    81     1    20
 -1.3853987361743061E-01 a      1621     0    82     1     1
 -1.5793403401840936E-01 a      1622     0    82     1     2
  7.3865425302191883E-03 a      1623     0    82     1     3
