################################################################################
# Neural network connection values (weights and biases).
################################################################################
# Col  Name       Description
################################################################################
# 1    connection Neural network connection value.
# 2    t          Connection type (a = weight, b = bias).
# 3    index      Index enumerating weights.
# 4    l_s        Starting point layer (end point layer for biases).
# 5    n_s        Starting point neuron in starting layer (end point neuron for biases).
# 6    l_e        End point layer.
# 7    n_e        End point neuron in end layer.
################################################################################
#                      1 2         3     4     5     6     7
#             connection t     index   l_s   n_s   l_e   n_e
############################################################
 -2.8321258783723263E-01 a         1     0     1     1     1
  1.6406161827006091E-02 a         2     0     1     1     2
 -1.4554865589581573E-01 a         3     0     1     1     3
  5.0414852120027324E-02 a         4     0     1     1     4
 -5.2152664934590365E-01 a         5     0     1     1     5
 -1.2407816220374943E-01 a         6     0     1     1     6
  1.2951773818219880E-01 a         7     0     1     1     7
  2.0342558419943735E-01 a         8     0     1     1     8
 -3.6500993021384065E-01 a         9     0     1     1     9
  3.2971332984681057E-01 a        10     0     1     1    10
 -1.7738450591709320E-01 a        11     0     1     1    11
  8.6811749124403004E-01 a        12     0     1     1    12
 -4.3267399045208550E-02 a        13     0     1     1    13
 -4.2737684192066872E-01 a        14     0     1     1    14
  2.9626196067928084E-02 a        15     0     1     1    15
  4.7195988774489211E-01 a        16     0     1     1    16
 -2.5106898679711148E-01 a        17     0     1     1    17
  1.4764657515745613E-01 a        18     0     1     1    18
 -1.8776165674701137E-01 a        19     0     1     1    19
  2.8748504922431656E-01 a        20     0     1     1    20
  6.0583563845994205E-02 a        21     0     2     1     1
  2.1802064946606078E-01 a        22     0     2     1     2
  2.9601073840973835E-01 a        23     0     2     1     3
  3.2788863345434310E-01 a        24     0     2     1     4
 -2.9304601882273594E-02 a        25     0     2     1     5
 -1.7278861032496898E-01 a        26     0     2     1     6
 -3.2144351923312803E-01 a        27     0     2     1     7
 -1.2246839582566935E-01 a        28     0     2     1     8
  1.0892479578625733E-01 a        29     0     2     1     9
 -1.9557360080883812E-01 a        30     0     2     1    10
  7.1183671085970679E-01 a        31     0     2     1    11
  1.3630638996872399E-01 a        32     0     2     1    12
 -1.9685844296672309E-01 a        33     0     2     1    13
 -6.4551641351197220E-01 a        34     0     2     1    14
  1.2805479260525085E-01 a        35     0     2     1    15
 -2.0809712249163440E-01 a        36     0     2     1    16
 -1.0128538640695228E-01 a        37     0     2     1    17
 -1.4613372098118368E-01 a        38     0     2     1    18
  1.1230073462049006E-01 a        39     0     2     1    19
 -2.0995740227366977E-01 a        40     0     2     1    20
 -9.3491661042548552E-02 a        41     0     3     1     1
  4.6069645393142561E-01 a        42     0     3     1     2
 -5.9173988232254233E-02 a        43     0     3     1     3
  3.4344661151211708E-01 a        44     0     3     1     4
 -6.1986486651385724E-02 a        45     0     3     1     5
 -1.4738383141103820E-01 a        46     0     3     1     6
 -6.9601244705031062E-01 a        47     0     3     1     7
 -2.6807960525356872E-01 a        48     0     3     1     8
  5.3863140144974309E-01 a        49     0     3     1     9
  2.2977140492195444E-01 a        50     0     3     1    10
  3.6193477145282876E-01 a        51     0     3     1    11
 -2.2790185434925181E-01 a        52     0     3     1    12
 -8.0471952763531274E-01 a        53     0     3     1    13
 -4.9606291256808610E-01 a        54     0     3     1    14
 -1.1080705821362082E-01 a        55     0     3     1    15
 -1.3614805794208612E-01 a        56     0     3     1    16
 -6.9186325044294922E-02 a        57     0     3     1    17
  1.5231949996893906E-01 a        58     0     3     1    18
 -8.7527938703817407E-02 a        59     0     3     1    19
 -3.9784006023819117E-02 a        60     0     3     1    20
  1.2317601168609636E-02 a        61     0     4     1     1
 -2.8525619676432034E-02 a        62     0     4     1     2
 -1.3320983280490686E-01 a        63     0     4     1     3
  8.8879063790407470E-02 a        64     0     4     1     4
  1.5026322326047714E-01 a        65     0     4     1     5
  6.1213607023967422E-02 a        66     0     4     1     6
 -7.7613328190025241E-02 a        67     0     4     1     7
 -7.3228656776760617E-02 a        68     0     4     1     8
 -5.4599836966807383E-02 a        69     0     4     1     9
 -3.5674830344684578E-03 a        70     0     4     1    10
 -2.7674286064161665E-02 a        71     0     4     1    11
 -7.8496534688536748E-02 a        72     0     4     1    12
  6.0805546743960347E-02 a        73     0     4     1    13
  1.0697026768691867E-02 a        74     0     4     1    14
  1.2438818256887449E-01 a        75     0     4     1    15
 -1.0422882230580287E-01 a        76     0     4     1    16
 -1.2482816002374275E-01 a        77     0     4     1    17
  6.7370541351003649E-02 a        78     0     4     1    18
  8.3337802772287303E-03 a        79     0     4     1    19
 -2.0308365600052136E-01 a        80     0     4     1    20
  7.5506437696882089E-02 a        81     0     5     1     1
 -2.7983727778471693E-02 a        82     0     5     1     2
 -6.9263871049296918E-02 a        83     0     5     1     3
 -1.5829494020641907E-01 a        84     0     5     1     4
  6.4252798357393830E-03 a        85     0     5     1     5
 -1.1881749335609484E-01 a        86     0     5     1     6
 -1.4097603395043357E-01 a        87     0     5     1     7
  6.0568748611583689E-03 a        88     0     5     1     8
  1.0822754319722858E-01 a        89     0     5     1     9
  1.2291176690896255E-01 a        90     0     5     1    10
 -3.1515958626277790E-02 a        91     0     5     1    11
  8.1149936499449210E-02 a        92     0     5     1    12
 -1.4953518174334035E-01 a        93     0     5     1    13
 -2.3683283000960129E-01 a        94     0     5     1    14
  1.7485124336128907E-01 a        95     0     5     1    15
  5.3303984490768501E-02 a        96     0     5     1    16
 -2.1308461804794704E-01 a        97     0     5     1    17
 -1.4747299722213131E-02 a        98     0     5     1    18
 -1.5871765419521695E-02 a        99     0     5     1    19
  2.1629464937232404E-01 a       100     0     5     1    20
  6.8871693926251471E-03 a       101     0     6     1     1
 -5.5396479060232873E-02 a       102     0     6     1     2
  3.1141123865019285E-02 a       103     0     6     1     3
  7.2470546174704414E-02 a       104     0     6     1     4
  3.4973983048565838E-01 a       105     0     6     1     5
 -1.6285430370804393E-01 a       106     0     6     1     6
 -1.1823998394977547E-01 a       107     0     6     1     7
  2.1452693817732549E-01 a       108     0     6     1     8
  6.3719803964528421E-01 a       109     0     6     1     9
 -6.3687862089656044E-02 a       110     0     6     1    10
  1.5979456594086758E-02 a       111     0     6     1    11
  8.8828460305240642E-01 a       112     0     6     1    12
 -1.1217827828459874E-01 a       113     0     6     1    13
  6.6234544252901129E-01 a       114     0     6     1    14
  5.7087597559763548E-01 a       115     0     6     1    15
 -1.8448595592472007E-02 a       116     0     6     1    16
  1.2855772776368987E-01 a       117     0     6     1    17
 -2.4648051854323089E-02 a       118     0     6     1    18
  4.5887409603709978E-01 a       119     0     6     1    19
 -2.1331438306696429E-01 a       120     0     6     1    20
 -2.0006175645603044E-01 a       121     0     7     1     1
  8.0273675850309770E-02 a       122     0     7     1     2
  2.6993601779643384E-01 a       123     0     7     1     3
 -2.2785628093793586E-01 a       124     0     7     1     4
 -9.8389232222015788E-02 a       125     0     7     1     5
  2.9303094821019043E-01 a       126     0     7     1     6
  2.8228637698132136E-01 a       127     0     7     1     7
  3.9857100668823808E-02 a       128     0     7     1     8
 -2.7250116468696806E-01 a       129     0     7     1     9
 -2.4295795159846625E-01 a       130     0     7     1    10
  4.5191271012383044E-02 a       131     0     7     1    11
  1.5770438055986261E-01 a       132     0     7     1    12
  1.0441743145295473E-01 a       133     0     7     1    13
  1.0374507695670314E-01 a       134     0     7     1    14
 -4.7683731798422652E-01 a       135     0     7     1    15
  7.7426697853378981E-02 a       136     0     7     1    16
 -4.0000748576489546E-02 a       137     0     7     1    17
  8.7059694840692856E-03 a       138     0     7     1    18
 -3.2361563126843490E-01 a       139     0     7     1    19
  2.0636357652418602E-01 a       140     0     7     1    20
 -2.9896351135896178E-02 a       141     0     8     1     1
 -1.5476098393972624E-02 a       142     0     8     1     2
  1.2718641870397041E+00 a       143     0     8     1     3
 -6.6920868305792103E-01 a       144     0     8     1     4
 -6.7282680592216204E-02 a       145     0     8     1     5
  1.5039722220164964E-01 a       146     0     8     1     6
  4.9636388872944269E-02 a       147     0     8     1     7
 -6.7929282011548631E-02 a       148     0     8     1     8
 -3.9974816650539036E-01 a       149     0     8     1     9
 -2.2733038159629188E-01 a       150     0     8     1    10
  4.9455260404533302E-01 a       151     0     8     1    11
  8.3064054156222519E-02 a       152     0     8     1    12
  1.4037408336618518E-01 a       153     0     8     1    13
 -1.3758560714221085E-01 a       154     0     8     1    14
  3.5666567312312530E-01 a       155     0     8     1    15
  2.9434942788376495E-01 a       156     0     8     1    16
 -2.3076434213372918E-01 a       157     0     8     1    17
 -1.4091613378164980E+00 a       158     0     8     1    18
 -3.2826674051134480E-01 a       159     0     8     1    19
  4.4668864985886980E-01 a       160     0     8     1    20
 -1.0060167367819521E-01 a       161     0     9     1     1
 -4.1970616545684847E-02 a       162     0     9     1     2
 -8.6561080074798694E-02 a       163     0     9     1     3
  1.0433925612182071E-01 a       164     0     9     1     4
 -8.1684910288374449E-02 a       165     0     9     1     5
  1.0046266006917974E-01 a       166     0     9     1     6
  1.2552558514628898E-01 a       167     0     9     1     7
  4.1269410689409654E-02 a       168     0     9     1     8
 -6.2168192629790266E-02 a       169     0     9     1     9
 -1.4712250974399290E-02 a       170     0     9     1    10
  3.3977086919027302E-02 a       171     0     9     1    11
  1.6535900014215635E-01 a       172     0     9     1    12
  1.2679563472175276E-01 a       173     0     9     1    13
 -6.1236122694898761E-02 a       174     0     9     1    14
 -1.0162286542800432E-01 a       175     0     9     1    15
  9.7331018851560064E-02 a       176     0     9     1    16
  1.4524551296149821E-01 a       177     0     9     1    17
  2.9270962542342474E-02 a       178     0     9     1    18
 -1.0676583635369789E-01 a       179     0     9     1    19
 -7.8199075093696044E-02 a       180     0     9     1    20
 -8.9513128297427372E-02 a       181     0    10     1     1
  1.8623702198032130E-01 a       182     0    10     1     2
  3.1026772810729752E-01 a       183     0    10     1     3
 -6.9305200543118173E-02 a       184     0    10     1     4
 -2.6319601818520187E-04 a       185     0    10     1     5
  1.8566185988685655E-01 a       186     0    10     1     6
  2.0000814230648398E-01 a       187     0    10     1     7
  5.1763426788872025E-02 a       188     0    10     1     8
 -2.2093013304117307E-01 a       189     0    10     1     9
  1.0622906631155560E-01 a       190     0    10     1    10
  2.9600005628296022E-01 a       191     0    10     1    11
  7.6770172320876448E-02 a       192     0    10     1    12
 -1.1979587911746271E-01 a       193     0    10     1    13
  2.3940719850218273E-01 a       194     0    10     1    14
 -8.7386072975329770E-02 a       195     0    10     1    15
 -4.1925143468777522E-02 a       196     0    10     1    16
  1.6156598267837294E-01 a       197     0    10     1    17
 -2.1821696353440553E-01 a       198     0    10     1    18
 -1.4403128373803942E-01 a       199     0    10     1    19
 -2.2713000062612193E-01 a       200     0    10     1    20
  1.3815258041279890E-01 a       201     0    11     1     1
 -1.8655157872609268E-01 a       202     0    11     1     2
  1.2652073686020460E-01 a       203     0    11     1     3
  3.5641831607229130E-01 a       204     0    11     1     4
  3.0447256320735170E-02 a       205     0    11     1     5
  2.7226076952911349E-01 a       206     0    11     1     6
  6.9251413179968579E-02 a       207     0    11     1     7
 -2.0329334252229178E-01 a       208     0    11     1     8
 -2.8090815286026516E-01 a       209     0    11     1     9
 -2.8941184874685755E-01 a       210     0    11     1    10
 -1.3376114381121715E-01 a       211     0    11     1    11
 -1.2438487125729685E+00 a       212     0    11     1    12
 -1.5520208085794402E-02 a       213     0    11     1    13
 -7.5636032411817034E-03 a       214     0    11     1    14
 -1.2644827773827511E-01 a       215     0    11     1    15
  3.4933984641367494E-01 a       216     0    11     1    16
  1.4346412395774760E-01 a       217     0    11     1    17
  2.2577704595033091E-01 a       218     0    11     1    18
 -1.4380143709409726E-01 a       219     0    11     1    19
  8.2856834860517925E-02 a       220     0    11     1    20
  2.8555443449148144E-03 a       221     0    12     1     1
  1.5666059759743881E-01 a       222     0    12     1     2
  3.7048392872025060E-01 a       223     0    12     1     3
 -1.9934686834313792E-01 a       224     0    12     1     4
  2.3239130886287804E-02 a       225     0    12     1     5
  1.2275949703043439E-01 a       226     0    12     1     6
 -1.5180222603387108E-01 a       227     0    12     1     7
  1.8075273225416066E-01 a       228     0    12     1     8
  3.4132248110879659E-01 a       229     0    12     1     9
  6.2831907063831113E-02 a       230     0    12     1    10
 -1.2880872108589644E-01 a       231     0    12     1    11
 -3.2822819466283509E-01 a       232     0    12     1    12
 -1.9329599533819128E-01 a       233     0    12     1    13
  5.8177566012403321E-03 a       234     0    12     1    14
  8.0893877792464028E-02 a       235     0    12     1    15
 -1.6325308926681698E-01 a       236     0    12     1    16
 -9.0574804650100371E-02 a       237     0    12     1    17
  1.1506657535023172E-01 a       238     0    12     1    18
 -6.3004343079124517E-02 a       239     0    12     1    19
 -1.2089216059711233E-01 a       240     0    12     1    20
  6.1124167911073328E-02 a       241     0    13     1     1
  4.7617025454282362E-02 a       242     0    13     1     2
  3.9098322783861189E-02 a       243     0    13     1     3
  8.4789983677042019E-02 a       244     0    13     1     4
  1.6705568436472223E-01 a       245     0    13     1     5
  2.2428065629514021E-01 a       246     0    13     1     6
  2.8601755157588221E-01 a       247     0    13     1     7
  7.6176103240863616E-02 a       248     0    13     1     8
  2.6162914421289807E-01 a       249     0    13     1     9
  6.7938462608147310E-03 a       250     0    13     1    10
  1.2047468725597973E-02 a       251     0    13     1    11
 -5.4116959119329872E-02 a       252     0    13     1    12
 -5.1308291723974908E-01 a       253     0    13     1    13
 -1.6127471296199414E-01 a       254     0    13     1    14
 -4.8169152718778729E-01 a       255     0    13     1    15
 -1.6716177702040891E-01 a       256     0    13     1    16
  2.5939621854084316E-01 a       257     0    13     1    17
  1.6704358610047837E-01 a       258     0    13     1    18
  6.4872852541097065E-02 a       259     0    13     1    19
 -2.0417808276270247E-01 a       260     0    13     1    20
 -9.6157544612214638E-02 a       261     0    14     1     1
 -5.9108530056728850E-02 a       262     0    14     1     2
  9.1286288498250462E-02 a       263     0    14     1     3
  1.1568887266964584E-01 a       264     0    14     1     4
  2.4961747335663645E-01 a       265     0    14     1     5
 -1.3429653423652937E-01 a       266     0    14     1     6
 -3.1616976807239093E-02 a       267     0    14     1     7
  3.6772661606293520E-02 a       268     0    14     1     8
  1.0326623946401108E-01 a       269     0    14     1     9
 -8.1409975967195014E-02 a       270     0    14     1    10
  5.7230808502724453E-02 a       271     0    14     1    11
  1.8720408058513285E-02 a       272     0    14     1    12
 -5.9218715979514995E-02 a       273     0    14     1    13
 -1.4299464261478033E-02 a       274     0    14     1    14
  1.8491908912150001E-01 a       275     0    14     1    15
  2.3979718334404022E-02 a       276     0    14     1    16
 -2.3348144333820123E-01 a       277     0    14     1    17
 -2.0664411522865050E-02 a       278     0    14     1    18
  1.0300449777148614E-01 a       279     0    14     1    19
  6.7292425435356309E-02 a       280     0    14     1    20
 -8.4338574879215797E-02 a       281     0    15     1     1
 -8.2647356468031632E-02 a       282     0    15     1     2
  1.6012744693144862E-01 a       283     0    15     1     3
 -6.8652487591265465E-02 a       284     0    15     1     4
 -5.5691271646031625E-02 a       285     0    15     1     5
  1.0768451956554211E-01 a       286     0    15     1     6
  8.3610225177469140E-03 a       287     0    15     1     7
 -4.0372354564337930E-02 a       288     0    15     1     8
  1.5788950171327162E-01 a       289     0    15     1     9
 -1.0048847974179465E-01 a       290     0    15     1    10
  9.6575341905045756E-02 a       291     0    15     1    11
 -1.2703230520271791E-01 a       292     0    15     1    12
 -2.1464675147931547E-01 a       293     0    15     1    13
  7.4916868356001030E-03 a       294     0    15     1    14
  1.2317994647308694E-01 a       295     0    15     1    15
  9.9435453284851261E-02 a       296     0    15     1    16
  2.1536149478496644E-01 a       297     0    15     1    17
 -2.1666585733559536E-03 a       298     0    15     1    18
 -1.2524047304958896E-01 a       299     0    15     1    19
  8.1560639924309522E-02 a       300     0    15     1    20
 -4.8724467123145161E-02 a       301     0    16     1     1
  1.5607775820984918E-01 a       302     0    16     1     2
 -1.9222196032550426E-01 a       303     0    16     1     3
  4.1150151536797561E-02 a       304     0    16     1     4
 -1.0909636766185431E-01 a       305     0    16     1     5
 -9.6729910101027980E-02 a       306     0    16     1     6
 -4.6083480689876862E-03 a       307     0    16     1     7
 -1.0717840967702588E-01 a       308     0    16     1     8
  1.4816773910227628E-03 a       309     0    16     1     9
 -2.2640724851915697E-01 a       310     0    16     1    10
 -1.5893028451267413E-01 a       311     0    16     1    11
  8.1732964366392447E-01 a       312     0    16     1    12
 -1.9822403352284629E-01 a       313     0    16     1    13
  5.3940529536625592E-02 a       314     0    16     1    14
  2.6286978478501993E-01 a       315     0    16     1    15
  8.6371941679879063E-02 a       316     0    16     1    16
 -2.7728976024363017E-02 a       317     0    16     1    17
 -3.5606825045767287E-02 a       318     0    16     1    18
 -2.3835420771880914E-01 a       319     0    16     1    19
 -2.5621451618089758E-01 a       320     0    16     1    20
  2.3464867957350050E-02 a       321     0    17     1     1
 -3.2304220733970393E-02 a       322     0    17     1     2
 -2.7696070204238886E-02 a       323     0    17     1     3
 -4.9942321365697866E-02 a       324     0    17     1     4
 -1.9598088858524831E-01 a       325     0    17     1     5
  1.0661665877455151E-01 a       326     0    17     1     6
 -1.2607451684669455E-02 a       327     0    17     1     7
  1.7578667827875491E-01 a       328     0    17     1     8
 -2.4932036108894273E-01 a       329     0    17     1     9
 -2.1418462982228786E-01 a       330     0    17     1    10
  7.8371943573389266E-02 a       331     0    17     1    11
  1.1209604584251635E-01 a       332     0    17     1    12
 -1.3376838108127448E-01 a       333     0    17     1    13
 -6.2670978566704977E-02 a       334     0    17     1    14
  7.8480820262821729E-02 a       335     0    17     1    15
  4.2433691130573915E-02 a       336     0    17     1    16
 -4.9241500937778543E-02 a       337     0    17     1    17
 -2.9330724288759458E-01 a       338     0    17     1    18
  2.7202990956286344E-01 a       339     0    17     1    19
  1.1553132953543253E-01 a       340     0    17     1    20
  1.8880497806684754E-01 a       341     0    18     1     1
 -1.5524771659006517E-01 a       342     0    18     1     2
  1.5703208586594716E-01 a       343     0    18     1     3
 -9.9903662862515941E-03 a       344     0    18     1     4
 -1.1840480963267296E-02 a       345     0    18     1     5
  5.0573304411698000E-03 a       346     0    18     1     6
 -1.9048153064515919E-01 a       347     0    18     1     7
 -2.1668795387677101E-01 a       348     0    18     1     8
 -1.8449558529151161E-01 a       349     0    18     1     9
  2.1826191277887455E-01 a       350     0    18     1    10
  1.7966765107604163E-01 a       351     0    18     1    11
 -3.4153487729158015E-02 a       352     0    18     1    12
  3.2074553350830287E-01 a       353     0    18     1    13
 -1.9443899345469462E-01 a       354     0    18     1    14
  7.7524784873029273E-02 a       355     0    18     1    15
  2.4338864930277142E-02 a       356     0    18     1    16
  1.8298575732376124E-01 a       357     0    18     1    17
 -5.4325259493972078E-01 a       358     0    18     1    18
 -2.6008534732351561E-02 a       359     0    18     1    19
  2.0739183186410198E-01 a       360     0    18     1    20
  2.1637610456398063E-01 a       361     0    19     1     1
 -7.6457288337020327E-02 a       362     0    19     1     2
 -1.4730670525352010E-01 a       363     0    19     1     3
 -1.8692003841396916E-02 a       364     0    19     1     4
  7.2953730905385039E-02 a       365     0    19     1     5
 -2.3355414984068826E-03 a       366     0    19     1     6
 -7.9020002396679376E-02 a       367     0    19     1     7
  2.6102573322514205E-01 a       368     0    19     1     8
 -3.1483067111357850E-02 a       369     0    19     1     9
 -1.8296804337991884E-01 a       370     0    19     1    10
  5.6947239006162791E-03 a       371     0    19     1    11
  7.6410180728048838E-02 a       372     0    19     1    12
 -1.6590334041228425E-02 a       373     0    19     1    13
  1.5944553104186210E-01 a       374     0    19     1    14
  1.2406382253605257E-01 a       375     0    19     1    15
  1.6255186450741604E-01 a       376     0    19     1    16
 -7.7693492954282514E-03 a       377     0    19     1    17
  7.8767464967423539E-02 a       378     0    19     1    18
 -5.3149476762594038E-02 a       379     0    19     1    19
 -1.4681379113259707E-01 a       380     0    19     1    20
  1.0777871567944725E-01 a       381     0    20     1     1
 -1.7806760569909788E-01 a       382     0    20     1     2
  7.1422605204517512E-03 a       383     0    20     1     3
 -6.5412955718575170E-03 a       384     0    20     1     4
  1.4802944410310934E-01 a       385     0    20     1     5
 -1.4564154225447927E-02 a       386     0    20     1     6
  5.2241724647528735E-02 a       387     0    20     1     7
 -9.3389043770584185E-02 a       388     0    20     1     8
 -1.2956225199135341E-01 a       389     0    20     1     9
  8.9077214912538505E-02 a       390     0    20     1    10
  6.9541700303794113E-02 a       391     0    20     1    11
  1.7510091351081783E-01 a       392     0    20     1    12
 -5.6750854424861337E-02 a       393     0    20     1    13
 -6.3860722343243040E-02 a       394     0    20     1    14
 -3.4394609749657766E-02 a       395     0    20     1    15
 -1.4583523827329276E-01 a       396     0    20     1    16
 -1.3388502864388119E-01 a       397     0    20     1    17
 -1.0517047865707467E-01 a       398     0    20     1    18
 -7.5769917091889252E-02 a       399     0    20     1    19
  1.0283122549547354E-01 a       400     0    20     1    20
 -3.3694671446862064E-02 a       401     0    21     1     1
 -9.9763371484515487E-02 a       402     0    21     1     2
  1.1974399347112977E-01 a       403     0    21     1     3
  2.9456832771710312E-01 a       404     0    21     1     4
  2.0767089389382962E-01 a       405     0    21     1     5
 -1.6731065610640047E-01 a       406     0    21     1     6
  9.6325917458172164E-02 a       407     0    21     1     7
  1.3153244697832658E-01 a       408     0    21     1     8
  2.3415984738182089E-02 a       409     0    21     1     9
 -1.6481384472571958E-01 a       410     0    21     1    10
 -5.9812426415769365E-02 a       411     0    21     1    11
  3.2519371178510439E-03 a       412     0    21     1    12
 -9.2898617797464653E-02 a       413     0    21     1    13
  2.4061136749153544E-01 a       414     0    21     1    14
  3.3552883677289508E-01 a       415     0    21     1    15
 -8.5005276641328450E-03 a       416     0    21     1    16
 -1.2155379564011599E-01 a       417     0    21     1    17
  1.4439122198653229E-01 a       418     0    21     1    18
  1.8744076891264264E-01 a       419     0    21     1    19
  1.6126406392948089E-01 a       420     0    21     1    20
 -9.9032264578209933E-02 a       421     0    22     1     1
  1.4636842879645420E-01 a       422     0    22     1     2
  1.5926401742924878E-01 a       423     0    22     1     3
  1.5554756148922250E-01 a       424     0    22     1     4
  4.5008254738205383E-02 a       425     0    22     1     5
 -1.7594547735690572E-01 a       426     0    22     1     6
 -4.1442507449020987E-03 a       427     0    22     1     7
  2.8558633700687470E-02 a       428     0    22     1     8
 -3.3053432663690385E-03 a       429     0    22     1     9
 -5.5727896339224474E-03 a       430     0    22     1    10
  5.4757001866343406E-02 a       431     0    22     1    11
  6.5114805041720875E-02 a       432     0    22     1    12
  8.9749470178836013E-02 a       433     0    22     1    13
 -1.0892486300346825E-01 a       434     0    22     1    14
 -5.9524197234809728E-02 a       435     0    22     1    15
 -1.4342078558846919E-01 a       436     0    22     1    16
  6.9690211342948241E-02 a       437     0    22     1    17
  1.5537862117161383E-01 a       438     0    22     1    18
 -9.9178664876047248E-02 a       439     0    22     1    19
 -5.4621525026415214E-02 a       440     0    22     1    20
 -1.3049156896242556E-01 a       441     0    23     1     1
 -7.4764680361933553E-02 a       442     0    23     1     2
  2.1830508529876158E-01 a       443     0    23     1     3
 -1.5037456795662116E-01 a       444     0    23     1     4
  2.4413530425368004E-02 a       445     0    23     1     5
 -4.0061383903768330E-02 a       446     0    23     1     6
 -5.3305941353669417E-03 a       447     0    23     1     7
 -1.2289138499065343E-02 a       448     0    23     1     8
  3.2741527757285371E-01 a       449     0    23     1     9
  3.5550375474735479E-01 a       450     0    23     1    10
 -6.6235515919030055E-02 a       451     0    23     1    11
 -4.7030727930081673E-02 a       452     0    23     1    12
  3.7382827981675179E-02 a       453     0    23     1    13
 -2.2591920802489099E-01 a       454     0    23     1    14
 -3.7926185348093744E-01 a       455     0    23     1    15
  3.5912962447767940E-02 a       456     0    23     1    16
 -4.1879241029758756E-02 a       457     0    23     1    17
  1.2824195666925635E-02 a       458     0    23     1    18
  2.0368196575190750E-01 a       459     0    23     1    19
  1.0130869964611786E-01 a       460     0    23     1    20
  1.9711324107411260E-01 a       461     0    24     1     1
  1.6309604869328648E-01 a       462     0    24     1     2
  2.4984369408147869E-02 a       463     0    24     1     3
 -4.9805412998023053E-02 a       464     0    24     1     4
  1.3725072147604117E-01 a       465     0    24     1     5
 -3.4140358052108427E-01 a       466     0    24     1     6
  1.1919590839563861E-01 a       467     0    24     1     7
 -1.8724035355020732E-01 a       468     0    24     1     8
 -3.4197702607748980E-02 a       469     0    24     1     9
  1.4454385952830559E-01 a       470     0    24     1    10
 -2.5613579098743108E-02 a       471     0    24     1    11
 -5.2792881996701216E-03 a       472     0    24     1    12
 -1.5461850733679885E-01 a       473     0    24     1    13
  1.3216858399637248E-02 a       474     0    24     1    14
  1.3668772468495252E-01 a       475     0    24     1    15
  8.8316698865373976E-03 a       476     0    24     1    16
  2.5347550160703475E-02 a       477     0    24     1    17
 -8.4810827291521271E-02 a       478     0    24     1    18
 -8.1954299123874239E-02 a       479     0    24     1    19
  1.0371144238180920E-02 a       480     0    24     1    20
 -1.4189663831688160E-01 a       481     0    25     1     1
  9.6845255782295539E-02 a       482     0    25     1     2
  7.5747292426675814E-02 a       483     0    25     1     3
 -1.1090921380242478E-02 a       484     0    25     1     4
 -4.2481110449179328E-02 a       485     0    25     1     5
 -8.2121136166020917E-02 a       486     0    25     1     6
 -5.0930175891042456E-02 a       487     0    25     1     7
  3.3610466449351277E-02 a       488     0    25     1     8
  8.7313823751437522E-02 a       489     0    25     1     9
  1.5158687397173629E-01 a       490     0    25     1    10
 -2.3670983418471719E-02 a       491     0    25     1    11
 -1.3971642025056130E-01 a       492     0    25     1    12
  7.5687617331056709E-02 a       493     0    25     1    13
 -4.6872066037409427E-02 a       494     0    25     1    14
 -1.1265279731860023E-01 a       495     0    25     1    15
  8.5714439846366147E-02 a       496     0    25     1    16
  9.8115250275119220E-02 a       497     0    25     1    17
  1.7942388288454413E-02 a       498     0    25     1    18
  5.7093086689708590E-02 a       499     0    25     1    19
 -1.7552598760574936E-03 a       500     0    25     1    20
  8.8805582791888868E-02 a       501     0    26     1     1
  8.9784805012251903E-02 a       502     0    26     1     2
 -1.6477706967991801E-01 a       503     0    26     1     3
 -5.9705212251642666E-02 a       504     0    26     1     4
  2.1423975184755234E-01 a       505     0    26     1     5
  1.3785416215158709E-02 a       506     0    26     1     6
 -1.5695990122192130E-01 a       507     0    26     1     7
 -6.8787583013123522E-03 a       508     0    26     1     8
 -1.1120285068097725E-01 a       509     0    26     1     9
 -3.7340776812699245E-01 a       510     0    26     1    10
  6.3273155411822050E-03 a       511     0    26     1    11
 -1.0105278972452215E-01 a       512     0    26     1    12
 -6.9243018566925121E-02 a       513     0    26     1    13
  1.5994656532038413E-02 a       514     0    26     1    14
  4.6704222634206587E-02 a       515     0    26     1    15
  1.3876378009761359E-01 a       516     0    26     1    16
  2.3574026663007427E-01 a       517     0    26     1    17
 -3.2119228660894950E-02 a       518     0    26     1    18
 -2.6680028561629465E-01 a       519     0    26     1    19
 -2.4958559348641871E-02 a       520     0    26     1    20
  8.2060236685955815E-02 a       521     0    27     1     1
 -2.2898045339575700E-02 a       522     0    27     1     2
 -7.3878434526481976E-02 a       523     0    27     1     3
 -7.3066239971214211E-02 a       524     0    27     1     4
  1.6405716266565486E-02 a       525     0    27     1     5
  1.0108634777247445E-01 a       526     0    27     1     6
 -5.6748069012166454E-02 a       527     0    27     1     7
 -6.8340904860049638E-03 a       528     0    27     1     8
 -2.7303835088889838E-02 a       529     0    27     1     9
 -1.0524938851437109E-01 a       530     0    27     1    10
 -5.2375324254652994E-02 a       531     0    27     1    11
 -3.3779645978928664E-02 a       532     0    27     1    12
  1.7542315173798912E-02 a       533     0    27     1    13
  1.9802289018319139E-02 a       534     0    27     1    14
  5.8516383208569230E-02 a       535     0    27     1    15
 -3.0503678730299576E-04 a       536     0    27     1    16
 -5.7381665847738732E-02 a       537     0    27     1    17
 -8.3929863016224238E-02 a       538     0    27     1    18
  8.3114030297610109E-02 a       539     0    27     1    19
  4.6531783855500754E-02 a       540     0    27     1    20
  1.5062041419179775E-01 a       541     0    28     1     1
  7.4486504548653548E-02 a       542     0    28     1     2
 -5.2855466154000920E-02 a       543     0    28     1     3
 -2.4037254318851164E-01 a       544     0    28     1     4
 -2.2037027282356386E-01 a       545     0    28     1     5
  1.9733769051541811E-01 a       546     0    28     1     6
  6.6728495821333125E-02 a       547     0    28     1     7
  2.8868781269437298E-02 a       548     0    28     1     8
 -1.3426681228596479E-01 a       549     0    28     1     9
  3.4020960215660212E-01 a       550     0    28     1    10
  9.8538136217555028E-02 a       551     0    28     1    11
 -1.6418833594471369E-01 a       552     0    28     1    12
  6.1960299066084711E-03 a       553     0    28     1    13
 -4.1954799161728576E-02 a       554     0    28     1    14
 -1.9564005732530509E-01 a       555     0    28     1    15
 -5.0384324919573069E-05 a       556     0    28     1    16
  1.3642635854649518E-01 a       557     0    28     1    17
 -6.8299091492817723E-02 a       558     0    28     1    18
  1.0524665877532687E-01 a       559     0    28     1    19
 -1.1915850815197374E-01 a       560     0    28     1    20
  4.0410210994297147E-02 a       561     0    29     1     1
 -9.6578935921478329E-02 a       562     0    29     1     2
 -5.8470723941552789E-02 a       563     0    29     1     3
  3.9534137193613400E-02 a       564     0    29     1     4
  7.7576416227208359E-02 a       565     0    29     1     5
  1.0391041629436726E-01 a       566     0    29     1     6
 -1.1756085213613914E-01 a       567     0    29     1     7
  1.2585764959812509E-01 a       568     0    29     1     8
 -1.0198983794886884E-01 a       569     0    29     1     9
 -1.2643201114083377E-01 a       570     0    29     1    10
  5.7775862518713264E-02 a       571     0    29     1    11
  1.1068349340254414E-01 a       572     0    29     1    12
  7.0669314847662673E-02 a       573     0    29     1    13
  9.7016369106632638E-02 a       574     0    29     1    14
  2.1530974316734205E-01 a       575     0    29     1    15
 -8.3992679921910826E-02 a       576     0    29     1    16
  9.3985973291140973E-02 a       577     0    29     1    17
  1.6175083946930630E-01 a       578     0    29     1    18
  2.3058975428175255E-02 a       579     0    29     1    19
  1.4209674196285039E-02 a       580     0    29     1    20
  1.5052247798388394E-03 a       581     0    30     1     1
 -1.1273548109207686E-01 a       582     0    30     1     2
  8.3509289177381568E-03 a       583     0    30     1     3
 -1.4339520803259015E-01 a       584     0    30     1     4
 -3.8398932758501911E-02 a       585     0    30     1     5
  2.2008752826997411E-02 a       586     0    30     1     6
  9.9693616338402628E-03 a       587     0    30     1     7
 -2.2421639927301878E-02 a       588     0    30     1     8
 -8.8733602566787834E-02 a       589     0    30     1     9
  1.2090492123715181E-01 a       590     0    30     1    10
  4.0959402115598217E-02 a       591     0    30     1    11
  5.3892353195608977E-02 a       592     0    30     1    12
 -7.7070078013977597E-02 a       593     0    30     1    13
  8.4234851948401697E-03 a       594     0    30     1    14
  1.5819372670413249E-03 a       595     0    30     1    15
 -9.1224840581494757E-02 a       596     0    30     1    16
 -3.6301801554032495E-02 a       597     0    30     1    17
 -1.6032975206774304E-02 a       598     0    30     1    18
  1.4786554688614010E-02 a       599     0    30     1    19
 -2.8372151790711363E-02 a       600     0    30     1    20
 -1.4518296752215917E-01 a       601     0    31     1     1
 -4.7208629018764200E-02 a       602     0    31     1     2
  6.8026216003090917E-02 a       603     0    31     1     3
  2.2958215949522440E-01 a       604     0    31     1     4
  2.2704902654601813E-01 a       605     0    31     1     5
  6.5228156576147001E-02 a       606     0    31     1     6
  2.0253384634586563E-01 a       607     0    31     1     7
 -6.9476702053863785E-03 a       608     0    31     1     8
  5.7004908411201947E-02 a       609     0    31     1     9
 -9.5871845234774183E-02 a       610     0    31     1    10
 -2.1117319458316811E-02 a       611     0    31     1    11
  3.7204754426068465E-01 a       612     0    31     1    12
 -1.0722810544478531E-01 a       613     0    31     1    13
  9.8307809542561714E-02 a       614     0    31     1    14
  3.3961391986315292E-01 a       615     0    31     1    15
 -1.1563246399296413E-01 a       616     0    31     1    16
  1.1271809630521629E-01 a       617     0    31     1    17
  4.3288539147732910E-02 a       618     0    31     1    18
  1.4202026763058045E-01 a       619     0    31     1    19
  8.3192985285139839E-02 a       620     0    31     1    20
 -6.3328895109980021E-02 a       621     0    32     1     1
 -7.2734122115797675E-02 a       622     0    32     1     2
  2.5570059281017393E-02 a       623     0    32     1     3
  8.5227996147294541E-03 a       624     0    32     1     4
 -1.0821533857262675E-01 a       625     0    32     1     5
  6.8874884985713949E-03 a       626     0    32     1     6
 -1.2470299870700639E-02 a       627     0    32     1     7
  7.7605352186578810E-02 a       628     0    32     1     8
  9.5178432009939747E-03 a       629     0    32     1     9
  9.0187315769583082E-02 a       630     0    32     1    10
  1.0684172544057624E-01 a       631     0    32     1    11
  2.8098887530290651E-02 a       632     0    32     1    12
 -4.2520366442848408E-02 a       633     0    32     1    13
  8.2618452794111147E-02 a       634     0    32     1    14
 -2.8982256233038968E-02 a       635     0    32     1    15
  9.5810391076844789E-03 a       636     0    32     1    16
  9.1665117244126723E-02 a       637     0    32     1    17
  9.5897309418199544E-02 a       638     0    32     1    18
 -6.7619064788259301E-03 a       639     0    32     1    19
  1.8956382212484402E-02 a       640     0    32     1    20
 -9.4947887627456554E-02 a       641     0    33     1     1
  2.2109833147679819E-02 a       642     0    33     1     2
  4.7122049186429302E-02 a       643     0    33     1     3
 -1.1632521368707045E-01 a       644     0    33     1     4
 -2.7471250222814653E-01 a       645     0    33     1     5
 -2.1524653396740104E-01 a       646     0    33     1     6
 -2.5412866660555138E-02 a       647     0    33     1     7
  2.3185004151376233E-02 a       648     0    33     1     8
  1.9703210135924870E-01 a       649     0    33     1     9
  2.2015729989202301E-01 a       650     0    33     1    10
 -4.6563543365204484E-02 a       651     0    33     1    11
 -9.2455590115461658E-02 a       652     0    33     1    12
  9.8695306899881957E-02 a       653     0    33     1    13
 -1.1652193796372209E-01 a       654     0    33     1    14
 -1.4966129687360027E-01 a       655     0    33     1    15
  9.3844223082794845E-02 a       656     0    33     1    16
 -1.0746371520324918E-01 a       657     0    33     1    17
 -5.1437575182584773E-02 a       658     0    33     1    18
  1.0753573957516378E-01 a       659     0    33     1    19
 -2.8323093906896329E-02 a       660     0    33     1    20
  1.7602462527420162E-01 a       661     0    34     1     1
  2.3852081873682304E-01 a       662     0    34     1     2
 -3.1152598790437205E-02 a       663     0    34     1     3
 -9.2350802613177102E-02 a       664     0    34     1     4
  2.0643386191983124E-01 a       665     0    34     1     5
 -8.4795458303553201E-02 a       666     0    34     1     6
  7.7167656798585185E-02 a       667     0    34     1     7
 -6.0401362106585810E-02 a       668     0    34     1     8
  8.4659636775338346E-03 a       669     0    34     1     9
 -3.1494651712862722E-03 a       670     0    34     1    10
  4.5369213890843432E-02 a       671     0    34     1    11
 -5.0877460241097468E-02 a       672     0    34     1    12
 -5.0883559699920082E-02 a       673     0    34     1    13
  2.3542691559965321E-03 a       674     0    34     1    14
 -4.8922615517506235E-02 a       675     0    34     1    15
 -6.2884435780333633E-02 a       676     0    34     1    16
 -6.0887052563228600E-02 a       677     0    34     1    17
 -6.3464481338620010E-02 a       678     0    34     1    18
 -6.3912300241464631E-02 a       679     0    34     1    19
  1.6866821561409930E-03 a       680     0    34     1    20
  8.3293166390716378E-02 a       681     0    35     1     1
  1.3800773260464358E-01 a       682     0    35     1     2
 -1.3637996555340122E-02 a       683     0    35     1     3
 -4.6766951831306844E-02 a       684     0    35     1     4
 -1.2165132051125335E-01 a       685     0    35     1     5
  1.2502595115826934E-01 a       686     0    35     1     6
  3.9714549455021328E-02 a       687     0    35     1     7
  1.2839089843836894E-02 a       688     0    35     1     8
  1.0072646152301569E-01 a       689     0    35     1     9
  1.4700438410188532E-01 a       690     0    35     1    10
 -1.1521518426201680E-03 a       691     0    35     1    11
 -1.1715465103275861E-01 a       692     0    35     1    12
  1.0802430120810542E-01 a       693     0    35     1    13
 -6.0200924842914956E-02 a       694     0    35     1    14
 -1.2692304641863955E-01 a       695     0    35     1    15
  3.0403085488428849E-02 a       696     0    35     1    16
  1.0989218500178528E-01 a       697     0    35     1    17
  3.8665767678288547E-02 a       698     0    35     1    18
  6.7401881065708769E-02 a       699     0    35     1    19
  2.0132417003535862E-02 a       700     0    35     1    20
 -6.5832337264434229E-02 a       701     0    36     1     1
  3.2823243693489185E-02 a       702     0    36     1     2
 -8.9051625767925122E-02 a       703     0    36     1     3
  1.6696130096856356E-02 a       704     0    36     1     4
  1.0402184984873433E-01 a       705     0    36     1     5
  9.9132722135210599E-02 a       706     0    36     1     6
 -1.0904330403926865E-01 a       707     0    36     1     7
  3.7808947888879861E-02 a       708     0    36     1     8
 -1.0443901697242748E-02 a       709     0    36     1     9
 -1.7321030201608767E-01 a       710     0    36     1    10
  2.5658237292047029E-02 a       711     0    36     1    11
 -1.8244448398623944E-01 a       712     0    36     1    12
  6.1381458584937716E-02 a       713     0    36     1    13
 -3.7100459492358635E-02 a       714     0    36     1    14
 -4.8005392846286514E-02 a       715     0    36     1    15
  1.3652969481284910E-01 a       716     0    36     1    16
  4.6338227645869846E-02 a       717     0    36     1    17
 -1.0950404538369192E-02 a       718     0    36     1    18
 -1.3233952784058536E-01 a       719     0    36     1    19
  2.5624799999265147E-02 a       720     0    36     1    20
  2.4621757943078071E-01 a       721     0    37     1     1
  1.0979843664640057E-01 a       722     0    37     1     2
  9.6275736763179409E-02 a       723     0    37     1     3
 -1.1262492143582226E-01 a       724     0    37     1     4
  3.3970644796813387E-02 a       725     0    37     1     5
  1.2120836436948133E-01 a       726     0    37     1     6
  8.6686587790573061E-02 a       727     0    37     1     7
 -7.8643221454911108E-02 a       728     0    37     1     8
 -3.8721674278263244E-03 a       729     0    37     1     9
  8.7691732833925895E-02 a       730     0    37     1    10
 -2.8320630465910435E-02 a       731     0    37     1    11
  5.8014209451228392E-03 a       732     0    37     1    12
  4.4667181243546059E-02 a       733     0    37     1    13
 -1.0103189378360151E-01 a       734     0    37     1    14
  3.1405598002873340E-02 a       735     0    37     1    15
 -1.1226007520287232E-01 a       736     0    37     1    16
  1.2073906287929827E-01 a       737     0    37     1    17
 -4.4250082030309641E-04 a       738     0    37     1    18
 -3.3816035283293272E-02 a       739     0    37     1    19
 -4.3243361052155621E-02 a       740     0    37     1    20
 -9.4191045833253370E-02 a       741     0    38     1     1
  6.1950244052555604E-03 a       742     0    38     1     2
 -1.7278781267391758E-02 a       743     0    38     1     3
 -1.1143628008850130E-01 a       744     0    38     1     4
 -8.6261576307174431E-02 a       745     0    38     1     5
  8.0482613935488487E-02 a       746     0    38     1     6
 -6.8790385100876280E-03 a       747     0    38     1     7
  2.8650759358649178E-02 a       748     0    38     1     8
 -7.4931161454316733E-02 a       749     0    38     1     9
  1.9057334594911512E-01 a       750     0    38     1    10
  5.4623747931710244E-02 a       751     0    38     1    11
 -6.9606369207830227E-02 a       752     0    38     1    12
  4.3463721903668900E-02 a       753     0    38     1    13
 -1.0010701447235700E-02 a       754     0    38     1    14
 -1.5805063195931066E-01 a       755     0    38     1    15
 -5.8904293727239723E-02 a       756     0    38     1    16
 -3.8095151189721905E-03 a       757     0    38     1    17
  3.7023148404721665E-02 a       758     0    38     1    18
  6.6654290122691084E-02 a       759     0    38     1    19
 -8.6009895513287540E-02 a       760     0    38     1    20
  8.3791897130492704E-02 a       761     0    39     1     1
 -4.4523185023045239E-02 a       762     0    39     1     2
  1.7089980687577579E-02 a       763     0    39     1     3
  3.6970565846841094E-02 a       764     0    39     1     4
  1.3718032846918573E-02 a       765     0    39     1     5
 -1.4468779118566168E-02 a       766     0    39     1     6
 -5.1672615812406668E-02 a       767     0    39     1     7
  6.9642815544211107E-03 a       768     0    39     1     8
 -5.2352593328380270E-02 a       769     0    39     1     9
 -1.1471146986216534E-02 a       770     0    39     1    10
 -2.0852207995925406E-02 a       771     0    39     1    11
  2.3394365848013528E-02 a       772     0    39     1    12
 -1.1076888145361815E-02 a       773     0    39     1    13
  6.0468397254609618E-02 a       774     0    39     1    14
  1.8865290024181874E-01 a       775     0    39     1    15
  4.2920947806550230E-02 a       776     0    39     1    16
  1.0895683986383745E-01 a       777     0    39     1    17
  1.1272580786776301E-02 a       778     0    39     1    18
 -1.7366636192580144E-02 a       779     0    39     1    19
 -9.3857328921664856E-03 a       780     0    39     1    20
 -7.6368877861728121E-02 a       781     0    40     1     1
 -1.6461354974633524E-01 a       782     0    40     1     2
  2.8695101543945119E-02 a       783     0    40     1     3
 -1.1056476495641097E-01 a       784     0    40     1     4
  3.9645577656806895E-02 a       785     0    40     1     5
 -1.6845478678928497E-01 a       786     0    40     1     6
 -7.5965141384456328E-02 a       787     0    40     1     7
  5.6909302296215290E-02 a       788     0    40     1     8
 -1.0727415635840773E-01 a       789     0    40     1     9
  6.5692931716795550E-02 a       790     0    40     1    10
  1.6744262322106913E-02 a       791     0    40     1    11
  6.6844055093885496E-02 a       792     0    40     1    12
 -7.3978842662940192E-02 a       793     0    40     1    13
  5.5924025096645576E-02 a       794     0    40     1    14
  4.0799813850937276E-02 a       795     0    40     1    15
 -6.5362659940336118E-02 a       796     0    40     1    16
 -6.4659398828294787E-02 a       797     0    40     1    17
  9.2252738935736517E-03 a       798     0    40     1    18
 -4.7686174394044167E-03 a       799     0    40     1    19
 -7.9494831837831154E-02 a       800     0    40     1    20
  1.1780322076820555E-01 a       801     0    41     1     1
 -1.5129984631587197E-02 a       802     0    41     1     2
  9.4317236954323078E-02 a       803     0    41     1     3
  4.9475373189353390E-02 a       804     0    41     1     4
  1.2536389508029744E-01 a       805     0    41     1     5
 -5.4398832785922606E-02 a       806     0    41     1     6
  4.1861742906741120E-02 a       807     0    41     1     7
 -1.2099667494265422E-01 a       808     0    41     1     8
 -8.3539525936706938E-02 a       809     0    41     1     9
 -9.9665858211320027E-02 a       810     0    41     1    10
 -2.8151638241828026E-02 a       811     0    41     1    11
  7.5662262359429064E-02 a       812     0    41     1    12
 -9.4369856691754225E-02 a       813     0    41     1    13
  4.8949973237703413E-02 a       814     0    41     1    14
  8.0746482130305414E-02 a       815     0    41     1    15
 -1.5156039611193659E-01 a       816     0    41     1    16
 -1.2327389431023565E-02 a       817     0    41     1    17
  2.5359970159469941E-03 a       818     0    41     1    18
 -6.9918859039881973E-02 a       819     0    41     1    19
 -4.2696565122208228E-02 a       820     0    41     1    20
  1.3304961273979050E-02 a       821     0    42     1     1
  4.7465807509390272E-02 a       822     0    42     1     2
 -1.3136150401415939E-01 a       823     0    42     1     3
 -7.0421194018051428E-02 a       824     0    42     1     4
 -8.4849872975040250E-02 a       825     0    42     1     5
 -7.2219220191477376E-02 a       826     0    42     1     6
 -3.7088819237828245E-02 a       827     0    42     1     7
  6.3677602012341308E-02 a       828     0    42     1     8
  1.0179745216390824E-02 a       829     0    42     1     9
  9.1747320041629096E-02 a       830     0    42     1    10
  5.9917276583004664E-02 a       831     0    42     1    11
 -2.2619358395035847E-02 a       832     0    42     1    12
  9.3047240265311051E-04 a       833     0    42     1    13
  9.5637253355286750E-02 a       834     0    42     1    14
  2.3531749623288512E-02 a       835     0    42     1    15
  3.9457602368996959E-02 a       836     0    42     1    16
  5.3705962932900801E-02 a       837     0    42     1    17
  1.5176930684689408E-02 a       838     0    42     1    18
  1.0517330809244121E-01 a       839     0    42     1    19
  4.3272104002331717E-02 a       840     0    42     1    20
  3.4897221122856210E-02 a       841     0    43     1     1
  2.1057236108524960E-02 a       842     0    43     1     2
  2.1972625819379681E-02 a       843     0    43     1     3
  3.5200359527535613E-02 a       844     0    43     1     4
 -1.9037689127325397E-02 a       845     0    43     1     5
 -8.0269706345602182E-02 a       846     0    43     1     6
 -6.8923141302410012E-03 a       847     0    43     1     7
 -3.4752047775863285E-02 a       848     0    43     1     8
  4.1943639701860262E-02 a       849     0    43     1     9
 -7.7381659918706186E-02 a       850     0    43     1    10
 -3.9751480239066404E-02 a       851     0    43     1    11
  1.2181544639443782E-02 a       852     0    43     1    12
 -1.4322983585607937E-03 a       853     0    43     1    13
 -1.9638405012269676E-02 a       854     0    43     1    14
  9.4211040027273249E-03 a       855     0    43     1    15
  2.0593160683971910E-02 a       856     0    43     1    16
 -6.6722396258382263E-02 a       857     0    43     1    17
 -2.4432155662217514E-02 a       858     0    43     1    18
 -1.6858068871426449E-02 a       859     0    43     1    19
  2.7014611854555878E-02 a       860     0    43     1    20
 -1.0644713804103285E-01 a       861     0    44     1     1
  9.5004259513949058E-02 a       862     0    44     1     2
 -6.4667125016469415E-02 a       863     0    44     1     3
 -1.1860124698133688E-01 a       864     0    44     1     4
  6.3229845847036434E-02 a       865     0    44     1     5
  8.8685518727640592E-02 a       866     0    44     1     6
  5.8495285383205753E-02 a       867     0    44     1     7
  8.3093034576111571E-02 a       868     0    44     1     8
  7.3338927732949991E-02 a       869     0    44     1     9
  1.0903144736188448E-01 a       870     0    44     1    10
  8.0102815568231039E-02 a       871     0    44     1    11
 -6.9958718883174917E-04 a       872     0    44     1    12
  3.6809386185050703E-02 a       873     0    44     1    13
 -2.8079799295025458E-02 a       874     0    44     1    14
 -8.9341027536325099E-02 a       875     0    44     1    15
 -3.2489338810499084E-02 a       876     0    44     1    16
 -1.5909951579656322E-02 a       877     0    44     1    17
  1.1762556002303741E-02 a       878     0    44     1    18
  7.4499877202663281E-02 a       879     0    44     1    19
  1.4366122485839876E-02 a       880     0    44     1    20
  6.0817789626562854E-02 a       881     0    45     1     1
  1.2109961639010099E-01 a       882     0    45     1     2
 -1.0242858823075608E-02 a       883     0    45     1     3
 -1.9706744768159330E-02 a       884     0    45     1     4
 -9.2893560555312185E-02 a       885     0    45     1     5
  9.1964420640248470E-02 a       886     0    45     1     6
  5.1363489040763904E-02 a       887     0    45     1     7
 -3.8299526341405793E-02 a       888     0    45     1     8
  7.0152642296562859E-02 a       889     0    45     1     9
  5.0851371049667346E-02 a       890     0    45     1    10
  1.4878663133948845E-02 a       891     0    45     1    11
 -6.7529331259523512E-02 a       892     0    45     1    12
  7.6362294666314862E-02 a       893     0    45     1    13
 -3.8289678966753872E-02 a       894     0    45     1    14
 -3.7454377633715369E-02 a       895     0    45     1    15
  7.7414817731077954E-03 a       896     0    45     1    16
  6.5625385747769591E-02 a       897     0    45     1    17
  6.1438857712707955E-03 a       898     0    45     1    18
 -8.2152539911901096E-03 a       899     0    45     1    19
  1.6832443026799045E-02 a       900     0    45     1    20
  7.4113996225683765E-02 a       901     0    46     1     1
 -5.5816147927428499E-02 a       902     0    46     1     2
 -1.1941173250769129E-02 a       903     0    46     1     3
  3.8699854874621492E-02 a       904     0    46     1     4
 -2.3466705163418974E-02 a       905     0    46     1     5
  7.8383412240656106E-02 a       906     0    46     1     6
 -1.4983279232394273E-02 a       907     0    46     1     7
  1.5631519662683807E-02 a       908     0    46     1     8
  2.3595711035550890E-02 a       909     0    46     1     9
 -3.1593292103567691E-02 a       910     0    46     1    10
  8.2011428889369048E-03 a       911     0    46     1    11
  9.8535072400722807E-03 a       912     0    46     1    12
  2.4157229109305296E-02 a       913     0    46     1    13
  4.8283670425270306E-03 a       914     0    46     1    14
  1.4716147253921901E-02 a       915     0    46     1    15
  3.0438867095145636E-02 a       916     0    46     1    16
  1.1321030055787388E-02 a       917     0    46     1    17
  1.8637683359396071E-02 a       918     0    46     1    18
 -1.6919725244278479E-02 a       919     0    46     1    19
  5.5959104655345815E-02 a       920     0    46     1    20
 -1.2021295572713107E-01 a       921     0    47     1     1
 -6.9623074358985501E-02 a       922     0    47     1     2
  6.7320249479593475E-02 a       923     0    47     1     3
  1.4356356548749050E-01 a       924     0    47     1     4
  1.3507623098209989E-01 a       925     0    47     1     5
 -2.7222381980722445E-02 a       926     0    47     1     6
 -1.6090188812787752E-02 a       927     0    47     1     7
 -7.8051642712930067E-02 a       928     0    47     1     8
 -3.7496942695264081E-02 a       929     0    47     1     9
 -1.8618370908606338E-01 a       930     0    47     1    10
 -6.4338830334310690E-02 a       931     0    47     1    11
  8.4719111820774750E-03 a       932     0    47     1    12
 -2.5468647922562707E-02 a       933     0    47     1    13
 -4.5730646996105455E-02 a       934     0    47     1    14
 -1.6792071765833787E-02 a       935     0    47     1    15
  4.4749177497169652E-04 a       936     0    47     1    16
 -9.9910094866440313E-02 a       937     0    47     1    17
 -2.7988498628561179E-02 a       938     0    47     1    18
 -9.1417488897039670E-02 a       939     0    47     1    19
 -1.3789677050487842E-02 a       940     0    47     1    20
 -1.1741136713801706E-01 a       941     0    48     1     1
  2.8544411921043303E-02 a       942     0    48     1     2
 -1.8586962486630259E-02 a       943     0    48     1     3
 -2.2012612224294344E-02 a       944     0    48     1     4
 -3.7858968891929773E-02 a       945     0    48     1     5
 -2.4451161866023585E-02 a       946     0    48     1     6
  2.2345748041310714E-02 a       947     0    48     1     7
  4.1385181136000468E-02 a       948     0    48     1     8
  3.3089277325866709E-02 a       949     0    48     1     9
  1.3008158478737147E-01 a       950     0    48     1    10
  1.4229612824752221E-02 a       951     0    48     1    11
 -1.2993686856883938E-02 a       952     0    48     1    12
  4.7491460257973399E-02 a       953     0    48     1    13
 -4.6665500679491087E-02 a       954     0    48     1    14
 -5.6033817808081011E-02 a       955     0    48     1    15
  4.9017415673129353E-02 a       956     0    48     1    16
  3.6358112652150616E-02 a       957     0    48     1    17
 -5.2777587791101171E-03 a       958     0    48     1    18
  8.3467627232180722E-02 a       959     0    48     1    19
 -3.2303495837073280E-02 a       960     0    48     1    20
  1.9587761014009342E-01 a       961     0    49     1     1
  3.2748360643800004E-02 a       962     0    49     1     2
  1.9143784378592772E-02 a       963     0    49     1     3
  4.0123085349261851E-02 a       964     0    49     1     4
  5.1941270853650086E-02 a       965     0    49     1     5
 -4.1877713852670424E-02 a       966     0    49     1     6
 -3.5891353315738499E-02 a       967     0    49     1     7
 -6.7141206350624469E-02 a       968     0    49     1     8
 -7.1983553806438852E-02 a       969     0    49     1     9
 -1.0072758920488631E-01 a       970     0    49     1    10
 -5.7356135277978511E-03 a       971     0    49     1    11
 -1.7307302334765923E-02 a       972     0    49     1    12
 -1.3374653938365438E-02 a       973     0    49     1    13
  3.8916489432982100E-02 a       974     0    49     1    14
  7.3749386824155716E-02 a       975     0    49     1    15
 -5.2039244547391575E-02 a       976     0    49     1    16
 -1.8717654313218618E-02 a       977     0    49     1    17
 -8.2389809043631954E-03 a       978     0    49     1    18
 -8.9928963506492113E-02 a       979     0    49     1    19
 -2.0784641502888713E-02 a       980     0    49     1    20
  3.2644932238341091E-02 a       981     0    50     1     1
 -3.1964314696382209E-02 a       982     0    50     1     2
 -6.2822945014245327E-04 a       983     0    50     1     3
 -1.2498783097469578E-01 a       984     0    50     1     4
  2.4052003246716275E-02 a       985     0    50     1     5
 -7.3969252047369816E-02 a       986     0    50     1     6
 -1.6551878229133132E-02 a       987     0    50     1     7
  5.2393809472005427E-02 a       988     0    50     1     8
 -3.0786302339060982E-02 a       989     0    50     1     9
  1.6303311224474182E-01 a       990     0    50     1    10
  1.3136773569566644E-03 a       991     0    50     1    11
  1.0149077711665859E-02 a       992     0    50     1    12
 -2.6130996256069398E-02 a       993     0    50     1    13
  8.9301493369940716E-03 a       994     0    50     1    14
 -7.1330544391458111E-04 a       995     0    50     1    15
 -1.6520810043449879E-02 a       996     0    50     1    16
  3.4125378599490996E-02 a       997     0    50     1    17
  2.0173388307051263E-02 a       998     0    50     1    18
  6.1160371210949520E-02 a       999     0    50     1    19
 -1.8247150220802678E-02 a      1000     0    50     1    20
 -2.4535978524910279E-01 a      1001     0    51     1     1
  2.3912848460738073E-01 a      1002     0    51     1     2
 -4.5230940447769902E-01 a      1003     0    51     1     3
 -2.3395885402319505E-01 a      1004     0    51     1     4
  1.3818708397012508E-01 a      1005     0    51     1     5
 -2.1795143768753214E-01 a      1006     0    51     1     6
 -1.5131645388149143E-01 a      1007     0    51     1     7
 -4.1890567571097860E-02 a      1008     0    51     1     8
 -1.9542504798066823E-01 a      1009     0    51     1     9
  2.5055119818819249E-01 a      1010     0    51     1    10
 -4.8426159172689061E-02 a      1011     0    51     1    11
 -5.9814887534095709E-02 a      1012     0    51     1    12
  2.4055706201315016E-01 a      1013     0    51     1    13
 -9.5993958781903005E-02 a      1014     0    51     1    14
 -7.4963486301408006E-02 a      1015     0    51     1    15
  9.3022628591186915E-03 a      1016     0    51     1    16
 -5.1358848983197813E-02 a      1017     0    51     1    17
 -7.3401491112924308E-02 a      1018     0    51     1    18
 -2.7161550566663750E-01 a      1019     0    51     1    19
 -7.0449762798753673E-02 a      1020     0    51     1    20
  1.0853656249957508E-01 a      1021     0    52     1     1
  1.6121502338948016E-01 a      1022     0    52     1     2
  2.0240841545755417E-01 a      1023     0    52     1     3
  6.4846978835300093E-02 a      1024     0    52     1     4
  2.5481833138943333E-01 a      1025     0    52     1     5
 -1.9576928043699184E-02 a      1026     0    52     1     6
  4.7571009471881934E-02 a      1027     0    52     1     7
 -1.0853367364760221E-01 a      1028     0    52     1     8
  4.4977816152517669E-02 a      1029     0    52     1     9
  1.8283662901119410E-01 a      1030     0    52     1    10
 -1.5025312132441238E-01 a      1031     0    52     1    11
 -1.4026008281639024E-01 a      1032     0    52     1    12
 -5.7213193411071797E-02 a      1033     0    52     1    13
 -1.3526255673277945E-01 a      1034     0    52     1    14
 -1.0864476901510849E-01 a      1035     0    52     1    15
  8.2582612764387858E-02 a      1036     0    52     1    16
  2.2992997812072552E-01 a      1037     0    52     1    17
 -2.0020968578621817E-01 a      1038     0    52     1    18
 -6.8556442049713645E-02 a      1039     0    52     1    19
  1.9286683050592057E-02 a      1040     0    52     1    20
 -7.4405875830390683E-02 a      1041     0    53     1     1
 -5.9701583346167819E-02 a      1042     0    53     1     2
  9.0052636317075108E-01 a      1043     0    53     1     3
 -1.7414498201466949E-01 a      1044     0    53     1     4
 -2.2242413375900622E-01 a      1045     0    53     1     5
 -1.9620713808875417E-01 a      1046     0    53     1     6
 -1.4233767374395953E-01 a      1047     0    53     1     7
 -1.8795633672958117E-01 a      1048     0    53     1     8
  1.9336949737220366E-01 a      1049     0    53     1     9
 -2.2804137342124914E-01 a      1050     0    53     1    10
  2.4845888905862931E-01 a      1051     0    53     1    11
 -1.8601847542979183E-01 a      1052     0    53     1    12
 -3.8679993546591090E-01 a      1053     0    53     1    13
  3.3809690578025645E-02 a      1054     0    53     1    14
  2.2071189425993346E-02 a      1055     0    53     1    15
 -1.0202141607263344E-01 a      1056     0    53     1    16
  5.4706504579685822E-01 a      1057     0    53     1    17
 -7.2805639722384741E-01 a      1058     0    53     1    18
  3.2360719878691163E-01 a      1059     0    53     1    19
  1.6517434095526790E-01 a      1060     0    53     1    20
 -1.3883770260362424E-01 a      1061     0    54     1     1
 -7.0078186328080563E-02 a      1062     0    54     1     2
 -8.7545624984326303E-02 a      1063     0    54     1     3
 -4.7485373217230016E-02 a      1064     0    54     1     4
  1.5680940691641251E-01 a      1065     0    54     1     5
  8.9598664537050329E-02 a      1066     0    54     1     6
 -1.3775903468522863E-01 a      1067     0    54     1     7
 -1.0508198884569731E-01 a      1068     0    54     1     8
 -3.1817981175956483E-01 a      1069     0    54     1     9
  7.8718869219396692E-02 a      1070     0    54     1    10
  2.5148665611788166E-02 a      1071     0    54     1    11
 -3.5223681630587096E-02 a      1072     0    54     1    12
  6.7597225635658231E-02 a      1073     0    54     1    13
 -3.1516120888945539E-03 a      1074     0    54     1    14
 -7.2736055415706491E-02 a      1075     0    54     1    15
 -3.6296076326290766E-01 a      1076     0    54     1    16
  9.5598171521874678E-02 a      1077     0    54     1    17
  1.6627668385299343E-01 a      1078     0    54     1    18
 -2.2887434729983872E-01 a      1079     0    54     1    19
  5.8203337697399063E-02 a      1080     0    54     1    20
 -6.9480510021362921E-02 a      1081     0    55     1     1
  8.5398976529881002E-02 a      1082     0    55     1     2
  1.1941736031394973E-01 a      1083     0    55     1     3
 -7.6195231020184190E-02 a      1084     0    55     1     4
 -8.7406492452325180E-02 a      1085     0    55     1     5
  9.3865408152861443E-02 a      1086     0    55     1     6
 -1.2211922788752314E-02 a      1087     0    55     1     7
 -3.4553063568481659E-02 a      1088     0    55     1     8
 -3.2500306922239881E-02 a      1089     0    55     1     9
  1.4547277736414213E-01 a      1090     0    55     1    10
 -1.1535713662332243E-01 a      1091     0    55     1    11
  6.8549728785299276E-03 a      1092     0    55     1    12
 -2.0631246410698253E-01 a      1093     0    55     1    13
  7.7538703750314408E-02 a      1094     0    55     1    14
  3.7274110431189521E-02 a      1095     0    55     1    15
  3.3911736945451222E-02 a      1096     0    55     1    16
 -5.1766166780408712E-02 a      1097     0    55     1    17
 -1.8197787243687688E-01 a      1098     0    55     1    18
  7.7136175570638163E-02 a      1099     0    55     1    19
 -9.0412279578718127E-02 a      1100     0    55     1    20
  3.3528624634025511E-01 a      1101     0    56     1     1
 -1.6764855814075932E-01 a      1102     0    56     1     2
  4.3173534777889884E-02 a      1103     0    56     1     3
 -3.3713454075461988E-02 a      1104     0    56     1     4
  8.0749490480699862E-02 a      1105     0    56     1     5
  8.5923836233033520E-03 a      1106     0    56     1     6
  1.6147120871663465E-01 a      1107     0    56     1     7
 -1.0816594166933763E-02 a      1108     0    56     1     8
  6.0362241227016437E-02 a      1109     0    56     1     9
 -1.1511904559717091E-01 a      1110     0    56     1    10
  1.5632143496992643E-01 a      1111     0    56     1    11
  8.4613931774128195E-02 a      1112     0    56     1    12
 -9.9694628467533172E-02 a      1113     0    56     1    13
  1.5359996416363471E-02 a      1114     0    56     1    14
  7.2202880422687160E-02 a      1115     0    56     1    15
  1.1579491577843350E-03 a      1116     0    56     1    16
 -2.1070731626052383E-01 a      1117     0    56     1    17
  3.3383194442093500E-01 a      1118     0    56     1    18
 -2.8004152503815621E-01 a      1119     0    56     1    19
  5.6894017867635434E-02 a      1120     0    56     1    20
 -7.3501184192708333E-02 a      1121     0    57     1     1
 -9.0387256557769413E-02 a      1122     0    57     1     2
 -4.5370884878552153E-01 a      1123     0    57     1     3
 -3.1260974440032535E-02 a      1124     0    57     1     4
  2.9136729990107668E-01 a      1125     0    57     1     5
  2.0574873015713445E-02 a      1126     0    57     1     6
  2.9431031737985131E-01 a      1127     0    57     1     7
 -3.0149531195971829E-01 a      1128     0    57     1     8
  2.0490923039130693E-01 a      1129     0    57     1     9
  2.6005898691008017E-01 a      1130     0    57     1    10
 -1.5364013229655099E-01 a      1131     0    57     1    11
 -1.8595484149840827E-01 a      1132     0    57     1    12
  2.6103819455322564E-03 a      1133     0    57     1    13
  2.6590970907761075E-01 a      1134     0    57     1    14
  1.3384861413692714E-01 a      1135     0    57     1    15
 -4.0236879060798612E-02 a      1136     0    57     1    16
  1.3753659685977010E-01 a      1137     0    57     1    17
  1.0818525554461343E-01 a      1138     0    57     1    18
 -3.2143423012528316E-01 a      1139     0    57     1    19
 -3.3351894695324492E-02 a      1140     0    57     1    20
  2.7140029594677773E-01 a      1141     0    58     1     1
  1.1110351590339866E-01 a      1142     0    58     1     2
 -1.3265858265748848E-01 a      1143     0    58     1     3
 -1.2070361297936244E-01 a      1144     0    58     1     4
 -1.4363357063201321E-01 a      1145     0    58     1     5
 -1.1407663379176373E-01 a      1146     0    58     1     6
 -1.9319281262667239E-02 a      1147     0    58     1     7
  9.2898485853832924E-02 a      1148     0    58     1     8
 -1.1162364299520304E-01 a      1149     0    58     1     9
 -5.8830066865320967E-04 a      1150     0    58     1    10
 -2.9894921325661152E-02 a      1151     0    58     1    11
 -7.4717384397779599E-02 a      1152     0    58     1    12
 -5.5298947872461174E-02 a      1153     0    58     1    13
 -1.3560936259100037E-01 a      1154     0    58     1    14
 -3.8520635037094561E-02 a      1155     0    58     1    15
 -1.6009308003955292E-01 a      1156     0    58     1    16
 -2.9394926973619565E-02 a      1157     0    58     1    17
 -3.1411620392604041E-02 a      1158     0    58     1    18
 -3.0716743715752594E-02 a      1159     0    58     1    19
  1.8712847188856307E-01 a      1160     0    58     1    20
  2.4374753524628355E-03 a      1161     0    59     1     1
 -5.7596930444789744E-02 a      1162     0    59     1     2
 -3.3657736310459881E-02 a      1163     0    59     1     3
 -1.1918812643681177E-01 a      1164     0    59     1     4
  7.9379501433604074E-02 a      1165     0    59     1     5
 -7.8049290891909109E-02 a      1166     0    59     1     6
 -2.3609682530555405E-02 a      1167     0    59     1     7
  8.5512163864883816E-03 a      1168     0    59     1     8
 -1.3402897527036967E-01 a      1169     0    59     1     9
 -2.0220007006084176E-02 a      1170     0    59     1    10
  1.1500760557586143E-02 a      1171     0    59     1    11
  4.4652143049765458E-04 a      1172     0    59     1    12
 -1.8479703210008314E-01 a      1173     0    59     1    13
  7.3272705307789550E-03 a      1174     0    59     1    14
  1.4636985365981406E-01 a      1175     0    59     1    15
 -8.2619319902670463E-02 a      1176     0    59     1    16
 -1.1343376666990343E-01 a      1177     0    59     1    17
 -7.8794191340782846E-02 a      1178     0    59     1    18
 -7.9079337336768724E-02 a      1179     0    59     1    19
 -4.1071430231926782E-02 a      1180     0    59     1    20
 -1.2306113041701208E-01 a      1181     0    60     1     1
 -1.8341469435776359E-01 a      1182     0    60     1     2
 -9.1258085398285438E-01 a      1183     0    60     1     3
 -6.5837035604959085E-02 a      1184     0    60     1     4
  1.5914611563487760E-01 a      1185     0    60     1     5
  2.2021363313502329E-01 a      1186     0    60     1     6
 -2.9242776153636445E-02 a      1187     0    60     1     7
  1.4519738246727770E-01 a      1188     0    60     1     8
 -3.2964330155852772E-01 a      1189     0    60     1     9
  2.0651454068493555E-01 a      1190     0    60     1    10
 -4.6164815683124988E-01 a      1191     0    60     1    11
  1.0933783342042884E-01 a      1192     0    60     1    12
  2.6901569612377463E-01 a      1193     0    60     1    13
  3.4594587719109887E-01 a      1194     0    60     1    14
  3.6918770338735529E-02 a      1195     0    60     1    15
 -5.0552255301561638E-03 a      1196     0    60     1    16
 -3.6429651842992677E-01 a      1197     0    60     1    17
  1.2142422322688404E+00 a      1198     0    60     1    18
  1.2253101531830750E-01 a      1199     0    60     1    19
 -8.3744332569747074E-02 a      1200     0    60     1    20
  1.2892635914616221E-01 a      1201     0    61     1     1
  7.3634464374925601E-02 a      1202     0    61     1     2
  2.1806969462547449E-01 a      1203     0    61     1     3
 -1.7193273502833953E-01 a      1204     0    61     1     4
 -3.0065679909899654E-02 a      1205     0    61     1     5
  4.3646705522745084E-02 a      1206     0    61     1     6
  2.6159568614400438E-02 a      1207     0    61     1     7
 -1.1338381783635655E-01 a      1208     0    61     1     8
  2.5493866331631480E-02 a      1209     0    61     1     9
  1.1225005883863309E-01 a      1210     0    61     1    10
 -1.0462853540808759E-01 a      1211     0    61     1    11
 -9.1621288191226821E-02 a      1212     0    61     1    12
 -2.2014461868403571E-03 a      1213     0    61     1    13
  4.6235251662407870E-02 a      1214     0    61     1    14
 -7.5152290579580860E-04 a      1215     0    61     1    15
  2.0295692651138808E-01 a      1216     0    61     1    16
  3.3944160798780862E-02 a      1217     0    61     1    17
  5.1398220400911229E-02 a      1218     0    61     1    18
  6.9858905166484811E-02 a      1219     0    61     1    19
  2.7099833056519064E-02 a      1220     0    61     1    20
  3.7029019053442642E-02 a      1221     0    62     1     1
  4.2355363202692519E-03 a      1222     0    62     1     2
 -3.0337486664598379E-01 a      1223     0    62     1     3
  8.6451295546333531E-02 a      1224     0    62     1     4
  1.3528631181275919E-01 a      1225     0    62     1     5
 -2.6130403138394279E-02 a      1226     0    62     1     6
  6.6151045930140286E-03 a      1227     0    62     1     7
 -6.0363235030984917E-02 a      1228     0    62     1     8
 -6.6034852609210409E-02 a      1229     0    62     1     9
  6.5311652675803467E-02 a      1230     0    62     1    10
 -1.8237849528456940E-01 a      1231     0    62     1    11
 -1.4878284457054181E-01 a      1232     0    62     1    12
  2.1143154679972390E-01 a      1233     0    62     1    13
 -4.7402816268621265E-02 a      1234     0    62     1    14
 -8.2623892618902073E-02 a      1235     0    62     1    15
  4.8229051107842896E-02 a      1236     0    62     1    16
  3.9270451875696839E-02 a      1237     0    62     1    17
  2.8013629036302651E-01 a      1238     0    62     1    18
  2.1715748011751462E-01 a      1239     0    62     1    19
  1.5977670594200660E-02 a      1240     0    62     1    20
  1.6031099490616318E-01 a      1241     0    63     1     1
 -6.0842150142771015E-02 a      1242     0    63     1     2
 -4.9729884875335889E-02 a      1243     0    63     1     3
  5.0616627200149783E-02 a      1244     0    63     1     4
  1.8647219560592947E-02 a      1245     0    63     1     5
 -5.6751141733246420E-02 a      1246     0    63     1     6
 -3.0439928274504095E-02 a      1247     0    63     1     7
  5.4933223371463500E-03 a      1248     0    63     1     8
  2.3356571265238579E-03 a      1249     0    63     1     9
  1.2330240309582018E-01 a      1250     0    63     1    10
 -9.6346830900078589E-02 a      1251     0    63     1    11
  6.0668728283530385E-02 a      1252     0    63     1    12
  8.9033726620193487E-02 a      1253     0    63     1    13
 -4.4569986522816532E-02 a      1254     0    63     1    14
  3.1126890109696340E-02 a      1255     0    63     1    15
  8.0478142879118295E-02 a      1256     0    63     1    16
 -1.7566614529443653E-01 a      1257     0    63     1    17
  2.3466773743820463E-02 a      1258     0    63     1    18
  1.8339705787343032E-02 a      1259     0    63     1    19
  1.3409887359632435E-02 a      1260     0    63     1    20
 -5.2675103947324393E-02 a      1261     0    64     1     1
  1.2593757029978594E-01 a      1262     0    64     1     2
  6.8492994048476225E-02 a      1263     0    64     1     3
 -7.5044081679809943E-02 a      1264     0    64     1     4
  3.7988790283835207E-02 a      1265     0    64     1     5
  2.1457763319447695E-02 a      1266     0    64     1     6
  4.9876312951088166E-02 a      1267     0    64     1     7
  3.5420382941694188E-02 a      1268     0    64     1     8
 -1.5688852567489569E-02 a      1269     0    64     1     9
  1.5521030700851516E-02 a      1270     0    64     1    10
  1.0129416230820679E-02 a      1271     0    64     1    11
  9.7358093623845163E-02 a      1272     0    64     1    12
 -6.6444215124435949E-02 a      1273     0    64     1    13
 -1.2812691585496087E-02 a      1274     0    64     1    14
 -3.0698208434453603E-02 a      1275     0    64     1    15
 -3.0281547633605896E-02 a      1276     0    64     1    16
 -1.0976290539430679E-01 a      1277     0    64     1    17
  1.7520313800990707E-02 a      1278     0    64     1    18
 -4.1480806946088085E-02 a      1279     0    64     1    19
  1.5866114456296914E-02 a      1280     0    64     1    20
  1.2356985399483675E-01 a      1281     0    65     1     1
  2.2672346495508275E-03 a      1282     0    65     1     2
 -1.0929126733063882E-01 a      1283     0    65     1     3
 -8.5536427218902755E-02 a      1284     0    65     1     4
 -1.0177219214626748E-01 a      1285     0    65     1     5
 -1.2507518858521496E-01 a      1286     0    65     1     6
 -7.5775923759854619E-02 a      1287     0    65     1     7
 -1.1272982274707544E-01 a      1288     0    65     1     8
  3.3838542435838835E-03 a      1289     0    65     1     9
  4.4409782486845129E-02 a      1290     0    65     1    10
 -9.7685767865878168E-03 a      1291     0    65     1    11
  1.3792880336506089E-01 a      1292     0    65     1    12
  9.8285297901758342E-02 a      1293     0    65     1    13
  2.0877713965200954E-03 a      1294     0    65     1    14
  2.8718130858673703E-02 a      1295     0    65     1    15
 -7.8376702618186606E-02 a      1296     0    65     1    16
  4.8437110613800412E-02 a      1297     0    65     1    17
 -3.3685689361831382E-02 a      1298     0    65     1    18
  7.7862906827081038E-02 a      1299     0    65     1    19
 -2.7814785965375236E-02 a      1300     0    65     1    20
  9.8708392591420002E-02 a      1301     0    66     1     1
 -2.3255180180739132E-02 a      1302     0    66     1     2
  2.2906889519915952E-01 a      1303     0    66     1     3
  3.0804658056595979E-01 a      1304     0    66     1     4
 -9.3574977695715614E-02 a      1305     0    66     1     5
 -1.6391231197306169E-01 a      1306     0    66     1     6
  2.3959803988079531E-01 a      1307     0    66     1     7
  1.2564843367277662E-01 a      1308     0    66     1     8
  6.2529272620678172E-02 a      1309     0    66     1     9
 -1.0802224061575565E-02 a      1310     0    66     1    10
 -2.1440230146599529E-01 a      1311     0    66     1    11
 -2.6135326574850470E-01 a      1312     0    66     1    12
 -5.7418743728945409E-03 a      1313     0    66     1    13
 -9.6208940326472842E-02 a      1314     0    66     1    14
 -5.0696172061213650E-02 a      1315     0    66     1    15
  1.4420077612724264E-01 a      1316     0    66     1    16
 -4.3001464355865465E-01 a      1317     0    66     1    17
  2.3290721420914207E-01 a      1318     0    66     1    18
  2.8973271105682968E-01 a      1319     0    66     1    19
 -2.5593990197461086E-01 a      1320     0    66     1    20
 -3.3505119829080648E-01 a      1321     0    67     1     1
 -8.0450158304171390E-02 a      1322     0    67     1     2
  3.8492322236414350E-03 a      1323     0    67     1     3
  3.1876680620601082E-02 a      1324     0    67     1     4
 -3.4501933128628495E-02 a      1325     0    67     1     5
 -1.5101816941938770E-01 a      1326     0    67     1     6
  5.9735246420947179E-02 a      1327     0    67     1     7
 -1.3715178616276708E-01 a      1328     0    67     1     8
  8.5114598259223559E-02 a      1329     0    67     1     9
 -8.6733692563016274E-02 a      1330     0    67     1    10
  5.0864285821041598E-02 a      1331     0    67     1    11
  1.0284412102680870E-01 a      1332     0    67     1    12
  2.9249840109456440E-03 a      1333     0    67     1    13
 -6.4927073948677264E-02 a      1334     0    67     1    14
  1.3558516055896643E-02 a      1335     0    67     1    15
 -2.6162813050116779E-02 a      1336     0    67     1    16
 -1.2988008401646300E-01 a      1337     0    67     1    17
 -1.3459115059956478E-01 a      1338     0    67     1    18
 -1.0368535913751756E-01 a      1339     0    67     1    19
 -8.1557097150132804E-02 a      1340     0    67     1    20
 -8.5384050817197729E-02 a      1341     0    68     1     1
  2.9030817822239746E-01 a      1342     0    68     1     2
 -7.2628092322196114E-01 a      1343     0    68     1     3
 -3.1033301876949870E-01 a      1344     0    68     1     4
  9.6588329285457575E-02 a      1345     0    68     1     5
 -1.1273020254194301E-01 a      1346     0    68     1     6
 -1.0391412493168961E-01 a      1347     0    68     1     7
  2.3716742072087477E-01 a      1348     0    68     1     8
  4.7057405086532805E-01 a      1349     0    68     1     9
  2.3523183439097239E-01 a      1350     0    68     1    10
  2.4623354035105352E-01 a      1351     0    68     1    11
  1.1020841781236042E+00 a      1352     0    68     1    12
  2.4137846186974946E-01 a      1353     0    68     1    13
  3.6719911294872509E-01 a      1354     0    68     1    14
 -3.5551074843663316E-01 a      1355     0    68     1    15
  1.4682754348662608E-01 a      1356     0    68     1    16
  2.3494888366032824E-02 a      1357     0    68     1    17
  4.2917819594147380E-02 a      1358     0    68     1    18
 -7.6391535000709276E-01 a      1359     0    68     1    19
  2.1252273628773702E-02 a      1360     0    68     1    20
 -1.0760157157591516E-01 a      1361     0    69     1     1
 -1.6336794650449234E-02 a      1362     0    69     1     2
  1.5767396991036922E-01 a      1363     0    69     1     3
  5.3697388185786163E-02 a      1364     0    69     1     4
  6.1999422535494189E-02 a      1365     0    69     1     5
 -1.1291979795148602E-01 a      1366     0    69     1     6
  9.9311630106743889E-02 a      1367     0    69     1     7
 -2.4201611028232112E-01 a      1368     0    69     1     8
  6.4705335823164539E-02 a      1369     0    69     1     9
  2.7769875851187932E-02 a      1370     0    69     1    10
 -1.1567399434369190E-01 a      1371     0    69     1    11
  1.3112115605742764E-02 a      1372     0    69     1    12
  3.9955451446313545E-02 a      1373     0    69     1    13
 -1.1520720092279235E-01 a      1374     0    69     1    14
 -3.7850120676284287E-02 a      1375     0    69     1    15
 -1.6551211138460273E-01 a      1376     0    69     1    16
 -4.4478964705052020E-02 a      1377     0    69     1    17
  4.8268059548304182E-02 a      1378     0    69     1    18
  1.1661121506589125E-02 a      1379     0    69     1    19
 -8.0878960149197876E-02 a      1380     0    69     1    20
  7.1484652809919808E-02 a      1381     0    70     1     1
  1.7603729169849236E-01 a      1382     0    70     1     2
 -8.4368562199795119E-02 a      1383     0    70     1     3
 -1.2653043211111448E-01 a      1384     0    70     1     4
 -2.1273872569164607E-02 a      1385     0    70     1     5
 -1.6641419450885941E-01 a      1386     0    70     1     6
 -6.2755050996392947E-02 a      1387     0    70     1     7
  2.0899073668886731E-02 a      1388     0    70     1     8
  3.4745718803742082E-02 a      1389     0    70     1     9
 -1.1524389534998200E-02 a      1390     0    70     1    10
  3.7310836644284744E-02 a      1391     0    70     1    11
 -4.0590262065131662E-03 a      1392     0    70     1    12
  6.4006199976889111E-02 a      1393     0    70     1    13
  1.0696949704286995E-01 a      1394     0    70     1    14
 -1.4267185315864118E-02 a      1395     0    70     1    15
 -1.8925230100161301E-02 a      1396     0    70     1    16
  2.2727049529998409E-02 a      1397     0    70     1    17
  3.5174698012203139E-02 a      1398     0    70     1    18
 -1.1363078412052920E-01 a      1399     0    70     1    19
  2.3434685427507859E-02 a      1400     0    70     1    20
 -8.0660870003111229E-02 a      1401     0    71     1     1
  7.8878259981342236E-02 a      1402     0    71     1     2
  3.6887406995051814E-01 a      1403     0    71     1     3
 -7.2669638397121233E-02 a      1404     0    71     1     4
  8.3064048147026129E-02 a      1405     0    71     1     5
  1.2653607358844818E-01 a      1406     0    71     1     6
 -2.1620603254945236E-01 a      1407     0    71     1     7
  6.4884327058206848E-02 a      1408     0    71     1     8
 -1.7250561651432603E-01 a      1409     0    71     1     9
  8.7177754740989544E-02 a      1410     0    71     1    10
  2.0768090350013146E-01 a      1411     0    71     1    11
 -4.5745479426322275E-02 a      1412     0    71     1    12
  1.0819959217851456E-01 a      1413     0    71     1    13
  1.8938236078267692E-01 a      1414     0    71     1    14
  1.8099617305789472E-02 a      1415     0    71     1    15
  2.3077020906783263E-02 a      1416     0    71     1    16
 -1.0632892723907772E-01 a      1417     0    71     1    17
  1.2926068512901573E-01 a      1418     0    71     1    18
 -6.5299637669134797E-02 a      1419     0    71     1    19
 -4.5223789467295772E-02 a      1420     0    71     1    20
 -4.4526469581319863E-03 a      1421     0    72     1     1
  3.2662544600553865E-02 a      1422     0    72     1     2
 -5.7114445872269715E-02 a      1423     0    72     1     3
  1.2601729952545595E-02 a      1424     0    72     1     4
  1.7078489543389502E-01 a      1425     0    72     1     5
 -1.5879862108722242E-01 a      1426     0    72     1     6
 -6.0261863465923451E-02 a      1427     0    72     1     7
  1.3018162189402332E-01 a      1428     0    72     1     8
 -2.2905326375990579E-02 a      1429     0    72     1     9
  5.5244095974224500E-02 a      1430     0    72     1    10
  6.7500133633932174E-02 a      1431     0    72     1    11
 -1.3762542405784842E-01 a      1432     0    72     1    12
  1.9418882450459887E-01 a      1433     0    72     1    13
 -8.7886381082686857E-02 a      1434     0    72     1    14
  5.7724726598018326E-02 a      1435     0    72     1    15
  8.2698337023879617E-02 a      1436     0    72     1    16
 -1.3917459231268890E-02 a      1437     0    72     1    17
  1.3927757001384947E-01 a      1438     0    72     1    18
  1.2689334865119944E-01 a      1439     0    72     1    19
  1.7959273442331340E-02 a      1440     0    72     1    20
 -5.4030206807005786E-02 a      1441     0    73     1     1
  5.7433270997162535E-02 a      1442     0    73     1     2
 -2.5589608342785782E-02 a      1443     0    73     1     3
  8.7695569590902384E-02 a      1444     0    73     1     4
  1.1392227224698449E-01 a      1445     0    73     1     5
 -1.0360144341253182E-01 a      1446     0    73     1     6
  1.7342568748520710E-02 a      1447     0    73     1     7
 -1.9527042428660127E-01 a      1448     0    73     1     8
 -1.4112514336439957E-01 a      1449     0    73     1     9
  1.3095608498430447E-01 a      1450     0    73     1    10
 -1.1698504758705405E-01 a      1451     0    73     1    11
  7.6943392209384662E-02 a      1452     0    73     1    12
 -6.2291731975593123E-02 a      1453     0    73     1    13
  8.9646425374053318E-02 a      1454     0    73     1    14
 -1.1788155030496010E-02 a      1455     0    73     1    15
 -1.3889404648903572E-01 a      1456     0    73     1    16
 -5.5128687209641078E-02 a      1457     0    73     1    17
 -3.9143976075582218E-02 a      1458     0    73     1    18
 -6.2997343932954822E-02 a      1459     0    73     1    19
 -1.4562481113230660E-01 a      1460     0    73     1    20
  7.1570388068500260E-02 a      1461     0    74     1     1
 -1.0457829654783091E-01 a      1462     0    74     1     2
 -5.4973400133326501E-02 a      1463     0    74     1     3
  3.1993448002759169E-02 a      1464     0    74     1     4
  8.4140147178615232E-02 a      1465     0    74     1     5
 -1.2218330033906370E-01 a      1466     0    74     1     6
  1.0911066686256073E-01 a      1467     0    74     1     7
  1.4494486585216957E-02 a      1468     0    74     1     8
  6.7436393610627685E-02 a      1469     0    74     1     9
  7.6666200380278701E-02 a      1470     0    74     1    10
 -7.2026679501487473E-02 a      1471     0    74     1    11
  3.8676884700409697E-02 a      1472     0    74     1    12
  1.8163843307284652E-02 a      1473     0    74     1    13
  2.9552007363816614E-02 a      1474     0    74     1    14
 -1.4141264642396709E-01 a      1475     0    74     1    15
  6.3702012113476855E-02 a      1476     0    74     1    16
  1.5449145097516689E-01 a      1477     0    74     1    17
  9.5925599819338611E-02 a      1478     0    74     1    18
  3.7227147953548236E-02 a      1479     0    74     1    19
 -1.1956315581720069E-01 a      1480     0    74     1    20
  9.6276014958258410E-02 a      1481     0    75     1     1
 -3.8680766419651236E-01 a      1482     0    75     1     2
  4.6220635009215250E-01 a      1483     0    75     1     3
  1.0809984618439562E-01 a      1484     0    75     1     4
  7.4344967811541443E-02 a      1485     0    75     1     5
  1.3030806921759516E-01 a      1486     0    75     1     6
  1.2316966002745121E-01 a      1487     0    75     1     7
 -5.2603403924522653E-02 a      1488     0    75     1     8
  1.7882939338110601E-01 a      1489     0    75     1     9
 -2.0318100558203472E-01 a      1490     0    75     1    10
  1.1657673950764968E-01 a      1491     0    75     1    11
 -4.5958694699532254E-01 a      1492     0    75     1    12
  1.5094573924971535E-01 a      1493     0    75     1    13
 -3.2439525662893359E-01 a      1494     0    75     1    14
  3.0618462066923308E-01 a      1495     0    75     1    15
 -1.5248029037844354E-01 a      1496     0    75     1    16
  1.1137334230687919E-01 a      1497     0    75     1    17
 -1.5275906109288026E-01 a      1498     0    75     1    18
  2.9556897558046935E-01 a      1499     0    75     1    19
  9.7720257393168457E-03 a      1500     0    75     1    20
 -1.8960969773800779E-01 a      1501     0    76     1     1
  1.1104505903889526E-01 a      1502     0    76     1     2
 -1.1748599970114713E-01 a      1503     0    76     1     3
  1.5367415594585440E-01 a      1504     0    76     1     4
 -1.7360608213133608E-01 a      1505     0    76     1     5
  5.5035715257575994E-03 a      1506     0    76     1     6
 -9.7352934149883177E-02 a      1507     0    76     1     7
 -2.2809165279851104E-01 a      1508     0    76     1     8
 -3.7705210474883774E-02 a      1509     0    76     1     9
  9.2643520781470423E-02 a      1510     0    76     1    10
  3.9470838454547498E-02 a      1511     0    76     1    11
 -3.9104849698034218E-02 a      1512     0    76     1    12
  1.6837663881171479E-02 a      1513     0    76     1    13
  7.9974309691703174E-02 a      1514     0    76     1    14
  3.9383230556262819E-02 a      1515     0    76     1    15
 -9.1863532637937576E-02 a      1516     0    76     1    16
  3.1319298680882457E-02 a      1517     0    76     1    17
 -2.0417534821459427E-01 a      1518     0    76     1    18
 -4.1709801868100138E-02 a      1519     0    76     1    19
  9.1176623005586988E-02 a      1520     0    76     1    20
  1.6561687284065291E-02 a      1521     0    77     1     1
 -1.9753964829118391E-02 a      1522     0    77     1     2
  2.7087217923244127E-02 a      1523     0    77     1     3
 -2.3597272412953708E-02 a      1524     0    77     1     4
  2.4526590230812394E-02 a      1525     0    77     1     5
 -3.2094332901872005E-03 a      1526     0    77     1     6
  6.5700374568469766E-04 a      1527     0    77     1     7
  1.5315717672077989E-01 a      1528     0    77     1     8
  4.6959463494805259E-02 a      1529     0    77     1     9
 -1.2755942787137242E-01 a      1530     0    77     1    10
  8.9285924973845715E-02 a      1531     0    77     1    11
  1.9234710619816634E-02 a      1532     0    77     1    12
  2.5275037755569080E-02 a      1533     0    77     1    13
 -4.3883367910465799E-02 a      1534     0    77     1    14
  2.3383784358336806E-02 a      1535     0    77     1    15
 -2.0521042883557921E-02 a      1536     0    77     1    16
 -7.1911004519535693E-02 a      1537     0    77     1    17
 -2.8680182150835166E-02 a      1538     0    77     1    18
 -1.7257503399688717E-02 a      1539     0    77     1    19
 -6.2958657595406239E-02 a      1540     0    77     1    20
 -1.4441968192554647E-01 a      1541     0    78     1     1
 -5.2867112187803912E-02 a      1542     0    78     1     2
  4.0571180418831697E-02 a      1543     0    78     1     3
  5.7297106647831102E-02 a      1544     0    78     1     4
 -5.0349862589571776E-02 a      1545     0    78     1     5
  2.6800414949829900E-02 a      1546     0    78     1     6
 -3.2794643186019386E-02 a      1547     0    78     1     7
 -1.6747685140453614E-01 a      1548     0    78     1     8
 -3.7890846115264519E-02 a      1549     0    78     1     9
 -1.4671721810514246E-01 a      1550     0    78     1    10
  1.2689648704068388E-01 a      1551     0    78     1    11
  2.1394818303076744E-02 a      1552     0    78     1    12
  6.9923115559477445E-02 a      1553     0    78     1    13
  1.0817085470602650E-01 a      1554     0    78     1    14
 -3.9028870384743258E-02 a      1555     0    78     1    15
 -2.8208712706744293E-01 a      1556     0    78     1    16
  2.2885122648501588E-01 a      1557     0    78     1    17
  1.8315231858199565E-01 a      1558     0    78     1    18
 -6.2965619522142455E-02 a      1559     0    78     1    19
  1.4554500262953574E-01 a      1560     0    78     1    20
 -2.4018862618672254E-02 a      1561     0    79     1     1
 -1.5837261989223150E-01 a      1562     0    79     1     2
  4.9134060387553753E-02 a      1563     0    79     1     3
  6.2497561700337927E-02 a      1564     0    79     1     4
 -5.3256351347345299E-02 a      1565     0    79     1     5
 -3.3717513582840496E-02 a      1566     0    79     1     6
 -9.2601863368549503E-02 a      1567     0    79     1     7
 -1.0369538968859608E-01 a      1568     0    79     1     8
 -2.4343835402859691E-02 a      1569     0    79     1     9
  1.2565967909451731E-01 a      1570     0    79     1    10
 -1.2139239336276139E-01 a      1571     0    79     1    11
 -1.2244925567201578E-01 a      1572     0    79     1    12
  2.4025006411732139E-02 a      1573     0    79     1    13
  1.9963251669519694E-02 a      1574     0    79     1    14
 -2.8567393401194147E-02 a      1575     0    79     1    15
 -4.1645184540253649E-02 a      1576     0    79     1    16
  3.5812833463274081E-02 a      1577     0    79     1    17
 -1.9577498061668700E-02 a      1578     0    79     1    18
 -4.9008832036716951E-02 a      1579     0    79     1    19
  8.2899603713192757E-02 a      1580     0    79     1    20
 -1.3912653580973999E-01 a      1581     0    80     1     1
 -1.6888081869967808E-01 a      1582     0    80     1     2
  7.0037898911581756E-02 a      1583     0    80     1     3
  2.7599103966928589E-02 a      1584     0    80     1     4
 -3.5172384396836572E-02 a      1585     0    80     1     5
  7.1194103717797177E-02 a      1586     0    80     1     6
  5.1817079889903438E-02 a      1587     0    80     1     7
  1.5651172985035749E-01 a      1588     0    80     1     8
 -1.8605269191059481E-02 a      1589     0    80     1     9
  1.3609835220246114E-01 a      1590     0    80     1    10
  5.8294603070531109E-02 a      1591     0    80     1    11
 -3.3438526719422330E-02 a      1592     0    80     1    12
  9.0771395994157043E-03 a      1593     0    80     1    13
 -5.4184685001302614E-02 a      1594     0    80     1    14
 -5.3172015880755871E-03 a      1595     0    80     1    15
 -2.1532443278070603E-02 a      1596     0    80     1    16
  1.2730673234902570E-01 a      1597     0    80     1    17
  1.3584513554754640E-01 a      1598     0    80     1    18
  3.2504710202894440E-04 a      1599     0    80     1    19
  6.2914218003968389E-02 a      1600     0    80     1    20
 -9.1642650616455268E-02 a      1601     0    81     1     1
 -9.9765386207580117E-02 a      1602     0    81     1     2
 -5.7603949674460059E-02 a      1603     0    81     1     3
 -3.7414838535688218E-03 a      1604     0    81     1     4
 -9.3007409199556912E-02 a      1605     0    81     1     5
 -1.6194021245914639E-01 a      1606     0    81     1     6
  7.7702306636908594E-02 a      1607     0    81     1     7
  8.6406252124297367E-02 a      1608     0    81     1     8
  9.4587387335517595E-02 a      1609     0    81     1     9
 -4.8583124091564796E-02 a      1610     0    81     1    10
  4.3184284664343285E-02 a      1611     0    81     1    11
  4.7994061637491670E-03 a      1612     0    81     1    12
  9.1226115408311506E-02 a      1613     0    81     1    13
 -1.1853623449469482E-01 a      1614     0    81     1    14
 -6.7137243327873034E-02 a      1615     0    81     1    15
 -5.3153623934281712E-02 a      1616     0    81     1    16
  1.5147788711543121E-03 a      1617     0    81     1    17
  1.3223683005677561E-02 a      1618     0    81     1    18
 -4.9097654726551039E-02 a      1619     0    81     1    19
  1.7949282013861277E-03 a      1620     0    81     1    20
  2.2148269638111347E-02 a      1621     0    82     1     1
  1.1897388915207714E-01 a      1622     0    82     1     2
 -5.4684164147950569E-02 a      1623     0    82     1     3
