################################################################################
# Neural network connection values (weights and biases).
################################################################################
# Col  Name       Description
################################################################################
# 1    connection Neural network connection value.
# 2    t          Connection type (a = weight, b = bias).
# 3    index      Index enumerating weights.
# 4    l_s        Starting point layer (end point layer for biases).
# 5    n_s        Starting point neuron in starting layer (end point neuron for biases).
# 6    l_e        End point layer.
# 7    n_e        End point neuron in end layer.
################################################################################
#                      1 2         3     4     5     6     7
#             connection t     index   l_s   n_s   l_e   n_e
############################################################
 -3.8986705468533799E-02 a         1     0     1     1     1
 -8.7616383356662289E-02 a         2     0     1     1     2
 -1.2493180370992670E-02 a         3     0     1     1     3
  1.1157633532822039E-01 a         4     0     1     1     4
 -1.4414864905761565E-01 a         5     0     1     1     5
 -6.8146565783588249E-03 a         6     0     1     1     6
  1.4505217211743490E-01 a         7     0     1     1     7
 -1.3590950843538008E-01 a         8     0     1     1     8
  3.8629593617562720E-02 a         9     0     1     1     9
 -2.1061192244802882E-01 a        10     0     1     1    10
 -3.9576457378642611E-03 a        11     0     1     1    11
 -4.3320176746155084E-02 a        12     0     1     1    12
 -9.4237353089926423E-02 a        13     0     1     1    13
 -7.6492519339576542E-02 a        14     0     1     1    14
 -1.7314600804042368E-01 a        15     0     1     1    15
  5.6831616499632191E-02 a        16     0     1     1    16
  4.5722049682959988E-02 a        17     0     1     1    17
 -1.1274150799597732E-01 a        18     0     1     1    18
  4.3207209043629291E-02 a        19     0     1     1    19
 -3.6903867885834163E-02 a        20     0     1     1    20
  6.5628195920080803E-02 a        21     0     2     1     1
 -2.0288222768828801E-01 a        22     0     2     1     2
 -1.5632032385397768E-01 a        23     0     2     1     3
 -1.4971211887976763E-01 a        24     0     2     1     4
  1.0005959481815520E-01 a        25     0     2     1     5
 -3.4994718362156496E-01 a        26     0     2     1     6
 -1.4053141270708791E-01 a        27     0     2     1     7
 -9.4423618619334154E-02 a        28     0     2     1     8
  4.3273986947274856E-02 a        29     0     2     1     9
 -2.1705705604469688E-01 a        30     0     2     1    10
  1.2078031231393746E-01 a        31     0     2     1    11
 -2.7184749940880736E-02 a        32     0     2     1    12
  2.2765128759800672E-03 a        33     0     2     1    13
  1.1862505969557845E-01 a        34     0     2     1    14
  8.9322820644844259E-02 a        35     0     2     1    15
  1.0679145271130772E-02 a        36     0     2     1    16
  1.5040920076123211E-02 a        37     0     2     1    17
  1.5371570171583876E-01 a        38     0     2     1    18
 -1.6421978913955354E-01 a        39     0     2     1    19
  7.9476411861240132E-02 a        40     0     2     1    20
 -1.6190688975618922E-01 a        41     0     3     1     1
  5.5792214579456788E-02 a        42     0     3     1     2
 -1.0096300835825139E-01 a        43     0     3     1     3
  1.6569105824903818E-01 a        44     0     3     1     4
  1.8929637694131507E-01 a        45     0     3     1     5
  1.7493440720276556E-02 a        46     0     3     1     6
 -6.2826697384054955E-02 a        47     0     3     1     7
  4.3033883140937486E-02 a        48     0     3     1     8
  8.3573383194148296E-02 a        49     0     3     1     9
  9.7105195956335946E-02 a        50     0     3     1    10
  1.9498735793288322E-01 a        51     0     3     1    11
 -5.3465418448741989E-02 a        52     0     3     1    12
  1.5079976051926650E-01 a        53     0     3     1    13
 -4.6190138046987843E-02 a        54     0     3     1    14
 -1.4214092078391197E-01 a        55     0     3     1    15
  1.3307693668982309E-01 a        56     0     3     1    16
 -4.6043604173793211E-02 a        57     0     3     1    17
  1.2212017984391409E-01 a        58     0     3     1    18
  1.2372945565088142E-01 a        59     0     3     1    19
  1.5060202392140762E-01 a        60     0     3     1    20
  1.0587090440590995E-01 a        61     0     4     1     1
  1.8538440977182880E-01 a        62     0     4     1     2
  1.3348141400137539E-01 a        63     0     4     1     3
  2.2938236856072661E-01 a        64     0     4     1     4
 -7.3932811895494133E-03 a        65     0     4     1     5
  4.7994672961535638E-02 a        66     0     4     1     6
  1.2024034037709537E-01 a        67     0     4     1     7
 -1.3455350008173228E-01 a        68     0     4     1     8
  2.0483335309673492E-01 a        69     0     4     1     9
 -7.2295278231575874E-02 a        70     0     4     1    10
  2.6158366620521334E-01 a        71     0     4     1    11
  1.7235437340229487E-01 a        72     0     4     1    12
 -9.1938255331538141E-02 a        73     0     4     1    13
 -2.6477011123893582E-04 a        74     0     4     1    14
  5.6232324326529158E-02 a        75     0     4     1    15
  1.4488339421874200E-01 a        76     0     4     1    16
 -9.4105094662212830E-03 a        77     0     4     1    17
 -1.7946420589689246E-02 a        78     0     4     1    18
  2.3939702852721656E-01 a        79     0     4     1    19
 -2.2284270563422533E-02 a        80     0     4     1    20
  1.0408652370391706E-01 a        81     0     5     1     1
 -2.0004837386874440E-02 a        82     0     5     1     2
 -3.6760816750295321E-02 a        83     0     5     1     3
 -2.3505192915575279E-01 a        84     0     5     1     4
 -7.2879946116851960E-02 a        85     0     5     1     5
  9.8426469259353583E-02 a        86     0     5     1     6
 -1.2956004655108511E-01 a        87     0     5     1     7
 -4.0913660193367930E-02 a        88     0     5     1     8
  2.3130116193345099E-01 a        89     0     5     1     9
 -2.4334486236849695E-01 a        90     0     5     1    10
  1.8773173494846540E-01 a        91     0     5     1    11
 -1.9598035711043121E-01 a        92     0     5     1    12
  1.9498465651321195E-01 a        93     0     5     1    13
 -1.6044945110424043E-02 a        94     0     5     1    14
  5.9445758648481020E-02 a        95     0     5     1    15
 -1.0773005245003246E-01 a        96     0     5     1    16
 -1.0724690885615164E-01 a        97     0     5     1    17
  1.0513649230887208E-01 a        98     0     5     1    18
 -2.2240288803229945E-02 a        99     0     5     1    19
 -6.2843856495633815E-02 a       100     0     5     1    20
  1.8234563764312578E-01 a       101     0     6     1     1
 -2.9825492890361363E-02 a       102     0     6     1     2
  7.4580795923311497E-03 a       103     0     6     1     3
  2.9922309902981777E-02 a       104     0     6     1     4
 -1.2260045344979294E-01 a       105     0     6     1     5
 -6.9351513440931975E-02 a       106     0     6     1     6
 -1.0041530005017808E-01 a       107     0     6     1     7
 -7.1340519905907743E-02 a       108     0     6     1     8
  8.3619110203969324E-02 a       109     0     6     1     9
  6.8207488351527207E-02 a       110     0     6     1    10
 -2.4463181636405568E-01 a       111     0     6     1    11
  1.4712750148238563E-01 a       112     0     6     1    12
 -1.6999869478649487E-01 a       113     0     6     1    13
  3.0394835838023598E-01 a       114     0     6     1    14
  1.2635118946985310E-01 a       115     0     6     1    15
  3.7902368635716700E-02 a       116     0     6     1    16
  1.7040394084646421E-01 a       117     0     6     1    17
  1.6570394080956707E-01 a       118     0     6     1    18
 -9.2816600934135157E-02 a       119     0     6     1    19
 -9.6977194649142451E-02 a       120     0     6     1    20
 -1.8610226048399189E-01 a       121     0     7     1     1
  7.9561088240261327E-02 a       122     0     7     1     2
 -7.2853427251220390E-03 a       123     0     7     1     3
  7.3023855425610837E-02 a       124     0     7     1     4
 -1.8357822066190196E-01 a       125     0     7     1     5
  1.6177501449324463E-01 a       126     0     7     1     6
 -3.2328585165905081E-02 a       127     0     7     1     7
  9.4239184981881066E-02 a       128     0     7     1     8
  2.1299063584221214E-03 a       129     0     7     1     9
  1.1996545690856521E-01 a       130     0     7     1    10
 -1.0577800476285200E-01 a       131     0     7     1    11
  2.0060767064913310E-01 a       132     0     7     1    12
 -1.0981390491932518E-01 a       133     0     7     1    13
  4.6895118630628551E-03 a       134     0     7     1    14
 -1.6154784096527133E-01 a       135     0     7     1    15
 -1.1227003055152651E-02 a       136     0     7     1    16
  1.0662322221785932E-02 a       137     0     7     1    17
  7.6412776263554721E-02 a       138     0     7     1    18
 -2.3694596984959926E-01 a       139     0     7     1    19
 -1.3833460779863258E-01 a       140     0     7     1    20
  7.3428133766805237E-03 a       141     0     8     1     1
  1.1287689429114529E-01 a       142     0     8     1     2
 -5.2815535093285744E-02 a       143     0     8     1     3
 -1.1651671367185071E-01 a       144     0     8     1     4
 -2.5245041062770945E-01 a       145     0     8     1     5
 -1.7175738554332023E-01 a       146     0     8     1     6
 -1.4263347449795141E-01 a       147     0     8     1     7
 -2.3355625129513138E-01 a       148     0     8     1     8
 -8.3650392676793583E-02 a       149     0     8     1     9
  1.2558243136750047E-01 a       150     0     8     1    10
 -4.2062118213464766E-03 a       151     0     8     1    11
  4.9817949540802611E-02 a       152     0     8     1    12
  1.7792542647399134E-01 a       153     0     8     1    13
  1.0068215046468819E-01 a       154     0     8     1    14
 -9.5880541635497609E-03 a       155     0     8     1    15
 -1.6289136690893150E-01 a       156     0     8     1    16
  7.0489425496711292E-02 a       157     0     8     1    17
 -1.0074500244071319E-01 a       158     0     8     1    18
 -2.4485533994544284E-01 a       159     0     8     1    19
 -6.5605157471580855E-02 a       160     0     8     1    20
 -1.4864754055345522E-01 a       161     0     9     1     1
 -1.4066115440418295E-01 a       162     0     9     1     2
  4.0784567317490313E-02 a       163     0     9     1     3
  3.7102110452270833E-02 a       164     0     9     1     4
 -1.8417390831525349E-01 a       165     0     9     1     5
  1.8498655968247008E-01 a       166     0     9     1     6
 -1.8028663325048461E-01 a       167     0     9     1     7
  9.5032938042289433E-02 a       168     0     9     1     8
 -1.1737114969946252E-01 a       169     0     9     1     9
  9.4610004769296069E-02 a       170     0     9     1    10
 -2.0083871669787839E-01 a       171     0     9     1    11
  2.2611264949927171E-02 a       172     0     9     1    12
 -6.3880808354151219E-02 a       173     0     9     1    13
 -4.1459437531561434E-03 a       174     0     9     1    14
 -2.0699915312098527E-01 a       175     0     9     1    15
 -2.6432198477575702E-01 a       176     0     9     1    16
 -7.9004453542245195E-02 a       177     0     9     1    17
 -1.4413459054038021E-02 a       178     0     9     1    18
 -1.3591295715126622E-01 a       179     0     9     1    19
 -1.8715409960052343E-01 a       180     0     9     1    20
  9.8558593488282401E-02 a       181     0    10     1     1
  5.4529663675230072E-02 a       182     0    10     1     2
 -1.9549023288991837E-01 a       183     0    10     1     3
  1.6445391289783590E-01 a       184     0    10     1     4
 -5.7524243686940483E-03 a       185     0    10     1     5
 -1.2365862061693912E-01 a       186     0    10     1     6
 -1.6769267571347127E-01 a       187     0    10     1     7
  4.4427128596512225E-02 a       188     0    10     1     8
 -2.1923977324512875E-01 a       189     0    10     1     9
  1.6276815292222904E-01 a       190     0    10     1    10
 -2.6518463014228333E-02 a       191     0    10     1    11
  1.3197531732080583E-01 a       192     0    10     1    12
  9.6371311019918068E-02 a       193     0    10     1    13
  1.8811154372189384E-01 a       194     0    10     1    14
  2.0505756226441404E-02 a       195     0    10     1    15
  1.7833265090988377E-02 a       196     0    10     1    16
  2.3547734595905950E-01 a       197     0    10     1    17
 -8.4026287972040148E-02 a       198     0    10     1    18
  5.2967529468590435E-03 a       199     0    10     1    19
 -5.9108593068272527E-02 a       200     0    10     1    20
  1.4310775346670870E-01 a       201     0    11     1     1
  1.4095771650772518E-01 a       202     0    11     1     2
 -7.9269259419918636E-02 a       203     0    11     1     3
  1.0889783716520463E-01 a       204     0    11     1     4
  6.4692481977604896E-02 a       205     0    11     1     5
  1.1989004758529685E-01 a       206     0    11     1     6
 -4.4987191881376350E-02 a       207     0    11     1     7
  2.0709500692009211E-01 a       208     0    11     1     8
  1.0880161146140466E-01 a       209     0    11     1     9
  5.1996835720817300E-02 a       210     0    11     1    10
  1.1420429158053262E-01 a       211     0    11     1    11
 -7.1088548486219594E-02 a       212     0    11     1    12
  7.9760942443634474E-03 a       213     0    11     1    13
 -7.9930872608670461E-02 a       214     0    11     1    14
 -4.9345003317416661E-02 a       215     0    11     1    15
  1.0331718959695447E-02 a       216     0    11     1    16
  6.2525919928403798E-02 a       217     0    11     1    17
 -1.3668653129509359E-01 a       218     0    11     1    18
  6.4152963083639047E-03 a       219     0    11     1    19
 -8.2089689901150856E-02 a       220     0    11     1    20
 -2.9440543101180636E-02 a       221     0    12     1     1
  1.0790251185417583E-02 a       222     0    12     1     2
  1.8913309252510183E-01 a       223     0    12     1     3
  2.0648019581306323E-01 a       224     0    12     1     4
  3.4113964117360972E-02 a       225     0    12     1     5
  1.5444344045646174E-01 a       226     0    12     1     6
  6.9683224325564230E-02 a       227     0    12     1     7
  4.7860037024383455E-02 a       228     0    12     1     8
  5.7934292695650702E-02 a       229     0    12     1     9
 -1.8584485767449910E-01 a       230     0    12     1    10
 -3.8569036974542299E-03 a       231     0    12     1    11
 -5.8537267729280827E-02 a       232     0    12     1    12
  1.8096663391062923E-01 a       233     0    12     1    13
 -1.0784603137744267E-01 a       234     0    12     1    14
  6.7942904175612343E-02 a       235     0    12     1    15
  9.9011699426897665E-02 a       236     0    12     1    16
 -7.8285162620459717E-02 a       237     0    12     1    17
 -1.2544447064611039E-01 a       238     0    12     1    18
  1.1297212024498095E-01 a       239     0    12     1    19
  9.4058658648184579E-02 a       240     0    12     1    20
  3.3159937809724628E-02 a       241     0    13     1     1
 -3.8491747411156352E-01 a       242     0    13     1     2
 -1.2992850096867067E-02 a       243     0    13     1     3
 -7.4241477702922326E-03 a       244     0    13     1     4
  6.5210081640884737E-02 a       245     0    13     1     5
  1.7655170538237072E-01 a       246     0    13     1     6
  5.1580394456805255E-02 a       247     0    13     1     7
  8.6843553535637122E-02 a       248     0    13     1     8
 -2.5456214295567903E-01 a       249     0    13     1     9
  8.0854544959211766E-02 a       250     0    13     1    10
  1.2385099647809544E-01 a       251     0    13     1    11
  2.3792719473083441E-02 a       252     0    13     1    12
 -1.8813483998025088E-01 a       253     0    13     1    13
  1.4485647839650712E-01 a       254     0    13     1    14
  7.1588051491100327E-02 a       255     0    13     1    15
  3.0493091863866201E-01 a       256     0    13     1    16
 -3.2884212808175765E-02 a       257     0    13     1    17
  1.5972685525058063E-03 a       258     0    13     1    18
  6.6536186701744326E-02 a       259     0    13     1    19
 -1.5204099016745404E-01 a       260     0    13     1    20
  1.6316816662639017E-01 a       261     0    14     1     1
 -1.0620898639706379E-01 a       262     0    14     1     2
  1.4833063500232221E-01 a       263     0    14     1     3
 -2.0112151302507322E-01 a       264     0    14     1     4
  1.7952326727339297E-03 a       265     0    14     1     5
 -2.5702054697297010E-02 a       266     0    14     1     6
 -1.2607122353603509E-01 a       267     0    14     1     7
 -6.5110498695527180E-02 a       268     0    14     1     8
 -1.2760499480162690E-01 a       269     0    14     1     9
 -1.0617477523640770E-01 a       270     0    14     1    10
  5.3357367327107531E-02 a       271     0    14     1    11
 -2.4616709788228408E-01 a       272     0    14     1    12
 -1.4124456410633710E-02 a       273     0    14     1    13
  7.4571963693839657E-02 a       274     0    14     1    14
  1.4907306019829772E-01 a       275     0    14     1    15
  2.1482930162748098E-01 a       276     0    14     1    16
  8.2669592490843283E-02 a       277     0    14     1    17
  1.0191270346121384E-01 a       278     0    14     1    18
 -8.8397933213722538E-02 a       279     0    14     1    19
 -3.1425480362852830E-02 a       280     0    14     1    20
  1.0655717203509732E-01 a       281     0    15     1     1
 -3.6707120030272157E-03 a       282     0    15     1     2
  2.2829712137547581E-01 a       283     0    15     1     3
 -1.1538416190386649E-01 a       284     0    15     1     4
  2.8470895177691258E-01 a       285     0    15     1     5
 -2.4879721345039182E-02 a       286     0    15     1     6
  1.9534683383517448E-01 a       287     0    15     1     7
 -6.2204596389928868E-02 a       288     0    15     1     8
  1.4431349770849827E-01 a       289     0    15     1     9
 -1.9094294858844115E-02 a       290     0    15     1    10
 -2.2062809591403135E-01 a       291     0    15     1    11
  1.9177462116329211E-01 a       292     0    15     1    12
 -8.9425391290535432E-03 a       293     0    15     1    13
 -9.6637584207538180E-02 a       294     0    15     1    14
 -7.2357251794132688E-02 a       295     0    15     1    15
  1.1605975703036120E-01 a       296     0    15     1    16
 -9.9625575283347367E-02 a       297     0    15     1    17
  1.7676665857939680E-01 a       298     0    15     1    18
  6.6907893174531774E-02 a       299     0    15     1    19
 -7.6129069901068073E-03 a       300     0    15     1    20
  7.1570120218492017E-02 a       301     0    16     1     1
 -5.2393228933610439E-02 a       302     0    16     1     2
 -1.3627162320100625E-01 a       303     0    16     1     3
 -2.5346375591075169E-02 a       304     0    16     1     4
 -6.0237938226934531E-02 a       305     0    16     1     5
 -2.1711517089077412E-01 a       306     0    16     1     6
  9.7026494465759602E-02 a       307     0    16     1     7
 -8.3621267095995669E-02 a       308     0    16     1     8
  6.7143071783310714E-03 a       309     0    16     1     9
 -8.8561565882938065E-02 a       310     0    16     1    10
  1.1174833547793221E-02 a       311     0    16     1    11
  2.9630565496171801E-01 a       312     0    16     1    12
 -2.4121071496767998E-01 a       313     0    16     1    13
  1.2624492766497969E-01 a       314     0    16     1    14
  1.0485188270859441E-01 a       315     0    16     1    15
  1.9377780627063834E-01 a       316     0    16     1    16
 -5.9053146775113058E-02 a       317     0    16     1    17
 -1.6569675393052017E-02 a       318     0    16     1    18
 -8.2426381020771988E-02 a       319     0    16     1    19
  2.2192247492432218E-01 a       320     0    16     1    20
 -1.5840579785204506E-01 a       321     0    17     1     1
 -1.2882634211914210E-01 a       322     0    17     1     2
  1.8672898225703606E-04 a       323     0    17     1     3
  1.5006295017769541E-01 a       324     0    17     1     4
 -7.9034357107015632E-02 a       325     0    17     1     5
 -6.2731597447176646E-03 a       326     0    17     1     6
 -8.4051179610395391E-02 a       327     0    17     1     7
  1.3797678407392043E-02 a       328     0    17     1     8
  7.3581195311118883E-02 a       329     0    17     1     9
 -1.1916303746899741E-02 a       330     0    17     1    10
  1.3915809611004071E-01 a       331     0    17     1    11
 -7.8304345052720298E-02 a       332     0    17     1    12
  7.0573419372610677E-02 a       333     0    17     1    13
  1.3474757378642307E-01 a       334     0    17     1    14
 -6.6084848773926522E-02 a       335     0    17     1    15
 -1.0047955522813608E-01 a       336     0    17     1    16
 -7.3034494257758029E-02 a       337     0    17     1    17
 -1.6570675013518688E-01 a       338     0    17     1    18
 -2.2228942077188164E-02 a       339     0    17     1    19
  9.1589363409882996E-02 a       340     0    17     1    20
 -1.3075268930889347E-01 a       341     0    18     1     1
  2.0145007308369857E-02 a       342     0    18     1     2
 -2.1481294772080076E-01 a       343     0    18     1     3
  1.0949275896745179E-01 a       344     0    18     1     4
  4.6200014078386732E-02 a       345     0    18     1     5
 -1.1113857011240448E-01 a       346     0    18     1     6
 -1.2155315676462063E-01 a       347     0    18     1     7
 -2.6383840964134370E-01 a       348     0    18     1     8
 -1.5600324811915939E-01 a       349     0    18     1     9
  1.5063291397829776E-01 a       350     0    18     1    10
 -1.9151955262768969E-01 a       351     0    18     1    11
  5.7338342297486113E-02 a       352     0    18     1    12
 -6.3965318358726278E-02 a       353     0    18     1    13
  2.0609412315568587E-01 a       354     0    18     1    14
 -1.4911107685148682E-03 a       355     0    18     1    15
  2.0783668629754345E-01 a       356     0    18     1    16
  3.3170250532954408E-02 a       357     0    18     1    17
 -6.2651956087385208E-03 a       358     0    18     1    18
  1.2228546672917475E-03 a       359     0    18     1    19
  1.1039248039961423E-01 a       360     0    18     1    20
  7.0033267293340237E-02 a       361     0    19     1     1
  2.2363548486463880E-02 a       362     0    19     1     2
 -1.2854118704811240E-01 a       363     0    19     1     3
  9.2349899822820214E-02 a       364     0    19     1     4
  1.7300953759878512E-01 a       365     0    19     1     5
 -2.2703179311357824E-01 a       366     0    19     1     6
  2.9118081397296991E-02 a       367     0    19     1     7
  2.5343714059547157E-01 a       368     0    19     1     8
  1.3742906723103573E-01 a       369     0    19     1     9
  1.3690288969054662E-01 a       370     0    19     1    10
 -3.0898959993199325E-02 a       371     0    19     1    11
  1.1698766963934605E-01 a       372     0    19     1    12
 -7.7985444604591322E-02 a       373     0    19     1    13
  1.1201565481611853E-01 a       374     0    19     1    14
  1.3003311415959853E-01 a       375     0    19     1    15
 -3.9622057520253707E-03 a       376     0    19     1    16
 -2.1058114211948403E-02 a       377     0    19     1    17
 -1.2463163072246547E-01 a       378     0    19     1    18
  1.3518832583712925E-01 a       379     0    19     1    19
 -2.7783822088984576E-02 a       380     0    19     1    20
 -1.9148589015059914E-01 a       381     0    20     1     1
 -1.4676657476965629E-01 a       382     0    20     1     2
 -9.9872266366132691E-03 a       383     0    20     1     3
  2.2563898835045645E-01 a       384     0    20     1     4
 -2.4282417310513248E-02 a       385     0    20     1     5
 -4.7092663861797612E-02 a       386     0    20     1     6
 -1.4402316291361827E-02 a       387     0    20     1     7
 -1.6891875229998687E-01 a       388     0    20     1     8
  9.6755388477881898E-02 a       389     0    20     1     9
  1.7711601140359379E-01 a       390     0    20     1    10
 -2.4257404331283244E-02 a       391     0    20     1    11
 -2.8240241846456047E-02 a       392     0    20     1    12
  4.5590954375271490E-02 a       393     0    20     1    13
  9.7106047198927917E-02 a       394     0    20     1    14
  7.4355250623261123E-03 a       395     0    20     1    15
  7.4987266915596401E-02 a       396     0    20     1    16
  2.3560519314072687E-02 a       397     0    20     1    17
 -2.0822322475611384E-02 a       398     0    20     1    18
 -2.4962672813234338E-01 a       399     0    20     1    19
 -1.8199866578254675E-01 a       400     0    20     1    20
  7.3589523111414132E-02 a       401     0    21     1     1
 -7.0948921153290517E-02 a       402     0    21     1     2
  1.0993060902407677E-01 a       403     0    21     1     3
  1.0458908784427942E-01 a       404     0    21     1     4
 -5.9215093052022560E-03 a       405     0    21     1     5
  2.7696879615961495E-01 a       406     0    21     1     6
 -1.0048373155333083E-01 a       407     0    21     1     7
 -7.8753238444806806E-02 a       408     0    21     1     8
  1.2645636264913984E-01 a       409     0    21     1     9
  2.5135683938211667E-01 a       410     0    21     1    10
 -1.9765627620370679E-01 a       411     0    21     1    11
 -9.1217166410132756E-03 a       412     0    21     1    12
  1.7026903932457169E-01 a       413     0    21     1    13
  8.3930959670084029E-02 a       414     0    21     1    14
 -3.8404189998904235E-02 a       415     0    21     1    15
 -1.4848960958836595E-02 a       416     0    21     1    16
  7.4277116837508914E-02 a       417     0    21     1    17
  1.0653411957593187E-01 a       418     0    21     1    18
  8.6888233130133233E-02 a       419     0    21     1    19
 -9.5581652387151508E-02 a       420     0    21     1    20
  2.1275344308628066E-01 a       421     0    22     1     1
 -1.2956138205089748E-01 a       422     0    22     1     2
  1.1264014613279683E-01 a       423     0    22     1     3
 -9.2735812437467244E-02 a       424     0    22     1     4
 -3.6511713445178104E-02 a       425     0    22     1     5
 -1.9620842655779028E-02 a       426     0    22     1     6
  1.1060938888082671E-01 a       427     0    22     1     7
  1.6725826043460440E-01 a       428     0    22     1     8
 -1.0065161608523043E-01 a       429     0    22     1     9
 -1.5408128832395512E-01 a       430     0    22     1    10
  6.1970105141633466E-02 a       431     0    22     1    11
 -1.4938401791069447E-01 a       432     0    22     1    12
  9.2852678868606299E-03 a       433     0    22     1    13
 -1.2996189192262048E-01 a       434     0    22     1    14
 -7.5274223214799414E-03 a       435     0    22     1    15
 -7.7947130708411735E-02 a       436     0    22     1    16
 -7.9481468763095059E-02 a       437     0    22     1    17
  3.8568748321125293E-02 a       438     0    22     1    18
 -6.8733502918095379E-02 a       439     0    22     1    19
 -1.7452668602243163E-02 a       440     0    22     1    20
 -2.0071610348756531E-02 a       441     0    23     1     1
 -2.6048032168864416E-01 a       442     0    23     1     2
 -3.4466622270580288E-01 a       443     0    23     1     3
  8.3485142515023120E-02 a       444     0    23     1     4
 -1.0737269950084193E-01 a       445     0    23     1     5
  6.7262881008929062E-02 a       446     0    23     1     6
  4.9553950622332338E-02 a       447     0    23     1     7
 -8.8309589692371737E-02 a       448     0    23     1     8
 -1.9339444989428312E-01 a       449     0    23     1     9
 -2.2928941417493361E-02 a       450     0    23     1    10
  1.4183615769305083E-01 a       451     0    23     1    11
  1.3828781145941740E-01 a       452     0    23     1    12
 -1.2208413369125089E-02 a       453     0    23     1    13
  1.1045006426425921E-01 a       454     0    23     1    14
 -7.2132397904624126E-02 a       455     0    23     1    15
  3.5559894318645657E-01 a       456     0    23     1    16
  3.5439399180207623E-02 a       457     0    23     1    17
  7.7243807173372023E-02 a       458     0    23     1    18
 -3.4986762163621864E-02 a       459     0    23     1    19
 -2.6194092994300748E-02 a       460     0    23     1    20
 -5.0309799347990077E-02 a       461     0    24     1     1
  3.9801710943643924E-02 a       462     0    24     1     2
  1.5981781362702049E-01 a       463     0    24     1     3
  1.4109727141948664E-01 a       464     0    24     1     4
  4.2015913404243370E-02 a       465     0    24     1     5
 -1.4027875744341878E-01 a       466     0    24     1     6
  1.7601895327325590E-01 a       467     0    24     1     7
 -1.5579146855250306E-01 a       468     0    24     1     8
 -2.1974015130731803E-02 a       469     0    24     1     9
  2.4637081237299074E-01 a       470     0    24     1    10
  3.5796273253096318E-02 a       471     0    24     1    11
  1.6420271660963667E-01 a       472     0    24     1    12
  2.3170598687447166E-01 a       473     0    24     1    13
  2.1918891558303202E-02 a       474     0    24     1    14
 -7.6451297493527859E-02 a       475     0    24     1    15
  5.0990841846966103E-02 a       476     0    24     1    16
 -8.9371190267967360E-02 a       477     0    24     1    17
 -5.3037753036473061E-02 a       478     0    24     1    18
  1.1978554420904644E-01 a       479     0    24     1    19
  1.3747521446354799E-01 a       480     0    24     1    20
  2.0547566412577384E-01 a       481     0    25     1     1
  1.2637874942431232E-01 a       482     0    25     1     2
 -1.1859875808429285E-01 a       483     0    25     1     3
 -2.3444572948821268E-01 a       484     0    25     1     4
  1.0313841031407130E-01 a       485     0    25     1     5
  2.3139930136900025E-01 a       486     0    25     1     6
 -1.5114926246988719E-01 a       487     0    25     1     7
  5.5844382202149115E-02 a       488     0    25     1     8
 -1.8175571025618198E-01 a       489     0    25     1     9
  1.2538579913214223E-01 a       490     0    25     1    10
  9.9681184027694825E-02 a       491     0    25     1    11
  4.0278331247453752E-03 a       492     0    25     1    12
  6.7339954658817203E-02 a       493     0    25     1    13
 -4.2643358885949278E-02 a       494     0    25     1    14
  2.0890416052735250E-01 a       495     0    25     1    15
 -3.3131176194617036E-02 a       496     0    25     1    16
 -3.7134645135522025E-02 a       497     0    25     1    17
  8.8615964739685277E-02 a       498     0    25     1    18
 -1.5685054405364734E-01 a       499     0    25     1    19
 -4.9884716508640362E-02 a       500     0    25     1    20
  1.0150581697556887E-01 a       501     0    26     1     1
 -2.7331376987725593E-02 a       502     0    26     1     2
 -9.0440591215593807E-02 a       503     0    26     1     3
 -1.3434718280722474E-01 a       504     0    26     1     4
 -1.1598201123098924E-01 a       505     0    26     1     5
  6.7029650919628878E-03 a       506     0    26     1     6
  2.6142633285385294E-02 a       507     0    26     1     7
 -6.6249349272801433E-02 a       508     0    26     1     8
 -1.2868399740844502E-01 a       509     0    26     1     9
  7.3524639586405260E-02 a       510     0    26     1    10
  2.2337813252065748E-02 a       511     0    26     1    11
  1.3998657657561672E-01 a       512     0    26     1    12
  8.2041799059675777E-02 a       513     0    26     1    13
  1.1727864604637933E-01 a       514     0    26     1    14
  7.1875843969703188E-02 a       515     0    26     1    15
  1.8721577519593021E-02 a       516     0    26     1    16
  5.5196607264245259E-02 a       517     0    26     1    17
 -7.2915684189827093E-02 a       518     0    26     1    18
 -8.0789831295589171E-03 a       519     0    26     1    19
 -8.2778327802312413E-03 a       520     0    26     1    20
  3.8695671911187265E-02 a       521     0    27     1     1
 -1.2806377270635660E-01 a       522     0    27     1     2
 -1.2268730774874563E-01 a       523     0    27     1     3
  3.9146715636325949E-02 a       524     0    27     1     4
  6.0732334239159087E-02 a       525     0    27     1     5
 -6.5973068352407571E-02 a       526     0    27     1     6
 -1.6040984692386415E-01 a       527     0    27     1     7
 -4.9014636698196765E-02 a       528     0    27     1     8
  2.4067124904753379E-02 a       529     0    27     1     9
  2.1449958008076836E-02 a       530     0    27     1    10
 -6.3180985336367346E-02 a       531     0    27     1    11
  9.4535430285880503E-02 a       532     0    27     1    12
  1.8758588669645782E-01 a       533     0    27     1    13
 -3.3896816578184032E-02 a       534     0    27     1    14
  2.6221682699119266E-02 a       535     0    27     1    15
 -2.8055990218288923E-01 a       536     0    27     1    16
  9.9984282341058384E-02 a       537     0    27     1    17
 -7.4664458507239387E-03 a       538     0    27     1    18
 -5.3223442153147067E-02 a       539     0    27     1    19
  6.9432192060373016E-02 a       540     0    27     1    20
 -1.8135307866378444E-01 a       541     0    28     1     1
 -1.6293059297060375E-01 a       542     0    28     1     2
  2.0134940300557243E-02 a       543     0    28     1     3
  6.8301776271531278E-02 a       544     0    28     1     4
 -1.4962290697698860E-01 a       545     0    28     1     5
  6.0350458456305427E-02 a       546     0    28     1     6
 -8.0745988009810504E-02 a       547     0    28     1     7
 -2.6343408761884585E-02 a       548     0    28     1     8
 -1.2626234072382442E-01 a       549     0    28     1     9
 -7.5991115747710516E-02 a       550     0    28     1    10
 -1.0743333931306639E-01 a       551     0    28     1    11
  1.0137169448965229E-02 a       552     0    28     1    12
 -3.1880311107452097E-01 a       553     0    28     1    13
  9.2870875497864602E-02 a       554     0    28     1    14
  1.8358286762667758E-01 a       555     0    28     1    15
  7.6380008334970176E-02 a       556     0    28     1    16
  2.4702253661864990E-02 a       557     0    28     1    17
  1.0947025375391110E-01 a       558     0    28     1    18
 -9.5448406437282585E-02 a       559     0    28     1    19
 -4.0953507199756621E-02 a       560     0    28     1    20
  1.3317563027747265E-01 a       561     0    29     1     1
 -5.5391073317308630E-03 a       562     0    29     1     2
  3.0138060684111102E-02 a       563     0    29     1     3
  1.8904926573757208E-01 a       564     0    29     1     4
  1.1688350261176175E-01 a       565     0    29     1     5
 -1.9619940307602354E-01 a       566     0    29     1     6
  7.6921216448754035E-02 a       567     0    29     1     7
  1.7537986346618181E-02 a       568     0    29     1     8
  1.7846723618555316E-01 a       569     0    29     1     9
 -7.6014711062294182E-02 a       570     0    29     1    10
  9.7255788585532257E-02 a       571     0    29     1    11
  1.0604381204914219E-01 a       572     0    29     1    12
  6.7210525887777900E-02 a       573     0    29     1    13
 -2.5254068547946040E-04 a       574     0    29     1    14
 -8.9590564922963026E-03 a       575     0    29     1    15
  6.3371381696886608E-02 a       576     0    29     1    16
  9.6526023340639075E-02 a       577     0    29     1    17
 -1.6324327816193684E-01 a       578     0    29     1    18
  1.7962763582026592E-01 a       579     0    29     1    19
 -5.0463505770048704E-02 a       580     0    29     1    20
 -7.4888681812775526E-02 a       581     0    30     1     1
 -1.0514478959751319E-01 a       582     0    30     1     2
 -9.8665063332309382E-03 a       583     0    30     1     3
  5.9804331873591736E-02 a       584     0    30     1     4
 -3.9384364172017280E-03 a       585     0    30     1     5
 -2.3672908641382365E-01 a       586     0    30     1     6
  7.6603523387447900E-02 a       587     0    30     1     7
 -1.7979280896357757E-04 a       588     0    30     1     8
 -2.6340101084749878E-02 a       589     0    30     1     9
 -9.2121118636597325E-03 a       590     0    30     1    10
  1.9034382899583240E-02 a       591     0    30     1    11
  3.5280062917626251E-03 a       592     0    30     1    12
 -6.0562289166449918E-04 a       593     0    30     1    13
 -2.5635367084395087E-02 a       594     0    30     1    14
 -2.8958262963806599E-02 a       595     0    30     1    15
 -1.6233467486220839E-02 a       596     0    30     1    16
 -7.1809705345520156E-02 a       597     0    30     1    17
 -7.1006198216688216E-02 a       598     0    30     1    18
  2.7215837503400030E-02 a       599     0    30     1    19
 -3.5831290349398436E-02 a       600     0    30     1    20
  9.4134613414067925E-02 a       601     0    31     1     1
 -7.8013502120990339E-03 a       602     0    31     1     2
 -2.7735222801427119E-02 a       603     0    31     1     3
  6.4363166976031991E-02 a       604     0    31     1     4
  9.6290962690993853E-02 a       605     0    31     1     5
  9.1789486499936467E-03 a       606     0    31     1     6
 -1.1829848862290816E-01 a       607     0    31     1     7
 -8.5283857508784769E-02 a       608     0    31     1     8
  2.0466211538789563E-02 a       609     0    31     1     9
  8.8688097374935562E-02 a       610     0    31     1    10
 -8.5310360167433721E-02 a       611     0    31     1    11
  1.2193451912668735E-01 a       612     0    31     1    12
 -4.4721663203298061E-02 a       613     0    31     1    13
  1.0267643609452706E-01 a       614     0    31     1    14
 -1.2165278215266560E-01 a       615     0    31     1    15
  1.1539774631435146E-01 a       616     0    31     1    16
 -5.3683967471061599E-02 a       617     0    31     1    17
 -2.2016391856009652E-02 a       618     0    31     1    18
  1.2354671004214932E-02 a       619     0    31     1    19
  1.6041615755906517E-02 a       620     0    31     1    20
 -1.4838490968485843E-01 a       621     0    32     1     1
 -1.1521806471180386E-01 a       622     0    32     1     2
 -2.9635033737916538E-02 a       623     0    32     1     3
  7.6390379078500992E-02 a       624     0    32     1     4
 -4.3900384503630679E-02 a       625     0    32     1     5
 -1.2920208617242060E-01 a       626     0    32     1     6
  2.3042392201811021E-01 a       627     0    32     1     7
 -8.8014819032619040E-02 a       628     0    32     1     8
 -2.2546135205008253E-01 a       629     0    32     1     9
  1.0028304180263316E-01 a       630     0    32     1    10
 -2.3877991119604310E-02 a       631     0    32     1    11
 -1.0075768539380159E-01 a       632     0    32     1    12
 -7.4061975883985581E-02 a       633     0    32     1    13
 -3.0578309083677809E-02 a       634     0    32     1    14
 -1.5054459407858817E-02 a       635     0    32     1    15
  1.7702760945621854E-01 a       636     0    32     1    16
 -2.1154490557054295E-01 a       637     0    32     1    17
  1.3005999523243365E-03 a       638     0    32     1    18
  1.0477890717838423E-01 a       639     0    32     1    19
 -1.7294978471906645E-02 a       640     0    32     1    20
 -1.5958500738283399E-01 a       641     0    33     1     1
 -1.2401606778608611E-01 a       642     0    33     1     2
 -1.2908426248162708E-01 a       643     0    33     1     3
  1.7310324113529127E-01 a       644     0    33     1     4
 -1.1732432008661577E-01 a       645     0    33     1     5
 -6.1494763333230770E-02 a       646     0    33     1     6
  1.0135546192149335E-01 a       647     0    33     1     7
 -1.6942800982062918E-02 a       648     0    33     1     8
 -1.9293510441230741E-01 a       649     0    33     1     9
  1.5377754165450624E-01 a       650     0    33     1    10
 -1.0370856158000298E-02 a       651     0    33     1    11
  6.8757147167451321E-02 a       652     0    33     1    12
 -7.5468190227915385E-02 a       653     0    33     1    13
  3.4761702874760457E-02 a       654     0    33     1    14
 -4.8066577480332641E-02 a       655     0    33     1    15
  2.7139944445320141E-01 a       656     0    33     1    16
 -2.9304776972055788E-02 a       657     0    33     1    17
 -1.1869882404722658E-02 a       658     0    33     1    18
 -6.7226229048738068E-02 a       659     0    33     1    19
  1.1002058351104903E-01 a       660     0    33     1    20
 -1.9645685467139481E-01 a       661     0    34     1     1
 -2.8894582205084160E-02 a       662     0    34     1     2
 -1.5133218003683585E-01 a       663     0    34     1     3
 -2.2079002755420640E-01 a       664     0    34     1     4
 -1.5715769060213575E-01 a       665     0    34     1     5
 -1.2757418362534015E-03 a       666     0    34     1     6
  1.9494120870783897E-02 a       667     0    34     1     7
 -1.1036042666181338E-01 a       668     0    34     1     8
 -3.3494178793520929E-02 a       669     0    34     1     9
  9.3252872896402675E-02 a       670     0    34     1    10
 -6.2753386018284868E-02 a       671     0    34     1    11
 -2.2710741630975939E-01 a       672     0    34     1    12
  9.4988004308948604E-02 a       673     0    34     1    13
 -1.0675012263197643E-01 a       674     0    34     1    14
 -6.6940831611836241E-02 a       675     0    34     1    15
 -2.4386461145916472E-01 a       676     0    34     1    16
  1.0021492610298026E-02 a       677     0    34     1    17
  1.4897375512634128E-01 a       678     0    34     1    18
  1.5091442521921974E-01 a       679     0    34     1    19
  5.0311555310697739E-02 a       680     0    34     1    20
  8.5028519127098398E-02 a       681     0    35     1     1
  3.1866589373152024E-02 a       682     0    35     1     2
  6.8869778817396698E-02 a       683     0    35     1     3
 -3.7919814587104764E-02 a       684     0    35     1     4
  5.2745203627280086E-02 a       685     0    35     1     5
 -1.1684554989695063E-01 a       686     0    35     1     6
  2.1630620458084539E-02 a       687     0    35     1     7
  1.6491432433346224E-02 a       688     0    35     1     8
 -1.2339696045460283E-01 a       689     0    35     1     9
  5.4609996521845755E-02 a       690     0    35     1    10
  1.2225952874212581E-01 a       691     0    35     1    11
  5.9270580181226537E-02 a       692     0    35     1    12
 -9.3203114044855401E-02 a       693     0    35     1    13
 -8.0345296380670853E-02 a       694     0    35     1    14
  1.0363971663298299E-01 a       695     0    35     1    15
  3.6538338441099667E-02 a       696     0    35     1    16
 -6.0418200136450592E-02 a       697     0    35     1    17
  8.5121780178437245E-02 a       698     0    35     1    18
 -1.2599600997542629E-01 a       699     0    35     1    19
  1.0382701975335011E-01 a       700     0    35     1    20
 -2.3616775969200560E-01 a       701     0    36     1     1
 -7.6772276842797374E-02 a       702     0    36     1     2
  9.2334624281789054E-02 a       703     0    36     1     3
  1.8902126362584581E-01 a       704     0    36     1     4
 -2.1854727082193115E-01 a       705     0    36     1     5
  6.4224700096052905E-04 a       706     0    36     1     6
 -6.6570875346138054E-03 a       707     0    36     1     7
  1.0769372412101380E-02 a       708     0    36     1     8
 -1.1998285480248108E-02 a       709     0    36     1     9
  2.0967647937596504E-01 a       710     0    36     1    10
 -1.1465482575962498E-01 a       711     0    36     1    11
  4.2328080363257220E-02 a       712     0    36     1    12
  9.0322898556422296E-02 a       713     0    36     1    13
  1.1934506901400549E-01 a       714     0    36     1    14
  2.2353063830661996E-01 a       715     0    36     1    15
  1.8651077626457632E-01 a       716     0    36     1    16
  1.0671462262393952E-01 a       717     0    36     1    17
  1.7296488536852847E-01 a       718     0    36     1    18
 -1.7881331351834812E-02 a       719     0    36     1    19
 -2.9383518584846360E-02 a       720     0    36     1    20
 -2.4171559776037932E-01 a       721     0    37     1     1
 -6.1938140712648380E-02 a       722     0    37     1     2
 -7.0279997640470993E-02 a       723     0    37     1     3
 -1.0671032002460326E-01 a       724     0    37     1     4
 -1.6180388097701282E-02 a       725     0    37     1     5
  1.2513802559411308E-01 a       726     0    37     1     6
 -1.5324436924003113E-01 a       727     0    37     1     7
 -1.3372390112195193E-01 a       728     0    37     1     8
 -5.5314494620931069E-02 a       729     0    37     1     9
  1.1490691996025942E-01 a       730     0    37     1    10
  3.0939122908419096E-02 a       731     0    37     1    11
  3.5761363168732789E-02 a       732     0    37     1    12
 -7.6746765016406843E-02 a       733     0    37     1    13
  9.1260005654949614E-02 a       734     0    37     1    14
 -4.9517941357914895E-02 a       735     0    37     1    15
  2.7345576589955928E-02 a       736     0    37     1    16
  1.0829275130884577E-01 a       737     0    37     1    17
 -4.7064455300020083E-02 a       738     0    37     1    18
  4.2988316214572900E-02 a       739     0    37     1    19
  5.8855980374489220E-02 a       740     0    37     1    20
  1.7682232183726906E-01 a       741     0    38     1     1
 -1.2177984181821706E-01 a       742     0    38     1     2
 -2.3613459807238529E-02 a       743     0    38     1     3
  1.8687538233319347E-02 a       744     0    38     1     4
  2.5734748575431468E-02 a       745     0    38     1     5
 -1.4881217539620731E-01 a       746     0    38     1     6
 -1.3752108352276621E-01 a       747     0    38     1     7
 -5.6891299828307464E-02 a       748     0    38     1     8
 -2.7434913245046381E-02 a       749     0    38     1     9
 -3.0038067942140530E-02 a       750     0    38     1    10
 -4.5874054310181241E-03 a       751     0    38     1    11
  7.1805886237825994E-02 a       752     0    38     1    12
 -3.5758415493871931E-02 a       753     0    38     1    13
  1.8392688578920388E-01 a       754     0    38     1    14
  1.9530953622230948E-02 a       755     0    38     1    15
  9.3752815717247376E-02 a       756     0    38     1    16
  1.5902264070758193E-01 a       757     0    38     1    17
  1.1400954686746753E-01 a       758     0    38     1    18
  1.1225107790032361E-01 a       759     0    38     1    19
 -1.4968942890220134E-02 a       760     0    38     1    20
 -1.0491182731637377E-01 a       761     0    39     1     1
 -7.8598709813058974E-03 a       762     0    39     1     2
 -1.6275618286935249E-02 a       763     0    39     1     3
  1.1478858172077415E-01 a       764     0    39     1     4
 -3.0842546454398864E-02 a       765     0    39     1     5
 -6.0188535411434541E-02 a       766     0    39     1     6
  2.4717950804665550E-03 a       767     0    39     1     7
  4.3680101359127303E-02 a       768     0    39     1     8
  3.6753886422053517E-02 a       769     0    39     1     9
  1.2288516818981084E-01 a       770     0    39     1    10
 -8.6722818447499864E-02 a       771     0    39     1    11
  1.1918631105912945E-01 a       772     0    39     1    12
 -7.5921403300169180E-02 a       773     0    39     1    13
  4.8052226326523020E-02 a       774     0    39     1    14
  9.5735521707208740E-02 a       775     0    39     1    15
  1.3481250834993241E-01 a       776     0    39     1    16
 -4.8512411736245487E-02 a       777     0    39     1    17
 -1.0679834096462684E-01 a       778     0    39     1    18
 -1.1462417159115378E-01 a       779     0    39     1    19
  4.5734877869324828E-02 a       780     0    39     1    20
  1.2471274968901400E-01 a       781     0    40     1     1
  1.0513306126235021E-02 a       782     0    40     1     2
  8.3906297858958895E-02 a       783     0    40     1     3
 -1.1888737678527037E-01 a       784     0    40     1     4
 -1.3114575688643507E-01 a       785     0    40     1     5
 -1.4473328771556136E-02 a       786     0    40     1     6
 -5.3314205116983100E-02 a       787     0    40     1     7
 -5.0537556675056081E-03 a       788     0    40     1     8
  3.3258232896848155E-03 a       789     0    40     1     9
 -3.0903710668043982E-02 a       790     0    40     1    10
  8.7847234842678174E-02 a       791     0    40     1    11
  3.9852329647686521E-02 a       792     0    40     1    12
 -1.1749571353277233E-01 a       793     0    40     1    13
 -1.1413075525961165E-02 a       794     0    40     1    14
 -1.2451363409111464E-01 a       795     0    40     1    15
 -1.2276864546316810E-01 a       796     0    40     1    16
  2.6036319113122556E-03 a       797     0    40     1    17
 -7.2479521009404899E-02 a       798     0    40     1    18
 -1.5633200849755644E-01 a       799     0    40     1    19
 -6.7087112149307834E-02 a       800     0    40     1    20
  1.4780953812763672E-01 a       801     0    41     1     1
 -2.6060227479179531E-02 a       802     0    41     1     2
 -8.6923858285688438E-02 a       803     0    41     1     3
  1.2439482273029406E-01 a       804     0    41     1     4
  4.6362281782896704E-02 a       805     0    41     1     5
 -2.9485911127734366E-01 a       806     0    41     1     6
  4.6557766558894098E-02 a       807     0    41     1     7
 -1.2227818660991875E-01 a       808     0    41     1     8
  4.3813352934150424E-02 a       809     0    41     1     9
  9.6504752249476786E-02 a       810     0    41     1    10
 -2.7593559279510221E-01 a       811     0    41     1    11
  7.3779240424365469E-02 a       812     0    41     1    12
 -1.3272505593788156E-02 a       813     0    41     1    13
  1.9682950914134523E-02 a       814     0    41     1    14
  7.6146663229564610E-03 a       815     0    41     1    15
  1.4857640200953015E-01 a       816     0    41     1    16
 -4.5645337557512371E-02 a       817     0    41     1    17
  2.6508573373952217E-02 a       818     0    41     1    18
  1.4893395723871816E-01 a       819     0    41     1    19
  7.3639560833008419E-02 a       820     0    41     1    20
  1.2356602727086444E-01 a       821     0    42     1     1
  3.2654029463153052E-02 a       822     0    42     1     2
 -3.2922522183101474E-02 a       823     0    42     1     3
 -3.1907305535850354E-02 a       824     0    42     1     4
 -1.0283163924810919E-01 a       825     0    42     1     5
  5.5187139959326170E-02 a       826     0    42     1     6
 -1.0030853556872145E-02 a       827     0    42     1     7
  1.3103108510192685E-01 a       828     0    42     1     8
  1.3106952867458813E-03 a       829     0    42     1     9
 -1.4922020280600506E-01 a       830     0    42     1    10
  4.9268961260355140E-02 a       831     0    42     1    11
  1.4863539713582991E-01 a       832     0    42     1    12
 -1.2247665764251980E-01 a       833     0    42     1    13
  1.5155125838115477E-01 a       834     0    42     1    14
 -8.2967114511182841E-02 a       835     0    42     1    15
  9.1365406778603275E-02 a       836     0    42     1    16
  8.8500663155121576E-02 a       837     0    42     1    17
  1.4921669157314499E-03 a       838     0    42     1    18
  5.6181709896294320E-02 a       839     0    42     1    19
  5.0926701410624234E-02 a       840     0    42     1    20
 -1.0123554265136739E-01 a       841     0    43     1     1
 -6.7805517508310431E-02 a       842     0    43     1     2
 -8.5267392948708484E-02 a       843     0    43     1     3
  2.4911824662656418E-01 a       844     0    43     1     4
 -8.2633205386459324E-02 a       845     0    43     1     5
  1.1769611675639976E-03 a       846     0    43     1     6
  5.2101005637404718E-02 a       847     0    43     1     7
 -3.0155339997051136E-02 a       848     0    43     1     8
 -2.7042978904030478E-02 a       849     0    43     1     9
  4.9625219040080742E-02 a       850     0    43     1    10
 -5.2435080684866853E-02 a       851     0    43     1    11
  9.9830819353697295E-02 a       852     0    43     1    12
 -5.0832488360599178E-02 a       853     0    43     1    13
  9.9296853327085113E-02 a       854     0    43     1    14
 -1.7107361808997409E-02 a       855     0    43     1    15
  2.2999902088357108E-01 a       856     0    43     1    16
 -6.4559521135601330E-02 a       857     0    43     1    17
 -9.0769120005885384E-02 a       858     0    43     1    18
 -8.6303907121525109E-02 a       859     0    43     1    19
 -8.7679980540605912E-02 a       860     0    43     1    20
 -1.6577126231524377E-02 a       861     0    44     1     1
  6.5451695840934146E-02 a       862     0    44     1     2
 -2.3959019201018193E-02 a       863     0    44     1     3
 -5.8436160588477698E-02 a       864     0    44     1     4
  7.5769345933361827E-04 a       865     0    44     1     5
 -1.7330966140638115E-01 a       866     0    44     1     6
 -1.1956203915932499E-02 a       867     0    44     1     7
 -4.0948545288933297E-02 a       868     0    44     1     8
 -1.7816444483636430E-02 a       869     0    44     1     9
 -8.3197817618397257E-02 a       870     0    44     1    10
 -3.7417156357325967E-02 a       871     0    44     1    11
 -9.5407274513039375E-02 a       872     0    44     1    12
  1.6131483578217068E-01 a       873     0    44     1    13
 -2.7658560651136935E-02 a       874     0    44     1    14
 -1.0785722385146042E-01 a       875     0    44     1    15
 -1.2728444506677711E-01 a       876     0    44     1    16
  1.9727253620502448E-02 a       877     0    44     1    17
 -5.7739100443506511E-02 a       878     0    44     1    18
 -4.3642670506001914E-03 a       879     0    44     1    19
 -7.6372223969598016E-02 a       880     0    44     1    20
 -2.4540468280709566E-02 a       881     0    45     1     1
  2.8522442882950513E-02 a       882     0    45     1     2
 -3.2545607931554359E-02 a       883     0    45     1     3
 -7.1508553260554983E-02 a       884     0    45     1     4
 -4.1694559359165162E-02 a       885     0    45     1     5
  1.1298144383704736E-01 a       886     0    45     1     6
 -2.9624264846013514E-02 a       887     0    45     1     7
 -3.6741586669000473E-02 a       888     0    45     1     8
  5.2201436239457201E-02 a       889     0    45     1     9
  2.6865592779145742E-02 a       890     0    45     1    10
 -1.1678832482233138E-01 a       891     0    45     1    11
 -1.2909447487362838E-01 a       892     0    45     1    12
  2.0560486309491269E-02 a       893     0    45     1    13
 -2.0988799061893975E-02 a       894     0    45     1    14
  5.4692569569943235E-02 a       895     0    45     1    15
  2.4589952928533742E-03 a       896     0    45     1    16
 -6.6943007624694411E-03 a       897     0    45     1    17
  9.3894822473551035E-02 a       898     0    45     1    18
 -6.0492299968357612E-03 a       899     0    45     1    19
  6.5016316115381292E-02 a       900     0    45     1    20
  3.2292529811097813E-03 a       901     0    46     1     1
 -6.2540685344500954E-02 a       902     0    46     1     2
  4.6385663194537657E-02 a       903     0    46     1     3
  4.3318938915108414E-02 a       904     0    46     1     4
 -3.7507595903203211E-02 a       905     0    46     1     5
  6.2162433457793924E-02 a       906     0    46     1     6
 -6.8631668389386613E-02 a       907     0    46     1     7
  3.7751350770207290E-02 a       908     0    46     1     8
 -9.2412844170436589E-02 a       909     0    46     1     9
 -2.6388452274297568E-03 a       910     0    46     1    10
  1.9050849774672710E-01 a       911     0    46     1    11
  8.3716911679618880E-02 a       912     0    46     1    12
 -2.3822162797254045E-02 a       913     0    46     1    13
  1.3054049792607869E-01 a       914     0    46     1    14
  2.8444128187942262E-03 a       915     0    46     1    15
  1.1538035409446810E-01 a       916     0    46     1    16
  1.8432270891328845E-02 a       917     0    46     1    17
 -1.0303528436215979E-02 a       918     0    46     1    18
 -3.2629006640198015E-02 a       919     0    46     1    19
 -6.1604076240995627E-02 a       920     0    46     1    20
  3.6967548154811916E-02 a       921     0    47     1     1
 -1.2809121317603273E-01 a       922     0    47     1     2
  7.4101975442103785E-02 a       923     0    47     1     3
  5.8318720709751137E-02 a       924     0    47     1     4
 -2.3041570185397567E-01 a       925     0    47     1     5
 -1.4613113417227338E-02 a       926     0    47     1     6
 -1.4853125453575103E-01 a       927     0    47     1     7
 -4.2257772512048326E-02 a       928     0    47     1     8
 -5.6358324047726852E-02 a       929     0    47     1     9
 -2.7616869915912969E-02 a       930     0    47     1    10
 -1.8567100799362846E-01 a       931     0    47     1    11
  4.5555599816650069E-03 a       932     0    47     1    12
 -1.4283125115996798E-01 a       933     0    47     1    13
  1.2339311467411118E-01 a       934     0    47     1    14
  8.2551337167354910E-02 a       935     0    47     1    15
  4.5769738390448969E-02 a       936     0    47     1    16
  1.0400471617572671E-02 a       937     0    47     1    17
  9.1003321341427378E-03 a       938     0    47     1    18
 -9.6127586430787282E-02 a       939     0    47     1    19
 -1.3842817256528803E-01 a       940     0    47     1    20
  2.0073510659053884E-02 a       941     0    48     1     1
 -8.2752536375054475E-02 a       942     0    48     1     2
  5.7813166339813942E-03 a       943     0    48     1     3
 -8.4477801576847644E-02 a       944     0    48     1     4
 -1.9254698419510875E-02 a       945     0    48     1     5
  1.5212743527084932E-01 a       946     0    48     1     6
 -1.2527480430646923E-01 a       947     0    48     1     7
 -1.9954157065334689E-02 a       948     0    48     1     8
 -1.5388178549028494E-01 a       949     0    48     1     9
  1.0673151838671284E-02 a       950     0    48     1    10
 -1.6762164928067541E-01 a       951     0    48     1    11
  2.8785563460274194E-03 a       952     0    48     1    12
 -2.0826885039599927E-02 a       953     0    48     1    13
  1.6001137707669291E-01 a       954     0    48     1    14
  7.5337610221849110E-04 a       955     0    48     1    15
  1.5835121980105279E-02 a       956     0    48     1    16
  8.7466282609964113E-02 a       957     0    48     1    17
 -2.4580865582460747E-02 a       958     0    48     1    18
  8.1679042826574871E-02 a       959     0    48     1    19
  1.1153024780683133E-03 a       960     0    48     1    20
 -1.2617800882736288E-01 a       961     0    49     1     1
 -5.6418700078236031E-02 a       962     0    49     1     2
 -1.0648013588972928E-01 a       963     0    49     1     3
 -2.2023279052712726E-02 a       964     0    49     1     4
 -3.3453380822135961E-02 a       965     0    49     1     5
 -1.0149238467609008E-01 a       966     0    49     1     6
  1.9598485663113313E-02 a       967     0    49     1     7
  3.5787671398096188E-02 a       968     0    49     1     8
  1.0349554638385038E-02 a       969     0    49     1     9
  8.8261549332300057E-02 a       970     0    49     1    10
 -9.1355333783121842E-02 a       971     0    49     1    11
 -5.2950888776009133E-02 a       972     0    49     1    12
 -2.9310563135960872E-02 a       973     0    49     1    13
  5.0563009207119106E-02 a       974     0    49     1    14
  8.1656720756547257E-02 a       975     0    49     1    15
  4.3625322624038142E-02 a       976     0    49     1    16
  1.6744839797767926E-02 a       977     0    49     1    17
  2.6662267317562084E-02 a       978     0    49     1    18
  1.5597748874997577E-01 a       979     0    49     1    19
  7.2663875392013660E-02 a       980     0    49     1    20
 -6.0265208857962958E-02 a       981     0    50     1     1
  2.1478380062663036E-02 a       982     0    50     1     2
  7.3292699829865752E-03 a       983     0    50     1     3
 -1.9651972681597094E-01 a       984     0    50     1     4
  6.9822467719823464E-02 a       985     0    50     1     5
 -3.7288647305764790E-02 a       986     0    50     1     6
 -2.4974379253639555E-03 a       987     0    50     1     7
  7.2801431808599743E-02 a       988     0    50     1     8
 -1.4893516607829121E-01 a       989     0    50     1     9
 -7.3673755397055160E-02 a       990     0    50     1    10
  1.8041368970243839E-02 a       991     0    50     1    11
 -9.6731442606977323E-03 a       992     0    50     1    12
  6.9389190728765621E-02 a       993     0    50     1    13
 -7.4953307170846029E-02 a       994     0    50     1    14
 -2.8721490325793467E-02 a       995     0    50     1    15
 -2.1838215152744128E-01 a       996     0    50     1    16
 -4.3905939606742432E-02 a       997     0    50     1    17
 -1.2168214628698588E-01 a       998     0    50     1    18
 -2.5157943225059754E-02 a       999     0    50     1    19
 -3.4104938241417554E-02 a      1000     0    50     1    20
 -2.4742741113935277E-01 a      1001     0    51     1     1
 -1.2834368694079620E-01 a      1002     0    51     1     2
 -2.4624402784793321E-02 a      1003     0    51     1     3
 -4.0063884589461446E-02 a      1004     0    51     1     4
 -5.3313686619380393E-02 a      1005     0    51     1     5
  1.6436120279201091E-01 a      1006     0    51     1     6
  1.6615038307736912E-01 a      1007     0    51     1     7
 -8.5679835768045332E-02 a      1008     0    51     1     8
  1.6419975284203780E-01 a      1009     0    51     1     9
  7.0580419686128285E-02 a      1010     0    51     1    10
 -1.9957390464069005E-01 a      1011     0    51     1    11
  4.8654876929047339E-02 a      1012     0    51     1    12
  7.4796397473847101E-02 a      1013     0    51     1    13
 -1.0827699115386707E-01 a      1014     0    51     1    14
  1.7931032196226321E-01 a      1015     0    51     1    15
  8.3562306755650476E-02 a      1016     0    51     1    16
 -1.3673615978520004E-01 a      1017     0    51     1    17
  2.6955422205914459E-01 a      1018     0    51     1    18
  2.0625096136458085E-01 a      1019     0    51     1    19
 -5.0391657236324057E-02 a      1020     0    51     1    20
 -4.3085991957430264E-02 a      1021     0    52     1     1
 -2.6745316957352362E-02 a      1022     0    52     1     2
  8.6671041971823029E-02 a      1023     0    52     1     3
 -1.3840381317821848E-01 a      1024     0    52     1     4
  1.4551617596756966E-01 a      1025     0    52     1     5
  7.1509839662335040E-02 a      1026     0    52     1     6
  6.3154904160265868E-02 a      1027     0    52     1     7
 -5.8477838559194785E-02 a      1028     0    52     1     8
  1.2668429828019148E-01 a      1029     0    52     1     9
  4.2182501022086503E-02 a      1030     0    52     1    10
  9.6649886599259383E-02 a      1031     0    52     1    11
 -7.7706674443013726E-02 a      1032     0    52     1    12
 -6.7185120044799998E-02 a      1033     0    52     1    13
  4.0637543569814132E-02 a      1034     0    52     1    14
 -1.4879388592803530E-01 a      1035     0    52     1    15
 -1.0395714031834281E-01 a      1036     0    52     1    16
 -7.5907251541510026E-02 a      1037     0    52     1    17
  7.2792114720083553E-02 a      1038     0    52     1    18
  1.2031998958857101E-01 a      1039     0    52     1    19
  5.0894165713253501E-03 a      1040     0    52     1    20
  7.9550126037826518E-02 a      1041     0    53     1     1
 -4.0383413627426902E-02 a      1042     0    53     1     2
  1.0004219577529785E-01 a      1043     0    53     1     3
  2.5385181203830165E-01 a      1044     0    53     1     4
  5.5413554169825074E-02 a      1045     0    53     1     5
 -9.1356393980643880E-02 a      1046     0    53     1     6
 -3.8386034792337591E-02 a      1047     0    53     1     7
  2.6158612538266979E-01 a      1048     0    53     1     8
 -2.0756851845516416E-01 a      1049     0    53     1     9
  1.3486148154201089E-01 a      1050     0    53     1    10
  3.6033720355614494E-02 a      1051     0    53     1    11
 -3.7458214875496304E-02 a      1052     0    53     1    12
  1.3435370259058707E-02 a      1053     0    53     1    13
  7.2661639972207467E-02 a      1054     0    53     1    14
  1.8792585032750500E-01 a      1055     0    53     1    15
  8.9881651731965537E-03 a      1056     0    53     1    16
  8.4193208007361728E-02 a      1057     0    53     1    17
 -1.9370231069319535E-01 a      1058     0    53     1    18
 -1.4017701176505556E-01 a      1059     0    53     1    19
 -2.5192124642431074E-01 a      1060     0    53     1    20
 -2.0559727766175866E-02 a      1061     0    54     1     1
 -3.4252892529588561E-02 a      1062     0    54     1     2
  5.6419796039866847E-02 a      1063     0    54     1     3
  9.4484198805568978E-02 a      1064     0    54     1     4
  3.0164008622990492E-02 a      1065     0    54     1     5
 -1.1844320486454078E-01 a      1066     0    54     1     6
 -7.8858985231933229E-02 a      1067     0    54     1     7
 -1.8954942183961050E-02 a      1068     0    54     1     8
  1.4543848552847941E-02 a      1069     0    54     1     9
  2.1670523987006644E-02 a      1070     0    54     1    10
  1.6997061834865129E-01 a      1071     0    54     1    11
  6.7220098385788019E-02 a      1072     0    54     1    12
  4.3919503909357061E-02 a      1073     0    54     1    13
  4.5933950843012716E-02 a      1074     0    54     1    14
  4.2419136367696418E-02 a      1075     0    54     1    15
  6.2354135790451674E-02 a      1076     0    54     1    16
  2.5050256178990572E-02 a      1077     0    54     1    17
 -5.1284928104997239E-03 a      1078     0    54     1    18
 -9.0065167470215632E-02 a      1079     0    54     1    19
 -2.5562108919278390E-02 a      1080     0    54     1    20
  1.6705885857791480E-01 a      1081     0    55     1     1
  9.2947570772140761E-02 a      1082     0    55     1     2
  2.9989621784541971E-03 a      1083     0    55     1     3
 -6.9729503256616240E-02 a      1084     0    55     1     4
 -1.3210387845237156E-01 a      1085     0    55     1     5
  9.3408343515912651E-02 a      1086     0    55     1     6
 -1.8719509137049208E-02 a      1087     0    55     1     7
  3.3598873900378336E-02 a      1088     0    55     1     8
 -4.8205929172532691E-02 a      1089     0    55     1     9
 -1.0415010538774833E-02 a      1090     0    55     1    10
 -1.5542566973972410E-01 a      1091     0    55     1    11
  3.5675216783120287E-02 a      1092     0    55     1    12
 -1.1088747115869557E-01 a      1093     0    55     1    13
  3.8206784478035487E-02 a      1094     0    55     1    14
 -7.3645541718362541E-03 a      1095     0    55     1    15
 -6.7487764870428860E-02 a      1096     0    55     1    16
 -3.6855836300805626E-02 a      1097     0    55     1    17
 -1.3558305801752549E-01 a      1098     0    55     1    18
  3.7943677170924341E-04 a      1099     0    55     1    19
 -1.4002455120545709E-01 a      1100     0    55     1    20
 -1.8982305327963947E-01 a      1101     0    56     1     1
 -1.7358785628002352E-01 a      1102     0    56     1     2
 -9.7142697556714105E-02 a      1103     0    56     1     3
  1.2943160030771428E-01 a      1104     0    56     1     4
  7.2429930508179516E-02 a      1105     0    56     1     5
 -3.3179837675444093E-02 a      1106     0    56     1     6
 -1.1608260077327948E-01 a      1107     0    56     1     7
  1.2729080816042632E-01 a      1108     0    56     1     8
 -2.6615292274327275E-02 a      1109     0    56     1     9
 -1.4888334418089710E-01 a      1110     0    56     1    10
 -1.5619939708910896E-01 a      1111     0    56     1    11
  1.2105846552597455E-01 a      1112     0    56     1    12
  1.5003628844161121E-01 a      1113     0    56     1    13
  1.1543979763826930E-01 a      1114     0    56     1    14
  1.3205815098657531E-01 a      1115     0    56     1    15
  5.3882059474507998E-02 a      1116     0    56     1    16
  1.6068256378641055E-01 a      1117     0    56     1    17
  1.0009808728768890E-01 a      1118     0    56     1    18
 -2.0438386442550791E-03 a      1119     0    56     1    19
 -2.0984514623975790E-02 a      1120     0    56     1    20
  2.2130308315263530E-01 a      1121     0    57     1     1
 -4.9329801120443335E-02 a      1122     0    57     1     2
 -2.0318399978126563E-02 a      1123     0    57     1     3
 -1.4898146433256432E-01 a      1124     0    57     1     4
 -2.0447355915024723E-01 a      1125     0    57     1     5
  2.7157794940175850E-01 a      1126     0    57     1     6
  3.5353860946567783E-02 a      1127     0    57     1     7
 -1.8468282566107462E-02 a      1128     0    57     1     8
 -1.6433351060907783E-01 a      1129     0    57     1     9
 -1.6674594585316502E-01 a      1130     0    57     1    10
 -2.0244371761481350E-01 a      1131     0    57     1    11
  6.3032379111279097E-02 a      1132     0    57     1    12
 -3.0846768712183805E-02 a      1133     0    57     1    13
  7.0277016625798522E-02 a      1134     0    57     1    14
  1.3844717864484797E-02 a      1135     0    57     1    15
  3.0547757556237783E-02 a      1136     0    57     1    16
  8.9442152098621872E-02 a      1137     0    57     1    17
  1.1959853352738112E-01 a      1138     0    57     1    18
  1.7052458889006503E-02 a      1139     0    57     1    19
  1.1069556232939562E-01 a      1140     0    57     1    20
  5.7520695170883311E-02 a      1141     0    58     1     1
 -1.9618319353436350E-01 a      1142     0    58     1     2
  1.5619368639873132E-01 a      1143     0    58     1     3
 -1.4408758628467048E-02 a      1144     0    58     1     4
  5.9101505356037899E-02 a      1145     0    58     1     5
 -1.4422187171316078E-01 a      1146     0    58     1     6
  9.1485869579353535E-02 a      1147     0    58     1     7
 -6.8902717458144455E-02 a      1148     0    58     1     8
  2.2029410512268560E-01 a      1149     0    58     1     9
 -3.5241173081565755E-02 a      1150     0    58     1    10
  1.4770712287730758E-01 a      1151     0    58     1    11
 -1.2980566476612265E-01 a      1152     0    58     1    12
  3.8037367840130044E-02 a      1153     0    58     1    13
 -1.4931052651837841E-02 a      1154     0    58     1    14
 -1.0098932254699078E-01 a      1155     0    58     1    15
 -3.7900696576465609E-02 a      1156     0    58     1    16
  1.8057469640359883E-01 a      1157     0    58     1    17
  7.9135821913864340E-02 a      1158     0    58     1    18
  6.5016493955176488E-02 a      1159     0    58     1    19
  4.1700439460019091E-02 a      1160     0    58     1    20
  2.0022011448974961E-01 a      1161     0    59     1     1
  3.4027060485554911E-01 a      1162     0    59     1     2
 -8.7407683252118618E-02 a      1163     0    59     1     3
 -9.7777851247260128E-02 a      1164     0    59     1     4
 -2.4397708402782106E-01 a      1165     0    59     1     5
 -1.3114280947009915E-01 a      1166     0    59     1     6
 -1.0857826513684493E-01 a      1167     0    59     1     7
  6.1568681487541015E-02 a      1168     0    59     1     8
  1.5718659993861457E-03 a      1169     0    59     1     9
 -8.2680170614722534E-02 a      1170     0    59     1    10
  2.2667839085232545E-02 a      1171     0    59     1    11
  4.0294470043224902E-02 a      1172     0    59     1    12
 -2.2356596042805547E-02 a      1173     0    59     1    13
 -1.6959782656427064E-01 a      1174     0    59     1    14
 -7.3508884560798279E-02 a      1175     0    59     1    15
  1.9442557781963216E-01 a      1176     0    59     1    16
 -1.6343309534693179E-01 a      1177     0    59     1    17
  1.2006594692347274E-02 a      1178     0    59     1    18
  5.7372484845892892E-02 a      1179     0    59     1    19
  1.2812322015046662E-01 a      1180     0    59     1    20
 -2.5743162086806153E-02 a      1181     0    60     1     1
  9.2234171309483581E-02 a      1182     0    60     1     2
  2.3854083973312637E-01 a      1183     0    60     1     3
  3.5412675607596650E-01 a      1184     0    60     1     4
 -1.4909922100559334E-01 a      1185     0    60     1     5
 -8.8825679853600237E-02 a      1186     0    60     1     6
 -1.2899513075571817E-01 a      1187     0    60     1     7
  1.2433622174529432E-01 a      1188     0    60     1     8
  2.9214027914293106E-01 a      1189     0    60     1     9
  8.5316696306960496E-02 a      1190     0    60     1    10
  1.4769556555226085E-01 a      1191     0    60     1    11
  1.9061542270601885E-02 a      1192     0    60     1    12
 -1.9216451378521057E-01 a      1193     0    60     1    13
  1.1217779856929969E-01 a      1194     0    60     1    14
 -1.5862397711824523E-02 a      1195     0    60     1    15
  1.2184483635843547E-01 a      1196     0    60     1    16
  1.4928220662030550E-01 a      1197     0    60     1    17
  1.1106920320310633E-01 a      1198     0    60     1    18
 -2.0337555156023882E-02 a      1199     0    60     1    19
 -1.0144688917938346E-01 a      1200     0    60     1    20
  1.6429513970865015E-01 a      1201     0    61     1     1
  1.3457622822103621E-01 a      1202     0    61     1     2
 -9.6974310687871115E-02 a      1203     0    61     1     3
  1.3616304486357292E-01 a      1204     0    61     1     4
  1.7883005016577058E-01 a      1205     0    61     1     5
 -1.0212385500850650E-01 a      1206     0    61     1     6
 -3.8990532557687474E-02 a      1207     0    61     1     7
  1.0514285850688093E-01 a      1208     0    61     1     8
 -2.3904278247065333E-01 a      1209     0    61     1     9
  4.0377841691509181E-02 a      1210     0    61     1    10
  1.7617437323728197E-02 a      1211     0    61     1    11
  1.4688866605315312E-02 a      1212     0    61     1    12
  1.0581265478544892E-01 a      1213     0    61     1    13
 -1.3532115583871251E-01 a      1214     0    61     1    14
  1.2156672974063602E-01 a      1215     0    61     1    15
  1.0007548997388263E-01 a      1216     0    61     1    16
 -1.3095775048980959E-01 a      1217     0    61     1    17
  2.0819456283644778E-02 a      1218     0    61     1    18
  1.3564372092247939E-01 a      1219     0    61     1    19
  4.2611601706660375E-02 a      1220     0    61     1    20
 -1.9921466716504366E-01 a      1221     0    62     1     1
 -1.9250003283684328E-02 a      1222     0    62     1     2
  1.0889510971006516E-01 a      1223     0    62     1     3
  2.5364965936495010E-01 a      1224     0    62     1     4
 -6.8189546337442244E-02 a      1225     0    62     1     5
 -3.1966479368712712E-02 a      1226     0    62     1     6
 -2.9094879438053851E-03 a      1227     0    62     1     7
 -5.8778051506197450E-02 a      1228     0    62     1     8
  1.0223963556175111E-01 a      1229     0    62     1     9
  1.0442819800987806E-01 a      1230     0    62     1    10
  1.2684135017227380E-01 a      1231     0    62     1    11
  1.7103246136576894E-01 a      1232     0    62     1    12
 -1.8292517064213712E-01 a      1233     0    62     1    13
 -1.1399500216907764E-01 a      1234     0    62     1    14
  1.1754061364059938E-01 a      1235     0    62     1    15
  1.2322961143467083E-01 a      1236     0    62     1    16
 -3.3160614399849277E-02 a      1237     0    62     1    17
  2.0407444334882591E-01 a      1238     0    62     1    18
  7.3700219464471542E-02 a      1239     0    62     1    19
  1.8145743553823249E-01 a      1240     0    62     1    20
 -1.1716110290144154E-03 a      1241     0    63     1     1
  5.2249802285276863E-02 a      1242     0    63     1     2
  9.0179542858091863E-02 a      1243     0    63     1     3
 -9.7371951190846046E-02 a      1244     0    63     1     4
  2.4548224912951908E-01 a      1245     0    63     1     5
  9.7443390401790397E-02 a      1246     0    63     1     6
 -3.4118337525716573E-03 a      1247     0    63     1     7
 -5.1543447874859765E-03 a      1248     0    63     1     8
  3.9070146424212152E-02 a      1249     0    63     1     9
 -9.8506594797820243E-02 a      1250     0    63     1    10
 -2.4041724375547543E-01 a      1251     0    63     1    11
  1.9900223602942974E-01 a      1252     0    63     1    12
  9.1522290923451960E-02 a      1253     0    63     1    13
  9.4740771814882302E-02 a      1254     0    63     1    14
  5.5310870057000472E-02 a      1255     0    63     1    15
  1.0735023362318273E-01 a      1256     0    63     1    16
  5.0978987178266925E-02 a      1257     0    63     1    17
  4.8761383309089655E-02 a      1258     0    63     1    18
  9.1479761068265747E-02 a      1259     0    63     1    19
 -1.4894489011275577E-01 a      1260     0    63     1    20
 -1.3603283996499974E-01 a      1261     0    64     1     1
  2.4023506758150244E-02 a      1262     0    64     1     2
 -3.8299918303744088E-02 a      1263     0    64     1     3
 -2.6788538534765066E-01 a      1264     0    64     1     4
  1.4586821007452763E-01 a      1265     0    64     1     5
 -7.2271641488135210E-02 a      1266     0    64     1     6
 -1.0295111667710950E-01 a      1267     0    64     1     7
 -4.7703716899060590E-02 a      1268     0    64     1     8
  5.2880560661090294E-02 a      1269     0    64     1     9
 -1.4865086636309280E-01 a      1270     0    64     1    10
  2.0618305847022286E-01 a      1271     0    64     1    11
 -4.3231537786168651E-02 a      1272     0    64     1    12
 -7.3463547611455404E-02 a      1273     0    64     1    13
 -4.2770159824449039E-02 a      1274     0    64     1    14
 -9.8273758444853698E-02 a      1275     0    64     1    15
 -6.8367960575828293E-02 a      1276     0    64     1    16
  4.5093601770409747E-02 a      1277     0    64     1    17
  1.9490810755654644E-01 a      1278     0    64     1    18
 -1.0912369673997062E-01 a      1279     0    64     1    19
  9.7651595899493682E-02 a      1280     0    64     1    20
 -1.1382447743056720E-01 a      1281     0    65     1     1
 -3.3472443700455577E-03 a      1282     0    65     1     2
 -7.0829211077325011E-02 a      1283     0    65     1     3
  1.0568806034973788E-01 a      1284     0    65     1     4
 -3.4241393873958012E-02 a      1285     0    65     1     5
 -1.7925562599741601E-01 a      1286     0    65     1     6
  8.4579293181992657E-02 a      1287     0    65     1     7
 -3.9887924115143122E-02 a      1288     0    65     1     8
 -1.1910776037875812E-02 a      1289     0    65     1     9
 -1.2140002081894642E-03 a      1290     0    65     1    10
  1.5185983939186209E-01 a      1291     0    65     1    11
 -2.1408554673117391E-01 a      1292     0    65     1    12
 -1.6928106249765912E-01 a      1293     0    65     1    13
 -3.4920768270502139E-02 a      1294     0    65     1    14
  1.1068095114796840E-01 a      1295     0    65     1    15
  2.6838766882260301E-01 a      1296     0    65     1    16
  4.7433004839961039E-02 a      1297     0    65     1    17
 -1.3916609778111422E-01 a      1298     0    65     1    18
 -1.4452262540828950E-01 a      1299     0    65     1    19
  1.1206531413801833E-01 a      1300     0    65     1    20
 -9.9956196295011443E-02 a      1301     0    66     1     1
 -1.0544810385509283E-01 a      1302     0    66     1     2
 -9.0788977698543258E-02 a      1303     0    66     1     3
  4.7709023153231507E-02 a      1304     0    66     1     4
 -1.3755865398426970E-01 a      1305     0    66     1     5
 -5.8175162798585638E-02 a      1306     0    66     1     6
  5.7573986591381549E-02 a      1307     0    66     1     7
 -1.1383722198950938E-01 a      1308     0    66     1     8
 -6.0889213526576832E-03 a      1309     0    66     1     9
 -1.4094013683129616E-01 a      1310     0    66     1    10
  1.2059918459790691E-02 a      1311     0    66     1    11
 -1.1544560024004782E-01 a      1312     0    66     1    12
  1.4505943086018712E-02 a      1313     0    66     1    13
  1.0408445894358258E-01 a      1314     0    66     1    14
 -1.0320439655577046E-01 a      1315     0    66     1    15
 -6.5549104011722592E-02 a      1316     0    66     1    16
  1.1404611045952039E-01 a      1317     0    66     1    17
 -8.5010681448945719E-02 a      1318     0    66     1    18
  3.8565559000856300E-02 a      1319     0    66     1    19
 -7.1965678550500817E-02 a      1320     0    66     1    20
  5.2266565390260013E-02 a      1321     0    67     1     1
  1.1753172644245555E-01 a      1322     0    67     1     2
 -9.1133157117041647E-02 a      1323     0    67     1     3
 -1.7512740690376577E-01 a      1324     0    67     1     4
 -5.2813345721012990E-02 a      1325     0    67     1     5
 -2.4107169526892559E-02 a      1326     0    67     1     6
  2.8245944232896007E-02 a      1327     0    67     1     7
 -1.4986281075001240E-01 a      1328     0    67     1     8
  9.8535983898360754E-02 a      1329     0    67     1     9
  1.2574280290243187E-02 a      1330     0    67     1    10
 -8.5767242019451476E-02 a      1331     0    67     1    11
 -1.9155100751741536E-01 a      1332     0    67     1    12
  2.4264672352188368E-01 a      1333     0    67     1    13
 -2.3847044742487938E-01 a      1334     0    67     1    14
  1.5500450857148419E-02 a      1335     0    67     1    15
  1.0090084337455715E-01 a      1336     0    67     1    16
 -8.5884981364404631E-02 a      1337     0    67     1    17
  2.0951288882955613E-02 a      1338     0    67     1    18
  6.6759696592102916E-02 a      1339     0    67     1    19
  8.1775871137893780E-02 a      1340     0    67     1    20
 -2.7450716428293553E-02 a      1341     0    68     1     1
  1.2748680376391935E-01 a      1342     0    68     1     2
  1.5216722261380122E-01 a      1343     0    68     1     3
  2.5924191480865039E-01 a      1344     0    68     1     4
 -8.3190309635277557E-02 a      1345     0    68     1     5
  5.7629646859396269E-02 a      1346     0    68     1     6
 -1.6077109420098920E-01 a      1347     0    68     1     7
  1.2883024197832968E-01 a      1348     0    68     1     8
 -5.7712341041618508E-02 a      1349     0    68     1     9
  8.5347608458218073E-03 a      1350     0    68     1    10
  7.6467199959613985E-02 a      1351     0    68     1    11
  1.2185078785643320E-01 a      1352     0    68     1    12
  1.1045129660747700E-01 a      1353     0    68     1    13
  2.6568291940641298E-01 a      1354     0    68     1    14
  9.9800365790376194E-03 a      1355     0    68     1    15
  3.8467361087405630E-02 a      1356     0    68     1    16
  3.2512538214343911E-02 a      1357     0    68     1    17
 -7.2120674229489298E-02 a      1358     0    68     1    18
  2.1895567860310799E-01 a      1359     0    68     1    19
  3.3896984153656155E-02 a      1360     0    68     1    20
  1.2273056717612435E-01 a      1361     0    69     1     1
 -5.9695163861787619E-03 a      1362     0    69     1     2
  5.3359100763521808E-02 a      1363     0    69     1     3
  8.1445676259219682E-02 a      1364     0    69     1     4
  1.3769880289072658E-01 a      1365     0    69     1     5
  2.3503761502287206E-02 a      1366     0    69     1     6
 -7.1639286045483905E-03 a      1367     0    69     1     7
 -7.1531332241073609E-02 a      1368     0    69     1     8
  1.9623434742872090E-01 a      1369     0    69     1     9
  1.8627034537633377E-01 a      1370     0    69     1    10
  3.6983039416293759E-02 a      1371     0    69     1    11
  1.6987518134359083E-02 a      1372     0    69     1    12
 -4.1967050618600711E-02 a      1373     0    69     1    13
  1.1826296898403921E-01 a      1374     0    69     1    14
 -3.1615073468061888E-02 a      1375     0    69     1    15
  1.4445778765816031E-01 a      1376     0    69     1    16
  1.2866790247608487E-01 a      1377     0    69     1    17
  1.8593694016188522E-01 a      1378     0    69     1    18
  1.3377846370713603E-01 a      1379     0    69     1    19
  1.2630190301065095E-01 a      1380     0    69     1    20
 -2.1948927928545506E-01 a      1381     0    70     1     1
 -1.4626382836181104E-01 a      1382     0    70     1     2
 -1.3629812982179074E-01 a      1383     0    70     1     3
 -7.8693101006035229E-02 a      1384     0    70     1     4
 -2.6866920517401808E-02 a      1385     0    70     1     5
 -2.2211845103178654E-02 a      1386     0    70     1     6
  1.1514366742042334E-01 a      1387     0    70     1     7
 -3.2586244766478534E-02 a      1388     0    70     1     8
  1.3738177894656012E-01 a      1389     0    70     1     9
  1.1620666731084923E-02 a      1390     0    70     1    10
  3.5125717437506206E-02 a      1391     0    70     1    11
 -1.5269628629100851E-01 a      1392     0    70     1    12
  4.7729695746704257E-02 a      1393     0    70     1    13
  1.9177079714825691E-02 a      1394     0    70     1    14
 -1.0149225292130223E-01 a      1395     0    70     1    15
 -8.0700555101970040E-03 a      1396     0    70     1    16
  1.9999954628340783E-01 a      1397     0    70     1    17
  7.0605187848000933E-02 a      1398     0    70     1    18
  2.7608121491993709E-01 a      1399     0    70     1    19
  8.7825848658066807E-02 a      1400     0    70     1    20
 -1.8116129751336693E-01 a      1401     0    71     1     1
  2.7873503230338276E-01 a      1402     0    71     1     2
 -1.4707764874654353E-01 a      1403     0    71     1     3
 -8.5485601059515932E-03 a      1404     0    71     1     4
  4.8217025745764724E-02 a      1405     0    71     1     5
  1.8666603394889511E-01 a      1406     0    71     1     6
 -1.8432667495662639E-01 a      1407     0    71     1     7
 -2.0077701417808599E-01 a      1408     0    71     1     8
 -1.2567739937219247E-01 a      1409     0    71     1     9
  1.7133822436133378E-01 a      1410     0    71     1    10
 -1.4339805870419248E-01 a      1411     0    71     1    11
  2.2238707380658460E-01 a      1412     0    71     1    12
  1.6545862714320494E-01 a      1413     0    71     1    13
  1.5784984485486372E-01 a      1414     0    71     1    14
 -2.2974897854295373E-01 a      1415     0    71     1    15
  2.6367123361236700E-01 a      1416     0    71     1    16
  1.0848221268012349E-01 a      1417     0    71     1    17
  3.4302742309486219E-02 a      1418     0    71     1    18
  9.8287983849657728E-02 a      1419     0    71     1    19
 -1.5257906524050494E-01 a      1420     0    71     1    20
 -1.0342222785252782E-01 a      1421     0    72     1     1
  3.2784676369405505E-02 a      1422     0    72     1     2
  9.5519477710096223E-02 a      1423     0    72     1     3
  6.5947695914895355E-02 a      1424     0    72     1     4
 -6.8689365503971964E-02 a      1425     0    72     1     5
  1.6404339760079051E-01 a      1426     0    72     1     6
 -3.0504124996934856E-01 a      1427     0    72     1     7
 -1.0894434806468835E-01 a      1428     0    72     1     8
  8.3522317542314845E-02 a      1429     0    72     1     9
 -7.6619273965407700E-02 a      1430     0    72     1    10
  1.6748485152247813E-01 a      1431     0    72     1    11
 -2.5749377371594388E-02 a      1432     0    72     1    12
  1.1470383518161199E-01 a      1433     0    72     1    13
  7.1799199157219693E-04 a      1434     0    72     1    14
  1.0437259299119604E-01 a      1435     0    72     1    15
 -9.8027090965171371E-02 a      1436     0    72     1    16
  6.8348286330607563E-02 a      1437     0    72     1    17
 -1.7595517736310873E-01 a      1438     0    72     1    18
  1.8474230831675278E-01 a      1439     0    72     1    19
  5.8548541106444377E-02 a      1440     0    72     1    20
 -1.0714760246411367E-02 a      1441     0    73     1     1
 -1.9539054780092924E-02 a      1442     0    73     1     2
  4.0603445983024714E-03 a      1443     0    73     1     3
  8.6260841254185983E-02 a      1444     0    73     1     4
  1.2170569949795410E-01 a      1445     0    73     1     5
 -1.9162952879260842E-01 a      1446     0    73     1     6
 -3.4446067223620695E-02 a      1447     0    73     1     7
 -1.3991974028769137E-02 a      1448     0    73     1     8
 -1.4028444196137035E-02 a      1449     0    73     1     9
 -9.4893168569802469E-02 a      1450     0    73     1    10
 -2.0179416848626650E-02 a      1451     0    73     1    11
  1.8173574078809906E-01 a      1452     0    73     1    12
  1.0974116051328922E-01 a      1453     0    73     1    13
  2.7848266464410923E-02 a      1454     0    73     1    14
 -1.5540198903727503E-01 a      1455     0    73     1    15
  2.4076865092924633E-02 a      1456     0    73     1    16
 -1.6513433581415474E-01 a      1457     0    73     1    17
  9.1180925285907849E-02 a      1458     0    73     1    18
 -9.9026959393033284E-02 a      1459     0    73     1    19
  1.5060555781429566E-01 a      1460     0    73     1    20
  1.5540212465455658E-01 a      1461     0    74     1     1
 -5.7928220557723321E-02 a      1462     0    74     1     2
 -2.0218332434609967E-01 a      1463     0    74     1     3
 -4.8077326321184922E-02 a      1464     0    74     1     4
  2.2737705184678891E-01 a      1465     0    74     1     5
  2.0923058538202788E-01 a      1466     0    74     1     6
 -9.7302196495096305E-02 a      1467     0    74     1     7
 -1.4461011660652417E-01 a      1468     0    74     1     8
  1.5918544069130958E-01 a      1469     0    74     1     9
  6.1755935295658496E-02 a      1470     0    74     1    10
  1.5193031411708274E-01 a      1471     0    74     1    11
 -1.4238203697148127E-01 a      1472     0    74     1    12
 -2.0918933838743145E-02 a      1473     0    74     1    13
 -1.8626815472392845E-02 a      1474     0    74     1    14
 -2.4189428357442349E-02 a      1475     0    74     1    15
 -2.0853630095965814E-01 a      1476     0    74     1    16
 -1.6835270791704757E-01 a      1477     0    74     1    17
 -1.5687136163428289E-01 a      1478     0    74     1    18
 -2.8017333628455349E-02 a      1479     0    74     1    19
 -4.6910835484192906E-02 a      1480     0    74     1    20
  9.8955788313090737E-02 a      1481     0    75     1     1
  3.7768442504443049E-02 a      1482     0    75     1     2
 -7.1687452848961955E-02 a      1483     0    75     1     3
  9.6155496370722376E-02 a      1484     0    75     1     4
  5.0656140661344842E-02 a      1485     0    75     1     5
  7.4154925506210043E-02 a      1486     0    75     1     6
  1.2693273662354657E-01 a      1487     0    75     1     7
 -2.3182398442217213E-03 a      1488     0    75     1     8
  5.9567251885265037E-02 a      1489     0    75     1     9
 -1.7247366313289597E-01 a      1490     0    75     1    10
  1.8828269570265907E-01 a      1491     0    75     1    11
  2.1475623236295330E-01 a      1492     0    75     1    12
  4.5042698936751974E-02 a      1493     0    75     1    13
  4.3119145691262857E-02 a      1494     0    75     1    14
 -3.2362786506024879E-02 a      1495     0    75     1    15
  2.0282715914291122E-01 a      1496     0    75     1    16
 -1.2018538612264765E-01 a      1497     0    75     1    17
 -1.8990059991493638E-01 a      1498     0    75     1    18
 -3.8315872286555516E-02 a      1499     0    75     1    19
  2.0831387939236035E-01 a      1500     0    75     1    20
 -1.2995911670599222E-01 a      1501     0    76     1     1
 -1.1424624854585819E-01 a      1502     0    76     1     2
 -1.4895311405039960E-01 a      1503     0    76     1     3
  4.1209425389263393E-02 a      1504     0    76     1     4
  1.6771674604765155E-01 a      1505     0    76     1     5
 -1.0238167201056490E-02 a      1506     0    76     1     6
  1.6482123240227275E-01 a      1507     0    76     1     7
 -5.1612452430982579E-02 a      1508     0    76     1     8
 -9.8144962971645766E-02 a      1509     0    76     1     9
  3.5735971340302812E-02 a      1510     0    76     1    10
  8.0940625263439550E-02 a      1511     0    76     1    11
  1.5324074587425357E-01 a      1512     0    76     1    12
  1.1481958855413173E-01 a      1513     0    76     1    13
  8.8304241115698373E-02 a      1514     0    76     1    14
  1.0527507116388006E-01 a      1515     0    76     1    15
  1.5477280320905348E-01 a      1516     0    76     1    16
  4.9353224804538250E-02 a      1517     0    76     1    17
 -6.3667826873534381E-02 a      1518     0    76     1    18
  8.1607933886981190E-02 a      1519     0    76     1    19
 -9.2557694663906245E-02 a      1520     0    76     1    20
  1.7458584240832836E-01 a      1521     0    77     1     1
  4.1671500840162967E-02 a      1522     0    77     1     2
  2.7538817687231456E-02 a      1523     0    77     1     3
 -6.3915062589386146E-02 a      1524     0    77     1     4
 -7.0101600026452465E-02 a      1525     0    77     1     5
 -4.2096364179661991E-03 a      1526     0    77     1     6
  1.6976298810123108E-02 a      1527     0    77     1     7
  8.4869609421042699E-02 a      1528     0    77     1     8
 -1.3678190135402482E-01 a      1529     0    77     1     9
 -9.8944260868360806E-02 a      1530     0    77     1    10
 -9.1885315014649721E-02 a      1531     0    77     1    11
 -1.9993936988112176E-01 a      1532     0    77     1    12
  5.1377893065274495E-02 a      1533     0    77     1    13
  1.5980090494944590E-01 a      1534     0    77     1    14
 -1.1365453823362832E-01 a      1535     0    77     1    15
  5.9533287445582873E-02 a      1536     0    77     1    16
  3.2417815961675096E-02 a      1537     0    77     1    17
 -1.6537729739102236E-01 a      1538     0    77     1    18
 -9.9288205233670448E-02 a      1539     0    77     1    19
  2.2690789169025793E-02 a      1540     0    77     1    20
  7.3522364627532047E-02 a      1541     0    78     1     1
 -9.6621177873063777E-03 a      1542     0    78     1     2
 -2.3331793619306058E-02 a      1543     0    78     1     3
  2.0838041022283031E-02 a      1544     0    78     1     4
  6.8154327309974908E-02 a      1545     0    78     1     5
 -3.4532014161018268E-02 a      1546     0    78     1     6
  3.1434133736294965E-02 a      1547     0    78     1     7
 -4.7010767326847884E-02 a      1548     0    78     1     8
  1.3392917553396885E-01 a      1549     0    78     1     9
 -1.6171551546302357E-01 a      1550     0    78     1    10
  1.4582940931684435E-01 a      1551     0    78     1    11
 -1.1051093163364251E-01 a      1552     0    78     1    12
  2.0869906168821992E-01 a      1553     0    78     1    13
 -2.0813945543783182E-02 a      1554     0    78     1    14
 -1.7197478289637871E-01 a      1555     0    78     1    15
  1.9379817355814295E-02 a      1556     0    78     1    16
  1.1912035163859764E-02 a      1557     0    78     1    17
  1.6410162672171685E-01 a      1558     0    78     1    18
  1.2066849712242969E-02 a      1559     0    78     1    19
  4.7032317720695840E-03 a      1560     0    78     1    20
 -1.6406799813702608E-01 a      1561     0    79     1     1
 -1.6483534853911680E-01 a      1562     0    79     1     2
 -5.9719239599484816E-02 a      1563     0    79     1     3
 -1.7337980953804908E-03 a      1564     0    79     1     4
  1.9262154518590499E-01 a      1565     0    79     1     5
  4.5895080137796654E-02 a      1566     0    79     1     6
 -3.1578028656874389E-02 a      1567     0    79     1     7
 -5.6429229609995184E-02 a      1568     0    79     1     8
  9.9778601365194518E-03 a      1569     0    79     1     9
 -1.0949158479676024E-01 a      1570     0    79     1    10
  4.3084062827803526E-02 a      1571     0    79     1    11
  1.6888246786725872E-01 a      1572     0    79     1    12
  1.6707696446692816E-02 a      1573     0    79     1    13
  1.3890645219824690E-02 a      1574     0    79     1    14
 -9.9750288100997855E-02 a      1575     0    79     1    15
 -4.8225030632946905E-02 a      1576     0    79     1    16
 -5.1501142862803440E-02 a      1577     0    79     1    17
  1.9491714866505708E-02 a      1578     0    79     1    18
  9.7293243517113256E-02 a      1579     0    79     1    19
 -1.3695908890989830E-01 a      1580     0    79     1    20
 -1.2135589098889003E-01 a      1581     0    80     1     1
  9.8858310568092869E-02 a      1582     0    80     1     2
 -8.9476083017973301E-02 a      1583     0    80     1     3
 -2.2491860947456174E-03 a      1584     0    80     1     4
 -1.0078440621689325E-01 a      1585     0    80     1     5
 -2.0306119092798250E-01 a      1586     0    80     1     6
 -1.0659045451341100E-01 a      1587     0    80     1     7
  6.1756480850271286E-02 a      1588     0    80     1     8
 -3.0325635419907876E-02 a      1589     0    80     1     9
  1.6894757076920808E-01 a      1590     0    80     1    10
 -2.4652813093868817E-01 a      1591     0    80     1    11
  1.2984248086412370E-01 a      1592     0    80     1    12
 -5.4616249490242130E-02 a      1593     0    80     1    13
  1.1593767891087983E-01 a      1594     0    80     1    14
 -1.3107181936199880E-01 a      1595     0    80     1    15
 -9.2450364767958135E-02 a      1596     0    80     1    16
 -1.3015901667269841E-01 a      1597     0    80     1    17
 -3.9344722966413608E-02 a      1598     0    80     1    18
  4.2124585978733142E-02 a      1599     0    80     1    19
 -1.1524011664198625E-01 a      1600     0    80     1    20
 -2.4875291682271378E-01 a      1601     0    81     1     1
 -2.1626955269258438E-01 a      1602     0    81     1     2
  2.1424782383275661E-02 a      1603     0    81     1     3
  8.2648121487347001E-02 a      1604     0    81     1     4
 -1.9337524392862779E-01 a      1605     0    81     1     5
 -2.0262042479469644E-01 a      1606     0    81     1     6
 -1.1927456246885042E-01 a      1607     0    81     1     7
 -5.0065196865381280E-02 a      1608     0    81     1     8
  1.3777266271176047E-01 a      1609     0    81     1     9
 -2.7447414273502874E-01 a      1610     0    81     1    10
 -1.1001402286469900E-02 a      1611     0    81     1    11
 -1.1040139149208915E-01 a      1612     0    81     1    12
 -3.6228999646050287E-02 a      1613     0    81     1    13
  1.2634423947689424E-02 a      1614     0    81     1    14
 -3.5265363325330111E-02 a      1615     0    81     1    15
 -4.3795029662350490E-03 a      1616     0    81     1    16
 -6.3304086853283370E-02 a      1617     0    81     1    17
  8.8578509145008394E-02 a      1618     0    81     1    18
 -1.5969728813766265E-01 a      1619     0    81     1    19
  1.3006152684101621E-01 a      1620     0    81     1    20
  2.0671087361827203E-01 a      1621     0    82     1     1
 -6.9867998358781117E-02 a      1622     0    82     1     2
  1.6332937834071790E-01 a      1623     0    82     1     3
