################################################################################
# Neural network connection values (weights and biases).
################################################################################
# Col  Name       Description
################################################################################
# 1    connection Neural network connection value.
# 2    t          Connection type (a = weight, b = bias).
# 3    index      Index enumerating weights.
# 4    l_s        Starting point layer (end point layer for biases).
# 5    n_s        Starting point neuron in starting layer (end point neuron for biases).
# 6    l_e        End point layer.
# 7    n_e        End point neuron in end layer.
################################################################################
#                      1 2         3     4     5     6     7
#             connection t     index   l_s   n_s   l_e   n_e
############################################################
 -1.0957348241816234E-02 a         1     0     1     1     1
  9.5955597829842573E-03 a         2     0     1     1     2
  8.6390495152036229E-02 a         3     0     1     1     3
  1.1006164856448546E-01 a         4     0     1     1     4
  1.5153603631421725E-01 a         5     0     1     1     5
  4.3987319955656745E-02 a         6     0     1     1     6
 -1.4138008120122070E-01 a         7     0     1     1     7
 -4.8841293217042843E-02 a         8     0     1     1     8
 -1.4262661186630884E-01 a         9     0     1     1     9
 -7.6758502964493519E-02 a        10     0     1     1    10
  5.2162262004307680E-02 a        11     0     1     1    11
  3.8300821771877415E-02 a        12     0     1     1    12
  7.9652845067135464E-02 a        13     0     1     1    13
 -1.4741798675922552E-01 a        14     0     1     1    14
  6.7146042450944715E-02 a        15     0     1     1    15
 -9.4046088351769017E-02 a        16     0     1     1    16
 -1.5107408360998789E-01 a        17     0     1     1    17
 -4.2897314638970313E-02 a        18     0     1     1    18
 -1.2764051037449245E-01 a        19     0     1     1    19
 -3.9397357508770152E-02 a        20     0     1     1    20
  1.7497859820955383E-01 a        21     0     2     1     1
 -3.3378880109394521E-02 a        22     0     2     1     2
  2.0037187614722396E-01 a        23     0     2     1     3
 -3.4835755053712794E-02 a        24     0     2     1     4
 -1.9142184084018207E-01 a        25     0     2     1     5
 -1.4795828222092131E-01 a        26     0     2     1     6
 -1.8204822047816993E-01 a        27     0     2     1     7
  6.4509671677435126E-02 a        28     0     2     1     8
 -1.7727729685492519E-01 a        29     0     2     1     9
 -7.8799119580141713E-02 a        30     0     2     1    10
  1.8918761206655829E-01 a        31     0     2     1    11
 -3.2633183385802615E-02 a        32     0     2     1    12
  3.0209139649493965E-02 a        33     0     2     1    13
 -1.1117898063508052E-02 a        34     0     2     1    14
 -4.3562011124786935E-02 a        35     0     2     1    15
 -2.1572039314173339E-01 a        36     0     2     1    16
 -1.2662183099766630E-01 a        37     0     2     1    17
 -8.8957125027971234E-03 a        38     0     2     1    18
 -5.4225847050299959E-02 a        39     0     2     1    19
  4.4145255278192776E-02 a        40     0     2     1    20
 -4.7984050224668492E-02 a        41     0     3     1     1
 -4.0282559224963507E-03 a        42     0     3     1     2
  1.2246483716978943E-01 a        43     0     3     1     3
  3.1248672419855763E-02 a        44     0     3     1     4
 -4.8666864864658141E-02 a        45     0     3     1     5
  1.6008716221322858E-01 a        46     0     3     1     6
 -4.8079689377800536E-02 a        47     0     3     1     7
  7.3757735523677800E-02 a        48     0     3     1     8
  4.6597750800712663E-02 a        49     0     3     1     9
 -2.7934930040459296E-02 a        50     0     3     1    10
  1.4910243259798314E-01 a        51     0     3     1    11
 -9.4277648683435272E-02 a        52     0     3     1    12
  2.7333454300700159E-02 a        53     0     3     1    13
  2.6148908663992002E-02 a        54     0     3     1    14
  2.6326043727648199E-02 a        55     0     3     1    15
 -2.2074033325911624E-01 a        56     0     3     1    16
  1.2826297624132602E-01 a        57     0     3     1    17
  6.4348467630870779E-02 a        58     0     3     1    18
 -3.3711787124360397E-02 a        59     0     3     1    19
 -1.0770849590018891E-01 a        60     0     3     1    20
 -1.4909528449708467E-01 a        61     0     4     1     1
  2.2303059882557347E-02 a        62     0     4     1     2
  2.1581622787576507E-01 a        63     0     4     1     3
  7.6877747391600401E-03 a        64     0     4     1     4
  1.3471428989107834E-01 a        65     0     4     1     5
  4.5219130506680610E-02 a        66     0     4     1     6
 -1.5030861497063983E-01 a        67     0     4     1     7
 -2.9388316223647997E-02 a        68     0     4     1     8
 -1.3656337979318564E-01 a        69     0     4     1     9
 -4.5798271120843836E-02 a        70     0     4     1    10
  1.4558823347739530E-01 a        71     0     4     1    11
 -7.2883613351343912E-02 a        72     0     4     1    12
  5.1501071861297300E-02 a        73     0     4     1    13
  4.1058587712076863E-02 a        74     0     4     1    14
  8.7320089396359088E-02 a        75     0     4     1    15
 -1.0364882875743357E-01 a        76     0     4     1    16
 -8.5402629758155116E-03 a        77     0     4     1    17
  8.1484923561928838E-02 a        78     0     4     1    18
  1.0546550087151446E-01 a        79     0     4     1    19
  9.1835181981307967E-02 a        80     0     4     1    20
  7.7803870869209174E-02 a        81     0     5     1     1
 -1.4577060329656952E-01 a        82     0     5     1     2
  1.3364711400452917E-01 a        83     0     5     1     3
 -2.0096529786229739E-01 a        84     0     5     1     4
  7.4778892804095290E-02 a        85     0     5     1     5
 -1.4724603376735385E-01 a        86     0     5     1     6
  4.0250328462589488E-03 a        87     0     5     1     7
 -1.4997564408295696E-02 a        88     0     5     1     8
 -1.8983485204759894E-02 a        89     0     5     1     9
  1.4382626401125970E-01 a        90     0     5     1    10
  5.3600926890516015E-02 a        91     0     5     1    11
 -9.8426815446781696E-02 a        92     0     5     1    12
 -8.5216362540341851E-03 a        93     0     5     1    13
 -2.8467819401352189E-02 a        94     0     5     1    14
 -6.9041376556365316E-02 a        95     0     5     1    15
 -4.1559271463711883E-02 a        96     0     5     1    16
  4.2756839118690708E-02 a        97     0     5     1    17
  6.6388085185022871E-02 a        98     0     5     1    18
  2.1670363011583935E-01 a        99     0     5     1    19
  2.2100896784716106E-01 a       100     0     5     1    20
  1.9150473928166614E-01 a       101     0     6     1     1
 -1.3932554133838862E-01 a       102     0     6     1     2
 -3.3665459031248339E-02 a       103     0     6     1     3
  2.7455720558834291E-02 a       104     0     6     1     4
 -6.2599296141702537E-02 a       105     0     6     1     5
  6.6024141384685736E-02 a       106     0     6     1     6
  1.0042739232882895E-01 a       107     0     6     1     7
 -6.1062569659125453E-02 a       108     0     6     1     8
  1.1701725836533922E-01 a       109     0     6     1     9
  7.6282225940050977E-02 a       110     0     6     1    10
  1.9259047957798727E-02 a       111     0     6     1    11
  9.2684286142491204E-02 a       112     0     6     1    12
  1.7226221003117076E-01 a       113     0     6     1    13
  1.0900479709887349E-01 a       114     0     6     1    14
 -2.4845658010536949E-02 a       115     0     6     1    15
  7.5895234388197114E-03 a       116     0     6     1    16
  5.4237065135788135E-03 a       117     0     6     1    17
  3.2444191728378077E-02 a       118     0     6     1    18
  1.3339261812342644E-02 a       119     0     6     1    19
 -9.6189434787388561E-02 a       120     0     6     1    20
 -3.9868384555280745E-02 a       121     0     7     1     1
 -1.5855673896505848E-01 a       122     0     7     1     2
  1.7824907330168682E-01 a       123     0     7     1     3
  4.5485291687088911E-02 a       124     0     7     1     4
  1.1731205610607105E-01 a       125     0     7     1     5
  1.2272551072978989E-01 a       126     0     7     1     6
 -1.7450802317366162E-02 a       127     0     7     1     7
 -9.4663690698751968E-02 a       128     0     7     1     8
  6.1828125172414643E-02 a       129     0     7     1     9
  8.8625726272044958E-03 a       130     0     7     1    10
 -3.4783052384909592E-02 a       131     0     7     1    11
 -1.0156198441008389E-01 a       132     0     7     1    12
  5.6195921643990378E-02 a       133     0     7     1    13
 -4.0153006957773338E-02 a       134     0     7     1    14
  6.4178819353858232E-02 a       135     0     7     1    15
  8.7424816446070447E-02 a       136     0     7     1    16
 -1.4862121062938022E-01 a       137     0     7     1    17
  9.0815152111359515E-02 a       138     0     7     1    18
 -1.1596044659177171E-01 a       139     0     7     1    19
  9.3129697960082802E-02 a       140     0     7     1    20
 -9.8720089722163520E-02 a       141     0     8     1     1
 -4.8971341207551485E-02 a       142     0     8     1     2
  6.8266850952204555E-02 a       143     0     8     1     3
  6.2267440940691324E-02 a       144     0     8     1     4
  9.5018658676985987E-02 a       145     0     8     1     5
 -2.3983999163275779E-01 a       146     0     8     1     6
  3.6958018689717084E-02 a       147     0     8     1     7
 -1.1474954968369389E-01 a       148     0     8     1     8
  4.4887365210498451E-02 a       149     0     8     1     9
 -6.3353783621609705E-03 a       150     0     8     1    10
 -7.7507080657692448E-02 a       151     0     8     1    11
  5.5059517975526891E-02 a       152     0     8     1    12
 -1.1984632436414436E-01 a       153     0     8     1    13
  5.8316193353225944E-02 a       154     0     8     1    14
 -8.5564056401551569E-02 a       155     0     8     1    15
 -4.1628887813578236E-02 a       156     0     8     1    16
 -1.7717924391891543E-02 a       157     0     8     1    17
 -1.0305350814711314E-01 a       158     0     8     1    18
  2.0880301932982392E-01 a       159     0     8     1    19
  2.2899236408390741E-01 a       160     0     8     1    20
 -1.3312803169706089E-01 a       161     0     9     1     1
 -8.7730317009954623E-02 a       162     0     9     1     2
  2.3834127664898723E-02 a       163     0     9     1     3
  1.0910814943474764E-01 a       164     0     9     1     4
 -2.1453325632352624E-01 a       165     0     9     1     5
  9.7028878362093576E-02 a       166     0     9     1     6
  1.3682258811552198E-01 a       167     0     9     1     7
  9.7259933140606075E-02 a       168     0     9     1     8
  5.2402348449300633E-02 a       169     0     9     1     9
 -6.3482567608053708E-02 a       170     0     9     1    10
  1.0865446721194731E-01 a       171     0     9     1    11
 -5.8334235874697458E-02 a       172     0     9     1    12
 -2.0597758135186417E-01 a       173     0     9     1    13
  3.0962899626835121E-02 a       174     0     9     1    14
 -5.4405403093866579E-02 a       175     0     9     1    15
  1.1543201442850982E-01 a       176     0     9     1    16
 -9.2895188214761920E-02 a       177     0     9     1    17
  5.2209932162421251E-02 a       178     0     9     1    18
  2.4604011941052087E-01 a       179     0     9     1    19
  8.1716693755014697E-02 a       180     0     9     1    20
 -1.5512519996639029E-01 a       181     0    10     1     1
  1.7281813545122310E-01 a       182     0    10     1     2
  4.9055344331920755E-02 a       183     0    10     1     3
  1.4928132842474684E-01 a       184     0    10     1     4
  1.1065715766608007E-01 a       185     0    10     1     5
  1.5420433551533660E-01 a       186     0    10     1     6
  3.4129140782548820E-02 a       187     0    10     1     7
  1.1757094550926234E-02 a       188     0    10     1     8
 -7.4782917183306402E-02 a       189     0    10     1     9
 -1.1690965990831845E-01 a       190     0    10     1    10
  2.1333409761073024E-01 a       191     0    10     1    11
 -1.0317801831673529E-01 a       192     0    10     1    12
  1.2972387056194404E-01 a       193     0    10     1    13
 -3.6853226451384329E-02 a       194     0    10     1    14
 -2.4054293838123156E-01 a       195     0    10     1    15
 -6.0001448259580516E-02 a       196     0    10     1    16
 -4.0566196818380251E-02 a       197     0    10     1    17
 -2.7656857055397433E-02 a       198     0    10     1    18
  6.6509139838699272E-02 a       199     0    10     1    19
 -2.5705096422879607E-02 a       200     0    10     1    20
  1.0060210024192681E-01 a       201     0    11     1     1
 -1.7733036059020899E-01 a       202     0    11     1     2
  7.8209764010408786E-02 a       203     0    11     1     3
  2.5001512486148906E-02 a       204     0    11     1     4
 -7.8167143136025963E-02 a       205     0    11     1     5
  3.2094031434993085E-02 a       206     0    11     1     6
  4.1280722648798812E-02 a       207     0    11     1     7
 -1.9789181283895296E-02 a       208     0    11     1     8
 -8.7555303850102451E-03 a       209     0    11     1     9
 -9.2425580898611012E-02 a       210     0    11     1    10
 -1.1606725045849564E-01 a       211     0    11     1    11
  1.0523354106759560E-01 a       212     0    11     1    12
  2.1554547811288216E-01 a       213     0    11     1    13
 -9.9447119824721805E-02 a       214     0    11     1    14
 -6.2860725171738881E-03 a       215     0    11     1    15
  2.0083032395856135E-01 a       216     0    11     1    16
 -1.7451258044110352E-02 a       217     0    11     1    17
 -1.7559343177162612E-01 a       218     0    11     1    18
 -9.5063978035549473E-02 a       219     0    11     1    19
  5.0096311142878498E-02 a       220     0    11     1    20
 -2.6670044361031520E-03 a       221     0    12     1     1
 -3.6256172492922283E-02 a       222     0    12     1     2
 -1.5478077748659458E-01 a       223     0    12     1     3
  5.9597914623906484E-02 a       224     0    12     1     4
  5.5645925535054548E-02 a       225     0    12     1     5
  1.0356920816926708E-01 a       226     0    12     1     6
 -2.1910322588330408E-01 a       227     0    12     1     7
  1.9437473227500151E-02 a       228     0    12     1     8
 -9.1885016377827755E-02 a       229     0    12     1     9
 -1.5036067525563352E-02 a       230     0    12     1    10
 -5.9676999321794155E-02 a       231     0    12     1    11
  2.4273087168625248E-02 a       232     0    12     1    12
 -1.4567535206717419E-01 a       233     0    12     1    13
  1.1855284938545901E-01 a       234     0    12     1    14
 -5.2235881903567573E-02 a       235     0    12     1    15
 -8.5689950398373890E-02 a       236     0    12     1    16
  1.3960470759173157E-01 a       237     0    12     1    17
 -4.6622248484462087E-02 a       238     0    12     1    18
  2.9234933763910231E-01 a       239     0    12     1    19
 -3.4594746173088414E-02 a       240     0    12     1    20
  1.2114810399892791E-01 a       241     0    13     1     1
  1.2572994349551200E-01 a       242     0    13     1     2
 -2.1656348805173936E-01 a       243     0    13     1     3
 -1.7751816942693055E-01 a       244     0    13     1     4
 -7.2084212186959817E-02 a       245     0    13     1     5
  4.7585916659135870E-02 a       246     0    13     1     6
 -4.1479467066498424E-02 a       247     0    13     1     7
  3.1359554900504294E-02 a       248     0    13     1     8
  3.1278294933283407E-02 a       249     0    13     1     9
  1.0141111488120105E-01 a       250     0    13     1    10
 -1.4887045767076179E-01 a       251     0    13     1    11
 -1.9130940438845515E-02 a       252     0    13     1    12
  4.5952238107526879E-03 a       253     0    13     1    13
 -7.8745819852556204E-03 a       254     0    13     1    14
  1.0155529211742177E-01 a       255     0    13     1    15
  6.0804330225547890E-02 a       256     0    13     1    16
 -7.6969403463313268E-02 a       257     0    13     1    17
 -5.4494519242389107E-02 a       258     0    13     1    18
 -1.6280972869888655E-01 a       259     0    13     1    19
 -1.9166917999478694E-01 a       260     0    13     1    20
 -1.8815901842492372E-01 a       261     0    14     1     1
 -1.1756473649410831E-02 a       262     0    14     1     2
  1.0125796205435110E-01 a       263     0    14     1     3
 -9.4730839091477378E-02 a       264     0    14     1     4
 -7.1141774993485812E-02 a       265     0    14     1     5
  1.4034936539610779E-01 a       266     0    14     1     6
 -2.7814416122475688E-01 a       267     0    14     1     7
 -7.3839240656663113E-02 a       268     0    14     1     8
 -1.0847836042462866E-02 a       269     0    14     1     9
  3.8458929366941327E-02 a       270     0    14     1    10
 -1.2542882755241619E-01 a       271     0    14     1    11
 -4.2852060010098281E-02 a       272     0    14     1    12
  2.1313755131823039E-01 a       273     0    14     1    13
  3.6350599534573189E-02 a       274     0    14     1    14
 -8.4912972924212293E-02 a       275     0    14     1    15
  1.3813757870261323E-01 a       276     0    14     1    16
 -1.4777564916876204E-01 a       277     0    14     1    17
  1.2331438186902524E-01 a       278     0    14     1    18
 -1.1942050891688720E-01 a       279     0    14     1    19
 -1.3728640787233859E-01 a       280     0    14     1    20
  1.3395482536866676E-01 a       281     0    15     1     1
 -1.0839464495084912E-01 a       282     0    15     1     2
  1.7955318610390150E-01 a       283     0    15     1     3
  5.5663686740525554E-02 a       284     0    15     1     4
 -2.0024678163528004E-01 a       285     0    15     1     5
  4.0763439061049928E-02 a       286     0    15     1     6
 -2.0079542595295879E-01 a       287     0    15     1     7
 -2.9589960804569056E-02 a       288     0    15     1     8
  8.6654785318767327E-03 a       289     0    15     1     9
 -1.1413654335396710E-01 a       290     0    15     1    10
 -8.5327642152622979E-02 a       291     0    15     1    11
 -1.5064846885302763E-01 a       292     0    15     1    12
  8.4098395196475190E-02 a       293     0    15     1    13
 -6.3224713621374176E-02 a       294     0    15     1    14
 -5.3955859265283686E-02 a       295     0    15     1    15
 -7.6025927171499821E-02 a       296     0    15     1    16
 -2.1099038233350750E-01 a       297     0    15     1    17
 -9.8086266195796232E-02 a       298     0    15     1    18
 -9.2033268831338052E-03 a       299     0    15     1    19
 -8.5174153304537759E-02 a       300     0    15     1    20
  2.2815138938972712E-01 a       301     0    16     1     1
 -4.3636774017098101E-01 a       302     0    16     1     2
  1.4034401762039303E-01 a       303     0    16     1     3
  2.3970309000218376E-01 a       304     0    16     1     4
  1.4050549275948757E-01 a       305     0    16     1     5
 -4.9693103757413010E-02 a       306     0    16     1     6
  1.5189502194815531E-02 a       307     0    16     1     7
  1.9125718902498992E-02 a       308     0    16     1     8
  2.0082993763556611E-01 a       309     0    16     1     9
 -5.0369703049150942E-02 a       310     0    16     1    10
 -1.3121855818665176E-01 a       311     0    16     1    11
  1.0967660307061447E-01 a       312     0    16     1    12
  3.8527971744833023E-01 a       313     0    16     1    13
 -7.0460158762908412E-02 a       314     0    16     1    14
  1.3945890064330829E-01 a       315     0    16     1    15
 -2.0257507747236503E-01 a       316     0    16     1    16
 -1.3265471022388758E-01 a       317     0    16     1    17
  1.9239594853902703E-01 a       318     0    16     1    18
  1.2445917228510302E-01 a       319     0    16     1    19
  1.7085558488625699E-01 a       320     0    16     1    20
  1.4301482800904803E-02 a       321     0    17     1     1
  1.2460671117668486E-01 a       322     0    17     1     2
  1.9182465271813851E-01 a       323     0    17     1     3
 -1.3740170798777457E-01 a       324     0    17     1     4
  1.4255279902483350E-01 a       325     0    17     1     5
 -1.6613586560408650E-02 a       326     0    17     1     6
  6.4113546863633269E-02 a       327     0    17     1     7
 -5.1101677090020996E-02 a       328     0    17     1     8
  2.3064849733531170E-01 a       329     0    17     1     9
 -1.0369741969234780E-01 a       330     0    17     1    10
  1.0879330307676649E-02 a       331     0    17     1    11
 -1.4326485263838112E-01 a       332     0    17     1    12
 -1.6177772892613290E-01 a       333     0    17     1    13
 -2.9962480395591518E-02 a       334     0    17     1    14
 -1.9409704163395272E-01 a       335     0    17     1    15
 -1.4623656138265886E-01 a       336     0    17     1    16
  1.0559329690908308E-01 a       337     0    17     1    17
 -2.0745441504805595E-01 a       338     0    17     1    18
  1.0148680191928171E-01 a       339     0    17     1    19
 -7.3501272491919456E-02 a       340     0    17     1    20
 -1.7238337579465110E-03 a       341     0    18     1     1
  1.1876778203093574E-01 a       342     0    18     1     2
 -1.5368948430761843E-02 a       343     0    18     1     3
  1.1147313271136083E-01 a       344     0    18     1     4
 -1.4753212760411178E-02 a       345     0    18     1     5
  3.7357230191942307E-02 a       346     0    18     1     6
  2.2319845632524940E-01 a       347     0    18     1     7
  1.0270230165583168E-01 a       348     0    18     1     8
  3.7330740725561501E-02 a       349     0    18     1     9
 -2.0491095192949682E-01 a       350     0    18     1    10
  7.5673877590473712E-02 a       351     0    18     1    11
 -6.2420877976111455E-02 a       352     0    18     1    12
 -1.1846629707510335E-01 a       353     0    18     1    13
 -1.2922100753965143E-01 a       354     0    18     1    14
 -2.2266470177815013E-02 a       355     0    18     1    15
  9.3889658704023660E-02 a       356     0    18     1    16
 -8.2474978359143442E-02 a       357     0    18     1    17
  7.2296515533225364E-03 a       358     0    18     1    18
  2.7305673499302854E-03 a       359     0    18     1    19
 -4.2884566990846048E-03 a       360     0    18     1    20
  1.6203510733030643E-01 a       361     0    19     1     1
 -2.8718669473248504E-01 a       362     0    19     1     2
 -5.7503782528217771E-02 a       363     0    19     1     3
 -4.3929819522793664E-02 a       364     0    19     1     4
  1.1511356118976276E-01 a       365     0    19     1     5
 -2.0022186174730394E-01 a       366     0    19     1     6
  8.3464083279296539E-02 a       367     0    19     1     7
 -2.6043949275769064E-02 a       368     0    19     1     8
  1.1206239759540408E-02 a       369     0    19     1     9
  1.3862974784838145E-01 a       370     0    19     1    10
  1.3073306091099565E-01 a       371     0    19     1    11
  6.4681354054772627E-02 a       372     0    19     1    12
  1.2005195639002549E-01 a       373     0    19     1    13
  9.8600482426561470E-02 a       374     0    19     1    14
  1.8326122957881918E-01 a       375     0    19     1    15
 -1.5041297517128654E-01 a       376     0    19     1    16
  1.2630645451437802E-01 a       377     0    19     1    17
 -2.3069979480369593E-01 a       378     0    19     1    18
  1.2182221333935279E-01 a       379     0    19     1    19
  1.3152652168709839E-01 a       380     0    19     1    20
  8.0764255521899642E-02 a       381     0    20     1     1
 -8.2898794534795275E-02 a       382     0    20     1     2
  2.8817818143761342E-01 a       383     0    20     1     3
 -1.2369441410977715E-01 a       384     0    20     1     4
 -4.6468484958081951E-02 a       385     0    20     1     5
  5.7435489019539807E-02 a       386     0    20     1     6
 -1.2119352275793417E-01 a       387     0    20     1     7
  1.9703080757765723E-01 a       388     0    20     1     8
 -1.4636961352433348E-01 a       389     0    20     1     9
  5.6993619452124791E-02 a       390     0    20     1    10
 -2.5446582466374410E-02 a       391     0    20     1    11
  1.5039619518714686E-01 a       392     0    20     1    12
 -1.0539668960281644E-01 a       393     0    20     1    13
  2.4227384532920990E-01 a       394     0    20     1    14
  5.3200195632729881E-02 a       395     0    20     1    15
  1.5612562512304670E-01 a       396     0    20     1    16
  1.9599467004057941E-01 a       397     0    20     1    17
  1.3901329583102128E-02 a       398     0    20     1    18
  1.5855343711657727E-01 a       399     0    20     1    19
 -7.3318196337158470E-02 a       400     0    20     1    20
  2.1942455815745127E-01 a       401     0    21     1     1
 -1.3471819696631537E-01 a       402     0    21     1     2
 -4.2781829326289759E-02 a       403     0    21     1     3
  8.2012920627620209E-02 a       404     0    21     1     4
 -1.9513714396412543E-01 a       405     0    21     1     5
 -1.9206353872507539E-01 a       406     0    21     1     6
 -8.4992007910671144E-02 a       407     0    21     1     7
 -5.8085280281597977E-02 a       408     0    21     1     8
  7.6099358211357881E-02 a       409     0    21     1     9
 -2.3973152348817794E-01 a       410     0    21     1    10
 -8.4724954940778280E-02 a       411     0    21     1    11
  7.4087844285987428E-02 a       412     0    21     1    12
  6.3605441300430263E-02 a       413     0    21     1    13
 -2.2269204720371630E-01 a       414     0    21     1    14
  8.1237878440640815E-02 a       415     0    21     1    15
 -2.1130241149544548E-02 a       416     0    21     1    16
  1.7882297581900625E-01 a       417     0    21     1    17
 -1.9471872495129755E-01 a       418     0    21     1    18
  2.7017086501731724E-01 a       419     0    21     1    19
  2.8683449697901428E-03 a       420     0    21     1    20
  2.9574203757782257E-02 a       421     0    22     1     1
 -1.1164253169292923E-01 a       422     0    22     1     2
 -2.2577625201138585E-01 a       423     0    22     1     3
  1.6427825666996293E-01 a       424     0    22     1     4
  1.1432214705014217E-02 a       425     0    22     1     5
 -2.2387378380820253E-01 a       426     0    22     1     6
 -3.9825079536299504E-02 a       427     0    22     1     7
 -3.6217493639244036E-02 a       428     0    22     1     8
  6.0056627387746003E-02 a       429     0    22     1     9
  7.0455893910553222E-02 a       430     0    22     1    10
  1.8575111932224492E-01 a       431     0    22     1    11
  1.8113801367877411E-04 a       432     0    22     1    12
  3.3002630406725852E-02 a       433     0    22     1    13
  1.7618720756762649E-01 a       434     0    22     1    14
 -5.4742531107115605E-02 a       435     0    22     1    15
  3.9584401220106272E-02 a       436     0    22     1    16
  2.8122581485304991E-02 a       437     0    22     1    17
 -3.8725949506540860E-02 a       438     0    22     1    18
 -2.0046141842721710E-01 a       439     0    22     1    19
 -1.4752006511536606E-01 a       440     0    22     1    20
  6.9519892965822839E-04 a       441     0    23     1     1
  8.9995351980783317E-02 a       442     0    23     1     2
  1.3804468899293850E-02 a       443     0    23     1     3
  7.2715162805502762E-02 a       444     0    23     1     4
  1.6226224401968534E-01 a       445     0    23     1     5
  2.4333115641110087E-01 a       446     0    23     1     6
  3.1694044396527392E-02 a       447     0    23     1     7
 -2.9814132262897457E-02 a       448     0    23     1     8
 -2.9920070227388777E-03 a       449     0    23     1     9
 -8.4721080617603695E-02 a       450     0    23     1    10
 -1.7885419159077005E-02 a       451     0    23     1    11
 -6.2026194660600456E-02 a       452     0    23     1    12
 -2.8223755904407466E-01 a       453     0    23     1    13
  1.9013819467798002E-01 a       454     0    23     1    14
  1.4706516329450492E-01 a       455     0    23     1    15
 -1.1881509581241222E-02 a       456     0    23     1    16
  6.2395727495867373E-02 a       457     0    23     1    17
  1.1918848827879594E-01 a       458     0    23     1    18
  8.6950725808987522E-02 a       459     0    23     1    19
  1.1157316606349636E-01 a       460     0    23     1    20
 -8.4061260537639376E-02 a       461     0    24     1     1
  8.5819457158545734E-02 a       462     0    24     1     2
  2.2582482136808402E-01 a       463     0    24     1     3
  7.3223075968213772E-02 a       464     0    24     1     4
  1.0683596408373522E-01 a       465     0    24     1     5
 -2.0792113316306193E-01 a       466     0    24     1     6
 -1.2133031614165841E-01 a       467     0    24     1     7
  2.1005616671932303E-02 a       468     0    24     1     8
  2.0970832545903620E-01 a       469     0    24     1     9
 -1.2781277715649866E-02 a       470     0    24     1    10
 -1.7150989448754475E-01 a       471     0    24     1    11
  7.0441814914804002E-02 a       472     0    24     1    12
  1.9769764292425332E-01 a       473     0    24     1    13
 -1.0746394339680347E-01 a       474     0    24     1    14
  1.4694482401833339E-02 a       475     0    24     1    15
 -1.4120458197138938E-01 a       476     0    24     1    16
  1.6053464601818127E-01 a       477     0    24     1    17
  1.2031777631221503E-01 a       478     0    24     1    18
  1.8146764555498598E-01 a       479     0    24     1    19
 -6.7820818797199034E-02 a       480     0    24     1    20
  1.1174601592288476E-01 a       481     0    25     1     1
  1.3082355069211979E-01 a       482     0    25     1     2
 -1.3555739066866243E-01 a       483     0    25     1     3
  4.7728225344084142E-02 a       484     0    25     1     4
  9.4381519174703055E-02 a       485     0    25     1     5
 -4.1680732936374539E-02 a       486     0    25     1     6
  1.9027618975754462E-01 a       487     0    25     1     7
 -1.9354048937752468E-02 a       488     0    25     1     8
  1.2876352727441703E-01 a       489     0    25     1     9
  6.4897471898427955E-02 a       490     0    25     1    10
 -2.0513704381335499E-01 a       491     0    25     1    11
  9.6143089781302021E-03 a       492     0    25     1    12
 -7.0110980731960190E-02 a       493     0    25     1    13
 -8.6677162983803013E-02 a       494     0    25     1    14
 -1.3336440987624601E-01 a       495     0    25     1    15
 -2.4637553949180135E-01 a       496     0    25     1    16
 -3.1066413743793538E-02 a       497     0    25     1    17
  8.8699469985230192E-02 a       498     0    25     1    18
 -1.9714781538317941E-01 a       499     0    25     1    19
  4.6657760751175593E-02 a       500     0    25     1    20
  1.4905881963010773E-01 a       501     0    26     1     1
 -1.8851972299860534E-01 a       502     0    26     1     2
  1.6794717295598055E-01 a       503     0    26     1     3
  2.7824764549344588E-01 a       504     0    26     1     4
  1.3385287535796916E-01 a       505     0    26     1     5
 -1.6337175283173469E-01 a       506     0    26     1     6
 -1.3720559766568668E-01 a       507     0    26     1     7
 -8.1956237170474511E-02 a       508     0    26     1     8
  1.5212227790686014E-01 a       509     0    26     1     9
 -1.1531509309233268E-01 a       510     0    26     1    10
 -1.8786506519570621E-02 a       511     0    26     1    11
 -2.5885012295101665E-03 a       512     0    26     1    12
  3.0836383491462116E-02 a       513     0    26     1    13
 -1.6365223587186548E-01 a       514     0    26     1    14
  3.0359335319585645E-01 a       515     0    26     1    15
 -2.6228985131383198E-01 a       516     0    26     1    16
  7.6627632988296737E-02 a       517     0    26     1    17
  1.1848848251868646E-01 a       518     0    26     1    18
 -3.3318433617933386E-02 a       519     0    26     1    19
  1.0877179434431149E-01 a       520     0    26     1    20
  1.0266495001306448E-01 a       521     0    27     1     1
 -1.2950865476184683E-02 a       522     0    27     1     2
 -2.8860615849544465E-02 a       523     0    27     1     3
 -1.0963724988524991E-01 a       524     0    27     1     4
 -1.1406760325135644E-01 a       525     0    27     1     5
  6.7474804264771968E-02 a       526     0    27     1     6
  9.3333598060274802E-05 a       527     0    27     1     7
 -2.4383977635553201E-02 a       528     0    27     1     8
  5.2503522501315472E-03 a       529     0    27     1     9
 -1.6575665629997291E-01 a       530     0    27     1    10
 -1.2076702556820668E-01 a       531     0    27     1    11
  1.1316894620604731E-01 a       532     0    27     1    12
 -1.3464249742994763E-01 a       533     0    27     1    13
  1.3499678145007790E-01 a       534     0    27     1    14
  1.0982954305707002E-01 a       535     0    27     1    15
 -3.2965116159336011E-01 a       536     0    27     1    16
 -5.5957941913179918E-02 a       537     0    27     1    17
  5.4355971157442673E-02 a       538     0    27     1    18
  1.6220379616738620E-01 a       539     0    27     1    19
  2.0055987856692759E-02 a       540     0    27     1    20
 -2.1066751605474535E-01 a       541     0    28     1     1
  6.0496135089561746E-02 a       542     0    28     1     2
 -1.1519390683049621E-02 a       543     0    28     1     3
  1.7301300705470153E-02 a       544     0    28     1     4
  9.1772756352927407E-02 a       545     0    28     1     5
  1.9562485444497696E-01 a       546     0    28     1     6
  1.7418553383467980E-01 a       547     0    28     1     7
  2.3151888879144994E-01 a       548     0    28     1     8
 -1.1426823360344712E-01 a       549     0    28     1     9
 -8.8088856704313184E-02 a       550     0    28     1    10
 -4.0709605056407708E-02 a       551     0    28     1    11
 -1.9896786776142963E-01 a       552     0    28     1    12
 -5.3485705029423819E-02 a       553     0    28     1    13
  1.0449126990356393E-01 a       554     0    28     1    14
 -1.5735810638230496E-01 a       555     0    28     1    15
  1.4167622436424976E-01 a       556     0    28     1    16
 -1.1667184355086432E-01 a       557     0    28     1    17
 -6.6960175402032390E-02 a       558     0    28     1    18
 -1.9924817768004660E-01 a       559     0    28     1    19
  9.1693580760433754E-02 a       560     0    28     1    20
  1.2105242490027120E-01 a       561     0    29     1     1
 -1.3344003901208068E-01 a       562     0    29     1     2
 -1.1443979330925035E-01 a       563     0    29     1     3
 -1.6042356038140936E-02 a       564     0    29     1     4
 -1.5262917484597893E-01 a       565     0    29     1     5
 -9.3349174903266566E-02 a       566     0    29     1     6
 -6.5660142108986269E-02 a       567     0    29     1     7
 -1.4820170471584102E-01 a       568     0    29     1     8
  1.9691200628366218E-01 a       569     0    29     1     9
  7.4387101646388468E-02 a       570     0    29     1    10
 -5.8318604860582246E-04 a       571     0    29     1    11
  7.4338855621734590E-02 a       572     0    29     1    12
  5.2596717713116525E-02 a       573     0    29     1    13
  7.2044479467683747E-02 a       574     0    29     1    14
  1.1956950822569912E-02 a       575     0    29     1    15
 -2.4640673334252450E-01 a       576     0    29     1    16
  1.7780778730439167E-01 a       577     0    29     1    17
 -5.4623594665123662E-02 a       578     0    29     1    18
  7.8435047102648564E-02 a       579     0    29     1    19
 -3.2963027812856580E-02 a       580     0    29     1    20
  1.0805722534855307E-01 a       581     0    30     1     1
 -2.8749271850216838E-02 a       582     0    30     1     2
  1.4010796850128995E-01 a       583     0    30     1     3
 -1.6354729252632743E-02 a       584     0    30     1     4
 -1.1546512910333295E-01 a       585     0    30     1     5
  1.9601065065670797E-01 a       586     0    30     1     6
  2.2498194224369258E-01 a       587     0    30     1     7
  1.5822136560261912E-01 a       588     0    30     1     8
  1.3554398269129708E-01 a       589     0    30     1     9
 -6.2291519125923039E-02 a       590     0    30     1    10
  5.2939144246106955E-02 a       591     0    30     1    11
  1.2391826264435012E-01 a       592     0    30     1    12
  1.8143449352824484E-01 a       593     0    30     1    13
  1.8974792826263534E-01 a       594     0    30     1    14
 -1.2577058202920596E-01 a       595     0    30     1    15
 -1.1514102934961491E-01 a       596     0    30     1    16
  1.4581191231810289E-01 a       597     0    30     1    17
  5.7067611497549117E-02 a       598     0    30     1    18
 -1.9828633801944129E-01 a       599     0    30     1    19
  1.4766106711644575E-01 a       600     0    30     1    20
  1.3882062158247926E-01 a       601     0    31     1     1
 -7.2850757841959005E-02 a       602     0    31     1     2
  5.4963779281446731E-02 a       603     0    31     1     3
  1.1376077235837532E-02 a       604     0    31     1     4
  1.7782739821259974E-01 a       605     0    31     1     5
 -1.1187377012893955E-01 a       606     0    31     1     6
 -6.6960184223359379E-02 a       607     0    31     1     7
  1.5650534622932583E-01 a       608     0    31     1     8
  1.7768785652444677E-02 a       609     0    31     1     9
 -1.5895616573570098E-01 a       610     0    31     1    10
 -9.1091003121438072E-02 a       611     0    31     1    11
  7.8213668818365611E-02 a       612     0    31     1    12
  4.2292047890325354E-02 a       613     0    31     1    13
 -1.6893309007039028E-01 a       614     0    31     1    14
  3.6882970226776647E-02 a       615     0    31     1    15
  1.1424909568408122E-01 a       616     0    31     1    16
  2.3660276996343893E-01 a       617     0    31     1    17
  1.7338278693652229E-01 a       618     0    31     1    18
  2.7779239131383848E-01 a       619     0    31     1    19
  2.5178835737303096E-01 a       620     0    31     1    20
  1.3298827126652252E-01 a       621     0    32     1     1
  3.4412137979562191E-02 a       622     0    32     1     2
 -2.5481573140036679E-01 a       623     0    32     1     3
  1.1910205890480238E-01 a       624     0    32     1     4
 -1.4600652505365880E-01 a       625     0    32     1     5
 -1.3575987452316379E-01 a       626     0    32     1     6
  1.7792618588672471E-01 a       627     0    32     1     7
 -1.0877714439595670E-01 a       628     0    32     1     8
  8.3998871021582433E-02 a       629     0    32     1     9
 -1.0855515797022196E-01 a       630     0    32     1    10
 -2.2465564513550779E-01 a       631     0    32     1    11
  9.8253548699802767E-02 a       632     0    32     1    12
 -7.6117567923755708E-02 a       633     0    32     1    13
 -3.6431192900807696E-01 a       634     0    32     1    14
 -5.5870767215112478E-02 a       635     0    32     1    15
 -6.3709219149303387E-02 a       636     0    32     1    16
  4.3158897321739789E-02 a       637     0    32     1    17
  6.2538170679660235E-02 a       638     0    32     1    18
 -7.4837994082350714E-02 a       639     0    32     1    19
  5.6538935523298167E-02 a       640     0    32     1    20
  4.1545442726925542E-02 a       641     0    33     1     1
  5.1156185061210800E-02 a       642     0    33     1     2
 -1.1852626729208865E-01 a       643     0    33     1     3
  9.1695287016848981E-02 a       644     0    33     1     4
  4.4127448927801585E-02 a       645     0    33     1     5
  1.7188974871463827E-01 a       646     0    33     1     6
  1.3901135821543245E-01 a       647     0    33     1     7
  5.5660481478116974E-03 a       648     0    33     1     8
 -1.8699732587916951E-02 a       649     0    33     1     9
 -1.4531485849116896E-01 a       650     0    33     1    10
  1.5740725580487022E-03 a       651     0    33     1    11
  6.0127370347875644E-02 a       652     0    33     1    12
 -1.6510394329967562E-01 a       653     0    33     1    13
 -9.5445733810492123E-02 a       654     0    33     1    14
  1.8771569268212868E-01 a       655     0    33     1    15
  4.6257002245793592E-02 a       656     0    33     1    16
 -2.0749980780116101E-01 a       657     0    33     1    17
  2.0228679812726857E-01 a       658     0    33     1    18
 -1.1706554610273875E-01 a       659     0    33     1    19
  5.8470842960774906E-02 a       660     0    33     1    20
  7.9354804177963739E-03 a       661     0    34     1     1
 -6.2496772139090752E-02 a       662     0    34     1     2
  2.7506880596052913E-02 a       663     0    34     1     3
 -6.5139335842877635E-02 a       664     0    34     1     4
 -4.5099784271692027E-02 a       665     0    34     1     5
 -2.1002144396096914E-01 a       666     0    34     1     6
  7.0249585749841525E-02 a       667     0    34     1     7
 -2.7895146550642461E-02 a       668     0    34     1     8
 -2.1035464976490021E-02 a       669     0    34     1     9
 -3.7312367459240929E-02 a       670     0    34     1    10
 -5.5843791655540931E-02 a       671     0    34     1    11
  1.1431871644963121E-02 a       672     0    34     1    12
  1.2829518732402843E-02 a       673     0    34     1    13
 -1.1129323309384020E-01 a       674     0    34     1    14
  1.5693475079684105E-02 a       675     0    34     1    15
  1.6309057626512590E-02 a       676     0    34     1    16
 -2.2774357852220881E-01 a       677     0    34     1    17
 -7.8590685581221689E-02 a       678     0    34     1    18
  1.2218190299460632E-01 a       679     0    34     1    19
 -6.1321079548526440E-02 a       680     0    34     1    20
 -3.8521538866034030E-02 a       681     0    35     1     1
  5.1573724757449660E-02 a       682     0    35     1     2
  2.3132978550890197E-02 a       683     0    35     1     3
  2.8138652526406894E-02 a       684     0    35     1     4
  1.0599894232148138E-01 a       685     0    35     1     5
 -9.1665378585738658E-02 a       686     0    35     1     6
  3.6920492346049903E-02 a       687     0    35     1     7
  2.2905909317284878E-02 a       688     0    35     1     8
 -8.6333436567753108E-02 a       689     0    35     1     9
  7.2384754805588356E-02 a       690     0    35     1    10
 -7.5021206623094180E-02 a       691     0    35     1    11
 -6.1389146423383788E-04 a       692     0    35     1    12
 -1.2934738980456348E-01 a       693     0    35     1    13
  1.5800137500710863E-03 a       694     0    35     1    14
  1.0187850956402165E-01 a       695     0    35     1    15
  2.0944633296085088E-01 a       696     0    35     1    16
  5.6653163711354038E-02 a       697     0    35     1    17
  1.8055829386114481E-03 a       698     0    35     1    18
 -1.7083515668517919E-03 a       699     0    35     1    19
 -2.3264834198363810E-02 a       700     0    35     1    20
 -7.2555333476056555E-02 a       701     0    36     1     1
 -1.8653386128071792E-01 a       702     0    36     1     2
 -1.7164001092225101E-01 a       703     0    36     1     3
  1.7709052609300752E-01 a       704     0    36     1     4
 -2.9591567112506351E-02 a       705     0    36     1     5
 -2.2097827765156161E-01 a       706     0    36     1     6
 -1.1164954113899214E-01 a       707     0    36     1     7
 -1.5348303005345823E-01 a       708     0    36     1     8
  1.8106660996038335E-01 a       709     0    36     1     9
 -1.6943920963560230E-01 a       710     0    36     1    10
 -1.2278036710172041E-01 a       711     0    36     1    11
 -5.7856749119980656E-02 a       712     0    36     1    12
 -3.1841514567455584E-02 a       713     0    36     1    13
 -1.1675449223051287E-01 a       714     0    36     1    14
  7.1383513321152323E-03 a       715     0    36     1    15
  1.7494299430350416E-02 a       716     0    36     1    16
  8.7961577327181316E-03 a       717     0    36     1    17
 -1.0846908663959204E-01 a       718     0    36     1    18
  6.4345996873968594E-02 a       719     0    36     1    19
 -5.4623091472557068E-02 a       720     0    36     1    20
  2.9546000237220725E-02 a       721     0    37     1     1
 -1.6770302932840409E-01 a       722     0    37     1     2
  5.9356577874417598E-03 a       723     0    37     1     3
  7.5006574424765313E-02 a       724     0    37     1     4
  2.4829364425107681E-01 a       725     0    37     1     5
 -1.1616358950416843E-01 a       726     0    37     1     6
  1.2286685236678192E-01 a       727     0    37     1     7
 -2.0092170300356413E-01 a       728     0    37     1     8
  1.8684444102385254E-02 a       729     0    37     1     9
 -2.1974720734930731E-01 a       730     0    37     1    10
  4.1858572344124087E-02 a       731     0    37     1    11
  1.7780392255471666E-01 a       732     0    37     1    12
 -1.7503602132053067E-01 a       733     0    37     1    13
 -1.7232010677407681E-02 a       734     0    37     1    14
 -1.2459566176347406E-01 a       735     0    37     1    15
  3.1938145137169277E-02 a       736     0    37     1    16
  6.8984332239966015E-02 a       737     0    37     1    17
 -8.4250557172947813E-02 a       738     0    37     1    18
  4.3133973386206365E-02 a       739     0    37     1    19
 -2.2884810908869224E-01 a       740     0    37     1    20
 -4.6200334744370908E-02 a       741     0    38     1     1
 -6.9188228762990786E-02 a       742     0    38     1     2
 -4.7744837440730416E-02 a       743     0    38     1     3
  2.4807760680822735E-01 a       744     0    38     1     4
  2.4562042685305618E-01 a       745     0    38     1     5
  1.6944069411456542E-01 a       746     0    38     1     6
  2.6837435634547172E-02 a       747     0    38     1     7
  7.8251939316183808E-02 a       748     0    38     1     8
 -9.7955832292611969E-02 a       749     0    38     1     9
 -3.1917942455261739E-01 a       750     0    38     1    10
 -1.3575485884468394E-01 a       751     0    38     1    11
 -1.2431284315116438E-01 a       752     0    38     1    12
 -2.1896973389016891E-01 a       753     0    38     1    13
  2.5170130983195229E-02 a       754     0    38     1    14
  2.0818272926416553E-02 a       755     0    38     1    15
  1.2508935465923982E-01 a       756     0    38     1    16
 -4.6853224590062109E-02 a       757     0    38     1    17
 -3.8629403264001418E-02 a       758     0    38     1    18
 -9.5300828806385740E-02 a       759     0    38     1    19
  1.4091912327256989E-01 a       760     0    38     1    20
  5.0826649881500506E-02 a       761     0    39     1     1
 -7.1174399704684865E-02 a       762     0    39     1     2
 -4.5772238617423869E-02 a       763     0    39     1     3
  1.4224429509140762E-01 a       764     0    39     1     4
  8.4854369052909842E-02 a       765     0    39     1     5
  7.3599180943788159E-02 a       766     0    39     1     6
 -8.9630943277339323E-02 a       767     0    39     1     7
 -1.2953357427629529E-02 a       768     0    39     1     8
 -3.1673274588264830E-03 a       769     0    39     1     9
 -1.2588758680062623E-01 a       770     0    39     1    10
  4.7174912891461513E-03 a       771     0    39     1    11
  3.1816232737350389E-02 a       772     0    39     1    12
 -8.3022593086138810E-02 a       773     0    39     1    13
 -3.0652960101415973E-02 a       774     0    39     1    14
  1.2684839863469258E-01 a       775     0    39     1    15
 -1.1130923625873707E-01 a       776     0    39     1    16
  1.4280283109106737E-01 a       777     0    39     1    17
  1.3423295696568607E-01 a       778     0    39     1    18
  7.2336991634174369E-02 a       779     0    39     1    19
  6.6467463587637984E-02 a       780     0    39     1    20
  5.5338587549803052E-02 a       781     0    40     1     1
 -3.7850292821586383E-02 a       782     0    40     1     2
 -7.1804519251317048E-02 a       783     0    40     1     3
 -3.6173229812616052E-02 a       784     0    40     1     4
 -2.3118552423168956E-01 a       785     0    40     1     5
  2.0811478560238736E-01 a       786     0    40     1     6
 -9.0292784854792224E-02 a       787     0    40     1     7
 -1.0710429967182961E-02 a       788     0    40     1     8
 -1.2439552939399702E-02 a       789     0    40     1     9
  4.0443527111073165E-02 a       790     0    40     1    10
 -1.4590544249162889E-02 a       791     0    40     1    11
 -8.8344039439421013E-02 a       792     0    40     1    12
  6.1309191259100754E-02 a       793     0    40     1    13
  4.6746849611382299E-02 a       794     0    40     1    14
  1.6986292773710211E-02 a       795     0    40     1    15
  2.3579803386125442E-01 a       796     0    40     1    16
  5.1625458024804650E-02 a       797     0    40     1    17
  7.5585974432294492E-02 a       798     0    40     1    18
 -1.7776711892490091E-01 a       799     0    40     1    19
  8.9258570764279149E-02 a       800     0    40     1    20
  1.6786562561776658E-01 a       801     0    41     1     1
  7.3198930202784951E-02 a       802     0    41     1     2
  4.5607991608645509E-02 a       803     0    41     1     3
 -3.5179620803040081E-02 a       804     0    41     1     4
  8.7545292693334456E-02 a       805     0    41     1     5
 -8.5209759307526903E-03 a       806     0    41     1     6
  1.9273495191788569E-02 a       807     0    41     1     7
 -8.6142442801970427E-03 a       808     0    41     1     8
 -1.0254171761966557E-01 a       809     0    41     1     9
  9.0424298269353876E-03 a       810     0    41     1    10
  6.1237859922199430E-03 a       811     0    41     1    11
  1.2552630087010960E-01 a       812     0    41     1    12
  1.5189111343784439E-03 a       813     0    41     1    13
 -1.1141269103750402E-01 a       814     0    41     1    14
  5.1953418032373848E-02 a       815     0    41     1    15
  2.5708961504482920E-02 a       816     0    41     1    16
  4.8520212505461055E-02 a       817     0    41     1    17
  8.6913730851397308E-02 a       818     0    41     1    18
 -1.2845448761358755E-01 a       819     0    41     1    19
  4.0497097117003347E-02 a       820     0    41     1    20
  8.5358248852180491E-02 a       821     0    42     1     1
  1.4096748606313614E-01 a       822     0    42     1     2
  4.4512470929050273E-02 a       823     0    42     1     3
  1.5918412132790521E-02 a       824     0    42     1     4
 -1.2105788620373220E-01 a       825     0    42     1     5
  1.1514908933794634E-02 a       826     0    42     1     6
 -1.1444657669669837E-01 a       827     0    42     1     7
 -1.2097328190236149E-01 a       828     0    42     1     8
  8.8721022374715408E-02 a       829     0    42     1     9
 -7.9733986876033905E-02 a       830     0    42     1    10
 -1.4668196908426714E-01 a       831     0    42     1    11
 -1.2078514307078872E-01 a       832     0    42     1    12
 -2.5564507300946872E-02 a       833     0    42     1    13
 -1.2335557759083168E-01 a       834     0    42     1    14
 -1.8717557533696946E-01 a       835     0    42     1    15
 -1.6249915153320135E-01 a       836     0    42     1    16
 -2.6139207237975876E-01 a       837     0    42     1    17
  5.4515809532019368E-03 a       838     0    42     1    18
  1.1958944386371817E-01 a       839     0    42     1    19
 -3.5781024319999563E-03 a       840     0    42     1    20
 -4.1592076136206047E-03 a       841     0    43     1     1
 -2.6830949256285201E-02 a       842     0    43     1     2
 -4.4284123504145737E-03 a       843     0    43     1     3
  6.5053069327077009E-02 a       844     0    43     1     4
  5.2233486757669381E-02 a       845     0    43     1     5
  8.3238966561200028E-02 a       846     0    43     1     6
  1.6989025315835526E-02 a       847     0    43     1     7
 -8.0503856910834320E-03 a       848     0    43     1     8
  1.6450176916251454E-02 a       849     0    43     1     9
 -4.1051481992349557E-02 a       850     0    43     1    10
  4.0193244816473288E-02 a       851     0    43     1    11
  7.0940444772536970E-02 a       852     0    43     1    12
 -4.6129930206265740E-02 a       853     0    43     1    13
  9.0623084402344137E-02 a       854     0    43     1    14
  3.2007718311539562E-01 a       855     0    43     1    15
 -1.2562104810999855E-01 a       856     0    43     1    16
 -7.5222614198648299E-02 a       857     0    43     1    17
  9.6424490809432106E-02 a       858     0    43     1    18
  5.1713467211127108E-02 a       859     0    43     1    19
 -2.5187889672447117E-02 a       860     0    43     1    20
  1.1668718364881175E-01 a       861     0    44     1     1
  1.7935628763639553E-02 a       862     0    44     1     2
  1.1760757344940428E-01 a       863     0    44     1     3
 -1.9539039558235208E-01 a       864     0    44     1     4
 -1.9804782824989103E-01 a       865     0    44     1     5
 -1.5566421035531411E-01 a       866     0    44     1     6
  1.1379293349199904E-01 a       867     0    44     1     7
  1.1206495676833288E-01 a       868     0    44     1     8
  1.1218896919357602E-01 a       869     0    44     1     9
  1.7763163466035975E-01 a       870     0    44     1    10
 -7.1399379380071404E-02 a       871     0    44     1    11
 -1.1075057493927408E-01 a       872     0    44     1    12
  1.1915124725774053E-01 a       873     0    44     1    13
  1.7887682360499157E-01 a       874     0    44     1    14
 -5.6046962807180314E-02 a       875     0    44     1    15
 -9.6256826610713303E-02 a       876     0    44     1    16
  1.1463055438550250E-02 a       877     0    44     1    17
 -7.5391275033280636E-02 a       878     0    44     1    18
  1.8723904473238157E-01 a       879     0    44     1    19
  2.7282067733291830E-02 a       880     0    44     1    20
  1.0852482712403765E-01 a       881     0    45     1     1
  5.0557099744840718E-02 a       882     0    45     1     2
  1.3329050081758220E-01 a       883     0    45     1     3
  2.0180188417287543E-02 a       884     0    45     1     4
 -2.4875618064722016E-01 a       885     0    45     1     5
 -4.5823090370638288E-02 a       886     0    45     1     6
  9.1123369553327491E-02 a       887     0    45     1     7
  1.0506150913143036E-01 a       888     0    45     1     8
 -1.9164217803343864E-02 a       889     0    45     1     9
 -4.6011742237231874E-02 a       890     0    45     1    10
  5.5380964607538712E-02 a       891     0    45     1    11
  8.0273415318167542E-03 a       892     0    45     1    12
 -1.6300758298740298E-02 a       893     0    45     1    13
  2.8976897332955338E-02 a       894     0    45     1    14
 -7.8351535079859119E-02 a       895     0    45     1    15
  5.0365990969519617E-02 a       896     0    45     1    16
  1.1847848677854339E-01 a       897     0    45     1    17
  6.8217126716811821E-02 a       898     0    45     1    18
  7.8803213661943566E-02 a       899     0    45     1    19
  1.0489812685453861E-01 a       900     0    45     1    20
  1.1460411789802057E-01 a       901     0    46     1     1
 -1.9435842519799704E-01 a       902     0    46     1     2
 -4.0576100163274918E-02 a       903     0    46     1     3
  1.5518556016207891E-01 a       904     0    46     1     4
  1.3339581638270787E-01 a       905     0    46     1     5
 -5.0368615010323754E-03 a       906     0    46     1     6
  1.4683957463609008E-02 a       907     0    46     1     7
  1.1539077034242004E-01 a       908     0    46     1     8
  9.6001353608437562E-02 a       909     0    46     1     9
 -2.3539970232947632E-01 a       910     0    46     1    10
 -1.5997972177271613E-01 a       911     0    46     1    11
 -1.1609247513448166E-01 a       912     0    46     1    12
 -8.5394817893081246E-02 a       913     0    46     1    13
  8.1937732042078326E-02 a       914     0    46     1    14
  8.6130880647454999E-02 a       915     0    46     1    15
  7.8990431237768652E-02 a       916     0    46     1    16
  1.6104105612358216E-01 a       917     0    46     1    17
  1.1233754290782605E-01 a       918     0    46     1    18
  3.0415292200147070E-01 a       919     0    46     1    19
  1.8117512607296440E-01 a       920     0    46     1    20
 -2.7035281338161860E-01 a       921     0    47     1     1
 -1.1246993381330263E-01 a       922     0    47     1     2
 -9.1689474027542378E-02 a       923     0    47     1     3
  1.2566625725717958E-02 a       924     0    47     1     4
 -9.0179641045141243E-02 a       925     0    47     1     5
 -6.1934016358154514E-02 a       926     0    47     1     6
  9.9917854565689315E-02 a       927     0    47     1     7
 -1.1556375804778207E-01 a       928     0    47     1     8
 -6.1238271332330447E-04 a       929     0    47     1     9
 -8.5576154778050001E-02 a       930     0    47     1    10
 -3.4450239786805559E-02 a       931     0    47     1    11
  1.5403035367238524E-01 a       932     0    47     1    12
 -6.6233056062145607E-02 a       933     0    47     1    13
 -1.3777743816220875E-01 a       934     0    47     1    14
 -5.3902416236165887E-02 a       935     0    47     1    15
 -1.4027246732991761E-01 a       936     0    47     1    16
 -2.2722119413156933E-01 a       937     0    47     1    17
 -3.9260768294887866E-02 a       938     0    47     1    18
 -1.1836111171612218E-01 a       939     0    47     1    19
 -1.0808059729073877E-01 a       940     0    47     1    20
  4.2053336820542242E-02 a       941     0    48     1     1
  1.3746230372169351E-02 a       942     0    48     1     2
 -5.2547340982964180E-02 a       943     0    48     1     3
  1.4431431236242265E-01 a       944     0    48     1     4
  5.5946566350643788E-02 a       945     0    48     1     5
  3.6030342878468048E-02 a       946     0    48     1     6
  8.4916872478655800E-02 a       947     0    48     1     7
  8.2602730308960051E-02 a       948     0    48     1     8
  1.1373540810529003E-02 a       949     0    48     1     9
 -1.9739702321676908E-01 a       950     0    48     1    10
 -1.9286285173581177E-01 a       951     0    48     1    11
  5.2178228781169780E-03 a       952     0    48     1    12
 -8.2746828103723385E-02 a       953     0    48     1    13
 -1.7235549822424431E-01 a       954     0    48     1    14
 -3.0331732566016310E-02 a       955     0    48     1    15
  7.0942815120553587E-02 a       956     0    48     1    16
 -2.6562178926297336E-02 a       957     0    48     1    17
  1.2652522555224308E-01 a       958     0    48     1    18
 -7.5448974969816382E-02 a       959     0    48     1    19
  1.6377305613812584E-01 a       960     0    48     1    20
 -3.2511235330613035E-04 a       961     0    49     1     1
 -4.7068812992109327E-02 a       962     0    49     1     2
  2.6719924855403143E-02 a       963     0    49     1     3
  4.7645860791497269E-02 a       964     0    49     1     4
 -1.5756081878394709E-01 a       965     0    49     1     5
 -2.5777536886787581E-02 a       966     0    49     1     6
 -7.1302686725866781E-05 a       967     0    49     1     7
 -6.0982304078772184E-02 a       968     0    49     1     8
  2.6779094908454155E-02 a       969     0    49     1     9
 -6.3041004109947493E-02 a       970     0    49     1    10
 -6.1622299883730526E-03 a       971     0    49     1    11
  8.8947300742480709E-02 a       972     0    49     1    12
 -6.4402285986209576E-02 a       973     0    49     1    13
 -3.9844743959601546E-02 a       974     0    49     1    14
  8.0885244812969548E-02 a       975     0    49     1    15
 -7.7281579334772060E-02 a       976     0    49     1    16
 -5.9862701907210124E-02 a       977     0    49     1    17
  2.5517979846668710E-02 a       978     0    49     1    18
  7.3064824502764381E-03 a       979     0    49     1    19
 -4.7366105647415654E-02 a       980     0    49     1    20
 -1.7303653189221921E-01 a       981     0    50     1     1
 -4.7116992916065595E-02 a       982     0    50     1     2
  6.5829651084453669E-02 a       983     0    50     1     3
  4.5372669177561838E-02 a       984     0    50     1     4
  9.9381328901277571E-02 a       985     0    50     1     5
  1.2744418113774647E-01 a       986     0    50     1     6
 -2.0924695211652711E-01 a       987     0    50     1     7
 -5.7004965865234881E-02 a       988     0    50     1     8
 -1.0826331998950346E-01 a       989     0    50     1     9
 -1.9761214782780694E-02 a       990     0    50     1    10
  9.8489836233781519E-02 a       991     0    50     1    11
 -1.0320059635417796E-01 a       992     0    50     1    12
 -2.2233939390016021E-02 a       993     0    50     1    13
  2.1794300025891420E-02 a       994     0    50     1    14
  1.2020556272920896E-01 a       995     0    50     1    15
  8.6942161841419022E-02 a       996     0    50     1    16
 -1.8401694062329169E-01 a       997     0    50     1    17
  7.5180748457103546E-03 a       998     0    50     1    18
  7.7832322675495738E-02 a       999     0    50     1    19
 -4.6873775355891288E-02 a      1000     0    50     1    20
 -7.3383944792596259E-02 a      1001     0    51     1     1
  5.2849452260669207E-02 a      1002     0    51     1     2
 -1.0351187577784639E-01 a      1003     0    51     1     3
  1.1251344688590925E-01 a      1004     0    51     1     4
 -4.4652110613530548E-02 a      1005     0    51     1     5
 -3.4432302761838236E-02 a      1006     0    51     1     6
 -1.3507909504389881E-03 a      1007     0    51     1     7
 -4.1424972374218758E-03 a      1008     0    51     1     8
 -1.2878787224933122E-01 a      1009     0    51     1     9
 -2.6810743285730010E-01 a      1010     0    51     1    10
 -9.0642102080925699E-02 a      1011     0    51     1    11
  9.1105845026059826E-02 a      1012     0    51     1    12
  1.0104046061731706E-01 a      1013     0    51     1    13
  1.6126711206815456E-02 a      1014     0    51     1    14
  2.2537376050359553E-01 a      1015     0    51     1    15
 -7.4945743173513601E-02 a      1016     0    51     1    16
  1.8684914624261045E-01 a      1017     0    51     1    17
  1.4826676041836340E-01 a      1018     0    51     1    18
  1.8808379821641134E-02 a      1019     0    51     1    19
  6.0298348102384977E-02 a      1020     0    51     1    20
  8.4244458256483318E-03 a      1021     0    52     1     1
  4.4305325178605047E-02 a      1022     0    52     1     2
  1.6031160557309979E-01 a      1023     0    52     1     3
 -5.2878544052200396E-02 a      1024     0    52     1     4
 -2.2870515077839867E-03 a      1025     0    52     1     5
 -1.6963686881486501E-01 a      1026     0    52     1     6
 -1.5397030569907916E-01 a      1027     0    52     1     7
 -6.1458308285581888E-02 a      1028     0    52     1     8
  6.6573088991584373E-02 a      1029     0    52     1     9
  1.1359672288377860E-01 a      1030     0    52     1    10
 -4.2823364179352563E-02 a      1031     0    52     1    11
  1.6156411712279589E-01 a      1032     0    52     1    12
 -4.0520320964329948E-02 a      1033     0    52     1    13
 -9.4279179989943410E-02 a      1034     0    52     1    14
  2.0564021098885230E-01 a      1035     0    52     1    15
 -1.5298833535847068E-02 a      1036     0    52     1    16
 -1.7547115994758058E-01 a      1037     0    52     1    17
 -2.7827319254277150E-03 a      1038     0    52     1    18
 -6.5110019455279578E-03 a      1039     0    52     1    19
  1.2720782682477702E-01 a      1040     0    52     1    20
 -1.7898069348077703E-01 a      1041     0    53     1     1
 -1.6099902944693872E-01 a      1042     0    53     1     2
  1.8789970511484599E-01 a      1043     0    53     1     3
 -8.8007392058875089E-02 a      1044     0    53     1     4
 -1.9479959125600407E-01 a      1045     0    53     1     5
 -4.4586357774908186E-02 a      1046     0    53     1     6
  1.8449056324794631E-02 a      1047     0    53     1     7
  1.7192631888868867E-02 a      1048     0    53     1     8
 -1.4612933299685060E-01 a      1049     0    53     1     9
  2.4464326460163377E-01 a      1050     0    53     1    10
  1.4147891254362571E-01 a      1051     0    53     1    11
 -8.3156447827530990E-03 a      1052     0    53     1    12
 -2.9933608061773968E-02 a      1053     0    53     1    13
 -1.1766505221162854E-01 a      1054     0    53     1    14
  1.1361784255724230E-01 a      1055     0    53     1    15
 -2.1061595281935611E-01 a      1056     0    53     1    16
  1.3202647500804288E-01 a      1057     0    53     1    17
  1.8485532988461661E-01 a      1058     0    53     1    18
 -9.0496642369926272E-02 a      1059     0    53     1    19
  2.4445811410740665E-02 a      1060     0    53     1    20
  1.0734027603919163E-01 a      1061     0    54     1     1
  5.8377708001436976E-02 a      1062     0    54     1     2
 -1.6731906233074537E-01 a      1063     0    54     1     3
  6.3567620447844905E-02 a      1064     0    54     1     4
 -5.0190854532273801E-02 a      1065     0    54     1     5
 -1.7433330097805899E-02 a      1066     0    54     1     6
  1.6810229492242729E-01 a      1067     0    54     1     7
 -6.6426907537931942E-02 a      1068     0    54     1     8
  5.6129178910392347E-02 a      1069     0    54     1     9
 -2.2797327394874466E-02 a      1070     0    54     1    10
 -3.1821572794373823E-02 a      1071     0    54     1    11
  1.0675152869721351E-01 a      1072     0    54     1    12
  4.7922918718471597E-02 a      1073     0    54     1    13
 -2.0259783117037342E-01 a      1074     0    54     1    14
  1.9719904905356167E-01 a      1075     0    54     1    15
 -1.9874195170530774E-02 a      1076     0    54     1    16
 -7.8207137297923775E-03 a      1077     0    54     1    17
 -6.4847154547332558E-02 a      1078     0    54     1    18
 -2.1912543317806690E-02 a      1079     0    54     1    19
 -5.8037250863069961E-02 a      1080     0    54     1    20
 -1.9507938827026133E-01 a      1081     0    55     1     1
  4.0082726618756960E-03 a      1082     0    55     1     2
 -8.6330098332632305E-02 a      1083     0    55     1     3
 -8.0782182631010085E-02 a      1084     0    55     1     4
 -1.1417132007995184E-01 a      1085     0    55     1     5
 -5.1477323729389346E-02 a      1086     0    55     1     6
  1.8426884671302979E-01 a      1087     0    55     1     7
 -6.8895188114692904E-02 a      1088     0    55     1     8
 -2.2580376151571943E-01 a      1089     0    55     1     9
  1.6130359872099842E-01 a      1090     0    55     1    10
  1.4248860624076323E-01 a      1091     0    55     1    11
 -1.0966790486633229E-01 a      1092     0    55     1    12
 -9.5351708961078016E-02 a      1093     0    55     1    13
  2.1973410027747539E-01 a      1094     0    55     1    14
  1.1781568928234003E-01 a      1095     0    55     1    15
 -1.3348440893497884E-01 a      1096     0    55     1    16
 -8.5589836335752942E-02 a      1097     0    55     1    17
 -1.3257674866464755E-01 a      1098     0    55     1    18
  1.7504755301633868E-02 a      1099     0    55     1    19
  1.2413247530251804E-03 a      1100     0    55     1    20
  9.7774589466622167E-02 a      1101     0    56     1     1
 -4.2374289005746170E-02 a      1102     0    56     1     2
  7.7685479871225843E-02 a      1103     0    56     1     3
  9.4327559214138715E-03 a      1104     0    56     1     4
 -1.6596674873564182E-01 a      1105     0    56     1     5
 -1.9844884887780970E-01 a      1106     0    56     1     6
 -1.3967092052132021E-01 a      1107     0    56     1     7
 -5.8390045489303447E-02 a      1108     0    56     1     8
 -2.5024802929672774E-01 a      1109     0    56     1     9
  1.4513967894153709E-02 a      1110     0    56     1    10
 -1.7563557363102919E-01 a      1111     0    56     1    11
  1.9613263574570941E-01 a      1112     0    56     1    12
  1.1033604955748599E-01 a      1113     0    56     1    13
 -1.7463319404541564E-01 a      1114     0    56     1    14
 -4.3073035948571550E-02 a      1115     0    56     1    15
 -5.0039865598677123E-03 a      1116     0    56     1    16
 -3.7271299211143971E-02 a      1117     0    56     1    17
 -1.2190447250016022E-01 a      1118     0    56     1    18
  1.4568174063784320E-01 a      1119     0    56     1    19
  9.3750515717545752E-02 a      1120     0    56     1    20
  2.4409503146396127E-02 a      1121     0    57     1     1
 -9.4414509654632606E-02 a      1122     0    57     1     2
 -5.1550422357226670E-02 a      1123     0    57     1     3
  1.3989071807914241E-01 a      1124     0    57     1     4
 -1.6013054437721524E-01 a      1125     0    57     1     5
  1.1390823783409715E-01 a      1126     0    57     1     6
 -4.8127035090326266E-02 a      1127     0    57     1     7
  1.9358959678358045E-01 a      1128     0    57     1     8
 -1.5117284506576201E-01 a      1129     0    57     1     9
 -1.8304020738373984E-02 a      1130     0    57     1    10
 -4.8938147870469136E-02 a      1131     0    57     1    11
  5.6548830357966225E-05 a      1132     0    57     1    12
 -7.0614758877078521E-02 a      1133     0    57     1    13
 -9.6356334376867039E-02 a      1134     0    57     1    14
  1.9710856886348108E-01 a      1135     0    57     1    15
 -1.4519472975694753E-01 a      1136     0    57     1    16
  1.8187023719578932E-01 a      1137     0    57     1    17
 -4.5221466617888811E-02 a      1138     0    57     1    18
 -1.1827159681448186E-01 a      1139     0    57     1    19
  7.1795209498981230E-02 a      1140     0    57     1    20
 -3.2948517855313086E-01 a      1141     0    58     1     1
 -4.1186859170132074E-02 a      1142     0    58     1     2
  1.1665177278131739E-01 a      1143     0    58     1     3
 -4.7182718055730530E-02 a      1144     0    58     1     4
  1.6564638557063854E-01 a      1145     0    58     1     5
 -6.8698400434796303E-02 a      1146     0    58     1     6
  9.1678550598911876E-02 a      1147     0    58     1     7
 -8.8410573088244186E-03 a      1148     0    58     1     8
  1.6784938266362448E-01 a      1149     0    58     1     9
  1.1204086162839921E-01 a      1150     0    58     1    10
 -5.0523414842720465E-02 a      1151     0    58     1    11
  1.1816296210517141E-01 a      1152     0    58     1    12
  1.7281380372372743E-01 a      1153     0    58     1    13
 -2.0975748664878308E-01 a      1154     0    58     1    14
 -1.0235816129537709E-01 a      1155     0    58     1    15
  1.5522094220978194E-01 a      1156     0    58     1    16
  9.6376041246540034E-02 a      1157     0    58     1    17
 -1.1743880353763879E-01 a      1158     0    58     1    18
  5.2713416486119422E-02 a      1159     0    58     1    19
  1.0675036354932775E-01 a      1160     0    58     1    20
 -1.3625255121676068E-02 a      1161     0    59     1     1
  5.9826850870210474E-04 a      1162     0    59     1     2
 -9.6150768976575623E-02 a      1163     0    59     1     3
  1.3696969173487428E-01 a      1164     0    59     1     4
  5.4567247684789141E-02 a      1165     0    59     1     5
 -1.2602972257349246E-01 a      1166     0    59     1     6
 -3.9360713982830538E-02 a      1167     0    59     1     7
 -3.7412817770360283E-02 a      1168     0    59     1     8
 -6.8791085848176989E-02 a      1169     0    59     1     9
  2.3325239329746584E-03 a      1170     0    59     1    10
 -1.1082628842313802E-01 a      1171     0    59     1    11
  8.2117284954514300E-02 a      1172     0    59     1    12
 -3.8654870084140591E-02 a      1173     0    59     1    13
 -1.5752973540262834E-02 a      1174     0    59     1    14
 -2.4458820067810277E-01 a      1175     0    59     1    15
 -1.3407740860351908E-01 a      1176     0    59     1    16
 -5.6944881789440065E-02 a      1177     0    59     1    17
  3.3885419687225853E-02 a      1178     0    59     1    18
  6.4301134274152710E-02 a      1179     0    59     1    19
  1.4692109232723479E-02 a      1180     0    59     1    20
  3.9139801577859012E-02 a      1181     0    60     1     1
 -1.3756002829488402E-04 a      1182     0    60     1     2
  1.8527920395477622E-03 a      1183     0    60     1     3
 -5.8360333153827319E-02 a      1184     0    60     1     4
 -2.1938888247822427E-01 a      1185     0    60     1     5
  2.6819416513041611E-02 a      1186     0    60     1     6
  7.6271572628017117E-03 a      1187     0    60     1     7
 -6.0149196490221934E-02 a      1188     0    60     1     8
  3.6119632425412600E-02 a      1189     0    60     1     9
 -1.3186643605570756E-02 a      1190     0    60     1    10
 -8.6863225905648586E-02 a      1191     0    60     1    11
  5.5069341802192459E-02 a      1192     0    60     1    12
  3.1141387416191303E-02 a      1193     0    60     1    13
 -1.6711512895246170E-02 a      1194     0    60     1    14
  7.4962300768115761E-02 a      1195     0    60     1    15
  2.7409455139259187E-01 a      1196     0    60     1    16
 -1.0125432594287526E-01 a      1197     0    60     1    17
 -4.2690349385076957E-03 a      1198     0    60     1    18
 -1.0697373418451558E-01 a      1199     0    60     1    19
  9.0420447265512516E-02 a      1200     0    60     1    20
  2.4959262394216624E-02 a      1201     0    61     1     1
 -1.3881967528125613E-01 a      1202     0    61     1     2
  2.8965720449316668E-02 a      1203     0    61     1     3
 -2.0508441886493537E-02 a      1204     0    61     1     4
  1.0728080309792050E-01 a      1205     0    61     1     5
 -4.0329511865001111E-02 a      1206     0    61     1     6
  9.5667000401949517E-02 a      1207     0    61     1     7
  7.1521665325270248E-03 a      1208     0    61     1     8
 -8.8417804395981250E-02 a      1209     0    61     1     9
 -1.7398469722169423E-03 a      1210     0    61     1    10
  1.5661427249256182E-01 a      1211     0    61     1    11
 -3.1827696894358975E-03 a      1212     0    61     1    12
 -6.7408044869465986E-02 a      1213     0    61     1    13
  2.3285158964907439E-02 a      1214     0    61     1    14
  3.0962782210690251E-02 a      1215     0    61     1    15
  3.6833558875333308E-02 a      1216     0    61     1    16
  1.6505456519465018E-02 a      1217     0    61     1    17
  3.4551048920628304E-02 a      1218     0    61     1    18
 -1.6590404679511860E-02 a      1219     0    61     1    19
 -6.9119227396612401E-02 a      1220     0    61     1    20
 -4.1482314680691433E-02 a      1221     0    62     1     1
 -1.8985898987539959E-01 a      1222     0    62     1     2
  1.1107376830882262E-01 a      1223     0    62     1     3
 -5.5289570377413950E-02 a      1224     0    62     1     4
 -1.5215931351936876E-01 a      1225     0    62     1     5
  3.6372556304155850E-03 a      1226     0    62     1     6
  1.9282521381930237E-01 a      1227     0    62     1     7
  5.4924976168503323E-02 a      1228     0    62     1     8
 -1.4852765703146154E-01 a      1229     0    62     1     9
  8.8417089305491164E-02 a      1230     0    62     1    10
  6.9802622231500647E-02 a      1231     0    62     1    11
 -8.4204353286879294E-02 a      1232     0    62     1    12
 -1.4349975552506444E-02 a      1233     0    62     1    13
 -5.1456512516566154E-02 a      1234     0    62     1    14
  3.7013042280702055E-02 a      1235     0    62     1    15
 -1.1012876678307498E-01 a      1236     0    62     1    16
 -6.9859118186880592E-02 a      1237     0    62     1    17
  5.4312634475790482E-02 a      1238     0    62     1    18
  6.6450334782005250E-03 a      1239     0    62     1    19
  1.5657551470421335E-01 a      1240     0    62     1    20
  1.3137249033227391E-01 a      1241     0    63     1     1
 -1.9268167857502908E-02 a      1242     0    63     1     2
  5.8877838654712690E-03 a      1243     0    63     1     3
 -1.3369819428639037E-02 a      1244     0    63     1     4
  5.9623035773171580E-02 a      1245     0    63     1     5
 -5.7179839442216822E-02 a      1246     0    63     1     6
 -1.3932211683127735E-01 a      1247     0    63     1     7
 -5.2006796338765558E-02 a      1248     0    63     1     8
 -8.7684147741208772E-03 a      1249     0    63     1     9
 -5.4790039374838229E-02 a      1250     0    63     1    10
  3.4857333237010103E-02 a      1251     0    63     1    11
 -1.3110925759854686E-01 a      1252     0    63     1    12
  4.3597786195043599E-02 a      1253     0    63     1    13
 -1.4719932581424755E-01 a      1254     0    63     1    14
 -8.5918046231222067E-02 a      1255     0    63     1    15
 -7.6270360379554508E-02 a      1256     0    63     1    16
 -1.7195793543774215E-01 a      1257     0    63     1    17
  8.2089049718631915E-02 a      1258     0    63     1    18
  6.8062489689615646E-02 a      1259     0    63     1    19
 -3.5282559111461574E-02 a      1260     0    63     1    20
  8.2519660725624097E-02 a      1261     0    64     1     1
  4.2742182186597991E-02 a      1262     0    64     1     2
 -4.7115739425366308E-02 a      1263     0    64     1     3
  7.2649333870690072E-02 a      1264     0    64     1     4
 -1.8739207381200670E-01 a      1265     0    64     1     5
 -1.6934916057572663E-01 a      1266     0    64     1     6
 -1.3486874834376444E-01 a      1267     0    64     1     7
 -4.3304911508106676E-02 a      1268     0    64     1     8
  3.4983985904507291E-02 a      1269     0    64     1     9
  2.3520063619390012E-02 a      1270     0    64     1    10
 -4.6945851001755003E-02 a      1271     0    64     1    11
  9.3902703822644901E-02 a      1272     0    64     1    12
 -2.8838262864003612E-02 a      1273     0    64     1    13
 -1.9593229083200916E-01 a      1274     0    64     1    14
  1.3314287364295574E-01 a      1275     0    64     1    15
 -1.8822366733287235E-01 a      1276     0    64     1    16
 -1.3710056190811074E-01 a      1277     0    64     1    17
 -6.8979864134976296E-02 a      1278     0    64     1    18
 -2.3893537041922600E-01 a      1279     0    64     1    19
  1.4243741009472072E-01 a      1280     0    64     1    20
 -1.0688126322181289E-01 a      1281     0    65     1     1
  2.0379232672408801E-01 a      1282     0    65     1     2
  9.7628572577707531E-02 a      1283     0    65     1     3
 -1.4482644511648368E-01 a      1284     0    65     1     4
 -1.0927619359061204E-01 a      1285     0    65     1     5
  1.6383805358171652E-01 a      1286     0    65     1     6
 -1.5623694251437328E-01 a      1287     0    65     1     7
 -5.5118541752420661E-02 a      1288     0    65     1     8
  5.8506617903642411E-04 a      1289     0    65     1     9
  1.1001198246146046E-01 a      1290     0    65     1    10
  1.2378398440357309E-01 a      1291     0    65     1    11
  6.6607155232333862E-02 a      1292     0    65     1    12
 -1.2485944271388166E-02 a      1293     0    65     1    13
 -6.3675379020783657E-02 a      1294     0    65     1    14
 -4.5302909940375148E-02 a      1295     0    65     1    15
 -2.2094464063714953E-01 a      1296     0    65     1    16
 -6.1593285655173052E-02 a      1297     0    65     1    17
 -3.7707903919094288E-02 a      1298     0    65     1    18
  7.3366441482741365E-02 a      1299     0    65     1    19
 -2.3173538564789259E-01 a      1300     0    65     1    20
 -5.8061458775889765E-02 a      1301     0    66     1     1
  1.3796426908227477E-01 a      1302     0    66     1     2
 -1.4688132923978789E-01 a      1303     0    66     1     3
  1.1342517148264612E-01 a      1304     0    66     1     4
  1.5066747046104970E-01 a      1305     0    66     1     5
  1.0300815556059013E-02 a      1306     0    66     1     6
 -2.7124742627734927E-02 a      1307     0    66     1     7
 -1.3275766478633708E-01 a      1308     0    66     1     8
  9.8833299001658867E-02 a      1309     0    66     1     9
  1.5429857630796500E-02 a      1310     0    66     1    10
 -1.2636051691970376E-01 a      1311     0    66     1    11
  6.1246760714832697E-02 a      1312     0    66     1    12
 -2.0357187541540443E-02 a      1313     0    66     1    13
 -8.3076782198294161E-02 a      1314     0    66     1    14
  1.6292010951974981E-01 a      1315     0    66     1    15
  1.0872063627564701E-01 a      1316     0    66     1    16
  8.2238409255104707E-05 a      1317     0    66     1    17
 -9.4478816529551993E-02 a      1318     0    66     1    18
  8.0399441670472763E-02 a      1319     0    66     1    19
 -7.4902767860089800E-02 a      1320     0    66     1    20
 -2.0904825067499552E-01 a      1321     0    67     1     1
 -2.1553463738437074E-02 a      1322     0    67     1     2
 -1.2210902417599306E-01 a      1323     0    67     1     3
 -2.4868440736206789E-02 a      1324     0    67     1     4
  2.7627918948959752E-02 a      1325     0    67     1     5
  5.2615579168007340E-02 a      1326     0    67     1     6
 -1.1205014115813408E-02 a      1327     0    67     1     7
  5.8604498676992654E-02 a      1328     0    67     1     8
 -6.4766031917333003E-02 a      1329     0    67     1     9
  3.6520507946595370E-03 a      1330     0    67     1    10
 -8.9750391027241076E-03 a      1331     0    67     1    11
  7.4306469638296116E-03 a      1332     0    67     1    12
  9.3690809654438295E-02 a      1333     0    67     1    13
 -9.9023902892608096E-02 a      1334     0    67     1    14
 -3.9528568285295634E-02 a      1335     0    67     1    15
 -6.8412800567518306E-02 a      1336     0    67     1    16
 -1.0331431047574483E-02 a      1337     0    67     1    17
 -1.7436442369713998E-01 a      1338     0    67     1    18
  4.9010567990980983E-02 a      1339     0    67     1    19
 -1.8169100572660876E-01 a      1340     0    67     1    20
  1.0389441777837492E-02 a      1341     0    68     1     1
  1.4447957176534423E-02 a      1342     0    68     1     2
 -1.0761057164258557E-01 a      1343     0    68     1     3
 -8.1225653674728976E-02 a      1344     0    68     1     4
 -8.0638794792032523E-02 a      1345     0    68     1     5
 -2.5357228455189638E-02 a      1346     0    68     1     6
 -2.8700905622706019E-01 a      1347     0    68     1     7
  2.8912348706327007E-01 a      1348     0    68     1     8
  7.4962301743518756E-02 a      1349     0    68     1     9
 -8.5897378912704880E-02 a      1350     0    68     1    10
  2.0920570884789386E-01 a      1351     0    68     1    11
  4.2234725925960677E-02 a      1352     0    68     1    12
 -1.1738068923330440E-01 a      1353     0    68     1    13
  1.9688808955354106E-01 a      1354     0    68     1    14
 -1.3158238704826247E-01 a      1355     0    68     1    15
  1.3892141651741136E-01 a      1356     0    68     1    16
  5.0071520219054165E-02 a      1357     0    68     1    17
  9.8149091599822921E-02 a      1358     0    68     1    18
 -3.1432534959741548E-02 a      1359     0    68     1    19
  9.3881329520086140E-02 a      1360     0    68     1    20
 -1.1646251819327062E-01 a      1361     0    69     1     1
  3.6525266446113473E-02 a      1362     0    69     1     2
 -1.2142441034116470E-01 a      1363     0    69     1     3
 -3.6041464187290713E-02 a      1364     0    69     1     4
 -3.4303831475278518E-02 a      1365     0    69     1     5
 -1.0821606713249901E-01 a      1366     0    69     1     6
 -1.7539290084536349E-02 a      1367     0    69     1     7
 -4.4277592426425642E-02 a      1368     0    69     1     8
 -1.1521156428951095E-02 a      1369     0    69     1     9
 -9.0544099712475054E-02 a      1370     0    69     1    10
 -9.7767733050578884E-02 a      1371     0    69     1    11
 -8.7778675428928990E-02 a      1372     0    69     1    12
  5.3790568864999611E-02 a      1373     0    69     1    13
  5.6181064200578439E-02 a      1374     0    69     1    14
 -1.2049310495324922E-01 a      1375     0    69     1    15
  9.9274484143443184E-02 a      1376     0    69     1    16
  2.5763776982614513E-02 a      1377     0    69     1    17
 -1.3192618650900276E-01 a      1378     0    69     1    18
 -6.2063021961934854E-02 a      1379     0    69     1    19
 -8.6980028570170318E-03 a      1380     0    69     1    20
  1.1617014221698958E-01 a      1381     0    70     1     1
 -1.8252445304879278E-01 a      1382     0    70     1     2
  2.1188051604834703E-03 a      1383     0    70     1     3
 -1.6838826035481197E-01 a      1384     0    70     1     4
  1.0086135677494910E-01 a      1385     0    70     1     5
 -1.2699407482163260E-02 a      1386     0    70     1     6
  9.9155022246891749E-03 a      1387     0    70     1     7
  9.1980434563547500E-02 a      1388     0    70     1     8
  2.3979945604593229E-02 a      1389     0    70     1     9
  5.2038122958735812E-02 a      1390     0    70     1    10
 -1.1527179997574637E-01 a      1391     0    70     1    11
  1.7451987177914169E-01 a      1392     0    70     1    12
  2.7796016936930804E-02 a      1393     0    70     1    13
  1.4385551842227370E-01 a      1394     0    70     1    14
  1.1577139825414074E-02 a      1395     0    70     1    15
  2.8519871291663151E-02 a      1396     0    70     1    16
 -1.2521813731543174E-01 a      1397     0    70     1    17
  1.2723675684697447E-01 a      1398     0    70     1    18
  2.3783677738155412E-01 a      1399     0    70     1    19
 -8.0822701279571110E-03 a      1400     0    70     1    20
 -1.8405224100775880E-01 a      1401     0    71     1     1
 -1.7191327184815475E-01 a      1402     0    71     1     2
  8.8835448468126646E-02 a      1403     0    71     1     3
 -1.6747284556594599E-01 a      1404     0    71     1     4
  1.0931074245296377E-01 a      1405     0    71     1     5
  3.8072751604677650E-02 a      1406     0    71     1     6
  2.3690847105931393E-02 a      1407     0    71     1     7
 -6.1134189123547553E-02 a      1408     0    71     1     8
 -2.0311747108897316E-01 a      1409     0    71     1     9
 -1.9896684814768900E-01 a      1410     0    71     1    10
 -1.9451759933151094E-01 a      1411     0    71     1    11
 -2.3979110544541257E-01 a      1412     0    71     1    12
  2.6463772613414888E-02 a      1413     0    71     1    13
  9.4439130763341959E-03 a      1414     0    71     1    14
 -2.1003625368752177E-01 a      1415     0    71     1    15
 -2.6798873514539578E-01 a      1416     0    71     1    16
  9.9230675409587979E-02 a      1417     0    71     1    17
 -1.4568943604636994E-01 a      1418     0    71     1    18
  1.2245333011101382E-01 a      1419     0    71     1    19
 -6.3070486524500910E-02 a      1420     0    71     1    20
  1.5533206686494119E-01 a      1421     0    72     1     1
  1.4495071942295301E-01 a      1422     0    72     1     2
  2.3913316713389057E-02 a      1423     0    72     1     3
  7.6860433003645867E-02 a      1424     0    72     1     4
  1.2675439804233643E-01 a      1425     0    72     1     5
 -2.4161731241669530E-02 a      1426     0    72     1     6
  6.1968710375203184E-02 a      1427     0    72     1     7
 -1.6871165869227953E-01 a      1428     0    72     1     8
  6.5298871526179927E-02 a      1429     0    72     1     9
 -3.9093031072423165E-02 a      1430     0    72     1    10
  8.4236571646392228E-02 a      1431     0    72     1    11
 -7.1581359540034958E-02 a      1432     0    72     1    12
  4.0378993454467195E-02 a      1433     0    72     1    13
  2.3324882355024612E-01 a      1434     0    72     1    14
 -5.8651470954712015E-02 a      1435     0    72     1    15
  1.0973570964392602E-01 a      1436     0    72     1    16
  1.4765559744580392E-01 a      1437     0    72     1    17
  6.2700428390087354E-02 a      1438     0    72     1    18
 -8.3838983564243977E-02 a      1439     0    72     1    19
  6.2716661804857965E-02 a      1440     0    72     1    20
 -1.4614401001167787E-01 a      1441     0    73     1     1
  1.4061707099856488E-01 a      1442     0    73     1     2
  7.3008539643937095E-02 a      1443     0    73     1     3
  5.0591972360986837E-02 a      1444     0    73     1     4
  7.6077003359503542E-02 a      1445     0    73     1     5
  2.2551841003304103E-02 a      1446     0    73     1     6
 -2.2209513198762890E-01 a      1447     0    73     1     7
  5.2249218779433001E-03 a      1448     0    73     1     8
 -9.8084062932242921E-02 a      1449     0    73     1     9
 -1.3338702521445028E-01 a      1450     0    73     1    10
 -2.5491960749260450E-02 a      1451     0    73     1    11
  2.3348112678542487E-02 a      1452     0    73     1    12
 -6.5609081783774267E-02 a      1453     0    73     1    13
  1.0188908593241873E-01 a      1454     0    73     1    14
 -3.7849323483736916E-02 a      1455     0    73     1    15
  3.6346717997181067E-02 a      1456     0    73     1    16
  1.9239361594639581E-01 a      1457     0    73     1    17
  2.2555799841355628E-01 a      1458     0    73     1    18
  3.2441233960694579E-02 a      1459     0    73     1    19
  7.0214590240447586E-02 a      1460     0    73     1    20
  1.2395781828861181E-01 a      1461     0    74     1     1
  9.9738651098937009E-02 a      1462     0    74     1     2
  1.7107107475832345E-01 a      1463     0    74     1     3
 -2.8673748815781237E-02 a      1464     0    74     1     4
 -3.9801370283488118E-02 a      1465     0    74     1     5
  6.1544535856975335E-02 a      1466     0    74     1     6
 -6.9476715064271138E-02 a      1467     0    74     1     7
 -1.4325549680192728E-01 a      1468     0    74     1     8
  3.4918876242678898E-01 a      1469     0    74     1     9
 -1.5570561688672604E-01 a      1470     0    74     1    10
  2.2270753993947537E-01 a      1471     0    74     1    11
  2.1664492798409035E-01 a      1472     0    74     1    12
 -2.6223583124889691E-02 a      1473     0    74     1    13
 -1.0724262907320947E-01 a      1474     0    74     1    14
 -1.1677208693462508E-01 a      1475     0    74     1    15
 -1.2292365787872023E-01 a      1476     0    74     1    16
 -9.1548362322832741E-02 a      1477     0    74     1    17
 -5.2907062323989389E-02 a      1478     0    74     1    18
 -2.4637359727755354E-01 a      1479     0    74     1    19
 -2.0309854251913773E-01 a      1480     0    74     1    20
 -5.8070887613353557E-02 a      1481     0    75     1     1
  8.6024582796819932E-02 a      1482     0    75     1     2
 -1.0360164570573283E-01 a      1483     0    75     1     3
  2.1681622135167769E-01 a      1484     0    75     1     4
  1.6368458519399279E-01 a      1485     0    75     1     5
  2.4707829310142398E-01 a      1486     0    75     1     6
  4.6487973417389070E-02 a      1487     0    75     1     7
 -2.4715986865524327E-04 a      1488     0    75     1     8
 -2.3430388169434493E-01 a      1489     0    75     1     9
  5.7580012267253573E-02 a      1490     0    75     1    10
  1.3059879899748814E-01 a      1491     0    75     1    11
 -1.4333740673477571E-01 a      1492     0    75     1    12
  4.5937487172390302E-02 a      1493     0    75     1    13
  5.7982057905438471E-02 a      1494     0    75     1    14
  1.2939967418624135E-01 a      1495     0    75     1    15
 -8.4373627030904105E-02 a      1496     0    75     1    16
 -1.3348747008977987E-01 a      1497     0    75     1    17
 -4.4265336411060965E-02 a      1498     0    75     1    18
  1.7684963490881456E-01 a      1499     0    75     1    19
 -3.1594693697843684E-01 a      1500     0    75     1    20
  1.1521858869878432E-01 a      1501     0    76     1     1
  7.8501308665919992E-02 a      1502     0    76     1     2
  3.3920014513725734E-02 a      1503     0    76     1     3
 -7.2978060484304871E-02 a      1504     0    76     1     4
  1.3748995458972738E-01 a      1505     0    76     1     5
  1.8980707749458819E-01 a      1506     0    76     1     6
 -9.3713575855332076E-02 a      1507     0    76     1     7
  1.0868597848411918E-02 a      1508     0    76     1     8
 -1.8923500237478172E-01 a      1509     0    76     1     9
 -8.7560817314087970E-03 a      1510     0    76     1    10
 -6.7816057989965751E-03 a      1511     0    76     1    11
 -2.7881515068915348E-02 a      1512     0    76     1    12
 -3.4853627160977854E-02 a      1513     0    76     1    13
 -2.0692617470261204E-01 a      1514     0    76     1    14
 -9.7683150625147069E-02 a      1515     0    76     1    15
  6.3008603662612711E-02 a      1516     0    76     1    16
 -1.2303147921673184E-01 a      1517     0    76     1    17
  1.5978406392912067E-01 a      1518     0    76     1    18
  1.9897372427763962E-01 a      1519     0    76     1    19
  8.1131671893275872E-02 a      1520     0    76     1    20
 -2.1254616129159347E-02 a      1521     0    77     1     1
  2.1916320001942521E-01 a      1522     0    77     1     2
 -7.5010842333636502E-02 a      1523     0    77     1     3
 -2.0750876555000956E-02 a      1524     0    77     1     4
 -1.2089475315414243E-01 a      1525     0    77     1     5
 -6.3843643625825439E-02 a      1526     0    77     1     6
  1.7639816333239852E-01 a      1527     0    77     1     7
  1.4147618251488475E-02 a      1528     0    77     1     8
  6.1930578508741847E-02 a      1529     0    77     1     9
 -2.0583941292329427E-01 a      1530     0    77     1    10
 -6.5115186768310934E-02 a      1531     0    77     1    11
  5.1728443391378533E-02 a      1532     0    77     1    12
  1.0962830514799900E-01 a      1533     0    77     1    13
  2.7289487461882093E-02 a      1534     0    77     1    14
 -2.1119476141412057E-02 a      1535     0    77     1    15
 -1.0991218673547538E-01 a      1536     0    77     1    16
 -2.5258625219496489E-01 a      1537     0    77     1    17
  1.7315180350713533E-01 a      1538     0    77     1    18
  1.6870804543213036E-01 a      1539     0    77     1    19
  6.2870807342285187E-02 a      1540     0    77     1    20
 -4.5590257430819195E-02 a      1541     0    78     1     1
 -5.6085996258428875E-02 a      1542     0    78     1     2
 -8.9242431647400131E-02 a      1543     0    78     1     3
 -3.4615341278592039E-02 a      1544     0    78     1     4
 -4.4451460406938915E-03 a      1545     0    78     1     5
  5.6098486988765808E-02 a      1546     0    78     1     6
  3.8927014624362731E-02 a      1547     0    78     1     7
 -4.0555237437458716E-02 a      1548     0    78     1     8
 -5.6862145017732138E-02 a      1549     0    78     1     9
  4.2301635050502946E-02 a      1550     0    78     1    10
 -6.1986321994953408E-02 a      1551     0    78     1    11
  1.5292001852467049E-01 a      1552     0    78     1    12
  2.6170372046441126E-02 a      1553     0    78     1    13
  2.3947067229255878E-01 a      1554     0    78     1    14
  6.3703889927929205E-02 a      1555     0    78     1    15
  1.4402207519266003E-01 a      1556     0    78     1    16
  1.8455993773235568E-01 a      1557     0    78     1    17
 -4.3449681357531085E-02 a      1558     0    78     1    18
  6.7415783307684329E-02 a      1559     0    78     1    19
 -9.5055828044983675E-03 a      1560     0    78     1    20
 -7.7131788424805545E-02 a      1561     0    79     1     1
  1.0839692429600893E-01 a      1562     0    79     1     2
  1.0991122407807971E-01 a      1563     0    79     1     3
  7.0495338162202187E-02 a      1564     0    79     1     4
 -3.3546804105046797E-02 a      1565     0    79     1     5
  1.3292654926949654E-01 a      1566     0    79     1     6
 -7.3232263117392962E-02 a      1567     0    79     1     7
 -1.0132354912904370E-02 a      1568     0    79     1     8
 -3.2655391703095109E-02 a      1569     0    79     1     9
 -5.6986880853488693E-02 a      1570     0    79     1    10
  1.2530666082638622E-01 a      1571     0    79     1    11
  4.5154876891566782E-02 a      1572     0    79     1    12
 -1.4609110150341489E-02 a      1573     0    79     1    13
 -2.3168967012604946E-01 a      1574     0    79     1    14
  1.1585539054572312E-01 a      1575     0    79     1    15
  1.2499723214167731E-01 a      1576     0    79     1    16
  5.8729509809239175E-02 a      1577     0    79     1    17
 -2.0297900268286512E-01 a      1578     0    79     1    18
 -8.4030506512406469E-02 a      1579     0    79     1    19
 -2.0299726640846777E-01 a      1580     0    79     1    20
 -9.0808048799043729E-03 a      1581     0    80     1     1
 -1.7731716465295741E-01 a      1582     0    80     1     2
  7.9507257507294444E-03 a      1583     0    80     1     3
  2.5204926817963685E-01 a      1584     0    80     1     4
 -1.2521460427738668E-01 a      1585     0    80     1     5
 -4.0584393952835173E-04 a      1586     0    80     1     6
 -2.0338634216073551E-01 a      1587     0    80     1     7
 -9.2629027971450215E-02 a      1588     0    80     1     8
  5.6604508509715531E-02 a      1589     0    80     1     9
 -7.6549157662242462E-02 a      1590     0    80     1    10
 -1.6309701871693749E-01 a      1591     0    80     1    11
  3.5288308364972043E-02 a      1592     0    80     1    12
 -1.1952098444479248E-01 a      1593     0    80     1    13
  1.6853326704765639E-01 a      1594     0    80     1    14
  1.4210579033818008E-01 a      1595     0    80     1    15
 -2.6972625210256557E-01 a      1596     0    80     1    16
 -2.9597894598415646E-03 a      1597     0    80     1    17
  8.0963628860880626E-02 a      1598     0    80     1    18
 -7.9250193270425040E-02 a      1599     0    80     1    19
  1.6349403582719013E-01 a      1600     0    80     1    20
 -1.1406188211268259E-02 a      1601     0    81     1     1
  2.3575788765283125E-02 a      1602     0    81     1     2
 -4.5523663172011057E-02 a      1603     0    81     1     3
 -5.7269582933367973E-02 a      1604     0    81     1     4
  1.2115687233771447E-01 a      1605     0    81     1     5
 -1.2232537364767443E-01 a      1606     0    81     1     6
  5.9877881019983072E-02 a      1607     0    81     1     7
 -5.5698674161356737E-02 a      1608     0    81     1     8
 -5.4004280603139547E-02 a      1609     0    81     1     9
 -1.3794443499424698E-02 a      1610     0    81     1    10
  7.5344774786658172E-02 a      1611     0    81     1    11
 -5.2445708188297156E-02 a      1612     0    81     1    12
 -7.1815916663250087E-02 a      1613     0    81     1    13
 -1.1559568518948636E-01 a      1614     0    81     1    14
 -8.7893862774277888E-03 a      1615     0    81     1    15
 -2.9261551923355937E-02 a      1616     0    81     1    16
  1.7255114609213801E-01 a      1617     0    81     1    17
  5.7502787599115784E-02 a      1618     0    81     1    18
  2.9967369109961985E-02 a      1619     0    81     1    19
 -3.0203333434391810E-02 a      1620     0    81     1    20
  1.1625250934652502E-01 a      1621     0    82     1     1
  1.0389780835787127E-01 a      1622     0    82     1     2
  3.9931329646954502E-03 a      1623     0    82     1     3
