################################################################################
# Neural network connection values (weights and biases).
################################################################################
# Col  Name       Description
################################################################################
# 1    connection Neural network connection value.
# 2    t          Connection type (a = weight, b = bias).
# 3    index      Index enumerating weights.
# 4    l_s        Starting point layer (end point layer for biases).
# 5    n_s        Starting point neuron in starting layer (end point neuron for biases).
# 6    l_e        End point layer.
# 7    n_e        End point neuron in end layer.
################################################################################
#                      1 2         3     4     5     6     7
#             connection t     index   l_s   n_s   l_e   n_e
############################################################
  6.6903763586314835E-02 a         1     0     1     1     1
  4.8531693503473777E-01 a         2     0     1     1     2
  1.2385756929995591E-01 a         3     0     1     1     3
  1.4497972086330652E-01 a         4     0     1     1     4
  1.3318088493210831E-01 a         5     0     1     1     5
  8.7334494852353978E-02 a         6     0     1     1     6
 -8.5496060281904596E-02 a         7     0     1     1     7
  2.9369712271842313E-01 a         8     0     1     1     8
  3.4068072704646390E-01 a         9     0     1     1     9
 -1.3520570214454022E-01 a        10     0     1     1    10
  9.6266500260364027E-02 a        11     0     1     1    11
 -3.6883013902440850E-02 a        12     0     1     1    12
 -2.2149343495883103E-01 a        13     0     1     1    13
 -1.6562189772285879E-01 a        14     0     1     1    14
 -4.9965223853000834E-01 a        15     0     1     1    15
  1.3912656578614829E-01 a        16     0     1     1    16
  1.5628430649214702E-02 a        17     0     1     1    17
  6.4187373519618074E-01 a        18     0     1     1    18
 -1.5952650942155452E-01 a        19     0     1     1    19
  3.4574260206888718E-01 a        20     0     1     1    20
 -1.9080186507747468E-01 a        21     0     2     1     1
  1.0153349334430624E-01 a        22     0     2     1     2
  2.8398952367530883E-01 a        23     0     2     1     3
 -1.0889461932653874E-01 a        24     0     2     1     4
  1.8158417929142451E-01 a        25     0     2     1     5
  1.1482479343919806E-02 a        26     0     2     1     6
  2.1310110078379585E-01 a        27     0     2     1     7
  1.5423591854208868E-01 a        28     0     2     1     8
  5.1811683873275095E-02 a        29     0     2     1     9
 -6.8243583479779851E-02 a        30     0     2     1    10
 -2.0634373347178564E-01 a        31     0     2     1    11
 -3.9402890220277521E-02 a        32     0     2     1    12
  1.9561088412068919E-01 a        33     0     2     1    13
 -1.8844773515994451E-01 a        34     0     2     1    14
  1.6742486830213940E-01 a        35     0     2     1    15
 -3.0785237745272709E-01 a        36     0     2     1    16
  7.4411300915581194E-02 a        37     0     2     1    17
  5.6792723955211261E-02 a        38     0     2     1    18
  1.7745563806393025E-01 a        39     0     2     1    19
  6.4866261392199934E-02 a        40     0     2     1    20
 -1.2534303740075683E-01 a        41     0     3     1     1
  1.6587112999037945E-01 a        42     0     3     1     2
 -1.7724490684797323E-01 a        43     0     3     1     3
  1.8842839463823501E-02 a        44     0     3     1     4
  1.5175823653639031E-01 a        45     0     3     1     5
 -1.1318630842706114E-01 a        46     0     3     1     6
 -5.7678824101913884E-02 a        47     0     3     1     7
  2.0653443592724882E-01 a        48     0     3     1     8
 -1.1366180732908360E-01 a        49     0     3     1     9
  2.1140644025092262E-01 a        50     0     3     1    10
  1.1018614835071931E-01 a        51     0     3     1    11
 -1.3640858923266342E-02 a        52     0     3     1    12
 -1.3531205090749232E-01 a        53     0     3     1    13
  6.1698657382293701E-02 a        54     0     3     1    14
  2.3410178209858307E-01 a        55     0     3     1    15
 -5.1371977480237509E-02 a        56     0     3     1    16
 -1.7999998333101128E-01 a        57     0     3     1    17
  4.6118267807283106E-02 a        58     0     3     1    18
  1.7182395806144546E-01 a        59     0     3     1    19
  1.9764764846149269E-02 a        60     0     3     1    20
 -1.4952529607226664E-01 a        61     0     4     1     1
  9.8193098119678843E-02 a        62     0     4     1     2
  1.6781866961394862E-01 a        63     0     4     1     3
 -8.2724825880385780E-02 a        64     0     4     1     4
  4.1611420171344435E-02 a        65     0     4     1     5
  1.8486349328114707E-01 a        66     0     4     1     6
 -2.3620621364901628E-02 a        67     0     4     1     7
 -4.7832147527072676E-02 a        68     0     4     1     8
  1.2190770575771620E-01 a        69     0     4     1     9
  9.9277187227574504E-02 a        70     0     4     1    10
 -7.0929061995126056E-03 a        71     0     4     1    11
 -6.2883025142714724E-02 a        72     0     4     1    12
  1.0758652505217926E-01 a        73     0     4     1    13
  1.2271513509981896E-01 a        74     0     4     1    14
 -6.8197153044930195E-02 a        75     0     4     1    15
  8.0926580647594393E-02 a        76     0     4     1    16
 -1.0979970249952477E-01 a        77     0     4     1    17
  3.8053018965277713E-02 a        78     0     4     1    18
 -1.2451211831520084E-01 a        79     0     4     1    19
 -1.0422056662264267E-02 a        80     0     4     1    20
  7.0765615252968650E-02 a        81     0     5     1     1
  7.1260763329940746E-02 a        82     0     5     1     2
 -1.7572879933018085E-01 a        83     0     5     1     3
 -5.0834715556872231E-02 a        84     0     5     1     4
 -4.8290167500749305E-02 a        85     0     5     1     5
  1.6128047061813533E-01 a        86     0     5     1     6
 -3.9666032494032250E-02 a        87     0     5     1     7
 -2.1558460385050351E-02 a        88     0     5     1     8
 -4.5665366699613429E-02 a        89     0     5     1     9
 -9.7121964848610687E-02 a        90     0     5     1    10
  4.3914128916187241E-02 a        91     0     5     1    11
 -9.4204630273039769E-02 a        92     0     5     1    12
  1.5647528833041935E-02 a        93     0     5     1    13
 -8.7085945330083229E-04 a        94     0     5     1    14
 -5.1054173526297049E-02 a        95     0     5     1    15
 -1.6093432260195006E-02 a        96     0     5     1    16
  4.2463116534432484E-04 a        97     0     5     1    17
 -2.8854039696087432E-02 a        98     0     5     1    18
  5.2288762455539275E-02 a        99     0     5     1    19
 -8.5110184535544059E-02 a       100     0     5     1    20
 -2.6315721684868315E-01 a       101     0     6     1     1
 -2.2597617893488492E-01 a       102     0     6     1     2
 -2.6054710262723502E-01 a       103     0     6     1     3
  1.8253207917955244E-01 a       104     0     6     1     4
  5.0295247915738706E-01 a       105     0     6     1     5
  3.2637291151403752E-01 a       106     0     6     1     6
  1.3664767362395596E-02 a       107     0     6     1     7
  1.1187954325989191E-01 a       108     0     6     1     8
 -2.6533406871613668E-01 a       109     0     6     1     9
  9.8118985261352834E-02 a       110     0     6     1    10
  1.0196397753550895E-03 a       111     0     6     1    11
  2.9461681051621186E-01 a       112     0     6     1    12
  3.4547500335711939E-01 a       113     0     6     1    13
 -9.9911244478421302E-03 a       114     0     6     1    14
  4.9445184257838337E-01 a       115     0     6     1    15
 -3.2693749378300101E-02 a       116     0     6     1    16
  3.0279700648892643E-01 a       117     0     6     1    17
 -9.4668146356056515E-01 a       118     0     6     1    18
 -6.8671334577985776E-01 a       119     0     6     1    19
 -4.0197566100895682E-01 a       120     0     6     1    20
  3.4744229676849092E-02 a       121     0     7     1     1
  2.5958870656400956E-01 a       122     0     7     1     2
  1.5619378802569100E-01 a       123     0     7     1     3
  2.5105037365160607E-02 a       124     0     7     1     4
 -1.8631668387738273E-01 a       125     0     7     1     5
 -6.0969190649930685E-02 a       126     0     7     1     6
 -1.0972649635587561E-01 a       127     0     7     1     7
  2.4736413626247827E-02 a       128     0     7     1     8
 -1.4726923856169261E-01 a       129     0     7     1     9
  6.4840633662514293E-03 a       130     0     7     1    10
  5.3906526040471386E-02 a       131     0     7     1    11
 -5.6965011000772670E-02 a       132     0     7     1    12
  8.8348982157919892E-02 a       133     0     7     1    13
 -1.8204813187885985E-02 a       134     0     7     1    14
  5.5198679857464641E-02 a       135     0     7     1    15
  2.4667104129301040E-01 a       136     0     7     1    16
 -1.1749103190451586E-01 a       137     0     7     1    17
 -1.6159002170707624E-02 a       138     0     7     1    18
 -5.4145423608013769E-02 a       139     0     7     1    19
 -1.5642193793320674E-01 a       140     0     7     1    20
  4.1709065766899296E-03 a       141     0     8     1     1
 -1.4517447562281541E-01 a       142     0     8     1     2
  9.8731507692535150E-02 a       143     0     8     1     3
 -1.8114042687618667E-01 a       144     0     8     1     4
 -1.6212632624936971E-01 a       145     0     8     1     5
  4.8791508862415373E-02 a       146     0     8     1     6
  1.2388679718052130E-01 a       147     0     8     1     7
 -4.9989151815894313E-02 a       148     0     8     1     8
  1.1825727908535395E-01 a       149     0     8     1     9
 -5.0114811648475914E-02 a       150     0     8     1    10
 -4.6975522577881346E-02 a       151     0     8     1    11
  1.8214919451988856E-01 a       152     0     8     1    12
  2.4734419269618529E-02 a       153     0     8     1    13
 -4.7286843031973294E-02 a       154     0     8     1    14
 -1.6567580756695791E-01 a       155     0     8     1    15
  1.7513305495647594E-01 a       156     0     8     1    16
  2.1084800473137982E-01 a       157     0     8     1    17
 -2.5499972220700089E-02 a       158     0     8     1    18
  9.2984376706022137E-02 a       159     0     8     1    19
  2.3004273135279890E-02 a       160     0     8     1    20
 -7.8514297156137725E-02 a       161     0     9     1     1
 -3.3911075802102501E-02 a       162     0     9     1     2
  1.4516087448832823E-01 a       163     0     9     1     3
  1.2493293416058390E-02 a       164     0     9     1     4
  5.0859266979848508E-02 a       165     0     9     1     5
  1.3403696085528327E-01 a       166     0     9     1     6
  1.8058744029009968E-01 a       167     0     9     1     7
  7.2448354092416178E-02 a       168     0     9     1     8
  1.1167007513304746E-01 a       169     0     9     1     9
  6.0519876599367028E-02 a       170     0     9     1    10
  5.8799997557267544E-02 a       171     0     9     1    11
 -1.8819317831644305E-01 a       172     0     9     1    12
 -9.7164987493330149E-02 a       173     0     9     1    13
  8.4150043276528849E-02 a       174     0     9     1    14
  7.2209692058065073E-02 a       175     0     9     1    15
 -7.2374551990095487E-02 a       176     0     9     1    16
 -1.4559357323084294E-02 a       177     0     9     1    17
  6.9043285975900537E-02 a       178     0     9     1    18
  1.5076587888143056E-01 a       179     0     9     1    19
  2.3901687118385674E-02 a       180     0     9     1    20
 -1.1242611534061295E-01 a       181     0    10     1     1
 -9.9913462104179757E-02 a       182     0    10     1     2
  4.3625497295896189E-02 a       183     0    10     1     3
  1.5596646718201188E-01 a       184     0    10     1     4
  4.9444014206153880E-02 a       185     0    10     1     5
  5.3662421679096593E-02 a       186     0    10     1     6
 -1.7354053713027870E-01 a       187     0    10     1     7
 -8.1066630692337965E-02 a       188     0    10     1     8
  4.6713726931948446E-02 a       189     0    10     1     9
  1.1759631864642865E-01 a       190     0    10     1    10
 -1.4085765501022257E-01 a       191     0    10     1    11
  2.1153873535447804E-01 a       192     0    10     1    12
 -1.3154566270978604E-01 a       193     0    10     1    13
  2.6083527009719704E-01 a       194     0    10     1    14
 -3.4358424592294518E-02 a       195     0    10     1    15
  1.5293289241213234E-01 a       196     0    10     1    16
  2.3483030506329802E-01 a       197     0    10     1    17
  7.6808716047397446E-02 a       198     0    10     1    18
 -2.7413808316287668E-02 a       199     0    10     1    19
  1.3469301437841127E-01 a       200     0    10     1    20
  3.9217957287468097E-01 a       201     0    11     1     1
  7.9920388275391385E-02 a       202     0    11     1     2
 -2.3013006957081217E-01 a       203     0    11     1     3
 -1.0152916827076731E-01 a       204     0    11     1     4
  7.8162368652682002E-02 a       205     0    11     1     5
 -3.1503880166861747E-01 a       206     0    11     1     6
  1.6086420975387777E-01 a       207     0    11     1     7
  2.9891517939767515E-01 a       208     0    11     1     8
 -1.4646648150284075E-01 a       209     0    11     1     9
 -1.4706870027899452E-01 a       210     0    11     1    10
 -2.2366814250004893E-01 a       211     0    11     1    11
  2.6662504595397155E-02 a       212     0    11     1    12
 -1.3539430525733029E-01 a       213     0    11     1    13
 -2.3480433867903630E-01 a       214     0    11     1    14
 -9.0748866545689449E-02 a       215     0    11     1    15
 -1.4039171812546622E-01 a       216     0    11     1    16
 -1.5624439501256895E-01 a       217     0    11     1    17
  3.2038285679638223E-01 a       218     0    11     1    18
  1.9093740547706212E-02 a       219     0    11     1    19
  7.5013377489440938E-02 a       220     0    11     1    20
  3.7545305681434749E-01 a       221     0    12     1     1
 -1.8100280558467194E-01 a       222     0    12     1     2
 -1.6898910922163252E-01 a       223     0    12     1     3
  1.2675749851422638E-01 a       224     0    12     1     4
  1.0674559419093146E-01 a       225     0    12     1     5
 -1.7436840765272665E-01 a       226     0    12     1     6
  1.2509402222735580E-01 a       227     0    12     1     7
 -4.3946892223561990E-02 a       228     0    12     1     8
  5.1549296356059988E-02 a       229     0    12     1     9
 -5.5377773605410456E-02 a       230     0    12     1    10
 -1.9947829475976331E-01 a       231     0    12     1    11
  6.0978396283233932E-03 a       232     0    12     1    12
  7.6260670444187967E-02 a       233     0    12     1    13
 -4.6445841722628160E-02 a       234     0    12     1    14
  2.2505106918391204E-01 a       235     0    12     1    15
 -1.1534096193864521E-01 a       236     0    12     1    16
  3.2446146874548117E-02 a       237     0    12     1    17
  2.6809801659314936E-01 a       238     0    12     1    18
 -1.0014554512844004E-01 a       239     0    12     1    19
  3.6175555595948435E-02 a       240     0    12     1    20
  7.3802533763218173E-02 a       241     0    13     1     1
 -1.2516444662178394E-02 a       242     0    13     1     2
 -5.1777238156992316E-03 a       243     0    13     1     3
 -1.3364323196271305E-01 a       244     0    13     1     4
 -2.6984136619825688E-01 a       245     0    13     1     5
 -1.8207789821731271E-01 a       246     0    13     1     6
 -1.0068835864131133E-01 a       247     0    13     1     7
 -1.8254583987289266E-01 a       248     0    13     1     8
  6.4943443652969862E-02 a       249     0    13     1     9
 -1.3164947698131951E-01 a       250     0    13     1    10
  2.7785716706707559E-02 a       251     0    13     1    11
 -5.6715330212168791E-02 a       252     0    13     1    12
  1.5708474834208827E-01 a       253     0    13     1    13
 -6.3751510953916471E-02 a       254     0    13     1    14
  3.8460576087778822E-02 a       255     0    13     1    15
  1.2503076680676437E-01 a       256     0    13     1    16
  1.2212982084908117E-01 a       257     0    13     1    17
  8.5281381348145557E-02 a       258     0    13     1    18
 -6.9260144701371110E-02 a       259     0    13     1    19
  1.3852407392376399E-02 a       260     0    13     1    20
  1.4585738975463977E-01 a       261     0    14     1     1
  1.8757638555807599E-01 a       262     0    14     1     2
 -1.9053643218854438E-01 a       263     0    14     1     3
  7.3199722707510961E-02 a       264     0    14     1     4
 -8.6937078410296298E-02 a       265     0    14     1     5
 -1.0299374834434702E-01 a       266     0    14     1     6
  1.6239382037664191E-01 a       267     0    14     1     7
  2.1415900349845410E-01 a       268     0    14     1     8
 -1.5625167305791471E-01 a       269     0    14     1     9
 -6.9327847343257129E-02 a       270     0    14     1    10
  1.8266835154524969E-01 a       271     0    14     1    11
  6.9994261305789715E-02 a       272     0    14     1    12
  1.9058264900840330E-01 a       273     0    14     1    13
 -2.1314274770732070E-01 a       274     0    14     1    14
 -1.8192439402739732E-02 a       275     0    14     1    15
  2.3949084025159360E-02 a       276     0    14     1    16
  5.2290454226829791E-02 a       277     0    14     1    17
  5.5953100067176013E-02 a       278     0    14     1    18
 -9.9851957261044746E-02 a       279     0    14     1    19
  3.7923285372452598E-02 a       280     0    14     1    20
  1.3304073162420774E-02 a       281     0    15     1     1
  1.0751684085807155E-01 a       282     0    15     1     2
  1.5206904722419518E-01 a       283     0    15     1     3
 -2.0211135647915043E-01 a       284     0    15     1     4
  1.4146735475865135E-01 a       285     0    15     1     5
  1.0143718490213610E-01 a       286     0    15     1     6
 -8.6650072881789969E-02 a       287     0    15     1     7
  4.1938511748787821E-02 a       288     0    15     1     8
  2.4670461827760568E-01 a       289     0    15     1     9
  4.7074139610820687E-02 a       290     0    15     1    10
 -1.7044782186744667E-01 a       291     0    15     1    11
  7.0317853015303073E-03 a       292     0    15     1    12
 -3.1849448291595716E-03 a       293     0    15     1    13
  8.6959149449808454E-02 a       294     0    15     1    14
  2.0217053799203469E-02 a       295     0    15     1    15
 -6.4353740348948862E-02 a       296     0    15     1    16
  2.8429959189311505E-02 a       297     0    15     1    17
  1.9839795968249040E-02 a       298     0    15     1    18
 -2.5379583396159137E-02 a       299     0    15     1    19
 -2.1475051444280083E-01 a       300     0    15     1    20
 -3.6550781613089611E-01 a       301     0    16     1     1
 -2.1873192551813535E-02 a       302     0    16     1     2
  2.6372330282917689E-02 a       303     0    16     1     3
  6.8758830075686783E-02 a       304     0    16     1     4
  1.0135426221471938E-01 a       305     0    16     1     5
  3.1841324332800519E-01 a       306     0    16     1     6
  6.9539886841894549E-02 a       307     0    16     1     7
  1.8754318935065337E-02 a       308     0    16     1     8
 -2.8999801211781584E-01 a       309     0    16     1     9
  1.4510705788560788E-01 a       310     0    16     1    10
  3.6691923356939654E-01 a       311     0    16     1    11
  3.0474531445179281E-01 a       312     0    16     1    12
  5.0995022900880915E-01 a       313     0    16     1    13
 -4.0898701206650533E-02 a       314     0    16     1    14
  3.3360555635610195E-01 a       315     0    16     1    15
 -5.6267884268730445E-02 a       316     0    16     1    16
  1.0724527389158941E-02 a       317     0    16     1    17
 -2.8486210754992414E-01 a       318     0    16     1    18
 -2.8857962162710471E-01 a       319     0    16     1    19
  1.6893050043477090E-01 a       320     0    16     1    20
  4.3864221685379852E-02 a       321     0    17     1     1
 -7.3257483807824472E-02 a       322     0    17     1     2
  7.4549861031592765E-02 a       323     0    17     1     3
  5.9800029237936911E-02 a       324     0    17     1     4
 -1.6617924934900857E-02 a       325     0    17     1     5
  2.2195974247297839E-02 a       326     0    17     1     6
 -3.4447751674179392E-02 a       327     0    17     1     7
  9.2874232221522968E-02 a       328     0    17     1     8
 -1.5250217178290948E-01 a       329     0    17     1     9
 -1.2072127266320984E-01 a       330     0    17     1    10
 -1.2297030097635317E-01 a       331     0    17     1    11
  1.2987198387960273E-02 a       332     0    17     1    12
 -2.7654420015561798E-01 a       333     0    17     1    13
 -1.1860169713159173E-01 a       334     0    17     1    14
 -1.0617661410143089E-01 a       335     0    17     1    15
 -1.4106665024904846E-01 a       336     0    17     1    16
  9.0947483101749840E-02 a       337     0    17     1    17
 -6.7329534352781120E-02 a       338     0    17     1    18
 -1.4760394959711604E-01 a       339     0    17     1    19
 -4.0724243464667657E-03 a       340     0    17     1    20
 -8.8203125744815009E-02 a       341     0    18     1     1
 -3.8313632488684517E-02 a       342     0    18     1     2
  1.1437246147564997E-01 a       343     0    18     1     3
  2.7534617655529982E-02 a       344     0    18     1     4
  1.8539996823966004E-01 a       345     0    18     1     5
 -1.7929929799344640E-01 a       346     0    18     1     6
 -9.4819883217868023E-02 a       347     0    18     1     7
  1.8172769729416757E-01 a       348     0    18     1     8
  1.3908302082212395E-01 a       349     0    18     1     9
 -6.8420766424332716E-02 a       350     0    18     1    10
  1.2396979854137432E-02 a       351     0    18     1    11
  6.6015755324619660E-02 a       352     0    18     1    12
  4.7666932669742569E-02 a       353     0    18     1    13
 -4.9943765271126997E-02 a       354     0    18     1    14
 -2.7915060839083215E-02 a       355     0    18     1    15
  5.0466683445251917E-02 a       356     0    18     1    16
  1.2842121831962044E-01 a       357     0    18     1    17
 -3.2970017614251657E-01 a       358     0    18     1    18
  1.6327763924880886E-01 a       359     0    18     1    19
 -1.7812098088172459E-01 a       360     0    18     1    20
 -2.2078155433663618E-01 a       361     0    19     1     1
  5.8192607994544447E-02 a       362     0    19     1     2
  1.3986793056594346E-01 a       363     0    19     1     3
  2.3282389435983462E-02 a       364     0    19     1     4
 -4.2750056164625620E-02 a       365     0    19     1     5
  1.1105216107045497E-01 a       366     0    19     1     6
  1.1883064550575521E-01 a       367     0    19     1     7
  2.9706777322439142E-02 a       368     0    19     1     8
  3.1877942871741602E-02 a       369     0    19     1     9
 -1.0387043881637038E-01 a       370     0    19     1    10
  1.9168150110946136E-01 a       371     0    19     1    11
 -1.7851193802686677E-01 a       372     0    19     1    12
  1.3614238931320302E-01 a       373     0    19     1    13
 -2.6228932739909944E-01 a       374     0    19     1    14
  7.9491212443846521E-02 a       375     0    19     1    15
  2.1578180370665008E-02 a       376     0    19     1    16
 -1.6418730157829787E-02 a       377     0    19     1    17
  1.4363265723202948E-01 a       378     0    19     1    18
  1.3646263951525164E-01 a       379     0    19     1    19
  1.4427492166182601E-02 a       380     0    19     1    20
  3.0114142237230065E-02 a       381     0    20     1     1
  1.1956438000827814E-01 a       382     0    20     1     2
 -9.8781196822692360E-02 a       383     0    20     1     3
  5.5968485651595935E-02 a       384     0    20     1     4
  7.7338937647726300E-02 a       385     0    20     1     5
 -1.6607754923497783E-01 a       386     0    20     1     6
 -5.4482852512425829E-02 a       387     0    20     1     7
  4.9099104314289280E-02 a       388     0    20     1     8
  8.1732597525433798E-02 a       389     0    20     1     9
 -3.2423014063905770E-02 a       390     0    20     1    10
 -8.5380440076672139E-03 a       391     0    20     1    11
  7.1136521658254237E-02 a       392     0    20     1    12
  5.9708197817083801E-02 a       393     0    20     1    13
  8.2466374473635237E-02 a       394     0    20     1    14
 -2.8711737118650858E-02 a       395     0    20     1    15
  8.0746668845848135E-02 a       396     0    20     1    16
  8.3159985591610114E-02 a       397     0    20     1    17
 -8.0112830977367419E-02 a       398     0    20     1    18
 -3.6268708054387186E-02 a       399     0    20     1    19
  1.1373913273787332E-01 a       400     0    20     1    20
  2.2854017822462047E-01 a       401     0    21     1     1
 -1.5699144124779504E-01 a       402     0    21     1     2
  1.3767971723536210E-01 a       403     0    21     1     3
 -3.3471505309680759E-02 a       404     0    21     1     4
 -2.0026900632944770E-03 a       405     0    21     1     5
  2.3206481535427551E-01 a       406     0    21     1     6
  2.7748226218729094E-01 a       407     0    21     1     7
  7.6477217635155775E-02 a       408     0    21     1     8
 -2.9938283256207422E-03 a       409     0    21     1     9
 -4.4122032333284216E-03 a       410     0    21     1    10
 -3.9856750214350513E-02 a       411     0    21     1    11
 -6.7776902396472693E-03 a       412     0    21     1    12
 -1.4039027867998172E-01 a       413     0    21     1    13
 -3.7014492321242071E-02 a       414     0    21     1    14
  1.2979996961019774E-01 a       415     0    21     1    15
 -1.3278785688109068E-02 a       416     0    21     1    16
 -1.2353485446836258E-01 a       417     0    21     1    17
  3.2386831315069781E-01 a       418     0    21     1    18
  5.1700003718400916E-02 a       419     0    21     1    19
  3.2272836698046842E-01 a       420     0    21     1    20
  2.2008451102722783E-02 a       421     0    22     1     1
  1.1785383133907321E-01 a       422     0    22     1     2
 -5.7499944450765013E-02 a       423     0    22     1     3
 -6.3307050207809107E-02 a       424     0    22     1     4
  2.4163522475489731E-02 a       425     0    22     1     5
  1.0760018996659353E-01 a       426     0    22     1     6
 -6.9711390053005681E-02 a       427     0    22     1     7
  1.4734220343780953E-04 a       428     0    22     1     8
  1.9713344732899728E-02 a       429     0    22     1     9
  1.0882105538157709E-01 a       430     0    22     1    10
  5.1360639463838419E-02 a       431     0    22     1    11
 -1.5676135908570632E-01 a       432     0    22     1    12
  3.3920013064549420E-01 a       433     0    22     1    13
  1.1923346384311859E-01 a       434     0    22     1    14
  8.9674320811598471E-02 a       435     0    22     1    15
 -7.9015728998291540E-02 a       436     0    22     1    16
  4.8055096771206257E-02 a       437     0    22     1    17
 -1.7170947270996631E-01 a       438     0    22     1    18
  2.5240578698859917E-01 a       439     0    22     1    19
 -7.2525134126735155E-02 a       440     0    22     1    20
  5.6460454984054729E-03 a       441     0    23     1     1
 -2.1054293763632964E-02 a       442     0    23     1     2
  2.5191040862232478E-02 a       443     0    23     1     3
  7.8816278852963370E-02 a       444     0    23     1     4
 -1.3466254953394455E-01 a       445     0    23     1     5
 -1.6164549245428289E-01 a       446     0    23     1     6
 -9.7116005505068187E-02 a       447     0    23     1     7
 -7.2565697939992707E-02 a       448     0    23     1     8
  3.9127917416782301E-02 a       449     0    23     1     9
  3.3256064965667249E-02 a       450     0    23     1    10
 -2.0040666566758847E-01 a       451     0    23     1    11
 -1.7820490965416452E-01 a       452     0    23     1    12
 -5.3929901777435146E-02 a       453     0    23     1    13
 -9.8841072094274035E-02 a       454     0    23     1    14
  8.0062953577534013E-02 a       455     0    23     1    15
  8.5727958627532880E-02 a       456     0    23     1    16
  4.4927855881671905E-02 a       457     0    23     1    17
 -1.8964829701597524E-01 a       458     0    23     1    18
  8.6368628101601078E-02 a       459     0    23     1    19
 -3.1429345365650879E-01 a       460     0    23     1    20
  3.8448617096186473E-02 a       461     0    24     1     1
 -2.9460991532580267E-02 a       462     0    24     1     2
 -1.1058993210270462E-01 a       463     0    24     1     3
  1.1885183388454639E-02 a       464     0    24     1     4
 -1.2384472658390109E-02 a       465     0    24     1     5
  1.4928996249571986E-02 a       466     0    24     1     6
  2.4197344400610823E-01 a       467     0    24     1     7
  1.5617804187000955E-01 a       468     0    24     1     8
  1.0905064679458473E-01 a       469     0    24     1     9
  1.4289394229548733E-01 a       470     0    24     1    10
  1.2710759531777949E-01 a       471     0    24     1    11
 -1.2643955015221798E-02 a       472     0    24     1    12
  8.1210514318798249E-02 a       473     0    24     1    13
  2.0909700958808765E-02 a       474     0    24     1    14
 -4.8174326942475587E-03 a       475     0    24     1    15
  7.3676845901914811E-02 a       476     0    24     1    16
 -9.2933767030776437E-03 a       477     0    24     1    17
  1.6272522755772004E-01 a       478     0    24     1    18
 -2.2764752897852494E-01 a       479     0    24     1    19
  2.9884510421997815E-02 a       480     0    24     1    20
 -1.0688595533774631E-01 a       481     0    25     1     1
  2.0179346305560880E-01 a       482     0    25     1     2
 -2.0847238822276387E-01 a       483     0    25     1     3
 -2.6597214819431395E-02 a       484     0    25     1     4
  5.8327969630900048E-02 a       485     0    25     1     5
 -6.3944505107356026E-02 a       486     0    25     1     6
 -1.2232047037996800E-01 a       487     0    25     1     7
 -2.0203691156820445E-02 a       488     0    25     1     8
  1.0857587464394980E-01 a       489     0    25     1     9
  2.0937214510208350E-02 a       490     0    25     1    10
  4.1077059001000220E-02 a       491     0    25     1    11
  1.4631664527620181E-02 a       492     0    25     1    12
 -1.9566497332166286E-02 a       493     0    25     1    13
 -3.1015528980024797E-03 a       494     0    25     1    14
 -6.3638402447869502E-02 a       495     0    25     1    15
  7.1096849413763374E-02 a       496     0    25     1    16
  7.7261666004899671E-02 a       497     0    25     1    17
 -1.3899360353024842E-01 a       498     0    25     1    18
  1.2504669847989236E-01 a       499     0    25     1    19
 -2.5076846746927900E-01 a       500     0    25     1    20
 -2.0990943970981232E-01 a       501     0    26     1     1
  1.0165069513643075E-01 a       502     0    26     1     2
 -5.9401124671524773E-02 a       503     0    26     1     3
 -2.0047739848310622E-02 a       504     0    26     1     4
  2.9791255143838691E-01 a       505     0    26     1     5
  1.4969570479489511E-01 a       506     0    26     1     6
 -4.1109546707301541E-02 a       507     0    26     1     7
  3.4960597799079347E-02 a       508     0    26     1     8
 -2.0382552534051655E-02 a       509     0    26     1     9
 -1.5566883581513799E-01 a       510     0    26     1    10
  2.9744805902854698E-01 a       511     0    26     1    11
  1.6444823258697969E-01 a       512     0    26     1    12
  2.5218229543457510E-01 a       513     0    26     1    13
  2.1854220306208835E-01 a       514     0    26     1    14
  1.1486151482555786E-01 a       515     0    26     1    15
 -3.3079738975049975E-03 a       516     0    26     1    16
 -1.2207072360969032E-01 a       517     0    26     1    17
  8.6891856299617903E-02 a       518     0    26     1    18
 -1.3425034017061357E-01 a       519     0    26     1    19
  1.9100624587697876E-01 a       520     0    26     1    20
  7.1859777858252080E-02 a       521     0    27     1     1
  9.0699709284934663E-02 a       522     0    27     1     2
 -1.1461554961946499E-02 a       523     0    27     1     3
  1.0969676013861276E-01 a       524     0    27     1     4
 -3.2779155268493003E-02 a       525     0    27     1     5
 -1.7174127384443454E-02 a       526     0    27     1     6
  2.1400930817069794E-01 a       527     0    27     1     7
  8.9347581695489470E-03 a       528     0    27     1     8
  1.0601748963336630E-01 a       529     0    27     1     9
  7.4842859564348094E-02 a       530     0    27     1    10
 -1.2169452083009114E-02 a       531     0    27     1    11
  7.0975478553069928E-03 a       532     0    27     1    12
  3.3038163260081431E-02 a       533     0    27     1    13
 -1.9801373186768223E-01 a       534     0    27     1    14
 -1.8474949334444584E-02 a       535     0    27     1    15
 -2.7895266948031943E-02 a       536     0    27     1    16
 -5.0202207136833155E-02 a       537     0    27     1    17
  1.0195579280991036E-01 a       538     0    27     1    18
 -8.2341693558340978E-02 a       539     0    27     1    19
  4.6033816366057217E-02 a       540     0    27     1    20
  1.5002399992948751E-01 a       541     0    28     1     1
  3.8734347997211101E-02 a       542     0    28     1     2
 -6.1826604332214263E-02 a       543     0    28     1     3
  3.2011444813908094E-02 a       544     0    28     1     4
 -3.9451997147180967E-01 a       545     0    28     1     5
 -5.1330865371879530E-02 a       546     0    28     1     6
  7.8377412787295597E-02 a       547     0    28     1     7
  6.0667468528942683E-02 a       548     0    28     1     8
 -1.6684430658493996E-03 a       549     0    28     1     9
  1.9827614563902576E-01 a       550     0    28     1    10
 -2.0935710114742848E-01 a       551     0    28     1    11
  7.2092197412059508E-02 a       552     0    28     1    12
 -9.0633232087665924E-02 a       553     0    28     1    13
 -9.5329460479780720E-02 a       554     0    28     1    14
 -1.4154368612288656E-01 a       555     0    28     1    15
  8.5820408926303108E-03 a       556     0    28     1    16
  1.8323882992539262E-01 a       557     0    28     1    17
 -3.3890921156136000E-01 a       558     0    28     1    18
  7.6501949638593136E-02 a       559     0    28     1    19
 -1.9847581029882416E-01 a       560     0    28     1    20
 -4.8977990081875145E-02 a       561     0    29     1     1
 -6.9761694855791936E-02 a       562     0    29     1     2
  7.4839342965451833E-02 a       563     0    29     1     3
 -5.9848602243987303E-03 a       564     0    29     1     4
  2.7249912013384801E-02 a       565     0    29     1     5
  1.7527508092311675E-01 a       566     0    29     1     6
  5.5330825440323096E-03 a       567     0    29     1     7
  1.1061239510715077E-02 a       568     0    29     1     8
 -1.7425257204032926E-01 a       569     0    29     1     9
 -1.2673745444552606E-01 a       570     0    29     1    10
  6.3935039070704233E-02 a       571     0    29     1    11
  7.8223351624962217E-02 a       572     0    29     1    12
 -5.9447415532957570E-02 a       573     0    29     1    13
 -1.1973211258563005E-02 a       574     0    29     1    14
 -3.8185871765101117E-03 a       575     0    29     1    15
  7.6097671850189660E-02 a       576     0    29     1    16
  2.5382686556650037E-02 a       577     0    29     1    17
  9.0057971487032096E-02 a       578     0    29     1    18
  3.4008807151438065E-02 a       579     0    29     1    19
  3.9316208741427293E-02 a       580     0    29     1    20
  7.1984154336626943E-02 a       581     0    30     1     1
  7.6389637234217295E-02 a       582     0    30     1     2
  1.4333425086450030E-01 a       583     0    30     1     3
 -4.7709814949608281E-03 a       584     0    30     1     4
 -2.3922556144293500E-01 a       585     0    30     1     5
  1.3429206517673389E-01 a       586     0    30     1     6
  7.0040565681008735E-02 a       587     0    30     1     7
  8.1960714158216930E-02 a       588     0    30     1     8
  8.7588112927820941E-02 a       589     0    30     1     9
  2.0347030852356829E-01 a       590     0    30     1    10
 -1.4031482380571042E-01 a       591     0    30     1    11
  4.3524560506589274E-02 a       592     0    30     1    12
 -2.4795566058811652E-02 a       593     0    30     1    13
 -3.1303397520802004E-03 a       594     0    30     1    14
 -1.3141945275047934E-02 a       595     0    30     1    15
  2.8455906283377012E-02 a       596     0    30     1    16
  1.9025502974478301E-01 a       597     0    30     1    17
  6.5929857016167159E-02 a       598     0    30     1    18
 -8.9820692562358806E-02 a       599     0    30     1    19
 -5.8328152564065629E-02 a       600     0    30     1    20
 -7.1915139029631092E-02 a       601     0    31     1     1
 -1.7689368939244843E-01 a       602     0    31     1     2
 -2.6662531688376269E-02 a       603     0    31     1     3
  2.2653199462977714E-02 a       604     0    31     1     4
 -6.0565772288858739E-02 a       605     0    31     1     5
 -1.3302701678538916E-02 a       606     0    31     1     6
  4.7026687118824725E-02 a       607     0    31     1     7
 -9.4441271196316449E-03 a       608     0    31     1     8
 -1.3045637851329069E-02 a       609     0    31     1     9
  1.4959857130628527E-02 a       610     0    31     1    10
  1.9027386123949377E-01 a       611     0    31     1    11
  2.9050717963609321E-02 a       612     0    31     1    12
 -1.9356489604538277E-01 a       613     0    31     1    13
 -5.9763011479303539E-02 a       614     0    31     1    14
  7.1512915823304574E-02 a       615     0    31     1    15
  1.8489035347979479E-01 a       616     0    31     1    16
  8.2227006261249749E-02 a       617     0    31     1    17
  1.0354427251184035E-01 a       618     0    31     1    18
  1.2072134541240771E-01 a       619     0    31     1    19
  1.7922033729363768E-01 a       620     0    31     1    20
 -5.4978779563228580E-02 a       621     0    32     1     1
 -1.3602682667084162E-01 a       622     0    32     1     2
  4.0093279765075845E-02 a       623     0    32     1     3
 -6.8651337079667141E-02 a       624     0    32     1     4
  2.0007499768974851E-01 a       625     0    32     1     5
 -8.7632776313649283E-02 a       626     0    32     1     6
 -7.7815364136124818E-02 a       627     0    32     1     7
 -3.7420653577892420E-02 a       628     0    32     1     8
 -4.1581510033654977E-02 a       629     0    32     1     9
  9.0377893956407704E-02 a       630     0    32     1    10
 -7.4659994377880290E-02 a       631     0    32     1    11
  7.5843065145279026E-02 a       632     0    32     1    12
 -5.1245964493153294E-02 a       633     0    32     1    13
  6.8494763402076886E-02 a       634     0    32     1    14
  5.2047597769914800E-02 a       635     0    32     1    15
  9.4297181834000154E-02 a       636     0    32     1    16
  7.1111376912032537E-02 a       637     0    32     1    17
  5.0974404107205572E-02 a       638     0    32     1    18
 -2.8948696927529965E-02 a       639     0    32     1    19
 -4.9724882371911895E-02 a       640     0    32     1    20
  4.7857486277764233E-02 a       641     0    33     1     1
  1.8358499845254606E-03 a       642     0    33     1     2
 -3.9242536099007394E-02 a       643     0    33     1     3
  1.5512818803806012E-02 a       644     0    33     1     4
 -1.7717798760819853E-01 a       645     0    33     1     5
  1.2491269698408307E-01 a       646     0    33     1     6
 -4.1095425110865121E-02 a       647     0    33     1     7
 -4.5639638361361673E-02 a       648     0    33     1     8
 -2.6040428870232654E-02 a       649     0    33     1     9
  2.3599039231495775E-01 a       650     0    33     1    10
 -2.5531621926774961E-01 a       651     0    33     1    11
  2.3215545707125272E-02 a       652     0    33     1    12
 -9.0501000775988966E-02 a       653     0    33     1    13
  4.2956450650799644E-02 a       654     0    33     1    14
 -2.8711130081703075E-03 a       655     0    33     1    15
 -7.7950439906299112E-03 a       656     0    33     1    16
  1.5661732569427000E-02 a       657     0    33     1    17
 -1.0618544289722151E-01 a       658     0    33     1    18
  1.2977470571527714E-02 a       659     0    33     1    19
 -2.3506113775070742E-01 a       660     0    33     1    20
 -2.0022709041660400E-02 a       661     0    34     1     1
 -1.6864848453228339E-02 a       662     0    34     1     2
 -5.0992978505999794E-05 a       663     0    34     1     3
 -6.4340692255090886E-03 a       664     0    34     1     4
 -5.1618196001869940E-02 a       665     0    34     1     5
 -6.6274608397425175E-02 a       666     0    34     1     6
 -2.8027304113416671E-02 a       667     0    34     1     7
  5.1062259707786994E-03 a       668     0    34     1     8
  5.6816824226993426E-02 a       669     0    34     1     9
  5.0108220168507751E-02 a       670     0    34     1    10
  2.0120045275102650E-03 a       671     0    34     1    11
  6.3345715556863899E-02 a       672     0    34     1    12
  4.3607220273887632E-03 a       673     0    34     1    13
 -9.1151423895094001E-03 a       674     0    34     1    14
 -1.4605459299475919E-02 a       675     0    34     1    15
  3.4957073840171347E-02 a       676     0    34     1    16
  2.7662959590548854E-02 a       677     0    34     1    17
  1.3636925072239028E-01 a       678     0    34     1    18
 -8.2789554260424447E-02 a       679     0    34     1    19
  7.0663976402022682E-02 a       680     0    34     1    20
  7.5177549432566444E-03 a       681     0    35     1     1
  2.9768359590447192E-02 a       682     0    35     1     2
 -1.5269028155119790E-01 a       683     0    35     1     3
  3.0745979907042770E-02 a       684     0    35     1     4
  2.0383110387943406E-02 a       685     0    35     1     5
 -1.9177531381018789E-01 a       686     0    35     1     6
 -1.3261457332895552E-01 a       687     0    35     1     7
 -1.4228950636375998E-02 a       688     0    35     1     8
  6.2529425287318668E-02 a       689     0    35     1     9
 -8.3247927165897725E-02 a       690     0    35     1    10
 -2.3535030827786399E-01 a       691     0    35     1    11
  6.8278447053884098E-02 a       692     0    35     1    12
 -3.8799307286589854E-02 a       693     0    35     1    13
  7.8096865660052833E-02 a       694     0    35     1    14
 -2.8474140876990552E-02 a       695     0    35     1    15
  4.6866014645693829E-02 a       696     0    35     1    16
  6.1230683018709850E-04 a       697     0    35     1    17
 -1.3946224519018438E-01 a       698     0    35     1    18
  4.0221391995768199E-02 a       699     0    35     1    19
 -6.8778477345403752E-02 a       700     0    35     1    20
 -1.3420960932182183E-02 a       701     0    36     1     1
 -8.4032844264472342E-02 a       702     0    36     1     2
  3.3134492321359565E-02 a       703     0    36     1     3
 -7.5328108677220090E-02 a       704     0    36     1     4
  3.1784755762827924E-02 a       705     0    36     1     5
 -4.1100082985748223E-04 a       706     0    36     1     6
 -8.8313057841200790E-02 a       707     0    36     1     7
  6.5122863921824772E-02 a       708     0    36     1     8
 -1.2492439521298158E-01 a       709     0    36     1     9
 -1.0625632216015173E-01 a       710     0    36     1    10
 -1.0096306744579189E-01 a       711     0    36     1    11
  1.3187394737845823E-01 a       712     0    36     1    12
  5.4578226053288860E-02 a       713     0    36     1    13
  1.8226815852050726E-01 a       714     0    36     1    14
  5.4438642615082113E-02 a       715     0    36     1    15
 -4.2617653682244572E-02 a       716     0    36     1    16
 -1.1221515017613110E-01 a       717     0    36     1    17
  1.8729626488382614E-01 a       718     0    36     1    18
 -8.1849254971527341E-02 a       719     0    36     1    19
  9.1394345685077358E-02 a       720     0    36     1    20
 -5.0663282195213134E-02 a       721     0    37     1     1
  2.1672587115290931E-01 a       722     0    37     1     2
  1.1672726656864359E-01 a       723     0    37     1     3
  5.3561436801560060E-03 a       724     0    37     1     4
  1.9750779270943725E-01 a       725     0    37     1     5
  5.6862926138381148E-03 a       726     0    37     1     6
 -1.1598186530241101E-02 a       727     0    37     1     7
  4.4675218695587313E-02 a       728     0    37     1     8
  1.0785232781341819E-01 a       729     0    37     1     9
 -9.0376907072839796E-02 a       730     0    37     1    10
 -7.4061133016963543E-02 a       731     0    37     1    11
  2.4646792668761025E-01 a       732     0    37     1    12
 -5.7744334459115539E-02 a       733     0    37     1    13
  7.4381641030842799E-02 a       734     0    37     1    14
 -5.9761896089593210E-02 a       735     0    37     1    15
  9.6490895889056821E-02 a       736     0    37     1    16
 -8.8766848101445112E-02 a       737     0    37     1    17
  8.7014321777955927E-03 a       738     0    37     1    18
  1.0150550985639813E-01 a       739     0    37     1    19
  6.1109229247317397E-02 a       740     0    37     1    20
  6.1923004700292467E-02 a       741     0    38     1     1
  1.7291703936527184E-01 a       742     0    38     1     2
  1.1739843617683490E-01 a       743     0    38     1     3
  4.5055458227448740E-02 a       744     0    38     1     4
  4.2690066458986251E-02 a       745     0    38     1     5
 -2.4493805397605099E-03 a       746     0    38     1     6
  7.4991663070924752E-02 a       747     0    38     1     7
 -3.6607431534464364E-02 a       748     0    38     1     8
  7.3091248723170965E-02 a       749     0    38     1     9
  1.3178927890428216E-02 a       750     0    38     1    10
 -3.4315827410218963E-02 a       751     0    38     1    11
  6.9599651979863108E-03 a       752     0    38     1    12
  2.8959129252143199E-02 a       753     0    38     1    13
 -1.1105475435443080E-01 a       754     0    38     1    14
 -8.7299097277394128E-02 a       755     0    38     1    15
 -2.8435359357206594E-02 a       756     0    38     1    16
  2.1162970115951078E-02 a       757     0    38     1    17
 -8.6167573185463822E-02 a       758     0    38     1    18
  1.6156262153364513E-02 a       759     0    38     1    19
  1.7937238000695157E-02 a       760     0    38     1    20
 -1.0344147532544163E-02 a       761     0    39     1     1
 -8.7049166018723909E-02 a       762     0    39     1     2
 -1.0744984830622082E-02 a       763     0    39     1     3
 -9.7320492565447451E-03 a       764     0    39     1     4
 -5.4773679671499084E-02 a       765     0    39     1     5
  6.6723422021049215E-04 a       766     0    39     1     6
  2.9569194198228503E-02 a       767     0    39     1     7
  3.3273907044104274E-02 a       768     0    39     1     8
 -7.8954207179665434E-02 a       769     0    39     1     9
 -7.1363746347059900E-02 a       770     0    39     1    10
  1.0557863989702267E-02 a       771     0    39     1    11
  5.4750486596246333E-03 a       772     0    39     1    12
 -5.8930519163718748E-02 a       773     0    39     1    13
  2.7226176589250251E-02 a       774     0    39     1    14
  2.6958480326205306E-02 a       775     0    39     1    15
  5.1730050433270086E-02 a       776     0    39     1    16
 -2.9578430981107462E-02 a       777     0    39     1    17
  2.8018494334790291E-02 a       778     0    39     1    18
 -1.2333379533056870E-02 a       779     0    39     1    19
  1.4195387803096628E-02 a       780     0    39     1    20
 -1.9612277114236017E-02 a       781     0    40     1     1
  9.2290982663511892E-02 a       782     0    40     1     2
  1.9402664036559557E-02 a       783     0    40     1     3
  2.7275145654211769E-02 a       784     0    40     1     4
 -5.4540527229624365E-03 a       785     0    40     1     5
  1.5461478734007189E-01 a       786     0    40     1     6
  1.4558865490061840E-01 a       787     0    40     1     7
 -2.5430010523122871E-02 a       788     0    40     1     8
  9.8258508478663936E-02 a       789     0    40     1     9
  2.0009422987863112E-01 a       790     0    40     1    10
  8.9552992708306453E-02 a       791     0    40     1    11
  2.1733468212091479E-02 a       792     0    40     1    12
  1.9192781025802408E-02 a       793     0    40     1    13
 -1.3709079064595472E-01 a       794     0    40     1    14
 -2.1665347434072359E-02 a       795     0    40     1    15
  5.5577485886289635E-02 a       796     0    40     1    16
  9.6247599673988785E-02 a       797     0    40     1    17
  1.9584485171567641E-02 a       798     0    40     1    18
 -2.3457901240744625E-02 a       799     0    40     1    19
 -9.0619692149791306E-02 a       800     0    40     1    20
 -1.1006165678276555E-02 a       801     0    41     1     1
  5.6040886831042705E-02 a       802     0    41     1     2
 -6.3265684843549316E-02 a       803     0    41     1     3
  7.9790193944312360E-02 a       804     0    41     1     4
  9.1281729145159182E-02 a       805     0    41     1     5
 -8.5834850705483565E-02 a       806     0    41     1     6
  1.6100490584063216E-02 a       807     0    41     1     7
 -3.9660696493305760E-02 a       808     0    41     1     8
  7.7040357641785268E-02 a       809     0    41     1     9
 -5.9938249413975353E-02 a       810     0    41     1    10
  1.5701025127995547E-01 a       811     0    41     1    11
 -3.3905384367803056E-02 a       812     0    41     1    12
 -5.6425697724001205E-03 a       813     0    41     1    13
 -7.9762562277762322E-02 a       814     0    41     1    14
 -2.6184128061131275E-02 a       815     0    41     1    15
  5.8493694005411663E-02 a       816     0    41     1    16
  8.6214357013464915E-02 a       817     0    41     1    17
 -9.8278844675005694E-02 a       818     0    41     1    18
  6.3503502277978102E-02 a       819     0    41     1    19
  3.9721155541462057E-02 a       820     0    41     1    20
  8.3529376030889196E-02 a       821     0    42     1     1
 -2.3601309309534083E-02 a       822     0    42     1     2
 -8.0219742063036229E-03 a       823     0    42     1     3
 -1.1241069352298003E-02 a       824     0    42     1     4
 -8.6658344047014058E-02 a       825     0    42     1     5
 -7.8992715193399315E-02 a       826     0    42     1     6
 -1.8428592959142335E-03 a       827     0    42     1     7
 -1.8500170957256687E-02 a       828     0    42     1     8
 -5.6604581991066882E-02 a       829     0    42     1     9
  3.2451280360476044E-02 a       830     0    42     1    10
 -4.0584461114128292E-02 a       831     0    42     1    11
 -1.2241661851769681E-01 a       832     0    42     1    12
  4.5457329449774993E-02 a       833     0    42     1    13
  1.1129261025352397E-01 a       834     0    42     1    14
  7.7466614881681092E-02 a       835     0    42     1    15
 -1.4925460468611262E-01 a       836     0    42     1    16
 -9.9354758041596651E-03 a       837     0    42     1    17
 -3.0881329415035682E-02 a       838     0    42     1    18
 -4.9278856378924346E-02 a       839     0    42     1    19
  5.0926846414653323E-02 a       840     0    42     1    20
  2.1461592338703629E-02 a       841     0    43     1     1
 -6.0416157544035252E-02 a       842     0    43     1     2
 -1.0101681717327794E-01 a       843     0    43     1     3
 -1.2188600597754192E-02 a       844     0    43     1     4
  3.9549915988598215E-02 a       845     0    43     1     5
  4.1197518166018526E-03 a       846     0    43     1     6
 -1.5741069153093933E-02 a       847     0    43     1     7
 -4.1384368075968797E-03 a       848     0    43     1     8
  6.2261373537161584E-03 a       849     0    43     1     9
  1.1780319852944979E-01 a       850     0    43     1    10
 -7.1063873752366086E-02 a       851     0    43     1    11
 -7.2245883663606221E-03 a       852     0    43     1    12
 -3.6627731008213983E-03 a       853     0    43     1    13
  5.3411039255779232E-02 a       854     0    43     1    14
 -3.4897833167777128E-03 a       855     0    43     1    15
  2.4523311783263062E-04 a       856     0    43     1    16
  9.8378043664878040E-03 a       857     0    43     1    17
 -7.5245754996965716E-02 a       858     0    43     1    18
 -3.3090412529565308E-02 a       859     0    43     1    19
 -1.0915464994850686E-01 a       860     0    43     1    20
 -2.0155196595345499E-02 a       861     0    44     1     1
  3.6089951123227139E-02 a       862     0    44     1     2
  2.0563067362873149E-02 a       863     0    44     1     3
  1.8679826851498899E-02 a       864     0    44     1     4
 -2.5289050220991805E-02 a       865     0    44     1     5
  1.4681312810532837E-02 a       866     0    44     1     6
  2.3698427230758831E-03 a       867     0    44     1     7
 -3.0586990898709154E-02 a       868     0    44     1     8
  7.6307115653003743E-02 a       869     0    44     1     9
  3.6707328383726708E-02 a       870     0    44     1    10
  2.1479126636759827E-02 a       871     0    44     1    11
  4.1493709399189112E-03 a       872     0    44     1    12
  5.8670027873398790E-02 a       873     0    44     1    13
 -8.5809878568339312E-02 a       874     0    44     1    14
 -3.0610198744977266E-02 a       875     0    44     1    15
  1.0605801357597892E-02 a       876     0    44     1    16
  6.2845386836183043E-02 a       877     0    44     1    17
  1.0024040748576570E-01 a       878     0    44     1    18
 -5.9114298885457862E-02 a       879     0    44     1    19
 -8.4448478106504566E-03 a       880     0    44     1    20
  2.8127586687914784E-02 a       881     0    45     1     1
 -4.1939174283456365E-02 a       882     0    45     1     2
 -3.3066761336058210E-03 a       883     0    45     1     3
 -5.2511809465192218E-02 a       884     0    45     1     4
 -7.4288664492323533E-02 a       885     0    45     1     5
 -2.0593174484570323E-01 a       886     0    45     1     6
 -7.2145536876896996E-02 a       887     0    45     1     7
  4.2385103730743279E-02 a       888     0    45     1     8
 -1.0713724110135316E-01 a       889     0    45     1     9
 -6.8383137515036288E-02 a       890     0    45     1    10
 -6.5029428603279676E-02 a       891     0    45     1    11
  5.7038344524209250E-02 a       892     0    45     1    12
 -3.6877410714135500E-02 a       893     0    45     1    13
  5.1906657700102644E-02 a       894     0    45     1    14
 -1.6153843295694557E-02 a       895     0    45     1    15
 -3.3776964093539037E-02 a       896     0    45     1    16
 -8.9314177197254804E-02 a       897     0    45     1    17
  4.6895560155585464E-02 a       898     0    45     1    18
 -3.6284946558867555E-02 a       899     0    45     1    19
  3.6391176930200761E-02 a       900     0    45     1    20
 -4.7592457742325844E-02 a       901     0    46     1     1
 -1.9319815034903588E-02 a       902     0    46     1     2
  4.2768372794058360E-02 a       903     0    46     1     3
 -5.7096796098687869E-02 a       904     0    46     1     4
  7.2560665025314539E-02 a       905     0    46     1     5
 -1.7397019996413684E-02 a       906     0    46     1     6
 -3.8657064246617037E-02 a       907     0    46     1     7
  3.9265235617362559E-02 a       908     0    46     1     8
 -8.6464042215508297E-02 a       909     0    46     1     9
 -6.4594044669851386E-02 a       910     0    46     1    10
 -5.8554012953170786E-03 a       911     0    46     1    11
  4.1071602961886111E-02 a       912     0    46     1    12
 -2.3668047042834366E-02 a       913     0    46     1    13
  4.7486931031955858E-02 a       914     0    46     1    14
  1.3207943676926780E-02 a       915     0    46     1    15
  2.0316295607068738E-03 a       916     0    46     1    16
 -6.6753242875782062E-02 a       917     0    46     1    17
  1.1850493935138708E-01 a       918     0    46     1    18
  1.5748660840475531E-02 a       919     0    46     1    19
  3.0215785253829067E-02 a       920     0    46     1    20
 -5.8767239818358269E-02 a       921     0    47     1     1
 -8.0959759732838796E-02 a       922     0    47     1     2
  2.8969557754705740E-04 a       923     0    47     1     3
 -1.3519132509578881E-03 a       924     0    47     1     4
 -1.2544820170338391E-02 a       925     0    47     1     5
  4.1910560397064783E-02 a       926     0    47     1     6
  1.0395595500657941E-02 a       927     0    47     1     7
  5.3153991896197298E-03 a       928     0    47     1     8
 -2.3834815161228342E-02 a       929     0    47     1     9
  1.0394732320105478E-01 a       930     0    47     1    10
 -3.9375759649504558E-02 a       931     0    47     1    11
  7.5770900470962785E-02 a       932     0    47     1    12
 -5.4514147591504830E-02 a       933     0    47     1    13
 -8.1648633414023536E-02 a       934     0    47     1    14
 -5.5214234454753382E-02 a       935     0    47     1    15
  1.4088451354279866E-01 a       936     0    47     1    16
  6.2561566282574477E-02 a       937     0    47     1    17
  3.7779703073294965E-02 a       938     0    47     1    18
 -5.3915782184436297E-03 a       939     0    47     1    19
 -4.2863911690567191E-02 a       940     0    47     1    20
  5.9859963782534654E-03 a       941     0    48     1     1
  9.1190332847008712E-02 a       942     0    48     1     2
  8.5770300623797160E-02 a       943     0    48     1     3
  1.7018332149658789E-02 a       944     0    48     1     4
  4.6670882835128762E-02 a       945     0    48     1     5
  1.3518466275409818E-02 a       946     0    48     1     6
  1.7342481817823961E-02 a       947     0    48     1     7
 -2.1944334866512268E-02 a       948     0    48     1     8
  4.5712207376658355E-02 a       949     0    48     1     9
 -2.6234394208686871E-03 a       950     0    48     1    10
 -5.9450984462124004E-02 a       951     0    48     1    11
  1.6847454168627686E-02 a       952     0    48     1    12
 -5.2781257290840961E-02 a       953     0    48     1    13
  2.6152322814403259E-02 a       954     0    48     1    14
  1.5597247847732705E-02 a       955     0    48     1    15
 -5.4639957054180201E-03 a       956     0    48     1    16
 -5.0586799080730549E-02 a       957     0    48     1    17
 -3.3365954796961625E-02 a       958     0    48     1    18
  1.9930721398483831E-02 a       959     0    48     1    19
 -1.0368280613619231E-02 a       960     0    48     1    20
 -4.9555327696834142E-02 a       961     0    49     1     1
 -7.4856655630036739E-02 a       962     0    49     1     2
  3.6867901086156694E-02 a       963     0    49     1     3
 -1.9494089358855334E-02 a       964     0    49     1     4
  2.2986274614418384E-03 a       965     0    49     1     5
 -6.6716837760349451E-02 a       966     0    49     1     6
 -1.0654775188482135E-01 a       967     0    49     1     7
  3.7622001247017513E-02 a       968     0    49     1     8
 -5.9871880827433714E-02 a       969     0    49     1     9
 -3.6793197387809874E-02 a       970     0    49     1    10
 -1.5090538199417974E-01 a       971     0    49     1    11
  1.4034669830672530E-01 a       972     0    49     1    12
 -1.3910527004020634E-01 a       973     0    49     1    13
  1.0430286538685125E-01 a       974     0    49     1    14
 -3.4379119310991253E-02 a       975     0    49     1    15
  1.3198465811747120E-01 a       976     0    49     1    16
  4.9214818067073056E-02 a       977     0    49     1    17
  1.0632147428840999E-01 a       978     0    49     1    18
 -2.3353463999541014E-02 a       979     0    49     1    19
  1.7065626082233495E-02 a       980     0    49     1    20
 -2.1549526705855044E-02 a       981     0    50     1     1
  6.5514859960731461E-02 a       982     0    50     1     2
 -1.5632553120867910E-03 a       983     0    50     1     3
  4.0169972393526078E-02 a       984     0    50     1     4
  5.3791630364662377E-02 a       985     0    50     1     5
  1.7987573897772208E-01 a       986     0    50     1     6
 -1.6180412497247679E-02 a       987     0    50     1     7
 -3.0857545413584646E-02 a       988     0    50     1     8
  1.0006108967931555E-01 a       989     0    50     1     9
  1.0848856059969218E-01 a       990     0    50     1    10
 -9.5101416729264823E-02 a       991     0    50     1    11
  1.0144563059034044E-01 a       992     0    50     1    12
 -7.1624049680596699E-02 a       993     0    50     1    13
  7.2990501005205530E-02 a       994     0    50     1    14
 -3.9021864457276782E-02 a       995     0    50     1    15
  1.0106491629582166E-01 a       996     0    50     1    16
  1.1202363847258887E-01 a       997     0    50     1    17
 -7.1597021844117037E-02 a       998     0    50     1    18
  3.5345931209237187E-02 a       999     0    50     1    19
 -4.5677850955101608E-02 a      1000     0    50     1    20
  1.3030132543085166E-01 a      1001     0    51     1     1
 -2.3975612805984148E-01 a      1002     0    51     1     2
  1.1712879435841501E-01 a      1003     0    51     1     3
 -6.4506623646984507E-02 a      1004     0    51     1     4
  3.1051585285227729E-01 a      1005     0    51     1     5
  2.6441687736433639E-01 a      1006     0    51     1     6
 -9.4480766025515736E-02 a      1007     0    51     1     7
 -8.5222488231463195E-02 a      1008     0    51     1     8
  4.4433888076385590E-02 a      1009     0    51     1     9
 -1.4747902393916087E-02 a      1010     0    51     1    10
  1.3727140388635684E-01 a      1011     0    51     1    11
 -3.5769812283379765E-01 a      1012     0    51     1    12
  1.3556967840505344E-02 a      1013     0    51     1    13
  7.2317627907534904E-02 a      1014     0    51     1    14
  6.8946251265243952E-02 a      1015     0    51     1    15
 -1.1076835871884781E-01 a      1016     0    51     1    16
  1.3538851553772061E-01 a      1017     0    51     1    17
  9.0241376408212337E-02 a      1018     0    51     1    18
  3.1912778677727899E-01 a      1019     0    51     1    19
  1.7115542046941504E-01 a      1020     0    51     1    20
 -9.6434679091546904E-02 a      1021     0    52     1     1
  1.2668023243800844E-01 a      1022     0    52     1     2
  1.1717828632316951E-01 a      1023     0    52     1     3
  5.3068161709435548E-02 a      1024     0    52     1     4
 -1.4456373252397126E-01 a      1025     0    52     1     5
 -5.5870515421846650E-02 a      1026     0    52     1     6
 -1.2465824773181386E-01 a      1027     0    52     1     7
 -2.2806499228896343E-01 a      1028     0    52     1     8
  3.0113111270604159E-02 a      1029     0    52     1     9
  8.9733638552183068E-02 a      1030     0    52     1    10
 -1.0353731888862332E-01 a      1031     0    52     1    11
  2.5979895807985192E-02 a      1032     0    52     1    12
 -6.0190531569032949E-03 a      1033     0    52     1    13
  1.2847089462782188E-01 a      1034     0    52     1    14
 -1.1418341161786615E-01 a      1035     0    52     1    15
  1.2728376024890392E-01 a      1036     0    52     1    16
  3.3846743973095511E-01 a      1037     0    52     1    17
  5.1846426524599087E-02 a      1038     0    52     1    18
  9.9035247815865299E-02 a      1039     0    52     1    19
  1.2521497517919850E-01 a      1040     0    52     1    20
 -2.8599482053252229E-01 a      1041     0    53     1     1
  2.3948308514742350E-01 a      1042     0    53     1     2
 -1.5439907050380164E-01 a      1043     0    53     1     3
  1.1196729777824828E-02 a      1044     0    53     1     4
 -1.1620336543042108E-01 a      1045     0    53     1     5
  3.1369733565838115E-01 a      1046     0    53     1     6
 -1.9505079315662105E-01 a      1047     0    53     1     7
 -2.4938802746742203E-01 a      1048     0    53     1     8
 -9.4276041844947832E-03 a      1049     0    53     1     9
 -1.9063173595357036E-01 a      1050     0    53     1    10
 -4.5319880132172996E-01 a      1051     0    53     1    11
  5.6877498367399637E-01 a      1052     0    53     1    12
 -1.4129040379193886E-01 a      1053     0    53     1    13
 -4.0596697336619730E-01 a      1054     0    53     1    14
 -3.6032605175613269E-01 a      1055     0    53     1    15
  3.9193994458564413E-01 a      1056     0    53     1    16
 -3.3570118913863894E-01 a      1057     0    53     1    17
  5.8741172282896969E-03 a      1058     0    53     1    18
 -1.7102690335435718E-02 a      1059     0    53     1    19
 -2.2332934425507034E-01 a      1060     0    53     1    20
 -3.9740754235689041E-01 a      1061     0    54     1     1
 -5.0876501379032033E-02 a      1062     0    54     1     2
 -3.5270465778006008E-02 a      1063     0    54     1     3
 -1.1577377990794545E-01 a      1064     0    54     1     4
  6.3265762365321276E-02 a      1065     0    54     1     5
 -8.7814424336155356E-02 a      1066     0    54     1     6
 -2.2847977506530862E-01 a      1067     0    54     1     7
  9.2271354593410876E-02 a      1068     0    54     1     8
 -1.9058857432859796E-01 a      1069     0    54     1     9
  9.3347503800146558E-02 a      1070     0    54     1    10
 -1.2118733294311075E-01 a      1071     0    54     1    11
  1.0118542910132368E-01 a      1072     0    54     1    12
 -1.5883673133668358E-01 a      1073     0    54     1    13
  1.2926513122768626E-01 a      1074     0    54     1    14
 -9.5020246784870838E-02 a      1075     0    54     1    15
  1.1955989446216729E-01 a      1076     0    54     1    16
 -2.4289952512957583E-02 a      1077     0    54     1    17
  5.1550980905527531E-02 a      1078     0    54     1    18
  6.4913464548399469E-02 a      1079     0    54     1    19
 -1.8828599828171211E-01 a      1080     0    54     1    20
 -1.1115079739276314E-01 a      1081     0    55     1     1
  5.3980916765243421E-02 a      1082     0    55     1     2
  6.8300556232989668E-02 a      1083     0    55     1     3
  1.3785455205140520E-01 a      1084     0    55     1     4
 -1.1034610664148455E-01 a      1085     0    55     1     5
  2.2538309482892484E-03 a      1086     0    55     1     6
 -1.2583053489803447E-01 a      1087     0    55     1     7
 -2.2057042723828335E-01 a      1088     0    55     1     8
  1.4570461661978795E-01 a      1089     0    55     1     9
 -1.5628378185926961E-01 a      1090     0    55     1    10
 -7.3957602968298466E-02 a      1091     0    55     1    11
 -4.6578106782757679E-02 a      1092     0    55     1    12
 -4.7006413353022330E-02 a      1093     0    55     1    13
 -6.8753036731541137E-02 a      1094     0    55     1    14
 -2.6698779559189662E-02 a      1095     0    55     1    15
  6.4631127328415666E-02 a      1096     0    55     1    16
 -3.8282196426810737E-02 a      1097     0    55     1    17
  1.2343135109200544E-01 a      1098     0    55     1    18
 -4.3882793508207785E-02 a      1099     0    55     1    19
 -3.4614433886815038E-02 a      1100     0    55     1    20
  5.5923767079108714E-04 a      1101     0    56     1     1
 -3.7408587194268365E-02 a      1102     0    56     1     2
 -1.9994449312131846E-02 a      1103     0    56     1     3
  2.0239170805597097E-02 a      1104     0    56     1     4
  1.4940855559059818E-01 a      1105     0    56     1     5
 -3.7757523249835521E-02 a      1106     0    56     1     6
  1.8444741995794561E-01 a      1107     0    56     1     7
  7.1194073087977761E-02 a      1108     0    56     1     8
  3.4800248825332579E-02 a      1109     0    56     1     9
 -3.2691570977559370E-02 a      1110     0    56     1    10
  4.8928375053300645E-02 a      1111     0    56     1    11
  1.9518026389439178E-01 a      1112     0    56     1    12
 -2.5232903812075019E-01 a      1113     0    56     1    13
 -1.6640511830485847E-02 a      1114     0    56     1    14
 -7.8626534953241470E-03 a      1115     0    56     1    15
  9.7800337200360674E-02 a      1116     0    56     1    16
 -2.7550182770730242E-01 a      1117     0    56     1    17
 -7.3444401349224975E-02 a      1118     0    56     1    18
 -2.7718469244415678E-02 a      1119     0    56     1    19
 -3.5769609304172182E-03 a      1120     0    56     1    20
  1.0855156867082266E-01 a      1121     0    57     1     1
  2.1816053458634657E-01 a      1122     0    57     1     2
 -2.6021703764448839E-01 a      1123     0    57     1     3
  2.3390740302882021E-01 a      1124     0    57     1     4
  2.4634951793405990E-01 a      1125     0    57     1     5
 -1.6502762925755293E-01 a      1126     0    57     1     6
 -6.5857791281642666E-02 a      1127     0    57     1     7
  2.3080063670368273E-01 a      1128     0    57     1     8
 -4.4994348841960276E-02 a      1129     0    57     1     9
 -2.7239687942835888E-02 a      1130     0    57     1    10
 -2.2041464043548770E-01 a      1131     0    57     1    11
 -1.6493806922590928E-01 a      1132     0    57     1    12
 -2.3062898943563587E-01 a      1133     0    57     1    13
  1.0510829959668165E-01 a      1134     0    57     1    14
  1.2590363905432841E-01 a      1135     0    57     1    15
  7.0477108336833252E-02 a      1136     0    57     1    16
 -1.6267822877538410E-01 a      1137     0    57     1    17
 -4.0297890484374994E-02 a      1138     0    57     1    18
  1.0609742209130342E-02 a      1139     0    57     1    19
 -1.1425041059675108E-01 a      1140     0    57     1    20
 -2.1178459306889780E-01 a      1141     0    58     1     1
  7.5997839935474029E-02 a      1142     0    58     1     2
  2.3706643386774978E-01 a      1143     0    58     1     3
 -9.7249959973944120E-03 a      1144     0    58     1     4
 -1.0665148368614864E-01 a      1145     0    58     1     5
  1.3892847985265577E-01 a      1146     0    58     1     6
  8.9727865999826295E-02 a      1147     0    58     1     7
 -2.0800331703867872E-01 a      1148     0    58     1     8
  1.1052100227645356E-01 a      1149     0    58     1     9
  1.3994745947257484E-01 a      1150     0    58     1    10
 -3.0397439061310674E-02 a      1151     0    58     1    11
  4.9131297090720095E-02 a      1152     0    58     1    12
  1.4808178513133308E-01 a      1153     0    58     1    13
  2.2179492410572425E-02 a      1154     0    58     1    14
 -1.0876553195600051E-02 a      1155     0    58     1    15
 -7.6379982251157080E-02 a      1156     0    58     1    16
  5.5974894095040466E-02 a      1157     0    58     1    17
  3.8256942713320738E-02 a      1158     0    58     1    18
  5.2618575054296977E-02 a      1159     0    58     1    19
 -9.0923345653667442E-02 a      1160     0    58     1    20
  4.7704109302701442E-02 a      1161     0    59     1     1
  7.2462413958279140E-02 a      1162     0    59     1     2
  8.4180814401339538E-02 a      1163     0    59     1     3
  1.3145852291944987E-01 a      1164     0    59     1     4
  1.0986928117105296E-01 a      1165     0    59     1     5
  7.0647712843975655E-02 a      1166     0    59     1     6
  5.2851398547766007E-02 a      1167     0    59     1     7
 -1.2526287828287525E-01 a      1168     0    59     1     8
 -4.7561580236505023E-02 a      1169     0    59     1     9
 -6.2624074262567372E-02 a      1170     0    59     1    10
  1.2121320679554294E-01 a      1171     0    59     1    11
  2.9209505285711724E-03 a      1172     0    59     1    12
  1.6112420977431405E-01 a      1173     0    59     1    13
 -2.1825081612924918E-01 a      1174     0    59     1    14
 -4.5927944757146316E-02 a      1175     0    59     1    15
 -9.6941434213768662E-02 a      1176     0    59     1    16
 -3.8765056177414797E-02 a      1177     0    59     1    17
  9.5070978810451068E-02 a      1178     0    59     1    18
  1.9861280283243363E-01 a      1179     0    59     1    19
 -1.3277339047403400E-01 a      1180     0    59     1    20
  1.7239831937459438E-01 a      1181     0    60     1     1
 -8.7918987590156192E-02 a      1182     0    60     1     2
 -1.2048658136605959E-01 a      1183     0    60     1     3
  1.9365593866747463E-01 a      1184     0    60     1     4
 -7.0115201192790619E-02 a      1185     0    60     1     5
 -4.1595300900992345E-02 a      1186     0    60     1     6
 -1.0096997230494245E-02 a      1187     0    60     1     7
  2.0011151740913731E-02 a      1188     0    60     1     8
  8.6794191988041738E-02 a      1189     0    60     1     9
  2.5784019979880490E-01 a      1190     0    60     1    10
 -5.4596356011948387E-03 a      1191     0    60     1    11
 -2.7640623412219573E-01 a      1192     0    60     1    12
  3.5435958079876678E-02 a      1193     0    60     1    13
  3.5746828985756085E-01 a      1194     0    60     1    14
  1.2059440846228277E-01 a      1195     0    60     1    15
 -3.3809278917428515E-01 a      1196     0    60     1    16
 -5.8805034633960238E-02 a      1197     0    60     1    17
  1.6234288982571199E-01 a      1198     0    60     1    18
  3.4938079654400217E-01 a      1199     0    60     1    19
  3.6111508477941173E-01 a      1200     0    60     1    20
  8.0224378490660872E-02 a      1201     0    61     1     1
  8.7158159690412185E-02 a      1202     0    61     1     2
  1.1308203443655007E-01 a      1203     0    61     1     3
 -7.8962768803529426E-02 a      1204     0    61     1     4
 -1.3690329489165567E-01 a      1205     0    61     1     5
 -1.2026328600817357E-01 a      1206     0    61     1     6
 -7.8400070076869458E-02 a      1207     0    61     1     7
  7.0512946516554334E-02 a      1208     0    61     1     8
 -1.2434775343817621E-01 a      1209     0    61     1     9
  1.4100565647136926E-01 a      1210     0    61     1    10
  2.4257857423093439E-02 a      1211     0    61     1    11
 -1.5554042630572853E-04 a      1212     0    61     1    12
 -2.7527075600630054E-02 a      1213     0    61     1    13
 -7.3685657240233224E-02 a      1214     0    61     1    14
 -4.1037869919898474E-02 a      1215     0    61     1    15
 -6.9685505391401545E-02 a      1216     0    61     1    16
 -6.0881045326642499E-02 a      1217     0    61     1    17
 -2.1394174814333705E-01 a      1218     0    61     1    18
  2.3638556332523770E-02 a      1219     0    61     1    19
 -1.3310769626414365E-01 a      1220     0    61     1    20
  4.1721467946784434E-02 a      1221     0    62     1     1
 -1.2348917154228863E-02 a      1222     0    62     1     2
 -2.9683572772294432E-02 a      1223     0    62     1     3
  5.1243558547119733E-02 a      1224     0    62     1     4
 -1.2828097576605690E-01 a      1225     0    62     1     5
 -1.4191338502755493E-01 a      1226     0    62     1     6
  1.3208515351503561E-01 a      1227     0    62     1     7
  4.3473285434215414E-03 a      1228     0    62     1     8
  3.0811380110813340E-02 a      1229     0    62     1     9
  1.3970976100310786E-01 a      1230     0    62     1    10
  1.3161196704894104E-01 a      1231     0    62     1    11
 -1.4568068511265125E-01 a      1232     0    62     1    12
  6.9501295762859322E-02 a      1233     0    62     1    13
 -4.3249702865070898E-02 a      1234     0    62     1    14
 -3.2484765091146971E-02 a      1235     0    62     1    15
 -2.4627466610096654E-02 a      1236     0    62     1    16
 -1.8918846267342806E-01 a      1237     0    62     1    17
 -7.6251926571396192E-02 a      1238     0    62     1    18
 -7.8190494724250780E-03 a      1239     0    62     1    19
  1.1266856000946540E-01 a      1240     0    62     1    20
  6.2853050501238017E-02 a      1241     0    63     1     1
 -6.1974727130940238E-03 a      1242     0    63     1     2
 -3.4595246731538382E-02 a      1243     0    63     1     3
  6.5146216767588569E-02 a      1244     0    63     1     4
 -1.3179554337936505E-01 a      1245     0    63     1     5
  1.5981843967657255E-01 a      1246     0    63     1     6
 -2.5186309494614742E-02 a      1247     0    63     1     7
  6.3925750556252672E-02 a      1248     0    63     1     8
  7.6065279113545159E-02 a      1249     0    63     1     9
  1.8036725386593128E-01 a      1250     0    63     1    10
 -1.7575983066378886E-01 a      1251     0    63     1    11
  1.7372256451134857E-01 a      1252     0    63     1    12
 -1.0868744801606893E-01 a      1253     0    63     1    13
 -1.0372750934221789E-01 a      1254     0    63     1    14
  7.7405355722499805E-02 a      1255     0    63     1    15
 -2.1824314518909427E-02 a      1256     0    63     1    16
  9.4187154592508912E-02 a      1257     0    63     1    17
  1.8346320027063612E-01 a      1258     0    63     1    18
 -1.3987183134314937E-01 a      1259     0    63     1    19
  3.9622480314012318E-02 a      1260     0    63     1    20
  7.6802626769527316E-02 a      1261     0    64     1     1
 -5.6876182500770055E-02 a      1262     0    64     1     2
  3.9402105687884513E-02 a      1263     0    64     1     3
  8.3375146494603022E-03 a      1264     0    64     1     4
  1.1756949722425701E-01 a      1265     0    64     1     5
  8.0116629192415592E-02 a      1266     0    64     1     6
 -8.0738209104962138E-03 a      1267     0    64     1     7
 -7.2516190519688162E-02 a      1268     0    64     1     8
 -1.7186608953542161E-02 a      1269     0    64     1     9
  9.6617445619132450E-02 a      1270     0    64     1    10
 -5.9548555739497210E-02 a      1271     0    64     1    11
  1.6012878857832266E-01 a      1272     0    64     1    12
 -1.1316343804509685E-01 a      1273     0    64     1    13
 -2.3415875342489144E-02 a      1274     0    64     1    14
  2.6984075046668218E-02 a      1275     0    64     1    15
  5.8898748624367357E-02 a      1276     0    64     1    16
  4.8730406443710989E-02 a      1277     0    64     1    17
 -1.1075882915050534E-02 a      1278     0    64     1    18
  5.9172723047091466E-02 a      1279     0    64     1    19
  7.3996484878751767E-02 a      1280     0    64     1    20
  7.1011960635611354E-02 a      1281     0    65     1     1
  8.7273011241721585E-02 a      1282     0    65     1     2
  8.5724969622809080E-02 a      1283     0    65     1     3
  5.6267248798679004E-02 a      1284     0    65     1     4
 -1.5578678941934487E-01 a      1285     0    65     1     5
  3.7935889007619246E-02 a      1286     0    65     1     6
 -5.2434480263945593E-02 a      1287     0    65     1     7
 -3.4630721829003355E-02 a      1288     0    65     1     8
  3.6552518911645134E-02 a      1289     0    65     1     9
 -2.0439323131386172E-01 a      1290     0    65     1    10
  1.5662257739628666E-01 a      1291     0    65     1    11
  1.0245298833105248E-02 a      1292     0    65     1    12
 -1.4230633407743153E-02 a      1293     0    65     1    13
  1.5159984308176405E-01 a      1294     0    65     1    14
 -5.2934850214426052E-02 a      1295     0    65     1    15
 -3.4360644256232987E-03 a      1296     0    65     1    16
  3.6381628388207320E-02 a      1297     0    65     1    17
 -6.8154858879695399E-02 a      1298     0    65     1    18
 -4.5993295261715680E-02 a      1299     0    65     1    19
  5.7814847806815766E-03 a      1300     0    65     1    20
 -1.0479003609746929E-01 a      1301     0    66     1     1
  1.7352321280865009E-02 a      1302     0    66     1     2
  1.1598455240299484E-01 a      1303     0    66     1     3
  3.9700855178892436E-03 a      1304     0    66     1     4
  1.4297166806779427E-01 a      1305     0    66     1     5
  4.2630480882007785E-02 a      1306     0    66     1     6
 -8.1197321871052344E-02 a      1307     0    66     1     7
  1.6318656458229380E-01 a      1308     0    66     1     8
 -8.3811095252836282E-02 a      1309     0    66     1     9
 -1.1399321782090752E-01 a      1310     0    66     1    10
  1.4865633698345654E-01 a      1311     0    66     1    11
  5.7058947264186574E-02 a      1312     0    66     1    12
 -8.1732238150735975E-03 a      1313     0    66     1    13
 -6.4736485983861489E-02 a      1314     0    66     1    14
  1.3973919681973454E-01 a      1315     0    66     1    15
  3.9189518021470936E-02 a      1316     0    66     1    16
 -2.9124943735776964E-03 a      1317     0    66     1    17
 -2.4301913598900357E-01 a      1318     0    66     1    18
 -1.5625580000417066E-01 a      1319     0    66     1    19
 -3.6148128698275078E-01 a      1320     0    66     1    20
 -4.0315935686847167E-02 a      1321     0    67     1     1
 -4.4862416545757705E-02 a      1322     0    67     1     2
  4.9377330917997845E-03 a      1323     0    67     1     3
 -9.3710009763999895E-03 a      1324     0    67     1     4
  1.2733475080900949E-01 a      1325     0    67     1     5
  2.6721735712622041E-01 a      1326     0    67     1     6
 -1.2516379739473255E-01 a      1327     0    67     1     7
 -1.6814660997623219E-02 a      1328     0    67     1     8
 -1.4382380182046420E-01 a      1329     0    67     1     9
 -5.6018386096654431E-02 a      1330     0    67     1    10
 -1.2093047678970410E-02 a      1331     0    67     1    11
  1.1667775044080578E-01 a      1332     0    67     1    12
 -4.9995842032761188E-02 a      1333     0    67     1    13
 -1.1733056616503781E-01 a      1334     0    67     1    14
 -1.0974030023283464E-01 a      1335     0    67     1    15
  5.0900560211086694E-03 a      1336     0    67     1    16
 -2.2279321667118560E-01 a      1337     0    67     1    17
 -1.6545607020735553E-01 a      1338     0    67     1    18
 -4.8547993352951423E-02 a      1339     0    67     1    19
  6.9127020497143810E-02 a      1340     0    67     1    20
  2.3200915567872710E-01 a      1341     0    68     1     1
 -2.4704117018921536E-02 a      1342     0    68     1     2
 -7.1997721804239329E-02 a      1343     0    68     1     3
  1.2789460595857444E-01 a      1344     0    68     1     4
  1.1341105196824192E-01 a      1345     0    68     1     5
 -3.4885000068471023E-01 a      1346     0    68     1     6
 -4.2773046467083180E-02 a      1347     0    68     1     7
  4.3351178924320627E-01 a      1348     0    68     1     8
  3.0786479074449619E-01 a      1349     0    68     1     9
 -6.3357139072514806E-02 a      1350     0    68     1    10
 -1.2698550985707069E-01 a      1351     0    68     1    11
 -1.6440923224183665E-01 a      1352     0    68     1    12
 -1.5625615508002871E-01 a      1353     0    68     1    13
  1.1972096182026810E-02 a      1354     0    68     1    14
 -2.0630365850430363E-01 a      1355     0    68     1    15
 -5.8159542692004729E-01 a      1356     0    68     1    16
  1.6448317379328156E-01 a      1357     0    68     1    17
  1.7864893110392771E-01 a      1358     0    68     1    18
  2.9719668691769646E-01 a      1359     0    68     1    19
  3.7144652547608809E-01 a      1360     0    68     1    20
  2.0097657569863206E-01 a      1361     0    69     1     1
  2.4848591254955827E-02 a      1362     0    69     1     2
 -1.5382021638515184E-01 a      1363     0    69     1     3
  1.0514551887477298E-01 a      1364     0    69     1     4
  1.5772553156064728E-01 a      1365     0    69     1     5
  8.2822880460279441E-02 a      1366     0    69     1     6
  9.7401644331599715E-02 a      1367     0    69     1     7
 -1.6219673727717945E-01 a      1368     0    69     1     8
  1.7081769573183922E-01 a      1369     0    69     1     9
 -1.8828646919852653E-02 a      1370     0    69     1    10
  9.1251443537074095E-02 a      1371     0    69     1    11
  1.5171436091115447E-02 a      1372     0    69     1    12
  2.4501554699337080E-01 a      1373     0    69     1    13
 -3.5213682802201288E-02 a      1374     0    69     1    14
  4.4116805909053390E-02 a      1375     0    69     1    15
  4.7754787760150422E-02 a      1376     0    69     1    16
  1.6034977817774836E-02 a      1377     0    69     1    17
 -3.6828530341631506E-02 a      1378     0    69     1    18
 -4.1088890241569927E-02 a      1379     0    69     1    19
  1.0132230171899258E-02 a      1380     0    69     1    20
 -6.4337552390116168E-02 a      1381     0    70     1     1
 -9.2197246907559566E-02 a      1382     0    70     1     2
 -3.1342314668137097E-02 a      1383     0    70     1     3
 -1.9177077633289180E-01 a      1384     0    70     1     4
  1.2801726900918795E-01 a      1385     0    70     1     5
 -7.7943433033468026E-02 a      1386     0    70     1     6
  2.5277268714098350E-01 a      1387     0    70     1     7
  1.3297550562230698E-01 a      1388     0    70     1     8
 -4.2750404776112992E-02 a      1389     0    70     1     9
  8.1884047497435775E-02 a      1390     0    70     1    10
 -3.9327404152816207E-02 a      1391     0    70     1    11
  7.4140704504903135E-02 a      1392     0    70     1    12
  1.1900906273317444E-02 a      1393     0    70     1    13
 -5.8192969827281171E-02 a      1394     0    70     1    14
 -1.2538225803446570E-01 a      1395     0    70     1    15
  6.5122676499844337E-02 a      1396     0    70     1    16
  1.5651499744418634E-01 a      1397     0    70     1    17
  9.9506931249210256E-02 a      1398     0    70     1    18
 -3.0013729229204301E-02 a      1399     0    70     1    19
  8.2063402677262868E-03 a      1400     0    70     1    20
  1.1824800604301830E-01 a      1401     0    71     1     1
 -1.2427462881134058E-01 a      1402     0    71     1     2
 -2.1606045049562300E-01 a      1403     0    71     1     3
 -6.9763130449916680E-02 a      1404     0    71     1     4
 -4.0275531454422857E-02 a      1405     0    71     1     5
  1.3801696107686343E-01 a      1406     0    71     1     6
  1.5952329678902022E-01 a      1407     0    71     1     7
 -3.4316948640531565E-02 a      1408     0    71     1     8
  8.3143798669405161E-02 a      1409     0    71     1     9
  1.5068012839466283E-01 a      1410     0    71     1    10
 -5.3614903290930653E-02 a      1411     0    71     1    11
  1.2425818214888741E-01 a      1412     0    71     1    12
  1.3840328266539761E-01 a      1413     0    71     1    13
  8.1721013071059681E-02 a      1414     0    71     1    14
 -6.8333617952348796E-02 a      1415     0    71     1    15
 -6.5981696185701738E-02 a      1416     0    71     1    16
  1.8088395378397989E-01 a      1417     0    71     1    17
 -2.1592022778557279E-01 a      1418     0    71     1    18
 -5.8195514766844047E-03 a      1419     0    71     1    19
  2.1682757821028889E-01 a      1420     0    71     1    20
  1.3816463043062494E-01 a      1421     0    72     1     1
  8.2757143935110508E-02 a      1422     0    72     1     2
  1.0562852667706388E-01 a      1423     0    72     1     3
 -2.3192284301129223E-02 a      1424     0    72     1     4
  2.1815386678001153E-01 a      1425     0    72     1     5
 -8.9782235656956973E-03 a      1426     0    72     1     6
 -2.5202079211616013E-01 a      1427     0    72     1     7
  2.8427298982036892E-01 a      1428     0    72     1     8
  1.3070698706638473E-01 a      1429     0    72     1     9
 -2.3552519217277687E-01 a      1430     0    72     1    10
  7.1346081646586443E-02 a      1431     0    72     1    11
 -5.5826786668055203E-03 a      1432     0    72     1    12
 -2.4849921299312152E-02 a      1433     0    72     1    13
  5.2709462624299291E-02 a      1434     0    72     1    14
  6.9057093757461538E-02 a      1435     0    72     1    15
 -8.3051266829508238E-02 a      1436     0    72     1    16
 -1.6667991293322953E-01 a      1437     0    72     1    17
  5.5486881155215863E-02 a      1438     0    72     1    18
  8.9966038317918162E-02 a      1439     0    72     1    19
 -5.5536522005405015E-02 a      1440     0    72     1    20
  1.4432295572213844E-01 a      1441     0    73     1     1
 -1.5289701717775109E-01 a      1442     0    73     1     2
 -8.1543063438107022E-02 a      1443     0    73     1     3
 -3.8035320925300466E-02 a      1444     0    73     1     4
 -2.2283353780584281E-01 a      1445     0    73     1     5
  7.5452488264277404E-02 a      1446     0    73     1     6
  1.5513148575648278E-01 a      1447     0    73     1     7
  1.4784209023042624E-01 a      1448     0    73     1     8
 -5.7069564515530649E-02 a      1449     0    73     1     9
  9.2999975944270050E-02 a      1450     0    73     1    10
 -1.4663676232185480E-01 a      1451     0    73     1    11
 -1.6785749304285985E-01 a      1452     0    73     1    12
  1.6067701529393197E-01 a      1453     0    73     1    13
 -7.8201926972173735E-02 a      1454     0    73     1    14
  4.3702306586486536E-02 a      1455     0    73     1    15
 -3.6957897248569481E-02 a      1456     0    73     1    16
  1.9218013862893837E-01 a      1457     0    73     1    17
 -1.8143246006456441E-02 a      1458     0    73     1    18
 -6.7339295269277968E-02 a      1459     0    73     1    19
 -5.3611987871295286E-02 a      1460     0    73     1    20
 -5.9394934496684163E-04 a      1461     0    74     1     1
  4.4705426730679558E-02 a      1462     0    74     1     2
  1.3657855430123633E-01 a      1463     0    74     1     3
 -2.1532222176584914E-01 a      1464     0    74     1     4
  6.2155918945545278E-02 a      1465     0    74     1     5
 -5.7938015524355027E-02 a      1466     0    74     1     6
 -1.4449907199916970E-02 a      1467     0    74     1     7
  5.7667565673218631E-02 a      1468     0    74     1     8
 -5.9370252493353710E-02 a      1469     0    74     1     9
  1.5571877389830760E-01 a      1470     0    74     1    10
  8.0669458586944340E-02 a      1471     0    74     1    11
 -7.5895756746790374E-02 a      1472     0    74     1    12
  1.1836249230764796E-01 a      1473     0    74     1    13
 -4.6607624324063332E-02 a      1474     0    74     1    14
  7.2494166283537040E-02 a      1475     0    74     1    15
 -2.8663841276783770E-03 a      1476     0    74     1    16
  1.0748573913294727E-01 a      1477     0    74     1    17
 -7.2402821822092822E-03 a      1478     0    74     1    18
 -1.3849961777087630E-01 a      1479     0    74     1    19
  2.1478730265335880E-01 a      1480     0    74     1    20
 -1.4090224130429754E-01 a      1481     0    75     1     1
  6.6005174339411735E-02 a      1482     0    75     1     2
 -5.8876429523177592E-02 a      1483     0    75     1     3
 -2.7972610510618601E-01 a      1484     0    75     1     4
  1.3566553509450052E-01 a      1485     0    75     1     5
  1.6207047762439869E-01 a      1486     0    75     1     6
 -1.2307581119873048E-01 a      1487     0    75     1     7
 -2.6580970230550488E-01 a      1488     0    75     1     8
 -2.9855534817597218E-01 a      1489     0    75     1     9
 -1.8142883465815099E-01 a      1490     0    75     1    10
 -1.6385358990749119E-01 a      1491     0    75     1    11
  4.3769823945374986E-01 a      1492     0    75     1    12
  2.8460707122290019E-01 a      1493     0    75     1    13
 -5.8367357914103420E-02 a      1494     0    75     1    14
  1.8716038044104641E-01 a      1495     0    75     1    15
  4.3745256869804799E-01 a      1496     0    75     1    16
  2.0761201824807235E-01 a      1497     0    75     1    17
 -1.1935997910822038E-01 a      1498     0    75     1    18
 -4.0477188403360309E-01 a      1499     0    75     1    19
 -2.1139499635641465E-01 a      1500     0    75     1    20
 -7.2342515814376035E-02 a      1501     0    76     1     1
  1.5379657267053421E-02 a      1502     0    76     1     2
 -2.1733879481219856E-01 a      1503     0    76     1     3
 -2.8451262386614169E-02 a      1504     0    76     1     4
 -1.9702320672930237E-01 a      1505     0    76     1     5
  8.2481948274103850E-02 a      1506     0    76     1     6
  1.4387307995275964E-01 a      1507     0    76     1     7
  2.1140019487335609E-02 a      1508     0    76     1     8
 -6.5235140676435391E-02 a      1509     0    76     1     9
  4.3822988235950169E-02 a      1510     0    76     1    10
  1.9969947042674473E-02 a      1511     0    76     1    11
 -8.4603390765624328E-02 a      1512     0    76     1    12
 -1.3872268556108203E-01 a      1513     0    76     1    13
 -3.8978648645240359E-02 a      1514     0    76     1    14
 -7.7719295192731228E-02 a      1515     0    76     1    15
 -8.0140337400392905E-02 a      1516     0    76     1    16
 -9.7131096362171265E-02 a      1517     0    76     1    17
  1.5434219095259571E-01 a      1518     0    76     1    18
  2.0604331710794457E-01 a      1519     0    76     1    19
  6.8224325608478811E-02 a      1520     0    76     1    20
 -4.8900244206902872E-02 a      1521     0    77     1     1
  1.8375416873538036E-02 a      1522     0    77     1     2
  2.5542491859869062E-02 a      1523     0    77     1     3
 -5.7324656510608528E-03 a      1524     0    77     1     4
  5.2341963958832588E-02 a      1525     0    77     1     5
  1.8762336117504458E-01 a      1526     0    77     1     6
 -1.0430630149555067E-01 a      1527     0    77     1     7
  1.6460249896189882E-02 a      1528     0    77     1     8
  2.2247723399605124E-02 a      1529     0    77     1     9
 -1.9095827073572227E-01 a      1530     0    77     1    10
 -1.6564539744440832E-01 a      1531     0    77     1    11
  1.8894930750165398E-01 a      1532     0    77     1    12
  6.9282521944718546E-03 a      1533     0    77     1    13
  2.6971145151769710E-03 a      1534     0    77     1    14
  2.0065500701039649E-01 a      1535     0    77     1    15
  2.7484232204751817E-02 a      1536     0    77     1    16
  2.3918403056024340E-01 a      1537     0    77     1    17
  1.5702104642201797E-01 a      1538     0    77     1    18
  5.7192593929728482E-02 a      1539     0    77     1    19
 -5.9956782698976342E-02 a      1540     0    77     1    20
  4.2483894494604511E-02 a      1541     0    78     1     1
 -1.1602341657183993E-01 a      1542     0    78     1     2
 -5.7174101840295217E-03 a      1543     0    78     1     3
 -1.0472125565337007E-01 a      1544     0    78     1     4
  3.8732277288465698E-03 a      1545     0    78     1     5
  8.7743672707873158E-02 a      1546     0    78     1     6
  1.4129635183048658E-01 a      1547     0    78     1     7
 -3.9381040697588861E-02 a      1548     0    78     1     8
 -1.0729739437815597E-02 a      1549     0    78     1     9
  5.6079747047998632E-02 a      1550     0    78     1    10
  5.0657284764639661E-02 a      1551     0    78     1    11
 -1.2820329623357996E-01 a      1552     0    78     1    12
  4.2864819414214321E-02 a      1553     0    78     1    13
  1.3355165158264157E-01 a      1554     0    78     1    14
 -3.7649487840655319E-02 a      1555     0    78     1    15
 -2.2929840092913794E-03 a      1556     0    78     1    16
 -1.8135243078260702E-02 a      1557     0    78     1    17
 -1.0405613546034953E-01 a      1558     0    78     1    18
 -2.3508291875035187E-02 a      1559     0    78     1    19
 -1.9718912851780659E-01 a      1560     0    78     1    20
 -2.4247627043802264E-01 a      1561     0    79     1     1
 -9.1425604058446505E-03 a      1562     0    79     1     2
  6.1865321659632232E-02 a      1563     0    79     1     3
  1.6954920567327062E-02 a      1564     0    79     1     4
 -2.0061018093132665E-01 a      1565     0    79     1     5
  5.4160847781166248E-02 a      1566     0    79     1     6
  4.8120289854082399E-02 a      1567     0    79     1     7
 -2.2002239882668344E-02 a      1568     0    79     1     8
  1.6753699128693903E-02 a      1569     0    79     1     9
  4.5895847654008066E-02 a      1570     0    79     1    10
  1.4830583017834142E-02 a      1571     0    79     1    11
 -1.4863199138621214E-01 a      1572     0    79     1    12
  1.2504214479129871E-01 a      1573     0    79     1    13
 -6.3084552001437116E-02 a      1574     0    79     1    14
 -3.4476931439863167E-03 a      1575     0    79     1    15
 -2.3544884740318271E-02 a      1576     0    79     1    16
 -1.2572266106009766E-01 a      1577     0    79     1    17
  9.5450366457871333E-02 a      1578     0    79     1    18
 -9.7012216055348491E-03 a      1579     0    79     1    19
 -3.3868242299682959E-02 a      1580     0    79     1    20
 -1.0985040488663256E-01 a      1581     0    80     1     1
 -1.2456755882873286E-01 a      1582     0    80     1     2
 -1.7646999433668334E-01 a      1583     0    80     1     3
 -1.8265306756988037E-02 a      1584     0    80     1     4
 -4.2053683490281928E-02 a      1585     0    80     1     5
  7.9089248976700485E-02 a      1586     0    80     1     6
  4.8508903976035710E-02 a      1587     0    80     1     7
  7.2816806761012709E-02 a      1588     0    80     1     8
 -1.0173577060683947E-02 a      1589     0    80     1     9
  1.9731214746351297E-01 a      1590     0    80     1    10
  9.6960470705203333E-02 a      1591     0    80     1    11
  2.3670034023038491E-02 a      1592     0    80     1    12
 -1.1846938489654253E-01 a      1593     0    80     1    13
 -7.7775230816153437E-02 a      1594     0    80     1    14
  2.4918874136284838E-02 a      1595     0    80     1    15
  4.5162887282640292E-02 a      1596     0    80     1    16
 -5.0106913682061667E-02 a      1597     0    80     1    17
 -2.0570538838264554E-02 a      1598     0    80     1    18
  7.9240805155812402E-02 a      1599     0    80     1    19
  8.2574736114920361E-02 a      1600     0    80     1    20
 -5.3083403542035702E-02 a      1601     0    81     1     1
  9.8528828319379563E-02 a      1602     0    81     1     2
 -1.6369952094942669E-01 a      1603     0    81     1     3
 -9.6931939420442120E-02 a      1604     0    81     1     4
 -1.4712909609102787E-01 a      1605     0    81     1     5
  4.8019540257396513E-02 a      1606     0    81     1     6
  1.7506479605946412E-01 a      1607     0    81     1     7
 -1.6537785712833539E-01 a      1608     0    81     1     8
 -3.9776586642144930E-02 a      1609     0    81     1     9
  1.3088226934440608E-01 a      1610     0    81     1    10
  9.3398667171482305E-02 a      1611     0    81     1    11
  8.1647359969065567E-02 a      1612     0    81     1    12
  1.0517492992432209E-01 a      1613     0    81     1    13
  2.7984979928358276E-02 a      1614     0    81     1    14
  1.1711228053174028E-01 a      1615     0    81     1    15
  6.1238827352150339E-02 a      1616     0    81     1    16
  1.1586940570328910E-01 a      1617     0    81     1    17
 -3.4818134989493765E-02 a      1618     0    81     1    18
 -2.3630636986906119E-02 a      1619     0    81     1    19
  1.9616299519613542E-01 a      1620     0    81     1    20
  1.7563051222003682E-02 a      1621     0    82     1     1
  1.0578437752376023E-03 a      1622     0    82     1     2
 -8.8517426822965622E-02 a      1623     0    82     1     3
