################################################################################
# Neural network connection values (weights and biases).
################################################################################
# Col  Name       Description
################################################################################
# 1    connection Neural network connection value.
# 2    t          Connection type (a = weight, b = bias).
# 3    index      Index enumerating weights.
# 4    l_s        Starting point layer (end point layer for biases).
# 5    n_s        Starting point neuron in starting layer (end point neuron for biases).
# 6    l_e        End point layer.
# 7    n_e        End point neuron in end layer.
################################################################################
#                      1 2         3     4     5     6     7
#             connection t     index   l_s   n_s   l_e   n_e
############################################################
  1.4015294240636444E-01 a         1     0     1     1     1
  1.0930309970090084E-01 a         2     0     1     1     2
  1.3196833516512349E-01 a         3     0     1     1     3
 -1.8260851332992928E-01 a         4     0     1     1     4
 -1.0058169891889156E-01 a         5     0     1     1     5
  2.0526901967407790E-01 a         6     0     1     1     6
  1.0359955335834452E-01 a         7     0     1     1     7
  1.0632306479535319E-01 a         8     0     1     1     8
 -6.5126501556466182E-02 a         9     0     1     1     9
 -1.5305375744339739E-01 a        10     0     1     1    10
 -7.9435387542052469E-02 a        11     0     1     1    11
  2.0896313459238428E-01 a        12     0     1     1    12
  1.6925805973915994E-01 a        13     0     1     1    13
 -1.8352510102308531E-01 a        14     0     1     1    14
 -3.8057042328403755E-02 a        15     0     1     1    15
 -2.0169351486908360E-01 a        16     0     1     1    16
  1.4956193997628300E-01 a        17     0     1     1    17
  4.3428371685899046E-02 a        18     0     1     1    18
 -2.4476347739954225E-02 a        19     0     1     1    19
 -7.2849113113702277E-02 a        20     0     1     1    20
  1.7891997293121290E-01 a        21     0     2     1     1
 -5.7056267428248018E-03 a        22     0     2     1     2
 -9.3585332381619438E-02 a        23     0     2     1     3
 -5.8163343487847567E-02 a        24     0     2     1     4
  1.6600414409005501E-01 a        25     0     2     1     5
 -1.0968559653933152E-02 a        26     0     2     1     6
 -1.0895089318774231E-01 a        27     0     2     1     7
  5.3825165784265099E-02 a        28     0     2     1     8
  1.7598619338658975E-01 a        29     0     2     1     9
 -8.0824916755762616E-02 a        30     0     2     1    10
 -4.0423906778501953E-02 a        31     0     2     1    11
 -1.6772976056206390E-01 a        32     0     2     1    12
  1.4373580272113143E-01 a        33     0     2     1    13
  6.4519942704519967E-02 a        34     0     2     1    14
  1.8825035286539563E-01 a        35     0     2     1    15
  1.0956536110635375E-01 a        36     0     2     1    16
 -3.7836928921494657E-02 a        37     0     2     1    17
 -6.3757185212396641E-04 a        38     0     2     1    18
 -1.6192323441701789E-01 a        39     0     2     1    19
 -3.1372382268317962E-02 a        40     0     2     1    20
 -7.3880977205933000E-03 a        41     0     3     1     1
 -8.6617737718519758E-03 a        42     0     3     1     2
  1.3959784876366058E-01 a        43     0     3     1     3
 -1.4067713433400506E-01 a        44     0     3     1     4
 -2.5408919759450305E-01 a        45     0     3     1     5
 -9.9564962337470447E-03 a        46     0     3     1     6
  1.3898487341057950E-01 a        47     0     3     1     7
 -7.2207539771297458E-02 a        48     0     3     1     8
 -1.9733771960333879E-02 a        49     0     3     1     9
 -1.9571992776145788E-01 a        50     0     3     1    10
  1.5482967484621094E-01 a        51     0     3     1    11
  2.6413721355211132E-02 a        52     0     3     1    12
  7.2228100008924309E-02 a        53     0     3     1    13
 -5.4410874497042301E-02 a        54     0     3     1    14
  1.5169951099839465E-01 a        55     0     3     1    15
  1.5034948572071288E-01 a        56     0     3     1    16
  1.4034168929997540E-01 a        57     0     3     1    17
  6.3938134925200799E-02 a        58     0     3     1    18
 -4.2487707582807004E-02 a        59     0     3     1    19
 -7.9319049816454795E-02 a        60     0     3     1    20
  2.4661399471837105E-02 a        61     0     4     1     1
 -3.0869737534551900E-01 a        62     0     4     1     2
  1.5196289682121528E-01 a        63     0     4     1     3
  7.7377928563337486E-02 a        64     0     4     1     4
 -1.3205703985741368E-01 a        65     0     4     1     5
  4.4111987509945536E-02 a        66     0     4     1     6
  1.0213113914877185E-01 a        67     0     4     1     7
 -7.4782475059861821E-03 a        68     0     4     1     8
  1.8086934592968448E-01 a        69     0     4     1     9
 -1.0625993773134056E-03 a        70     0     4     1    10
 -2.5802889924518352E-01 a        71     0     4     1    11
 -2.7659490623652377E-01 a        72     0     4     1    12
 -6.2023198672190669E-03 a        73     0     4     1    13
 -1.7336948055092191E-01 a        74     0     4     1    14
 -1.7579765868707679E-02 a        75     0     4     1    15
  2.7462378036450869E-01 a        76     0     4     1    16
  1.7798998081555922E-01 a        77     0     4     1    17
  2.8331461233339992E-02 a        78     0     4     1    18
 -5.8124677101751121E-02 a        79     0     4     1    19
  6.6975393561970339E-02 a        80     0     4     1    20
 -1.8232194925677894E-01 a        81     0     5     1     1
  2.0044138187799567E-02 a        82     0     5     1     2
 -9.5167054624572756E-02 a        83     0     5     1     3
 -6.9359406798689635E-04 a        84     0     5     1     4
  1.2927439115479131E-01 a        85     0     5     1     5
  1.4630526525005561E-01 a        86     0     5     1     6
 -6.8846747602601399E-02 a        87     0     5     1     7
 -8.2215746376641030E-02 a        88     0     5     1     8
 -1.4147438328965822E-01 a        89     0     5     1     9
 -1.5987955054760619E-01 a        90     0     5     1    10
 -2.3513617554183533E-01 a        91     0     5     1    11
  1.8891752074806817E-01 a        92     0     5     1    12
  6.8319390711569228E-03 a        93     0     5     1    13
 -5.8425587770122106E-02 a        94     0     5     1    14
  1.3429673820103080E-01 a        95     0     5     1    15
 -4.2904393162609453E-02 a        96     0     5     1    16
 -2.1370079738286130E-01 a        97     0     5     1    17
  1.3863024905811949E-01 a        98     0     5     1    18
 -5.9024533543707645E-02 a        99     0     5     1    19
 -5.6929566598567842E-02 a       100     0     5     1    20
 -2.3675447224390005E-02 a       101     0     6     1     1
  1.4943196109634635E-01 a       102     0     6     1     2
 -3.9940233298392226E-02 a       103     0     6     1     3
 -6.6004954774217001E-02 a       104     0     6     1     4
 -3.2765369643945531E-02 a       105     0     6     1     5
 -1.2420700881501752E-03 a       106     0     6     1     6
 -9.9988346031393317E-03 a       107     0     6     1     7
 -1.9156890593685710E-01 a       108     0     6     1     8
  1.1251431495315871E-01 a       109     0     6     1     9
 -7.9875177605005815E-02 a       110     0     6     1    10
  6.5147195405312427E-02 a       111     0     6     1    11
  4.7977932593652149E-02 a       112     0     6     1    12
 -5.0537907794185911E-02 a       113     0     6     1    13
  1.0282981956365166E-01 a       114     0     6     1    14
  7.0373703377603042E-02 a       115     0     6     1    15
  1.0908805389056386E-01 a       116     0     6     1    16
 -6.5540559873762588E-02 a       117     0     6     1    17
  1.6218279752757617E-01 a       118     0     6     1    18
 -1.0472550302598024E-01 a       119     0     6     1    19
  3.4717839467357228E-03 a       120     0     6     1    20
  1.4966742867255584E-01 a       121     0     7     1     1
 -5.6868027166550303E-02 a       122     0     7     1     2
  1.9472820644648869E-01 a       123     0     7     1     3
 -1.8707756211210205E-01 a       124     0     7     1     4
  1.2104514049659720E-01 a       125     0     7     1     5
 -3.3961688626000512E-02 a       126     0     7     1     6
 -2.2221223717435467E-02 a       127     0     7     1     7
  5.9684354471088462E-02 a       128     0     7     1     8
 -1.2005687800554012E-01 a       129     0     7     1     9
  9.8303753185002951E-02 a       130     0     7     1    10
 -2.8762656805053699E-01 a       131     0     7     1    11
 -4.4904889640358353E-02 a       132     0     7     1    12
 -1.3167799681075848E-02 a       133     0     7     1    13
 -1.6549216056994434E-01 a       134     0     7     1    14
  9.1533686866921468E-02 a       135     0     7     1    15
 -2.6635742489450165E-01 a       136     0     7     1    16
  6.9017906041457217E-02 a       137     0     7     1    17
  4.2796672958399493E-02 a       138     0     7     1    18
 -7.5828461144666071E-02 a       139     0     7     1    19
  2.0566821158244142E-01 a       140     0     7     1    20
  8.0765075517701235E-02 a       141     0     8     1     1
  3.0350793044321620E-02 a       142     0     8     1     2
  1.5185013278495099E-01 a       143     0     8     1     3
  1.3639791451798333E-02 a       144     0     8     1     4
  2.4131044646575109E-01 a       145     0     8     1     5
  1.5946360620891784E-01 a       146     0     8     1     6
  1.0345786942382920E-01 a       147     0     8     1     7
  1.2267985712686650E-02 a       148     0     8     1     8
 -2.6293169714843195E-01 a       149     0     8     1     9
  1.5505329456582164E-02 a       150     0     8     1    10
  3.4268287011866440E-02 a       151     0     8     1    11
  1.7291635354232673E-01 a       152     0     8     1    12
 -7.3949725824852333E-02 a       153     0     8     1    13
 -5.5897022722630155E-02 a       154     0     8     1    14
  3.0287217791617117E-02 a       155     0     8     1    15
 -2.2251964702380919E-01 a       156     0     8     1    16
 -2.3599906209076465E-02 a       157     0     8     1    17
  4.4404048546845133E-02 a       158     0     8     1    18
 -4.0091170878556237E-02 a       159     0     8     1    19
  1.6157174822887317E-02 a       160     0     8     1    20
 -1.5436676666367202E-01 a       161     0     9     1     1
 -5.5959904203859344E-02 a       162     0     9     1     2
 -1.0218806823718785E-01 a       163     0     9     1     3
 -6.6527415877212809E-02 a       164     0     9     1     4
  1.0198439051353163E-01 a       165     0     9     1     5
 -2.5305528212954265E-01 a       166     0     9     1     6
 -2.0602265849156121E-01 a       167     0     9     1     7
 -2.8709123481871133E-02 a       168     0     9     1     8
  7.9472680344005425E-02 a       169     0     9     1     9
 -1.6780201872118433E-01 a       170     0     9     1    10
  5.5732983738318163E-02 a       171     0     9     1    11
 -2.5056685667035983E-01 a       172     0     9     1    12
 -2.9452757544619134E-02 a       173     0     9     1    13
  2.0099222802703026E-01 a       174     0     9     1    14
 -1.1194077100411085E-01 a       175     0     9     1    15
 -3.1921959820978653E-02 a       176     0     9     1    16
 -1.8911169575594908E-01 a       177     0     9     1    17
 -1.1662811778618824E-01 a       178     0     9     1    18
 -7.0566740856751312E-02 a       179     0     9     1    19
 -4.9148704847010061E-02 a       180     0     9     1    20
 -3.8784630017070706E-02 a       181     0    10     1     1
  4.7545633931989507E-03 a       182     0    10     1     2
  1.4365143966253488E-01 a       183     0    10     1     3
  2.4992933300472697E-02 a       184     0    10     1     4
  3.2402772120603614E-02 a       185     0    10     1     5
  1.0814746461911522E-01 a       186     0    10     1     6
 -1.9460465619086276E-01 a       187     0    10     1     7
  1.9885743093399333E-01 a       188     0    10     1     8
  1.7679500397739595E-01 a       189     0    10     1     9
  1.2492926378505000E-01 a       190     0    10     1    10
 -1.8920310429698692E-01 a       191     0    10     1    11
  1.4552674189033646E-01 a       192     0    10     1    12
 -9.9873225699156271E-02 a       193     0    10     1    13
 -1.1239951063940040E-01 a       194     0    10     1    14
  8.4772295029531819E-03 a       195     0    10     1    15
 -6.9151991042152139E-02 a       196     0    10     1    16
  4.5950442107089193E-02 a       197     0    10     1    17
 -2.5531523309908050E-01 a       198     0    10     1    18
  2.6866366590890256E-02 a       199     0    10     1    19
  7.6645504212861607E-02 a       200     0    10     1    20
  1.4131256803174677E-01 a       201     0    11     1     1
 -6.2822193891162226E-02 a       202     0    11     1     2
 -8.2767458046237655E-02 a       203     0    11     1     3
  1.8550502868195012E-01 a       204     0    11     1     4
 -1.4843445637012179E-01 a       205     0    11     1     5
  2.1504585958116659E-01 a       206     0    11     1     6
  3.0808447273552076E-02 a       207     0    11     1     7
  2.4028383565460210E-02 a       208     0    11     1     8
  1.5756398228482880E-02 a       209     0    11     1     9
 -9.7404149460155090E-02 a       210     0    11     1    10
  1.6428761263427172E-01 a       211     0    11     1    11
 -1.0775863989572323E-01 a       212     0    11     1    12
 -1.0659145350997634E-02 a       213     0    11     1    13
 -1.4503347474072353E-01 a       214     0    11     1    14
 -2.5334651025483512E-01 a       215     0    11     1    15
 -3.2640274387457570E-02 a       216     0    11     1    16
 -1.0037038875460060E-01 a       217     0    11     1    17
 -1.7728111174898400E-01 a       218     0    11     1    18
  3.0309313110164160E-01 a       219     0    11     1    19
  1.2953811155444145E-01 a       220     0    11     1    20
  1.3250183503521953E-01 a       221     0    12     1     1
 -1.4489137995329840E-01 a       222     0    12     1     2
 -2.0367215191787477E-01 a       223     0    12     1     3
 -1.2431665946012692E-01 a       224     0    12     1     4
 -1.4226299734731301E-01 a       225     0    12     1     5
 -1.6584523982176053E-01 a       226     0    12     1     6
  1.1497287335886341E-01 a       227     0    12     1     7
 -5.5909498521125860E-02 a       228     0    12     1     8
  1.2908590991504118E-01 a       229     0    12     1     9
 -6.5918224150769811E-02 a       230     0    12     1    10
 -1.6170224914794737E-01 a       231     0    12     1    11
  2.2270110680160665E-01 a       232     0    12     1    12
 -1.4685979706299346E-01 a       233     0    12     1    13
  1.2448249368324378E-01 a       234     0    12     1    14
  2.6601397778658087E-01 a       235     0    12     1    15
 -5.7380072481484863E-02 a       236     0    12     1    16
  3.2502731272557664E-02 a       237     0    12     1    17
 -7.4707386349979676E-03 a       238     0    12     1    18
  1.1047110287667218E-01 a       239     0    12     1    19
  1.1397722210843107E-01 a       240     0    12     1    20
  6.4963497957909774E-02 a       241     0    13     1     1
  3.6831311776387307E-02 a       242     0    13     1     2
 -3.9311636670816578E-03 a       243     0    13     1     3
 -2.0163070994784267E-02 a       244     0    13     1     4
 -1.5246106137899967E-01 a       245     0    13     1     5
 -3.0582695956850488E-02 a       246     0    13     1     6
 -1.0766688186543090E-01 a       247     0    13     1     7
 -1.9806371790600543E-02 a       248     0    13     1     8
  2.0896953248850863E-02 a       249     0    13     1     9
  3.3399689113110899E-02 a       250     0    13     1    10
  1.1042474941142940E-02 a       251     0    13     1    11
  1.2699041843117896E-02 a       252     0    13     1    12
 -1.5055102315123967E-01 a       253     0    13     1    13
  5.6106050933237950E-02 a       254     0    13     1    14
  1.7446779401151635E-01 a       255     0    13     1    15
  1.2573914573003808E-01 a       256     0    13     1    16
  1.3660303974912971E-01 a       257     0    13     1    17
 -3.8483452253125515E-02 a       258     0    13     1    18
 -2.0091968475266522E-01 a       259     0    13     1    19
 -6.5856754850813659E-02 a       260     0    13     1    20
  1.2012233215896370E-01 a       261     0    14     1     1
  6.2026479380014862E-02 a       262     0    14     1     2
  1.1706404308283332E-01 a       263     0    14     1     3
 -6.7061851885805726E-02 a       264     0    14     1     4
  3.6500569226080318E-02 a       265     0    14     1     5
  9.6557783996708835E-02 a       266     0    14     1     6
  1.1473825757207665E-01 a       267     0    14     1     7
  1.1782449965300634E-01 a       268     0    14     1     8
  7.8013323460817061E-02 a       269     0    14     1     9
 -6.6875255474633605E-02 a       270     0    14     1    10
 -6.5502640555816075E-02 a       271     0    14     1    11
  2.2656523301258413E-01 a       272     0    14     1    12
 -1.3769003098157345E-01 a       273     0    14     1    13
 -1.0172624866079061E-02 a       274     0    14     1    14
 -1.7878243458716317E-02 a       275     0    14     1    15
  1.3532239160957321E-01 a       276     0    14     1    16
 -1.7443258030865968E-01 a       277     0    14     1    17
  8.3448969546348631E-02 a       278     0    14     1    18
 -1.3074277020727035E-01 a       279     0    14     1    19
 -1.8541371859590195E-03 a       280     0    14     1    20
  6.7438754210923310E-02 a       281     0    15     1     1
 -1.5769719845874297E-01 a       282     0    15     1     2
  1.9910117351545364E-01 a       283     0    15     1     3
 -6.8196493263223676E-02 a       284     0    15     1     4
  7.2609084112335312E-02 a       285     0    15     1     5
  1.3182574063749261E-01 a       286     0    15     1     6
  2.6990258867455658E-01 a       287     0    15     1     7
  4.9647262449981695E-02 a       288     0    15     1     8
  3.0759622250824729E-02 a       289     0    15     1     9
 -8.6538260554423235E-02 a       290     0    15     1    10
  1.2077752877647327E-01 a       291     0    15     1    11
 -6.3500850769280831E-02 a       292     0    15     1    12
 -1.6812136207229118E-02 a       293     0    15     1    13
  2.1127617009625577E-01 a       294     0    15     1    14
 -1.2807656157417990E-01 a       295     0    15     1    15
  7.3687024703352630E-02 a       296     0    15     1    16
 -4.4948034091618475E-02 a       297     0    15     1    17
  1.1126481341642261E-01 a       298     0    15     1    18
  1.1180910456335220E-02 a       299     0    15     1    19
  1.9599030593400812E-01 a       300     0    15     1    20
 -1.7039722429316362E-01 a       301     0    16     1     1
  6.8890517825427267E-02 a       302     0    16     1     2
 -1.3998562879867392E-02 a       303     0    16     1     3
 -1.4363561339915268E-01 a       304     0    16     1     4
 -5.1744204493508687E-02 a       305     0    16     1     5
 -7.8165368021720971E-02 a       306     0    16     1     6
 -1.8058040009844144E-03 a       307     0    16     1     7
 -6.5604961662655462E-02 a       308     0    16     1     8
 -1.1649326940139848E-01 a       309     0    16     1     9
  4.5720324448179327E-02 a       310     0    16     1    10
 -1.8785515463987816E-02 a       311     0    16     1    11
 -7.0580853090101370E-02 a       312     0    16     1    12
 -3.6717255936011092E-02 a       313     0    16     1    13
  1.3205014573646237E-01 a       314     0    16     1    14
 -5.1145405267540307E-02 a       315     0    16     1    15
  1.3778039001600603E-01 a       316     0    16     1    16
  4.6546473253952156E-02 a       317     0    16     1    17
 -1.1352643210296792E-01 a       318     0    16     1    18
 -1.5701956985120169E-02 a       319     0    16     1    19
  1.2576469541877208E-01 a       320     0    16     1    20
  8.1728906503013621E-02 a       321     0    17     1     1
  1.4796426506383284E-02 a       322     0    17     1     2
  1.1838734537044679E-01 a       323     0    17     1     3
  1.7664475199896962E-01 a       324     0    17     1     4
 -1.5397749695871582E-01 a       325     0    17     1     5
 -1.6748413126596060E-01 a       326     0    17     1     6
 -1.3631841788733576E-01 a       327     0    17     1     7
 -1.0348795231089150E-01 a       328     0    17     1     8
  1.5528842439650348E-01 a       329     0    17     1     9
  1.7884915649716637E-01 a       330     0    17     1    10
 -4.3278687086186582E-02 a       331     0    17     1    11
 -5.6126806532389877E-02 a       332     0    17     1    12
 -1.2264104067780777E-01 a       333     0    17     1    13
 -2.1091263180082645E-01 a       334     0    17     1    14
 -1.5580840871201543E-01 a       335     0    17     1    15
  9.8669162120597689E-02 a       336     0    17     1    16
  1.4913944550567712E-01 a       337     0    17     1    17
  9.8954874770759538E-02 a       338     0    17     1    18
  9.1277387435700578E-03 a       339     0    17     1    19
 -6.4181243292791221E-02 a       340     0    17     1    20
  1.1526530775828291E-01 a       341     0    18     1     1
  1.0482016045939249E-01 a       342     0    18     1     2
 -1.4975021357811147E-01 a       343     0    18     1     3
  1.3801905281388749E-02 a       344     0    18     1     4
  6.3404205668375138E-02 a       345     0    18     1     5
 -1.3370600927574255E-01 a       346     0    18     1     6
 -9.0002988928126762E-02 a       347     0    18     1     7
  1.9709229511073656E-01 a       348     0    18     1     8
  1.0925726258709631E-01 a       349     0    18     1     9
  2.2040505758100992E-01 a       350     0    18     1    10
  2.1057717230487352E-02 a       351     0    18     1    11
 -3.4277382489564683E-03 a       352     0    18     1    12
 -2.4601288536471833E-01 a       353     0    18     1    13
  1.3823107141275504E-01 a       354     0    18     1    14
 -1.1181953034476591E-01 a       355     0    18     1    15
  3.7642995046201139E-02 a       356     0    18     1    16
 -9.3074987035659279E-02 a       357     0    18     1    17
 -5.5936809323057585E-02 a       358     0    18     1    18
 -4.0779844395650008E-02 a       359     0    18     1    19
  5.6872396689294301E-02 a       360     0    18     1    20
  3.4525202580291299E-02 a       361     0    19     1     1
  2.6280931271545169E-02 a       362     0    19     1     2
 -5.5285810562813890E-02 a       363     0    19     1     3
 -1.1334983190701571E-01 a       364     0    19     1     4
 -1.2099163960278406E-01 a       365     0    19     1     5
 -1.0699524068313897E-01 a       366     0    19     1     6
  8.3858587621480032E-02 a       367     0    19     1     7
  8.8991341975857591E-02 a       368     0    19     1     8
 -1.8564387103706231E-01 a       369     0    19     1     9
  1.7586640336653406E-01 a       370     0    19     1    10
 -7.9180397428501824E-03 a       371     0    19     1    11
  3.1658238841278594E-02 a       372     0    19     1    12
  2.0552687441340881E-01 a       373     0    19     1    13
 -9.7144787101929878E-02 a       374     0    19     1    14
  3.7267786367206644E-02 a       375     0    19     1    15
 -2.3051163523819262E-01 a       376     0    19     1    16
  2.3368826225010822E-01 a       377     0    19     1    17
 -6.3905291569264028E-02 a       378     0    19     1    18
 -1.3203602827438935E-02 a       379     0    19     1    19
  2.2049543303758717E-02 a       380     0    19     1    20
  1.5375168929967747E-01 a       381     0    20     1     1
  1.0450392819750372E-01 a       382     0    20     1     2
  9.3461191447445580E-02 a       383     0    20     1     3
  6.7412148118728268E-02 a       384     0    20     1     4
 -9.0408489317072682E-02 a       385     0    20     1     5
  7.2606131614214392E-02 a       386     0    20     1     6
 -1.6368067084957177E-01 a       387     0    20     1     7
  1.4131894273119849E-02 a       388     0    20     1     8
  8.7353760390479374E-02 a       389     0    20     1     9
  1.0462387705604816E-01 a       390     0    20     1    10
 -8.0808233897766757E-02 a       391     0    20     1    11
  1.2780189431490610E-01 a       392     0    20     1    12
 -2.1304865680866415E-02 a       393     0    20     1    13
  1.5266673682677306E-01 a       394     0    20     1    14
  9.4233159622648499E-02 a       395     0    20     1    15
  1.5053861653266154E-01 a       396     0    20     1    16
 -8.3076161879730145E-02 a       397     0    20     1    17
 -7.1798089147921518E-02 a       398     0    20     1    18
  7.4961280501833857E-02 a       399     0    20     1    19
 -1.0815781168501157E-01 a       400     0    20     1    20
  2.5390114427635924E-01 a       401     0    21     1     1
  1.2456465530266664E-02 a       402     0    21     1     2
  3.9146999223725373E-02 a       403     0    21     1     3
  2.5208277517373162E-01 a       404     0    21     1     4
  1.7800403325961539E-01 a       405     0    21     1     5
 -1.1784316600222873E-01 a       406     0    21     1     6
 -7.0097413227957553E-02 a       407     0    21     1     7
 -8.4790884575750000E-02 a       408     0    21     1     8
  3.1990636316292093E-02 a       409     0    21     1     9
  1.5516592300400867E-01 a       410     0    21     1    10
  1.7676294614104367E-02 a       411     0    21     1    11
 -6.0914054983397491E-02 a       412     0    21     1    12
  1.8223459650407777E-02 a       413     0    21     1    13
  4.9820453664947299E-02 a       414     0    21     1    14
 -1.3759273330636894E-02 a       415     0    21     1    15
 -7.3891744850039742E-02 a       416     0    21     1    16
 -8.5839114653624773E-02 a       417     0    21     1    17
  1.9832811936946829E-01 a       418     0    21     1    18
  9.0061570868742752E-02 a       419     0    21     1    19
 -9.0518669987679740E-02 a       420     0    21     1    20
 -4.6106236142897751E-02 a       421     0    22     1     1
 -2.6278684610997740E-03 a       422     0    22     1     2
 -9.9632810790912379E-02 a       423     0    22     1     3
  2.1351208139613734E-02 a       424     0    22     1     4
  2.9268265493991713E-01 a       425     0    22     1     5
  1.2328619230249843E-01 a       426     0    22     1     6
  1.0032868172587882E-01 a       427     0    22     1     7
 -1.3571569220745714E-02 a       428     0    22     1     8
 -1.1404765325169092E-01 a       429     0    22     1     9
 -1.4697684777530948E-01 a       430     0    22     1    10
 -1.5897008582589137E-01 a       431     0    22     1    11
  1.6236905041844862E-01 a       432     0    22     1    12
 -3.6495177533106299E-02 a       433     0    22     1    13
  1.2963859860639454E-01 a       434     0    22     1    14
  1.2431016281765575E-01 a       435     0    22     1    15
  2.2214598038177189E-02 a       436     0    22     1    16
 -1.2375755149715859E-01 a       437     0    22     1    17
 -1.7903716168163694E-01 a       438     0    22     1    18
 -1.2032795735279793E-01 a       439     0    22     1    19
 -4.4039976062480897E-02 a       440     0    22     1    20
  2.9861854710798780E-01 a       441     0    23     1     1
  1.9906427519263994E-01 a       442     0    23     1     2
 -1.3300293498038593E-01 a       443     0    23     1     3
  2.7949159171352347E-02 a       444     0    23     1     4
 -1.4803790159523700E-01 a       445     0    23     1     5
 -1.4650844651079159E-01 a       446     0    23     1     6
 -1.7478812605369806E-03 a       447     0    23     1     7
 -1.0835379705798494E-01 a       448     0    23     1     8
 -6.5118282725360799E-02 a       449     0    23     1     9
 -6.9028036738418605E-02 a       450     0    23     1    10
  1.7808617261197739E-02 a       451     0    23     1    11
 -3.4188649736254226E-02 a       452     0    23     1    12
 -1.6358501898410716E-01 a       453     0    23     1    13
 -2.7279170007063558E-01 a       454     0    23     1    14
  2.2131967395159430E-01 a       455     0    23     1    15
  5.3224415736619110E-02 a       456     0    23     1    16
  3.0016015423921888E-01 a       457     0    23     1    17
  1.1940057306732707E-01 a       458     0    23     1    18
  1.3482535860820707E-01 a       459     0    23     1    19
 -1.0175441444826418E-01 a       460     0    23     1    20
 -2.0245234496818316E-02 a       461     0    24     1     1
 -1.5101337302682766E-01 a       462     0    24     1     2
  6.6097901030720149E-02 a       463     0    24     1     3
 -3.0239923118378573E-02 a       464     0    24     1     4
 -5.5965674726169614E-03 a       465     0    24     1     5
  1.7573695788401084E-01 a       466     0    24     1     6
 -1.1157017691313258E-01 a       467     0    24     1     7
 -1.6191250364536222E-01 a       468     0    24     1     8
 -3.0681540893644721E-02 a       469     0    24     1     9
 -2.2499509669418721E-01 a       470     0    24     1    10
 -1.3767254119618813E-01 a       471     0    24     1    11
  1.3485197191004546E-02 a       472     0    24     1    12
 -1.3006195320814085E-02 a       473     0    24     1    13
 -1.5682702131754969E-01 a       474     0    24     1    14
 -3.2471576967967056E-02 a       475     0    24     1    15
  1.2619208663772369E-01 a       476     0    24     1    16
 -6.1630705580033016E-02 a       477     0    24     1    17
 -6.1759103570985921E-02 a       478     0    24     1    18
  1.4817756934948548E-01 a       479     0    24     1    19
  2.4755370387118505E-01 a       480     0    24     1    20
  8.2171592185271577E-02 a       481     0    25     1     1
 -1.7599886314512533E-02 a       482     0    25     1     2
 -6.4142820000774134E-02 a       483     0    25     1     3
 -7.2370733510181001E-02 a       484     0    25     1     4
 -1.7814281672427956E-01 a       485     0    25     1     5
 -5.4786703423117138E-02 a       486     0    25     1     6
  1.5481856780184194E-01 a       487     0    25     1     7
 -1.3947142539002427E-01 a       488     0    25     1     8
 -8.3691313896474440E-02 a       489     0    25     1     9
  1.0632956724912621E-01 a       490     0    25     1    10
 -6.3253926312011627E-02 a       491     0    25     1    11
  3.8272432197047485E-02 a       492     0    25     1    12
 -7.9612124618001406E-02 a       493     0    25     1    13
  2.2066958419323979E-02 a       494     0    25     1    14
 -2.0275718542087118E-01 a       495     0    25     1    15
  1.7531677751847516E-01 a       496     0    25     1    16
  7.5242727455836295E-02 a       497     0    25     1    17
  1.5003424197548618E-02 a       498     0    25     1    18
  8.1560833857712053E-02 a       499     0    25     1    19
  2.1622922973719188E-02 a       500     0    25     1    20
 -1.1009429635846225E-01 a       501     0    26     1     1
 -2.2724145679642822E-02 a       502     0    26     1     2
  1.0540847575405816E-01 a       503     0    26     1     3
 -1.4745254445490036E-01 a       504     0    26     1     4
  7.6955576693129912E-02 a       505     0    26     1     5
  1.0717914059839139E-02 a       506     0    26     1     6
 -6.9989385017099587E-02 a       507     0    26     1     7
  1.5798425232725419E-01 a       508     0    26     1     8
 -1.0676450205212089E-01 a       509     0    26     1     9
 -2.3879746972719248E-03 a       510     0    26     1    10
  1.8022240034679576E-01 a       511     0    26     1    11
  5.7630706565101102E-02 a       512     0    26     1    12
 -2.3742350813922103E-01 a       513     0    26     1    13
  6.3938047125262229E-02 a       514     0    26     1    14
 -3.3541212929405304E-02 a       515     0    26     1    15
  7.2437595915277042E-02 a       516     0    26     1    16
  9.0158914678001884E-02 a       517     0    26     1    17
 -1.0074133284477932E-01 a       518     0    26     1    18
 -2.6671555820364082E-02 a       519     0    26     1    19
  1.4970422686912482E-01 a       520     0    26     1    20
  8.1945254433750531E-03 a       521     0    27     1     1
 -8.1076053916180071E-02 a       522     0    27     1     2
 -2.0729337825054723E-02 a       523     0    27     1     3
 -1.6977539188657140E-01 a       524     0    27     1     4
 -7.1059946357970569E-02 a       525     0    27     1     5
  5.3115484650339800E-02 a       526     0    27     1     6
  5.8184496524110042E-02 a       527     0    27     1     7
  1.6419053809607058E-02 a       528     0    27     1     8
 -1.2382317782990160E-01 a       529     0    27     1     9
  1.3869434581936141E-01 a       530     0    27     1    10
 -1.4891946813553264E-01 a       531     0    27     1    11
  7.7361872604331985E-02 a       532     0    27     1    12
  4.0031914045587202E-02 a       533     0    27     1    13
  1.3964092986956345E-01 a       534     0    27     1    14
 -1.9861150635547212E-01 a       535     0    27     1    15
 -7.5485001318302283E-02 a       536     0    27     1    16
  1.2893047225180290E-01 a       537     0    27     1    17
  1.2317854273905498E-03 a       538     0    27     1    18
 -2.3914031621944123E-01 a       539     0    27     1    19
 -6.8920120976344512E-03 a       540     0    27     1    20
  1.5648113447601392E-01 a       541     0    28     1     1
 -2.6459140448027486E-02 a       542     0    28     1     2
 -1.3078170403790207E-01 a       543     0    28     1     3
 -1.1714987358881669E-01 a       544     0    28     1     4
  6.5156217305641653E-02 a       545     0    28     1     5
 -3.3692107064345042E-02 a       546     0    28     1     6
  2.2703826521484734E-02 a       547     0    28     1     7
  9.7019775796075070E-02 a       548     0    28     1     8
  1.5396126165158155E-01 a       549     0    28     1     9
 -3.2090664416793827E-02 a       550     0    28     1    10
 -1.5926785304144597E-01 a       551     0    28     1    11
  1.0131579096958201E-01 a       552     0    28     1    12
  7.9827586154829766E-02 a       553     0    28     1    13
 -6.2278381137789954E-02 a       554     0    28     1    14
 -1.0418098925001446E-01 a       555     0    28     1    15
  3.9343427576425588E-02 a       556     0    28     1    16
 -1.7015936246082445E-02 a       557     0    28     1    17
 -9.1719627982022323E-02 a       558     0    28     1    18
  6.6524135943526871E-03 a       559     0    28     1    19
  1.0511760011368684E-01 a       560     0    28     1    20
 -2.2138059475324137E-01 a       561     0    29     1     1
 -2.1763009818185677E-01 a       562     0    29     1     2
  9.9504773273564120E-02 a       563     0    29     1     3
  1.2578788453355685E-02 a       564     0    29     1     4
  8.4228058012416854E-02 a       565     0    29     1     5
  4.3996353729134872E-02 a       566     0    29     1     6
  1.2513267622893973E-01 a       567     0    29     1     7
  1.2188142040604970E-01 a       568     0    29     1     8
  3.0143172663125467E-02 a       569     0    29     1     9
  1.6388782648414502E-01 a       570     0    29     1    10
  7.1740899184310578E-02 a       571     0    29     1    11
  9.7155180727912904E-02 a       572     0    29     1    12
 -6.2206290376065751E-03 a       573     0    29     1    13
  2.5645634642345816E-02 a       574     0    29     1    14
 -1.4004464986863524E-01 a       575     0    29     1    15
  6.7269029137721745E-02 a       576     0    29     1    16
 -9.8656512747647265E-02 a       577     0    29     1    17
  4.7658076507586279E-03 a       578     0    29     1    18
  1.3024357538141138E-01 a       579     0    29     1    19
  1.2327399562769641E-01 a       580     0    29     1    20
 -1.6138046314907775E-01 a       581     0    30     1     1
 -9.9328184734767927E-02 a       582     0    30     1     2
  1.7520715946146839E-01 a       583     0    30     1     3
  6.7171851566946938E-02 a       584     0    30     1     4
  2.1713592141703883E-01 a       585     0    30     1     5
  1.3860723450230647E-01 a       586     0    30     1     6
 -1.2686153529628802E-01 a       587     0    30     1     7
  1.9743223060274623E-01 a       588     0    30     1     8
  5.4623014985877683E-02 a       589     0    30     1     9
 -8.2652322705270440E-02 a       590     0    30     1    10
 -2.2262362219872450E-01 a       591     0    30     1    11
  1.3935401556041815E-01 a       592     0    30     1    12
  7.6818060833917421E-04 a       593     0    30     1    13
  1.3658728962900605E-02 a       594     0    30     1    14
  1.8215839675843801E-01 a       595     0    30     1    15
 -2.0627052190117293E-01 a       596     0    30     1    16
 -2.0405427922761304E-01 a       597     0    30     1    17
  1.4042551289325006E-01 a       598     0    30     1    18
  1.0860905230301811E-01 a       599     0    30     1    19
 -2.1501838746631568E-02 a       600     0    30     1    20
  2.8179641837908243E-01 a       601     0    31     1     1
  2.0521494471433779E-01 a       602     0    31     1     2
 -1.0804028152623625E-01 a       603     0    31     1     3
  1.2165322269119105E-01 a       604     0    31     1     4
 -6.0305665805408672E-02 a       605     0    31     1     5
 -5.1222999387603892E-02 a       606     0    31     1     6
  8.6627494171884853E-02 a       607     0    31     1     7
  3.7219297483224068E-04 a       608     0    31     1     8
 -2.5245417485948368E-01 a       609     0    31     1     9
  3.7504526918288025E-02 a       610     0    31     1    10
  1.4595741766370279E-01 a       611     0    31     1    11
  2.0718786842571755E-02 a       612     0    31     1    12
 -4.2457155031246585E-02 a       613     0    31     1    13
  9.9405816548910106E-02 a       614     0    31     1    14
  8.0233190566643811E-02 a       615     0    31     1    15
 -1.0785962116103999E-02 a       616     0    31     1    16
  2.5067814887107170E-01 a       617     0    31     1    17
  6.1703931399601598E-02 a       618     0    31     1    18
 -1.4357439114582377E-01 a       619     0    31     1    19
  6.9783114254905049E-02 a       620     0    31     1    20
  4.9482660293744068E-02 a       621     0    32     1     1
  1.9846089985761292E-01 a       622     0    32     1     2
 -1.8660414616966631E-02 a       623     0    32     1     3
 -5.5328423337422751E-02 a       624     0    32     1     4
  2.3455512574827843E-02 a       625     0    32     1     5
  7.5606484960868081E-02 a       626     0    32     1     6
  1.8597630038476292E-02 a       627     0    32     1     7
 -4.8712566899789547E-02 a       628     0    32     1     8
  1.0035559450234408E-02 a       629     0    32     1     9
 -2.6257345089405248E-01 a       630     0    32     1    10
  1.9609949486396133E-01 a       631     0    32     1    11
  1.1124647244922865E-01 a       632     0    32     1    12
 -1.5271047141431815E-01 a       633     0    32     1    13
  9.6612841392753022E-03 a       634     0    32     1    14
  2.3527791595180394E-02 a       635     0    32     1    15
 -1.0217859262182545E-01 a       636     0    32     1    16
 -1.1775471265480565E-01 a       637     0    32     1    17
  1.0581719295394397E-01 a       638     0    32     1    18
  1.7821058281631708E-01 a       639     0    32     1    19
  7.4316718688622711E-03 a       640     0    32     1    20
  1.5212289942305399E-01 a       641     0    33     1     1
  1.6759842350174168E-02 a       642     0    33     1     2
 -5.7191981210896491E-02 a       643     0    33     1     3
  1.1244400699361200E-01 a       644     0    33     1     4
  5.9485277272200796E-03 a       645     0    33     1     5
 -1.1121019397523454E-01 a       646     0    33     1     6
  6.8274923152986833E-02 a       647     0    33     1     7
  1.4929726357621942E-02 a       648     0    33     1     8
  4.7393794067835494E-04 a       649     0    33     1     9
  1.5218227039759605E-01 a       650     0    33     1    10
  1.9863239423855164E-01 a       651     0    33     1    11
 -1.5230029864587918E-01 a       652     0    33     1    12
 -2.3693629296114674E-01 a       653     0    33     1    13
 -2.6569477982843231E-01 a       654     0    33     1    14
  1.0668499683584645E-01 a       655     0    33     1    15
 -5.5143367230928338E-02 a       656     0    33     1    16
  2.2335698352820724E-01 a       657     0    33     1    17
  2.0721041956460708E-02 a       658     0    33     1    18
 -1.4201959945541949E-02 a       659     0    33     1    19
  1.1812300744457030E-01 a       660     0    33     1    20
 -3.4614579277668533E-02 a       661     0    34     1     1
 -1.3022033253111645E-01 a       662     0    34     1     2
 -8.9592631936129402E-03 a       663     0    34     1     3
 -1.3553271962946323E-01 a       664     0    34     1     4
 -8.2940001139963082E-02 a       665     0    34     1     5
 -9.6805334230325737E-02 a       666     0    34     1     6
  6.2292685574298935E-02 a       667     0    34     1     7
 -1.0414453585735597E-01 a       668     0    34     1     8
 -9.9773150941012245E-02 a       669     0    34     1     9
 -8.2731127461630249E-02 a       670     0    34     1    10
 -9.5816095103498922E-02 a       671     0    34     1    11
 -1.6573781942039841E-02 a       672     0    34     1    12
 -1.1958152805857260E-01 a       673     0    34     1    13
 -1.1039276986834723E-01 a       674     0    34     1    14
 -4.4478729189425473E-03 a       675     0    34     1    15
  9.9541483280281163E-03 a       676     0    34     1    16
  2.0323301908118568E-01 a       677     0    34     1    17
 -1.4006668925534821E-02 a       678     0    34     1    18
  6.9353196413727169E-02 a       679     0    34     1    19
 -1.4307405939499071E-02 a       680     0    34     1    20
 -2.4478752634575270E-02 a       681     0    35     1     1
  3.9708459276287418E-03 a       682     0    35     1     2
 -1.7342250880803117E-01 a       683     0    35     1     3
  2.9955917673846422E-02 a       684     0    35     1     4
 -8.1299770307418889E-02 a       685     0    35     1     5
  4.3297736910790821E-02 a       686     0    35     1     6
  1.1782029546627412E-01 a       687     0    35     1     7
 -1.0975760595716451E-01 a       688     0    35     1     8
 -1.1062111318935157E-01 a       689     0    35     1     9
  1.3429525534881662E-01 a       690     0    35     1    10
  9.6993316728268164E-02 a       691     0    35     1    11
  3.9653531167616850E-02 a       692     0    35     1    12
 -4.6539720741874402E-02 a       693     0    35     1    13
 -5.3545215301758133E-02 a       694     0    35     1    14
  6.2419770391424718E-02 a       695     0    35     1    15
  4.0174830169426086E-02 a       696     0    35     1    16
  1.3592088975487246E-01 a       697     0    35     1    17
 -8.3993021744055082E-02 a       698     0    35     1    18
 -8.6860120157731813E-02 a       699     0    35     1    19
 -1.4830518917799348E-01 a       700     0    35     1    20
  1.8594963851100244E-01 a       701     0    36     1     1
 -2.3585638790712991E-02 a       702     0    36     1     2
 -1.2605547736274100E-01 a       703     0    36     1     3
  2.1447641273762790E-02 a       704     0    36     1     4
  1.1232448757320319E-01 a       705     0    36     1     5
 -1.1778347771386522E-02 a       706     0    36     1     6
 -1.9861128293773314E-01 a       707     0    36     1     7
 -4.8065141454730148E-02 a       708     0    36     1     8
 -1.1386125567165962E-02 a       709     0    36     1     9
  2.7722387833710744E-02 a       710     0    36     1    10
 -8.6811627197916033E-02 a       711     0    36     1    11
 -1.7179023757728468E-01 a       712     0    36     1    12
 -3.9303923507325006E-02 a       713     0    36     1    13
 -1.5351117070036624E-01 a       714     0    36     1    14
 -2.3588640220254538E-02 a       715     0    36     1    15
  1.5720046341263486E-01 a       716     0    36     1    16
  2.2892327763464445E-02 a       717     0    36     1    17
  2.0358586930437635E-02 a       718     0    36     1    18
  2.1927715548888832E-01 a       719     0    36     1    19
  9.1836028725668872E-02 a       720     0    36     1    20
 -1.2857404504068640E-01 a       721     0    37     1     1
  1.2846770791181453E-01 a       722     0    37     1     2
 -3.8458714836037272E-02 a       723     0    37     1     3
  7.6036075399562641E-02 a       724     0    37     1     4
 -2.0355766252292634E-01 a       725     0    37     1     5
 -1.6820372088504851E-01 a       726     0    37     1     6
 -5.7401613562107039E-02 a       727     0    37     1     7
  5.8892301148490415E-02 a       728     0    37     1     8
 -9.7021401359061038E-02 a       729     0    37     1     9
  3.6737170418317172E-02 a       730     0    37     1    10
 -1.1779775903144774E-01 a       731     0    37     1    11
  2.4875450736158736E-01 a       732     0    37     1    12
  1.7859706817880069E-01 a       733     0    37     1    13
 -1.2860013516068286E-01 a       734     0    37     1    14
  6.4336130055164864E-02 a       735     0    37     1    15
  3.8768582329193682E-02 a       736     0    37     1    16
  5.5309868727819490E-02 a       737     0    37     1    17
 -1.1385938385351414E-01 a       738     0    37     1    18
  1.6911404065432098E-01 a       739     0    37     1    19
 -1.1873418935185313E-01 a       740     0    37     1    20
  2.0586553390179627E-01 a       741     0    38     1     1
  1.8861440110827025E-02 a       742     0    38     1     2
 -1.3373769414172700E-02 a       743     0    38     1     3
 -2.2192151900947502E-01 a       744     0    38     1     4
  1.1522910756748218E-01 a       745     0    38     1     5
  2.5079218753417547E-02 a       746     0    38     1     6
 -1.0095783478737484E-02 a       747     0    38     1     7
  1.1392356145076183E-02 a       748     0    38     1     8
 -1.1888168186267577E-01 a       749     0    38     1     9
 -4.0988946575815179E-02 a       750     0    38     1    10
 -1.3159259617480695E-01 a       751     0    38     1    11
  1.4748740344689912E-01 a       752     0    38     1    12
 -1.9230328574567676E-02 a       753     0    38     1    13
  2.4135104895831826E-02 a       754     0    38     1    14
 -2.1044411079544956E-02 a       755     0    38     1    15
  1.6912883659596120E-01 a       756     0    38     1    16
  2.3503010095622084E-02 a       757     0    38     1    17
  6.0026307570915940E-02 a       758     0    38     1    18
 -4.5471194419023329E-02 a       759     0    38     1    19
  9.3429061669061605E-02 a       760     0    38     1    20
  5.9352272676873222E-02 a       761     0    39     1     1
  1.8769868124289008E-01 a       762     0    39     1     2
  4.3695847105085547E-02 a       763     0    39     1     3
  5.1088908631817288E-03 a       764     0    39     1     4
  1.9751111463608276E-01 a       765     0    39     1     5
 -2.2910185187745843E-01 a       766     0    39     1     6
 -8.6797812840967603E-02 a       767     0    39     1     7
 -7.7932516463822946E-04 a       768     0    39     1     8
 -9.0035005285869704E-02 a       769     0    39     1     9
  2.6105535005616513E-02 a       770     0    39     1    10
  9.5947113991746769E-02 a       771     0    39     1    11
  1.4745223195777625E-02 a       772     0    39     1    12
  1.3305110927116670E-01 a       773     0    39     1    13
  2.1550232774117870E-02 a       774     0    39     1    14
 -3.8250389254363408E-02 a       775     0    39     1    15
 -1.0592563745916328E-01 a       776     0    39     1    16
 -5.1639443434266137E-02 a       777     0    39     1    17
  5.2586691224564955E-02 a       778     0    39     1    18
 -8.4780686492557725E-02 a       779     0    39     1    19
 -2.0799589554858516E-01 a       780     0    39     1    20
 -2.0482897763869551E-02 a       781     0    40     1     1
  1.8825695109007856E-01 a       782     0    40     1     2
 -5.8135337811537858E-03 a       783     0    40     1     3
 -1.6427357501174697E-01 a       784     0    40     1     4
 -1.7846756523159193E-01 a       785     0    40     1     5
  6.7321680261609118E-02 a       786     0    40     1     6
  1.2734242811707104E-02 a       787     0    40     1     7
  4.1085159661027840E-02 a       788     0    40     1     8
 -1.1124865553461502E-01 a       789     0    40     1     9
 -1.4894921278960793E-01 a       790     0    40     1    10
 -1.5130085594030796E-02 a       791     0    40     1    11
  1.5396276199145328E-01 a       792     0    40     1    12
 -1.0196051843220562E-02 a       793     0    40     1    13
  6.2738265454603412E-02 a       794     0    40     1    14
  1.4852076594076366E-01 a       795     0    40     1    15
 -1.9050862782520439E-01 a       796     0    40     1    16
  2.5541017007816746E-02 a       797     0    40     1    17
  6.0057547912213752E-03 a       798     0    40     1    18
 -8.2440158466623947E-02 a       799     0    40     1    19
 -2.6688221490374427E-02 a       800     0    40     1    20
  1.2199726072176577E-01 a       801     0    41     1     1
  1.1637820534086904E-01 a       802     0    41     1     2
 -1.2938838656801961E-02 a       803     0    41     1     3
  6.0415594551790214E-02 a       804     0    41     1     4
  6.4647867465734352E-02 a       805     0    41     1     5
 -2.5236426254521938E-01 a       806     0    41     1     6
 -2.8527654773644252E-02 a       807     0    41     1     7
  1.2811387750284134E-01 a       808     0    41     1     8
  4.8543058206283393E-02 a       809     0    41     1     9
  5.3865530614275188E-02 a       810     0    41     1    10
  1.9355326555311761E-01 a       811     0    41     1    11
 -5.0127940089767418E-02 a       812     0    41     1    12
 -5.2660884065252732E-02 a       813     0    41     1    13
  4.8270162107315030E-02 a       814     0    41     1    14
 -1.1568815507764732E-01 a       815     0    41     1    15
  1.3934636568336101E-02 a       816     0    41     1    16
  2.0937130259883749E-01 a       817     0    41     1    17
 -1.0390927859196819E-01 a       818     0    41     1    18
 -1.1463050585527089E-01 a       819     0    41     1    19
 -2.1488309127206173E-02 a       820     0    41     1    20
 -2.0034448789662482E-01 a       821     0    42     1     1
 -1.3713997907329051E-01 a       822     0    42     1     2
  1.5589113150303571E-01 a       823     0    42     1     3
 -1.7897857847263052E-01 a       824     0    42     1     4
  1.0004313673566043E-01 a       825     0    42     1     5
  5.7392147751874054E-02 a       826     0    42     1     6
  1.0864628891571915E-01 a       827     0    42     1     7
 -1.5554712159199852E-01 a       828     0    42     1     8
 -1.0146552193745836E-01 a       829     0    42     1     9
 -3.1302855499303638E-02 a       830     0    42     1    10
  1.3003202121353946E-01 a       831     0    42     1    11
  1.5048871452187743E-01 a       832     0    42     1    12
 -7.9864763381399584E-02 a       833     0    42     1    13
  1.9875275066766898E-01 a       834     0    42     1    14
 -1.8308806265498873E-01 a       835     0    42     1    15
  3.7185024029716206E-02 a       836     0    42     1    16
  8.0220141858143537E-02 a       837     0    42     1    17
  8.4384123854093232E-02 a       838     0    42     1    18
 -4.1510167198967308E-02 a       839     0    42     1    19
 -1.0271831093519664E-01 a       840     0    42     1    20
  8.8370200110102076E-02 a       841     0    43     1     1
  1.8392097296478345E-02 a       842     0    43     1     2
  8.5642095551773600E-02 a       843     0    43     1     3
 -3.3961099565902398E-03 a       844     0    43     1     4
 -6.0711798360472531E-02 a       845     0    43     1     5
  2.1901251980204389E-01 a       846     0    43     1     6
 -9.1268889586434004E-02 a       847     0    43     1     7
  5.7204275056743525E-02 a       848     0    43     1     8
 -1.7208637889292139E-01 a       849     0    43     1     9
  8.5265417925793716E-02 a       850     0    43     1    10
  6.1458333915462807E-02 a       851     0    43     1    11
 -2.5692113525279409E-03 a       852     0    43     1    12
 -9.5610989155591561E-02 a       853     0    43     1    13
  3.0632590242052078E-02 a       854     0    43     1    14
 -1.4711768764336103E-01 a       855     0    43     1    15
 -1.6759265769908685E-01 a       856     0    43     1    16
  4.4208091946497302E-02 a       857     0    43     1    17
 -1.3503211181708225E-01 a       858     0    43     1    18
 -1.0333235170191270E-01 a       859     0    43     1    19
  1.7619392693846830E-01 a       860     0    43     1    20
 -5.3178400378100614E-03 a       861     0    44     1     1
  1.0584494150940171E-01 a       862     0    44     1     2
 -2.0082667163208548E-01 a       863     0    44     1     3
 -6.8360093910820652E-02 a       864     0    44     1     4
  8.4738176394939538E-02 a       865     0    44     1     5
  1.2984488288209259E-01 a       866     0    44     1     6
  5.8638836176824090E-02 a       867     0    44     1     7
 -5.9697633617272816E-02 a       868     0    44     1     8
  4.2912412257676202E-03 a       869     0    44     1     9
 -1.4971947996859988E-01 a       870     0    44     1    10
 -6.5826013595500180E-02 a       871     0    44     1    11
 -2.0588595762983333E-01 a       872     0    44     1    12
 -6.7316003712676598E-02 a       873     0    44     1    13
 -2.4019896620425317E-03 a       874     0    44     1    14
 -9.5708814171011694E-02 a       875     0    44     1    15
  1.1638693129088711E-01 a       876     0    44     1    16
 -9.3733741624964978E-02 a       877     0    44     1    17
  7.1147037529228505E-02 a       878     0    44     1    18
 -1.3841103736476593E-01 a       879     0    44     1    19
 -9.8478584602095881E-02 a       880     0    44     1    20
  8.5882396640626565E-02 a       881     0    45     1     1
 -3.9886928658477816E-02 a       882     0    45     1     2
  9.9454504348323314E-03 a       883     0    45     1     3
 -3.9912360532517399E-02 a       884     0    45     1     4
  9.9148875923159782E-02 a       885     0    45     1     5
 -7.2966203431265628E-02 a       886     0    45     1     6
 -1.7964113282528605E-02 a       887     0    45     1     7
  1.0569090362628415E-01 a       888     0    45     1     8
 -2.1571289626802860E-02 a       889     0    45     1     9
  2.1439023877796393E-02 a       890     0    45     1    10
  8.0323269940667699E-02 a       891     0    45     1    11
  1.0056734947274297E-01 a       892     0    45     1    12
  7.3553903606275615E-03 a       893     0    45     1    13
 -1.6855437300058479E-02 a       894     0    45     1    14
  2.7606142936097252E-02 a       895     0    45     1    15
  1.5852257321624261E-01 a       896     0    45     1    16
  1.8141525901044540E-02 a       897     0    45     1    17
  8.3191898288440633E-02 a       898     0    45     1    18
  2.0089729016048355E-01 a       899     0    45     1    19
  1.4260596088674510E-01 a       900     0    45     1    20
  1.8069196632263698E-01 a       901     0    46     1     1
  1.1475605702109044E-01 a       902     0    46     1     2
 -1.4628101056119866E-01 a       903     0    46     1     3
 -7.9554791737662250E-02 a       904     0    46     1     4
  6.4596874251788866E-02 a       905     0    46     1     5
 -1.6585359121844118E-01 a       906     0    46     1     6
  4.1899147261742703E-03 a       907     0    46     1     7
 -6.5798888796500990E-02 a       908     0    46     1     8
 -2.7090146911566372E-03 a       909     0    46     1     9
  2.3949030244211033E-02 a       910     0    46     1    10
 -2.0748411939246831E-02 a       911     0    46     1    11
 -4.1489469417917299E-02 a       912     0    46     1    12
  2.0891333644236952E-03 a       913     0    46     1    13
  1.3951085701005927E-02 a       914     0    46     1    14
 -2.7007430775394855E-02 a       915     0    46     1    15
  2.7454621165617976E-02 a       916     0    46     1    16
  9.5003879415897399E-02 a       917     0    46     1    17
  7.7241612970430648E-03 a       918     0    46     1    18
  1.4130601790991174E-01 a       919     0    46     1    19
 -2.4238638497444157E-01 a       920     0    46     1    20
 -1.1359132412297579E-01 a       921     0    47     1     1
 -9.1017261537200300E-02 a       922     0    47     1     2
  9.2985158219455341E-02 a       923     0    47     1     3
 -1.0404224957483757E-01 a       924     0    47     1     4
 -1.0370053814291466E-01 a       925     0    47     1     5
 -2.5577590551879616E-02 a       926     0    47     1     6
  4.0408234923068900E-02 a       927     0    47     1     7
 -2.3127031288632850E-02 a       928     0    47     1     8
  2.2532104951033297E-01 a       929     0    47     1     9
 -5.7125638939892476E-02 a       930     0    47     1    10
 -1.1141232311168472E-01 a       931     0    47     1    11
  9.7352622221885260E-02 a       932     0    47     1    12
  7.2857733022145777E-03 a       933     0    47     1    13
  1.1944152705359042E-02 a       934     0    47     1    14
 -6.9487211671040661E-02 a       935     0    47     1    15
 -5.3205462970252700E-02 a       936     0    47     1    16
  4.8080727356517878E-03 a       937     0    47     1    17
 -2.4904133688806698E-02 a       938     0    47     1    18
  2.0277581988359183E-01 a       939     0    47     1    19
 -7.8382292010119245E-02 a       940     0    47     1    20
  2.3898787208892355E-01 a       941     0    48     1     1
  2.3119459491980413E-02 a       942     0    48     1     2
 -6.8522081013314598E-02 a       943     0    48     1     3
  4.9869457401655319E-02 a       944     0    48     1     4
  2.3367929202204507E-01 a       945     0    48     1     5
  1.1948482186454656E-01 a       946     0    48     1     6
  1.4853342320397495E-02 a       947     0    48     1     7
 -1.2440179603403805E-02 a       948     0    48     1     8
 -1.3144027666046323E-01 a       949     0    48     1     9
  1.3991460438250686E-01 a       950     0    48     1    10
  3.4074798669912316E-02 a       951     0    48     1    11
 -7.1363322197508350E-02 a       952     0    48     1    12
 -2.2293937381468779E-01 a       953     0    48     1    13
 -1.6127890428135591E-01 a       954     0    48     1    14
 -8.5428073805830618E-02 a       955     0    48     1    15
  1.1704034118601084E-01 a       956     0    48     1    16
  1.7126486170608762E-01 a       957     0    48     1    17
 -2.8772089207355651E-02 a       958     0    48     1    18
 -1.5542482250914136E-01 a       959     0    48     1    19
  7.3206739813113625E-02 a       960     0    48     1    20
  5.7433009252724349E-03 a       961     0    49     1     1
  6.5665447344550695E-02 a       962     0    49     1     2
 -1.8482020337641861E-02 a       963     0    49     1     3
  2.4328934838216829E-02 a       964     0    49     1     4
  6.8388190158642975E-02 a       965     0    49     1     5
 -1.4134315372804020E-02 a       966     0    49     1     6
  7.0646894036844793E-02 a       967     0    49     1     7
  7.1707590896811077E-03 a       968     0    49     1     8
 -2.2703982858872145E-02 a       969     0    49     1     9
  4.2896006606561649E-02 a       970     0    49     1    10
  1.2104193248798703E-01 a       971     0    49     1    11
  7.5980381723655751E-06 a       972     0    49     1    12
 -4.4120348812818212E-02 a       973     0    49     1    13
  3.7207848976389485E-02 a       974     0    49     1    14
 -4.4671764981585954E-02 a       975     0    49     1    15
 -7.8622195835414563E-02 a       976     0    49     1    16
  5.1246945780919019E-02 a       977     0    49     1    17
 -4.3868915059487625E-02 a       978     0    49     1    18
 -1.1192906907920443E-01 a       979     0    49     1    19
 -1.2466597185654646E-01 a       980     0    49     1    20
 -8.0668640239247233E-02 a       981     0    50     1     1
 -7.7833656837322115E-02 a       982     0    50     1     2
 -6.2392681400978034E-02 a       983     0    50     1     3
  8.6245033143361835E-02 a       984     0    50     1     4
 -1.5886357966534828E-01 a       985     0    50     1     5
  2.9526511551894598E-02 a       986     0    50     1     6
 -2.8539262739184747E-02 a       987     0    50     1     7
 -3.7064009257961716E-02 a       988     0    50     1     8
  5.3744756488963256E-03 a       989     0    50     1     9
  1.2281564587511287E-01 a       990     0    50     1    10
 -5.6618206947493692E-02 a       991     0    50     1    11
 -3.0322623556133726E-02 a       992     0    50     1    12
 -1.1917360621615307E-01 a       993     0    50     1    13
 -5.9206620052677787E-02 a       994     0    50     1    14
  9.4487894472883749E-02 a       995     0    50     1    15
 -6.1620505469925237E-02 a       996     0    50     1    16
  1.1081195739487698E-01 a       997     0    50     1    17
 -9.0790624882376408E-02 a       998     0    50     1    18
 -2.7735528129563196E-02 a       999     0    50     1    19
 -3.1562129906177468E-02 a      1000     0    50     1    20
 -1.1007464676491243E-02 a      1001     0    51     1     1
 -2.0172024917872619E-01 a      1002     0    51     1     2
 -1.4723984052359215E-01 a      1003     0    51     1     3
 -2.2138770247310424E-02 a      1004     0    51     1     4
  2.0852195801182127E-01 a      1005     0    51     1     5
  1.9960009154537622E-01 a      1006     0    51     1     6
  5.0210046458384221E-02 a      1007     0    51     1     7
 -1.6518632168482472E-01 a      1008     0    51     1     8
  8.2575507517330213E-02 a      1009     0    51     1     9
  3.9974153737283996E-02 a      1010     0    51     1    10
 -2.7552463108015868E-01 a      1011     0    51     1    11
 -5.9904397150980164E-02 a      1012     0    51     1    12
  4.5254820649981785E-02 a      1013     0    51     1    13
  5.3118730747350303E-02 a      1014     0    51     1    14
 -8.5936885256097079E-02 a      1015     0    51     1    15
  8.2182486543828648E-02 a      1016     0    51     1    16
  4.3654617892647629E-02 a      1017     0    51     1    17
 -9.1710811585593494E-02 a      1018     0    51     1    18
 -2.9027510445133083E-02 a      1019     0    51     1    19
 -2.3358935305687636E-01 a      1020     0    51     1    20
 -2.0624697281028237E-01 a      1021     0    52     1     1
  1.1111829534780877E-01 a      1022     0    52     1     2
 -2.4773108312939171E-01 a      1023     0    52     1     3
  4.3556232085692176E-02 a      1024     0    52     1     4
 -1.9185185787843428E-01 a      1025     0    52     1     5
  2.0002813272602990E-01 a      1026     0    52     1     6
 -1.0407638221816309E-01 a      1027     0    52     1     7
  2.2374443686235219E-02 a      1028     0    52     1     8
  1.0755697254779729E-01 a      1029     0    52     1     9
  2.8451619997383831E-01 a      1030     0    52     1    10
  9.6017407161492846E-02 a      1031     0    52     1    11
  4.6993216445948345E-02 a      1032     0    52     1    12
 -1.7679050605127991E-01 a      1033     0    52     1    13
 -8.4343125455546522E-02 a      1034     0    52     1    14
 -1.0605979384834573E-01 a      1035     0    52     1    15
 -4.8991146265966075E-02 a      1036     0    52     1    16
 -7.3892130500235034E-02 a      1037     0    52     1    17
 -1.9101823618401254E-01 a      1038     0    52     1    18
 -4.8121708858951964E-02 a      1039     0    52     1    19
 -6.7745969455713748E-02 a      1040     0    52     1    20
 -1.5567890708061999E-01 a      1041     0    53     1     1
  4.0005552544360853E-03 a      1042     0    53     1     2
 -1.1424265441909012E-02 a      1043     0    53     1     3
  3.2087488985102185E-02 a      1044     0    53     1     4
 -2.0607024571108226E-01 a      1045     0    53     1     5
 -9.2216262408587255E-02 a      1046     0    53     1     6
  7.9151625017751304E-02 a      1047     0    53     1     7
  1.8204466994343405E-01 a      1048     0    53     1     8
  1.4431906754650956E-01 a      1049     0    53     1     9
  5.7907521775089954E-02 a      1050     0    53     1    10
  2.9255157239599761E-02 a      1051     0    53     1    11
 -1.1658217936927164E-01 a      1052     0    53     1    12
  5.2277290767374529E-02 a      1053     0    53     1    13
 -2.0669987003463303E-01 a      1054     0    53     1    14
  5.1506920378781081E-02 a      1055     0    53     1    15
 -2.6924956141645581E-02 a      1056     0    53     1    16
 -2.0896064523067678E-01 a      1057     0    53     1    17
  5.0369234990806457E-02 a      1058     0    53     1    18
  7.0919077779985046E-02 a      1059     0    53     1    19
 -1.6011557889851893E-01 a      1060     0    53     1    20
  1.5300121398466338E-01 a      1061     0    54     1     1
 -1.6855669895171088E-01 a      1062     0    54     1     2
 -1.6953324526744268E-01 a      1063     0    54     1     3
  1.1692738410521226E-01 a      1064     0    54     1     4
 -5.4288402530079757E-02 a      1065     0    54     1     5
  5.1121155482187743E-02 a      1066     0    54     1     6
  1.0382271429250693E-01 a      1067     0    54     1     7
  1.7975218592946349E-01 a      1068     0    54     1     8
  1.9706687443229709E-01 a      1069     0    54     1     9
 -3.8323677413650878E-02 a      1070     0    54     1    10
 -4.6151774930330666E-02 a      1071     0    54     1    11
 -4.2154130140266234E-02 a      1072     0    54     1    12
 -4.5029224507817898E-02 a      1073     0    54     1    13
  8.1039591226257271E-02 a      1074     0    54     1    14
 -1.1658186954398300E-01 a      1075     0    54     1    15
 -4.3626878142508487E-03 a      1076     0    54     1    16
  1.0549620258990505E-01 a      1077     0    54     1    17
  2.0366794349013700E-02 a      1078     0    54     1    18
  1.6766427473176485E-01 a      1079     0    54     1    19
  1.1312584078308287E-01 a      1080     0    54     1    20
 -6.2350554584316230E-02 a      1081     0    55     1     1
 -1.4943786458833546E-02 a      1082     0    55     1     2
 -9.6383044301107543E-02 a      1083     0    55     1     3
 -1.4445612628719190E-01 a      1084     0    55     1     4
 -1.5318397093044189E-01 a      1085     0    55     1     5
 -6.2019393980011155E-02 a      1086     0    55     1     6
 -6.9443370213321892E-02 a      1087     0    55     1     7
  6.5528661187830697E-02 a      1088     0    55     1     8
 -3.9813992071829389E-02 a      1089     0    55     1     9
 -9.2193175734324548E-02 a      1090     0    55     1    10
 -1.8375028023292012E-01 a      1091     0    55     1    11
  5.3187790925040987E-02 a      1092     0    55     1    12
 -6.9249584684164906E-03 a      1093     0    55     1    13
  1.8137758044986571E-01 a      1094     0    55     1    14
 -5.0124526438568781E-02 a      1095     0    55     1    15
  1.8993816602583553E-02 a      1096     0    55     1    16
  8.6277733511108387E-02 a      1097     0    55     1    17
 -1.7947161458567135E-02 a      1098     0    55     1    18
  8.6575108856297642E-02 a      1099     0    55     1    19
  4.6065134955496365E-03 a      1100     0    55     1    20
  1.3862648684902809E-01 a      1101     0    56     1     1
  1.1297992091738221E-02 a      1102     0    56     1     2
  1.1687109426990630E-01 a      1103     0    56     1     3
 -5.5186651651041876E-02 a      1104     0    56     1     4
 -4.4982405252436256E-02 a      1105     0    56     1     5
 -8.3381400399733505E-02 a      1106     0    56     1     6
  1.2677686393721443E-01 a      1107     0    56     1     7
  5.5204268062300506E-02 a      1108     0    56     1     8
  2.6259929514205288E-01 a      1109     0    56     1     9
  2.3231011968825235E-01 a      1110     0    56     1    10
 -4.5965014135975986E-02 a      1111     0    56     1    11
 -6.1453764527675356E-02 a      1112     0    56     1    12
  2.4104177415439541E-02 a      1113     0    56     1    13
  1.3347422071560999E-01 a      1114     0    56     1    14
  3.7908689621481334E-02 a      1115     0    56     1    15
  8.3769098293899724E-02 a      1116     0    56     1    16
 -9.3791966925614676E-03 a      1117     0    56     1    17
 -1.8438045631956021E-01 a      1118     0    56     1    18
  1.3406199051340931E-01 a      1119     0    56     1    19
 -5.6955987123835865E-02 a      1120     0    56     1    20
  1.0799360993838808E-03 a      1121     0    57     1     1
 -1.1287520837484318E-01 a      1122     0    57     1     2
 -1.3741273892565055E-02 a      1123     0    57     1     3
 -1.7835059023143016E-01 a      1124     0    57     1     4
  2.1876348079677715E-01 a      1125     0    57     1     5
  2.3490957637689028E-01 a      1126     0    57     1     6
 -9.9350455026944895E-02 a      1127     0    57     1     7
 -2.8702101763916119E-02 a      1128     0    57     1     8
  1.5873817707989246E-01 a      1129     0    57     1     9
 -1.1683974139603717E-01 a      1130     0    57     1    10
 -6.0584012218132567E-03 a      1131     0    57     1    11
 -1.7033024787750659E-01 a      1132     0    57     1    12
  2.4080968524627888E-01 a      1133     0    57     1    13
 -1.4354388102299095E-01 a      1134     0    57     1    14
 -1.1183115076604518E-01 a      1135     0    57     1    15
 -1.7969855415811514E-02 a      1136     0    57     1    16
 -4.4799984389101058E-02 a      1137     0    57     1    17
  1.1355637413882921E-01 a      1138     0    57     1    18
  1.6812490692979862E-01 a      1139     0    57     1    19
 -1.1717219136462130E-01 a      1140     0    57     1    20
 -1.9512764234853222E-01 a      1141     0    58     1     1
 -6.8945586323409649E-02 a      1142     0    58     1     2
 -2.4362683219019560E-01 a      1143     0    58     1     3
 -6.6263455871555424E-02 a      1144     0    58     1     4
  5.5865641908327469E-02 a      1145     0    58     1     5
  4.8171945205618925E-02 a      1146     0    58     1     6
  1.5549361832729863E-01 a      1147     0    58     1     7
 -1.6657601375407136E-01 a      1148     0    58     1     8
  2.7823747406077259E-01 a      1149     0    58     1     9
 -1.0357835099194738E-01 a      1150     0    58     1    10
  1.2315483279706360E-01 a      1151     0    58     1    11
  4.4976500061107670E-02 a      1152     0    58     1    12
 -1.7172810143092490E-01 a      1153     0    58     1    13
 -2.3467466869666689E-01 a      1154     0    58     1    14
  1.1189141353393223E-01 a      1155     0    58     1    15
  4.1657987789293699E-04 a      1156     0    58     1    16
 -6.9077588129409270E-02 a      1157     0    58     1    17
 -5.6803213344215987E-02 a      1158     0    58     1    18
 -1.7165919446225125E-01 a      1159     0    58     1    19
 -1.5378912720232241E-01 a      1160     0    58     1    20
 -1.1457429680319670E-01 a      1161     0    59     1     1
 -2.0859767525193554E-01 a      1162     0    59     1     2
 -5.8024701566831760E-02 a      1163     0    59     1     3
  1.4014419379522469E-01 a      1164     0    59     1     4
  5.0980456929904057E-02 a      1165     0    59     1     5
  5.4275856610097269E-02 a      1166     0    59     1     6
 -1.3108603754199782E-01 a      1167     0    59     1     7
 -2.9821955131549747E-02 a      1168     0    59     1     8
  1.3837728455802226E-01 a      1169     0    59     1     9
  1.3794959037839427E-01 a      1170     0    59     1    10
 -5.1594370475183511E-02 a      1171     0    59     1    11
 -1.8258830259420222E-01 a      1172     0    59     1    12
 -1.8780381162549348E-02 a      1173     0    59     1    13
 -2.2455729464856095E-01 a      1174     0    59     1    14
 -2.0375455967286824E-02 a      1175     0    59     1    15
  2.2228497081348403E-01 a      1176     0    59     1    16
 -7.2412021172199637E-02 a      1177     0    59     1    17
 -6.8394134036825163E-02 a      1178     0    59     1    18
 -1.9136599438935573E-02 a      1179     0    59     1    19
 -1.7692640613179145E-01 a      1180     0    59     1    20
  7.7815756325448404E-02 a      1181     0    60     1     1
 -1.5732241248821555E-01 a      1182     0    60     1     2
 -2.4274323029947427E-02 a      1183     0    60     1     3
  1.9436427746307988E-01 a      1184     0    60     1     4
 -2.5963815445540273E-01 a      1185     0    60     1     5
  7.3492270078124367E-02 a      1186     0    60     1     6
  1.6018904294073452E-01 a      1187     0    60     1     7
  5.4267350868329187E-03 a      1188     0    60     1     8
  9.4670136450148171E-02 a      1189     0    60     1     9
 -4.5174682260691212E-02 a      1190     0    60     1    10
 -1.1378708507748821E-01 a      1191     0    60     1    11
 -7.1031608954993872E-02 a      1192     0    60     1    12
  1.9320936890602397E-01 a      1193     0    60     1    13
  1.3749962626805190E-01 a      1194     0    60     1    14
 -1.8833894600602877E-01 a      1195     0    60     1    15
  8.7241501629648180E-02 a      1196     0    60     1    16
  7.1107965504160542E-02 a      1197     0    60     1    17
 -7.0152668625432318E-02 a      1198     0    60     1    18
 -1.0989472191658135E-01 a      1199     0    60     1    19
  2.4586066204644269E-01 a      1200     0    60     1    20
 -8.9743155447764983E-02 a      1201     0    61     1     1
  1.5234788156063464E-01 a      1202     0    61     1     2
  1.2768200031535012E-01 a      1203     0    61     1     3
  1.1795586517573373E-01 a      1204     0    61     1     4
  6.0173242002257314E-02 a      1205     0    61     1     5
 -1.7893751157915547E-01 a      1206     0    61     1     6
  7.3930298443281889E-02 a      1207     0    61     1     7
  1.4127893019269069E-01 a      1208     0    61     1     8
  7.1401088959529430E-02 a      1209     0    61     1     9
  1.4867653424909241E-01 a      1210     0    61     1    10
  1.3901895706214143E-01 a      1211     0    61     1    11
  1.7225504477388962E-01 a      1212     0    61     1    12
  2.2830163937114780E-03 a      1213     0    61     1    13
  1.8199851227223892E-02 a      1214     0    61     1    14
 -1.1499771296191959E-01 a      1215     0    61     1    15
 -2.3198872145278734E-01 a      1216     0    61     1    16
 -1.9469195290496497E-02 a      1217     0    61     1    17
  2.0145730444901581E-02 a      1218     0    61     1    18
  1.0366155924503891E-01 a      1219     0    61     1    19
 -1.7971768674620220E-01 a      1220     0    61     1    20
  4.1403468324721839E-02 a      1221     0    62     1     1
  3.7286102273150802E-02 a      1222     0    62     1     2
 -1.6450043210173831E-02 a      1223     0    62     1     3
  8.3826290205403012E-02 a      1224     0    62     1     4
 -4.3722119388711102E-02 a      1225     0    62     1     5
 -3.9727116341521387E-02 a      1226     0    62     1     6
 -8.4516503150865577E-02 a      1227     0    62     1     7
 -1.4463003523000126E-01 a      1228     0    62     1     8
  3.4143978727640016E-02 a      1229     0    62     1     9
  1.1896116192707834E-01 a      1230     0    62     1    10
 -1.9683485398901444E-02 a      1231     0    62     1    11
 -4.8880298852372397E-02 a      1232     0    62     1    12
  1.6070390996448936E-01 a      1233     0    62     1    13
 -1.1652404195437170E-01 a      1234     0    62     1    14
  2.0358943713871921E-01 a      1235     0    62     1    15
 -4.0436642954199443E-02 a      1236     0    62     1    16
 -1.1246957168722917E-01 a      1237     0    62     1    17
 -4.6358310183519096E-02 a      1238     0    62     1    18
  7.8315810537180869E-02 a      1239     0    62     1    19
  9.5637078665643960E-03 a      1240     0    62     1    20
  5.1455846613916716E-02 a      1241     0    63     1     1
  1.4733784806631553E-01 a      1242     0    63     1     2
 -6.3455036485449839E-02 a      1243     0    63     1     3
 -1.6911441612709069E-01 a      1244     0    63     1     4
 -1.4929617005786613E-01 a      1245     0    63     1     5
 -9.4037561625462354E-02 a      1246     0    63     1     6
 -3.6733616113679909E-02 a      1247     0    63     1     7
 -9.0353897711290224E-02 a      1248     0    63     1     8
  1.5452028635495915E-01 a      1249     0    63     1     9
  2.1121103291336218E-02 a      1250     0    63     1    10
 -8.5385343853425124E-04 a      1251     0    63     1    11
  2.1710362138807776E-01 a      1252     0    63     1    12
 -1.6811022659079938E-01 a      1253     0    63     1    13
  1.5437111765780493E-02 a      1254     0    63     1    14
 -1.8805448102649272E-01 a      1255     0    63     1    15
 -8.8422144528508120E-02 a      1256     0    63     1    16
  1.9828062880001623E-01 a      1257     0    63     1    17
 -5.8441708289606389E-02 a      1258     0    63     1    18
  9.9555150505339182E-02 a      1259     0    63     1    19
 -4.5865543289030919E-02 a      1260     0    63     1    20
  4.6752567522079479E-02 a      1261     0    64     1     1
  9.9800565663101803E-02 a      1262     0    64     1     2
 -8.8294773113539018E-02 a      1263     0    64     1     3
  1.0977910642598111E-02 a      1264     0    64     1     4
 -7.2893723742826891E-02 a      1265     0    64     1     5
 -1.4638959733877846E-01 a      1266     0    64     1     6
 -1.8210127815200453E-01 a      1267     0    64     1     7
 -6.0465984093082410E-02 a      1268     0    64     1     8
 -2.3323491386753820E-01 a      1269     0    64     1     9
  1.1706640284420446E-01 a      1270     0    64     1    10
 -2.3345573512638190E-01 a      1271     0    64     1    11
 -2.1195150452918463E-01 a      1272     0    64     1    12
  9.5157357083770849E-02 a      1273     0    64     1    13
 -3.7210207880928443E-02 a      1274     0    64     1    14
  1.7143570625390575E-01 a      1275     0    64     1    15
  1.2534099510316854E-01 a      1276     0    64     1    16
 -1.3657581658903539E-01 a      1277     0    64     1    17
  6.3328730828558860E-02 a      1278     0    64     1    18
  4.9708732802995455E-03 a      1279     0    64     1    19
 -8.4516840299197843E-02 a      1280     0    64     1    20
  1.6454298234082743E-01 a      1281     0    65     1     1
 -1.8030104236260838E-01 a      1282     0    65     1     2
  1.7708103718988341E-01 a      1283     0    65     1     3
 -1.2277092223912460E-01 a      1284     0    65     1     4
  2.0681307517638386E-01 a      1285     0    65     1     5
  3.7345056759791030E-02 a      1286     0    65     1     6
  4.0794638273027768E-03 a      1287     0    65     1     7
 -5.9425349392970658E-02 a      1288     0    65     1     8
  3.3822301430308524E-02 a      1289     0    65     1     9
 -9.9439784756606586E-02 a      1290     0    65     1    10
 -2.2520322115850749E-01 a      1291     0    65     1    11
 -1.0757312746958730E-01 a      1292     0    65     1    12
 -7.6889178709574332E-02 a      1293     0    65     1    13
  6.3071436925049892E-02 a      1294     0    65     1    14
  1.4887346917820915E-01 a      1295     0    65     1    15
  5.7124613732422169E-02 a      1296     0    65     1    16
 -1.4607023105050043E-01 a      1297     0    65     1    17
 -1.0078867892120479E-01 a      1298     0    65     1    18
 -1.8503688793102044E-01 a      1299     0    65     1    19
  1.3278058685213032E-01 a      1300     0    65     1    20
 -2.0669189600049820E-01 a      1301     0    66     1     1
 -6.8660118622387578E-02 a      1302     0    66     1     2
 -6.5352311662499205E-02 a      1303     0    66     1     3
 -2.1738845668838813E-01 a      1304     0    66     1     4
  2.3406198402853517E-01 a      1305     0    66     1     5
  2.5860565778767608E-01 a      1306     0    66     1     6
 -1.6230833757332130E-01 a      1307     0    66     1     7
  1.7410384795324957E-01 a      1308     0    66     1     8
 -2.0654952179625992E-02 a      1309     0    66     1     9
 -3.5024052420855830E-03 a      1310     0    66     1    10
 -1.9434619340835912E-02 a      1311     0    66     1    11
  6.9365791250042330E-02 a      1312     0    66     1    12
 -1.5158053844646444E-01 a      1313     0    66     1    13
  6.2635321367729868E-02 a      1314     0    66     1    14
 -2.0610698217709938E-01 a      1315     0    66     1    15
  1.0203972674437990E-01 a      1316     0    66     1    16
 -9.4853572851241449E-02 a      1317     0    66     1    17
 -2.1211007470761552E-02 a      1318     0    66     1    18
 -1.2292673463100207E-01 a      1319     0    66     1    19
  2.0169364575675579E-02 a      1320     0    66     1    20
 -1.4792174539933498E-01 a      1321     0    67     1     1
 -3.2824977538220744E-02 a      1322     0    67     1     2
  2.7550924933117965E-01 a      1323     0    67     1     3
  6.2501563104314664E-02 a      1324     0    67     1     4
 -1.2735832524130309E-02 a      1325     0    67     1     5
  1.0868094221760212E-01 a      1326     0    67     1     6
 -1.1104719091229587E-01 a      1327     0    67     1     7
  1.2406636494406325E-02 a      1328     0    67     1     8
  1.9104283679547404E-01 a      1329     0    67     1     9
 -1.2694708738310670E-01 a      1330     0    67     1    10
  9.9991343787223616E-02 a      1331     0    67     1    11
 -1.5560102153736477E-01 a      1332     0    67     1    12
 -1.0935332219278693E-01 a      1333     0    67     1    13
  1.1280155350256674E-01 a      1334     0    67     1    14
  1.1523164991450932E-01 a      1335     0    67     1    15
  1.0943649580877987E-01 a      1336     0    67     1    16
  3.5728368525472912E-02 a      1337     0    67     1    17
  1.0596177292416960E-01 a      1338     0    67     1    18
 -5.4980042114731176E-02 a      1339     0    67     1    19
  1.0778127144635092E-02 a      1340     0    67     1    20
 -1.3161542087955896E-01 a      1341     0    68     1     1
  2.5764672892882456E-01 a      1342     0    68     1     2
 -1.9467507059236496E-02 a      1343     0    68     1     3
  2.4860096824865388E-01 a      1344     0    68     1     4
 -1.1948124911361439E-01 a      1345     0    68     1     5
  2.0777174140072116E-01 a      1346     0    68     1     6
  9.7325048598309802E-02 a      1347     0    68     1     7
 -1.0971897160962325E-01 a      1348     0    68     1     8
  1.2312070447696470E-02 a      1349     0    68     1     9
  9.7308685968219469E-02 a      1350     0    68     1    10
  3.9919570376726478E-02 a      1351     0    68     1    11
 -1.5612683201812028E-01 a      1352     0    68     1    12
 -1.9390720975006503E-01 a      1353     0    68     1    13
  9.8512628113435932E-02 a      1354     0    68     1    14
 -2.9034204678984522E-02 a      1355     0    68     1    15
  1.3829412853740045E-01 a      1356     0    68     1    16
  6.9416205294301050E-02 a      1357     0    68     1    17
 -2.1826284856407849E-01 a      1358     0    68     1    18
 -5.6597260653459425E-03 a      1359     0    68     1    19
  1.8547444271810090E-01 a      1360     0    68     1    20
 -2.1144147876093675E-01 a      1361     0    69     1     1
  1.2472429203336442E-02 a      1362     0    69     1     2
  1.3437817368912755E-01 a      1363     0    69     1     3
 -1.1328849273748753E-01 a      1364     0    69     1     4
  2.6889834250140299E-01 a      1365     0    69     1     5
 -3.4902188850452862E-02 a      1366     0    69     1     6
  2.1373250652391271E-01 a      1367     0    69     1     7
 -2.1219156081201335E-01 a      1368     0    69     1     8
 -6.6129306160916029E-02 a      1369     0    69     1     9
 -4.1249732132788541E-02 a      1370     0    69     1    10
 -1.1488545470625013E-01 a      1371     0    69     1    11
 -7.8419693252768694E-02 a      1372     0    69     1    12
 -1.7806496798046895E-01 a      1373     0    69     1    13
  9.5874212151899826E-02 a      1374     0    69     1    14
 -4.1670194565206875E-02 a      1375     0    69     1    15
  1.5261212985477207E-01 a      1376     0    69     1    16
 -1.1676722260517877E-01 a      1377     0    69     1    17
  1.1698771634548482E-02 a      1378     0    69     1    18
 -8.7821508096273371E-02 a      1379     0    69     1    19
 -2.2606169956688765E-01 a      1380     0    69     1    20
  1.2658106860595406E-01 a      1381     0    70     1     1
 -9.5411939169541826E-02 a      1382     0    70     1     2
  1.3532779035792089E-01 a      1383     0    70     1     3
  2.3851871053167273E-02 a      1384     0    70     1     4
  1.1184708758086589E-01 a      1385     0    70     1     5
  2.9614703685367921E-02 a      1386     0    70     1     6
 -3.9533033871316785E-02 a      1387     0    70     1     7
 -1.1205877325859821E-01 a      1388     0    70     1     8
 -9.0225660403799160E-02 a      1389     0    70     1     9
 -6.2438231141958608E-02 a      1390     0    70     1    10
  1.8847001056180079E-01 a      1391     0    70     1    11
 -4.2541635506564028E-02 a      1392     0    70     1    12
 -9.8108572075706474E-02 a      1393     0    70     1    13
 -6.8521159860305131E-02 a      1394     0    70     1    14
 -9.8967772784665023E-02 a      1395     0    70     1    15
 -6.5887703070181727E-02 a      1396     0    70     1    16
  3.7103286162675789E-02 a      1397     0    70     1    17
  6.7504907541972151E-02 a      1398     0    70     1    18
  8.1610504933913641E-02 a      1399     0    70     1    19
  1.6472087846986894E-01 a      1400     0    70     1    20
  7.3624872206049616E-02 a      1401     0    71     1     1
  8.3648700997373607E-02 a      1402     0    71     1     2
 -1.1268677569305433E-01 a      1403     0    71     1     3
  2.3507725799819282E-01 a      1404     0    71     1     4
 -1.7091121296306831E-02 a      1405     0    71     1     5
 -1.1289515749455049E-01 a      1406     0    71     1     6
  9.1272798021638638E-02 a      1407     0    71     1     7
  2.0900196382148625E-01 a      1408     0    71     1     8
  1.9813437366751047E-01 a      1409     0    71     1     9
  8.5341722798397843E-02 a      1410     0    71     1    10
 -3.8131783947487646E-02 a      1411     0    71     1    11
 -1.7717032376952924E-02 a      1412     0    71     1    12
 -2.4993343827820039E-01 a      1413     0    71     1    13
  5.2609673755414983E-02 a      1414     0    71     1    14
  1.1929487351782919E-01 a      1415     0    71     1    15
  6.9481101565746037E-02 a      1416     0    71     1    16
 -9.3857594697796851E-02 a      1417     0    71     1    17
  1.7776187890313153E-01 a      1418     0    71     1    18
 -3.9241689848408222E-03 a      1419     0    71     1    19
  6.1122154047338159E-02 a      1420     0    71     1    20
  4.1365027239292518E-03 a      1421     0    72     1     1
 -2.2800034087545046E-01 a      1422     0    72     1     2
  1.5045296470315297E-01 a      1423     0    72     1     3
  2.8396362057460631E-02 a      1424     0    72     1     4
  2.8524947637701219E-03 a      1425     0    72     1     5
 -9.8983177005993239E-02 a      1426     0    72     1     6
 -1.3947944167681303E-01 a      1427     0    72     1     7
 -1.8392854366186148E-01 a      1428     0    72     1     8
  4.6728123566354744E-02 a      1429     0    72     1     9
 -8.6654829742272177E-02 a      1430     0    72     1    10
 -1.9164608745497708E-01 a      1431     0    72     1    11
 -7.4760079026009021E-02 a      1432     0    72     1    12
 -1.0192657706744547E-01 a      1433     0    72     1    13
 -1.5657763846167697E-01 a      1434     0    72     1    14
  1.7301209726212083E-01 a      1435     0    72     1    15
 -3.2284982002879603E-02 a      1436     0    72     1    16
 -2.6352711816313606E-01 a      1437     0    72     1    17
  4.9973595840299839E-02 a      1438     0    72     1    18
 -1.0535392074176793E-01 a      1439     0    72     1    19
  1.3321075511044828E-01 a      1440     0    72     1    20
  2.1639006013343141E-02 a      1441     0    73     1     1
  1.2824348920888951E-01 a      1442     0    73     1     2
  1.8104584391252374E-02 a      1443     0    73     1     3
  1.1974859877864416E-01 a      1444     0    73     1     4
  1.8259133143668593E-01 a      1445     0    73     1     5
  2.8731887901053599E-01 a      1446     0    73     1     6
 -1.0233340729787450E-01 a      1447     0    73     1     7
  1.0400752313604286E-01 a      1448     0    73     1     8
  9.2271762536492649E-02 a      1449     0    73     1     9
 -7.2378077804073154E-02 a      1450     0    73     1    10
  1.3587803727191378E-01 a      1451     0    73     1    11
 -1.3063093715568003E-01 a      1452     0    73     1    12
  1.8056466390101128E-01 a      1453     0    73     1    13
  1.6285851148650918E-01 a      1454     0    73     1    14
 -5.9433133483689261E-02 a      1455     0    73     1    15
  1.5775247548221413E-01 a      1456     0    73     1    16
 -2.6732537490578068E-02 a      1457     0    73     1    17
  6.5372599992476202E-02 a      1458     0    73     1    18
  6.8133200266811689E-03 a      1459     0    73     1    19
  4.8395357744746875E-02 a      1460     0    73     1    20
 -1.0057941844757076E-01 a      1461     0    74     1     1
  2.4393582014751943E-02 a      1462     0    74     1     2
 -5.0530009828909823E-02 a      1463     0    74     1     3
 -2.4094742298906808E-02 a      1464     0    74     1     4
 -2.4259911316791025E-01 a      1465     0    74     1     5
  1.6300522502015388E-01 a      1466     0    74     1     6
  2.0108146057271968E-03 a      1467     0    74     1     7
 -2.0550323292416600E-01 a      1468     0    74     1     8
  5.4353850084471675E-02 a      1469     0    74     1     9
  1.2058663304429949E-01 a      1470     0    74     1    10
  1.6006430400895122E-01 a      1471     0    74     1    11
 -1.6657429797493989E-01 a      1472     0    74     1    12
 -1.1701980871917407E-01 a      1473     0    74     1    13
  9.3475210687820845E-02 a      1474     0    74     1    14
 -1.0831262503793843E-01 a      1475     0    74     1    15
 -2.0751120802562201E-01 a      1476     0    74     1    16
  3.0214918487292742E-03 a      1477     0    74     1    17
  1.6196330613249602E-01 a      1478     0    74     1    18
  3.3350943928939752E-02 a      1479     0    74     1    19
 -4.2327363216692573E-02 a      1480     0    74     1    20
  1.7080474480169219E-02 a      1481     0    75     1     1
 -1.7083043989862945E-01 a      1482     0    75     1     2
  1.4212448971702091E-01 a      1483     0    75     1     3
 -6.0237331587301123E-03 a      1484     0    75     1     4
  1.3905372804381002E-02 a      1485     0    75     1     5
  6.8590853977417042E-03 a      1486     0    75     1     6
  2.9479360978458272E-02 a      1487     0    75     1     7
 -1.4084355844501992E-02 a      1488     0    75     1     8
 -5.2612924296117469E-02 a      1489     0    75     1     9
  1.2562831913837816E-01 a      1490     0    75     1    10
  1.4742527327132227E-01 a      1491     0    75     1    11
  5.3402948877702007E-02 a      1492     0    75     1    12
  3.6804643975414511E-02 a      1493     0    75     1    13
  6.9897798197274708E-02 a      1494     0    75     1    14
 -1.9407453595152804E-02 a      1495     0    75     1    15
  1.2037240412211035E-01 a      1496     0    75     1    16
  2.5940137718551762E-03 a      1497     0    75     1    17
  6.9905997653583157E-02 a      1498     0    75     1    18
  1.0303968648233003E-01 a      1499     0    75     1    19
 -2.2807682955686311E-02 a      1500     0    75     1    20
 -6.7201606582929846E-03 a      1501     0    76     1     1
 -1.4837966701837099E-01 a      1502     0    76     1     2
 -2.7348341004175700E-02 a      1503     0    76     1     3
  9.2165219913365570E-02 a      1504     0    76     1     4
 -4.1602104754069127E-02 a      1505     0    76     1     5
  2.8957752539428231E-02 a      1506     0    76     1     6
 -1.8325319412766045E-01 a      1507     0    76     1     7
 -4.3122958332403503E-02 a      1508     0    76     1     8
 -3.4856685522243976E-02 a      1509     0    76     1     9
  1.3960807293348662E-01 a      1510     0    76     1    10
 -4.1850147627967127E-02 a      1511     0    76     1    11
 -1.2851894967823391E-01 a      1512     0    76     1    12
 -1.9667243979751342E-01 a      1513     0    76     1    13
 -3.3141945879069011E-02 a      1514     0    76     1    14
 -9.6767265609419797E-02 a      1515     0    76     1    15
  3.4347640261607700E-02 a      1516     0    76     1    16
 -1.0762481267021144E-01 a      1517     0    76     1    17
  3.0786545797274620E-02 a      1518     0    76     1    18
 -1.0851669728578928E-02 a      1519     0    76     1    19
  1.9336747421860512E-01 a      1520     0    76     1    20
 -1.3346720999189157E-01 a      1521     0    77     1     1
 -9.9405015119502005E-02 a      1522     0    77     1     2
 -1.2282831959204596E-01 a      1523     0    77     1     3
 -6.7351643822420260E-02 a      1524     0    77     1     4
  5.2404463651682685E-02 a      1525     0    77     1     5
  1.5522129599374831E-01 a      1526     0    77     1     6
 -4.1885258725306719E-02 a      1527     0    77     1     7
  1.7065677434350099E-01 a      1528     0    77     1     8
 -7.9814128554803132E-02 a      1529     0    77     1     9
 -1.5647498849421140E-01 a      1530     0    77     1    10
  3.4525977868165483E-02 a      1531     0    77     1    11
 -5.8555429724790449E-02 a      1532     0    77     1    12
  2.2806340174452502E-02 a      1533     0    77     1    13
  2.4807216470118254E-01 a      1534     0    77     1    14
  2.0602144278744725E-01 a      1535     0    77     1    15
 -6.1048104925779549E-02 a      1536     0    77     1    16
 -9.6692041727914235E-02 a      1537     0    77     1    17
  8.8574439254849355E-02 a      1538     0    77     1    18
 -1.7660331161934448E-01 a      1539     0    77     1    19
  1.4775832923777937E-01 a      1540     0    77     1    20
 -2.1840470822514590E-01 a      1541     0    78     1     1
 -2.5128270951962223E-01 a      1542     0    78     1     2
  7.3665414910209670E-02 a      1543     0    78     1     3
  2.1221784511126907E-01 a      1544     0    78     1     4
  2.6708586702561449E-02 a      1545     0    78     1     5
  1.2889438076598384E-03 a      1546     0    78     1     6
 -1.5053935222239540E-01 a      1547     0    78     1     7
 -1.1163469930482035E-01 a      1548     0    78     1     8
  1.4951903411306713E-01 a      1549     0    78     1     9
 -2.0346551635790681E-02 a      1550     0    78     1    10
 -4.0469349738255125E-02 a      1551     0    78     1    11
 -2.6421639141116743E-01 a      1552     0    78     1    12
  1.9690881720184519E-01 a      1553     0    78     1    13
  1.0253375850265783E-01 a      1554     0    78     1    14
 -3.8893117349454408E-02 a      1555     0    78     1    15
  1.9051109457705770E-01 a      1556     0    78     1    16
 -2.2684296211904015E-01 a      1557     0    78     1    17
 -8.9157272626436329E-02 a      1558     0    78     1    18
  9.5443241873723314E-02 a      1559     0    78     1    19
  4.4034833130909112E-02 a      1560     0    78     1    20
  6.8558587203192203E-02 a      1561     0    79     1     1
  5.4905066979696708E-02 a      1562     0    79     1     2
 -2.9496166119329485E-02 a      1563     0    79     1     3
  7.3673513446800953E-02 a      1564     0    79     1     4
 -7.9424633497449326E-02 a      1565     0    79     1     5
 -2.6093491192102231E-01 a      1566     0    79     1     6
 -9.5167155144279217E-02 a      1567     0    79     1     7
 -9.2879979093512324E-02 a      1568     0    79     1     8
 -1.2805228981047428E-03 a      1569     0    79     1     9
 -1.0394646424395824E-01 a      1570     0    79     1    10
  7.8823220737724409E-02 a      1571     0    79     1    11
 -1.1656657320496289E-01 a      1572     0    79     1    12
  4.0370127315409149E-02 a      1573     0    79     1    13
  2.4105105352080744E-01 a      1574     0    79     1    14
 -2.0449785956619024E-01 a      1575     0    79     1    15
 -5.2028440751732678E-02 a      1576     0    79     1    16
 -1.0416082766114021E-01 a      1577     0    79     1    17
  1.4202331831306390E-02 a      1578     0    79     1    18
  1.0469818350892934E-01 a      1579     0    79     1    19
 -1.2673999422635818E-01 a      1580     0    79     1    20
 -1.0438964428948014E-01 a      1581     0    80     1     1
 -9.6045595920480120E-02 a      1582     0    80     1     2
  3.1632712656835593E-02 a      1583     0    80     1     3
  1.5050268861929832E-02 a      1584     0    80     1     4
  2.6265289844803561E-02 a      1585     0    80     1     5
  2.4056714739558463E-01 a      1586     0    80     1     6
 -4.6263670796442932E-02 a      1587     0    80     1     7
 -1.1519128409335838E-01 a      1588     0    80     1     8
 -2.0787301417639464E-01 a      1589     0    80     1     9
 -5.6271696351829527E-02 a      1590     0    80     1    10
  2.0214993936759114E-04 a      1591     0    80     1    11
  1.0308066441058698E-01 a      1592     0    80     1    12
  1.1863546444658322E-01 a      1593     0    80     1    13
 -1.4361621507706121E-01 a      1594     0    80     1    14
 -2.0624557831474205E-03 a      1595     0    80     1    15
 -1.0397741932126588E-01 a      1596     0    80     1    16
  8.0074096023617286E-02 a      1597     0    80     1    17
  1.4979072340553840E-01 a      1598     0    80     1    18
 -1.3039320935418111E-02 a      1599     0    80     1    19
  2.6468017067535390E-02 a      1600     0    80     1    20
 -1.4806637835045624E-02 a      1601     0    81     1     1
 -9.5227116666455613E-02 a      1602     0    81     1     2
  8.0855404885477891E-02 a      1603     0    81     1     3
 -1.9669906327755579E-01 a      1604     0    81     1     4
  4.5875482345787899E-03 a      1605     0    81     1     5
 -6.5525420659067579E-02 a      1606     0    81     1     6
  4.8315123413468004E-02 a      1607     0    81     1     7
  7.4190995354022363E-02 a      1608     0    81     1     8
  1.6534005579025393E-01 a      1609     0    81     1     9
 -7.0028631220329374E-02 a      1610     0    81     1    10
  2.9472090546619360E-02 a      1611     0    81     1    11
 -2.2950900971357321E-02 a      1612     0    81     1    12
 -3.6082028178866091E-02 a      1613     0    81     1    13
 -4.4698771596747205E-02 a      1614     0    81     1    14
  7.7909663608717664E-02 a      1615     0    81     1    15
  8.7244186223980710E-02 a      1616     0    81     1    16
  6.5869847594989317E-02 a      1617     0    81     1    17
  1.0137756527816057E-01 a      1618     0    81     1    18
 -2.4241340827132749E-01 a      1619     0    81     1    19
 -7.6567450478801813E-02 a      1620     0    81     1    20
 -1.2612810729653647E-02 a      1621     0    82     1     1
  8.9094944752117020E-03 a      1622     0    82     1     2
 -1.7861178012985278E-02 a      1623     0    82     1     3
