################################################################################
# Neural network connection values (weights and biases).
################################################################################
# Col  Name       Description
################################################################################
# 1    connection Neural network connection value.
# 2    t          Connection type (a = weight, b = bias).
# 3    index      Index enumerating weights.
# 4    l_s        Starting point layer (end point layer for biases).
# 5    n_s        Starting point neuron in starting layer (end point neuron for biases).
# 6    l_e        End point layer.
# 7    n_e        End point neuron in end layer.
################################################################################
#                      1 2         3     4     5     6     7
#             connection t     index   l_s   n_s   l_e   n_e
############################################################
 -7.6135752526992562E-02 a         1     0     1     1     1
  6.1255116713555158E-02 a         2     0     1     1     2
  2.4381756059372098E-01 a         3     0     1     1     3
  7.8294225032805156E-02 a         4     0     1     1     4
  1.1056407967771428E-01 a         5     0     1     1     5
  3.5770322817033948E-02 a         6     0     1     1     6
 -6.0536918329021028E-02 a         7     0     1     1     7
  6.5222201703442756E-02 a         8     0     1     1     8
  2.0015717531626279E-01 a         9     0     1     1     9
 -7.6930490616668415E-02 a        10     0     1     1    10
 -8.3769185787811395E-02 a        11     0     1     1    11
  1.7840527406675977E-01 a        12     0     1     1    12
 -1.7693504117214753E-01 a        13     0     1     1    13
 -6.5520639136148084E-02 a        14     0     1     1    14
  5.9194980569107505E-02 a        15     0     1     1    15
 -4.5062499613824306E-03 a        16     0     1     1    16
 -4.5395678355516680E-02 a        17     0     1     1    17
 -1.4846334458078528E-01 a        18     0     1     1    18
 -1.6901695505550557E-01 a        19     0     1     1    19
 -1.9992848147058634E-01 a        20     0     1     1    20
  8.6563661513975029E-02 a        21     0     2     1     1
  2.9510824726048561E-03 a        22     0     2     1     2
 -7.5694553039261175E-02 a        23     0     2     1     3
 -1.4653730260814655E-02 a        24     0     2     1     4
 -6.2248356786354531E-03 a        25     0     2     1     5
  9.4179539767920414E-02 a        26     0     2     1     6
 -3.5565169245331922E-02 a        27     0     2     1     7
  1.1230868222671046E-02 a        28     0     2     1     8
  1.4706886185298995E-01 a        29     0     2     1     9
  4.6018247100860062E-02 a        30     0     2     1    10
  2.3495034974956124E-02 a        31     0     2     1    11
  5.5242483469231888E-03 a        32     0     2     1    12
  9.3102823294731574E-02 a        33     0     2     1    13
  1.9342567615517414E-04 a        34     0     2     1    14
 -5.1073241739508134E-02 a        35     0     2     1    15
 -3.0055534275917492E-02 a        36     0     2     1    16
  6.2831894582640616E-02 a        37     0     2     1    17
  2.0686470465952195E-02 a        38     0     2     1    18
  8.0039302215118534E-03 a        39     0     2     1    19
 -2.9788049579504153E-02 a        40     0     2     1    20
  1.3414879991888751E-02 a        41     0     3     1     1
 -3.0887597114058914E-02 a        42     0     3     1     2
  1.4765024514577379E-02 a        43     0     3     1     3
 -2.7923995879112019E-02 a        44     0     3     1     4
  4.3124917999909224E-02 a        45     0     3     1     5
 -8.4148622395369951E-02 a        46     0     3     1     6
  8.9638231677662814E-02 a        47     0     3     1     7
  2.6420815684303950E-01 a        48     0     3     1     8
 -1.0498794959279362E-01 a        49     0     3     1     9
 -9.0781808401457206E-02 a        50     0     3     1    10
 -1.0463932677619242E-02 a        51     0     3     1    11
 -7.7995635908746072E-02 a        52     0     3     1    12
 -1.2718066936411951E-01 a        53     0     3     1    13
 -3.7905538772984339E-02 a        54     0     3     1    14
  1.0739738811660439E-01 a        55     0     3     1    15
  1.9826866939278931E-01 a        56     0     3     1    16
 -2.0189998741779749E-02 a        57     0     3     1    17
  9.9921963386008939E-03 a        58     0     3     1    18
  7.3724885656349215E-02 a        59     0     3     1    19
 -1.4279178841322829E-01 a        60     0     3     1    20
  9.2601601466739500E-02 a        61     0     4     1     1
 -2.4129308114259587E-02 a        62     0     4     1     2
  1.0449193585458766E-01 a        63     0     4     1     3
  4.1952942164521445E-02 a        64     0     4     1     4
 -2.2846981409592225E-03 a        65     0     4     1     5
 -7.3537412128467650E-02 a        66     0     4     1     6
 -8.8090696411758249E-02 a        67     0     4     1     7
  5.4358884616701450E-02 a        68     0     4     1     8
 -4.7263018317809505E-02 a        69     0     4     1     9
  1.8051604925189532E-01 a        70     0     4     1    10
  4.2150925896465741E-02 a        71     0     4     1    11
 -7.5208761478554154E-02 a        72     0     4     1    12
 -1.4986097169620635E-01 a        73     0     4     1    13
  4.2937850140970367E-02 a        74     0     4     1    14
  6.5935501412074896E-02 a        75     0     4     1    15
  5.7733893478510045E-02 a        76     0     4     1    16
 -1.5474494893822732E-01 a        77     0     4     1    17
  1.5808441988256708E-01 a        78     0     4     1    18
 -4.1054926731785436E-02 a        79     0     4     1    19
  7.1817705815100316E-02 a        80     0     4     1    20
 -1.7578512671227484E-02 a        81     0     5     1     1
 -1.2597592043949910E-01 a        82     0     5     1     2
 -4.7356638085939540E-02 a        83     0     5     1     3
  9.4718674395146668E-02 a        84     0     5     1     4
 -5.8996825215594337E-02 a        85     0     5     1     5
 -7.5394350282340344E-02 a        86     0     5     1     6
 -2.7517265237150140E-01 a        87     0     5     1     7
 -5.6958050860211995E-02 a        88     0     5     1     8
 -1.2412037074425147E-01 a        89     0     5     1     9
  5.9504524635377920E-02 a        90     0     5     1    10
  1.8347347128053479E-01 a        91     0     5     1    11
  1.9541614832060522E-01 a        92     0     5     1    12
  8.1275672518038758E-02 a        93     0     5     1    13
  5.7499031214176502E-02 a        94     0     5     1    14
 -8.1841889979018909E-02 a        95     0     5     1    15
 -7.4053099807670539E-02 a        96     0     5     1    16
  1.3869174348623931E-01 a        97     0     5     1    17
 -7.8151061713821815E-02 a        98     0     5     1    18
  9.1967692810640350E-02 a        99     0     5     1    19
  2.0150402188643976E-01 a       100     0     5     1    20
 -1.3376668257775945E-01 a       101     0     6     1     1
 -1.2701069633220249E-01 a       102     0     6     1     2
  3.2949518036399250E-03 a       103     0     6     1     3
 -2.7804203775535850E-02 a       104     0     6     1     4
  4.4230248580514567E-02 a       105     0     6     1     5
  1.0822955312641155E-01 a       106     0     6     1     6
 -1.0152236280610462E-01 a       107     0     6     1     7
  2.0478025841922984E-01 a       108     0     6     1     8
 -2.1363518525934971E-01 a       109     0     6     1     9
  3.0597815532354508E-02 a       110     0     6     1    10
  8.9918149656028942E-02 a       111     0     6     1    11
 -1.0095099009021748E-01 a       112     0     6     1    12
  3.3102254906390453E-02 a       113     0     6     1    13
 -3.7836449395487901E-02 a       114     0     6     1    14
  5.7772953316955020E-02 a       115     0     6     1    15
 -9.6907762994657587E-02 a       116     0     6     1    16
  7.6617812633404878E-02 a       117     0     6     1    17
  8.1160672953008606E-02 a       118     0     6     1    18
 -6.8109618360431825E-03 a       119     0     6     1    19
  9.6649018559996761E-02 a       120     0     6     1    20
 -1.7807028729340862E-01 a       121     0     7     1     1
 -1.8999286398365168E-02 a       122     0     7     1     2
  4.6034306574330920E-02 a       123     0     7     1     3
 -1.3850970753978811E-01 a       124     0     7     1     4
  7.3399273290402453E-02 a       125     0     7     1     5
 -4.9184850292680344E-03 a       126     0     7     1     6
  8.4644367327647393E-02 a       127     0     7     1     7
  1.7511878488213201E-02 a       128     0     7     1     8
 -9.6580587763548970E-02 a       129     0     7     1     9
  3.3998395412136374E-02 a       130     0     7     1    10
  1.2197527445423972E-02 a       131     0     7     1    11
  2.6248490533842040E-03 a       132     0     7     1    12
 -5.4402770820550360E-02 a       133     0     7     1    13
  1.2347796687482544E-01 a       134     0     7     1    14
 -7.2195289859226672E-02 a       135     0     7     1    15
  2.2950756541139119E-02 a       136     0     7     1    16
 -3.8351036971840773E-02 a       137     0     7     1    17
 -2.9956522642124206E-01 a       138     0     7     1    18
  7.3757259858258498E-02 a       139     0     7     1    19
 -1.2265349283134022E-01 a       140     0     7     1    20
 -1.9132948953510573E-01 a       141     0     8     1     1
  1.7947241409799627E-01 a       142     0     8     1     2
  7.6105852395318571E-02 a       143     0     8     1     3
  1.8099776036032947E-01 a       144     0     8     1     4
 -2.4579519715382320E-01 a       145     0     8     1     5
  6.3917950980498017E-02 a       146     0     8     1     6
 -9.8655993396507977E-02 a       147     0     8     1     7
 -2.4901365488909782E-02 a       148     0     8     1     8
 -1.1607467653605588E-01 a       149     0     8     1     9
  3.4794236083639234E-02 a       150     0     8     1    10
  2.3276175965277843E-02 a       151     0     8     1    11
 -8.7710721606199651E-02 a       152     0     8     1    12
 -7.6524462878836769E-02 a       153     0     8     1    13
  2.4018880062770968E-02 a       154     0     8     1    14
 -5.7077205114229985E-02 a       155     0     8     1    15
 -9.9914887907224942E-02 a       156     0     8     1    16
 -1.5943152267922531E-01 a       157     0     8     1    17
 -3.6430662769941911E-02 a       158     0     8     1    18
  1.3617084382315311E-01 a       159     0     8     1    19
 -8.6134456995149530E-02 a       160     0     8     1    20
 -1.9167979803596413E-01 a       161     0     9     1     1
 -1.3032865309284888E-01 a       162     0     9     1     2
 -2.3945394404113149E-01 a       163     0     9     1     3
 -5.2139948760232882E-03 a       164     0     9     1     4
 -1.3892068741796032E-01 a       165     0     9     1     5
  5.0005672347502500E-02 a       166     0     9     1     6
 -1.2009135186486948E-02 a       167     0     9     1     7
  2.6794319698891116E-02 a       168     0     9     1     8
 -1.0091723494395780E-01 a       169     0     9     1     9
  4.1096462575012559E-02 a       170     0     9     1    10
  1.3173033325695718E-01 a       171     0     9     1    11
 -1.3956709629067027E-01 a       172     0     9     1    12
  8.7817042087724603E-02 a       173     0     9     1    13
 -1.1452056404944636E-01 a       174     0     9     1    14
  1.7172858501019070E-01 a       175     0     9     1    15
 -3.2979865133463813E-02 a       176     0     9     1    16
  1.3241507146884163E-01 a       177     0     9     1    17
 -2.5889025927808625E-02 a       178     0     9     1    18
  1.5356177973360757E-01 a       179     0     9     1    19
  1.2586553124327352E-01 a       180     0     9     1    20
 -7.5507699959771857E-02 a       181     0    10     1     1
 -1.0136420012564176E-01 a       182     0    10     1     2
  1.0873949909455052E-02 a       183     0    10     1     3
 -1.0255244206686641E-01 a       184     0    10     1     4
  4.2175583507682066E-02 a       185     0    10     1     5
 -2.4586887678251824E-02 a       186     0    10     1     6
 -1.3244815088379386E-01 a       187     0    10     1     7
 -1.7866654975205148E-02 a       188     0    10     1     8
  2.0565590014535018E-01 a       189     0    10     1     9
 -8.7223723276999607E-02 a       190     0    10     1    10
 -2.3763305290557830E-02 a       191     0    10     1    11
 -1.2135939348354534E-01 a       192     0    10     1    12
  3.0247990213590237E-01 a       193     0    10     1    13
 -1.1385078877880449E-01 a       194     0    10     1    14
 -9.5251852043627211E-02 a       195     0    10     1    15
  1.3832056976071347E-01 a       196     0    10     1    16
 -1.3565831575618442E-01 a       197     0    10     1    17
 -1.7364364485537043E-01 a       198     0    10     1    18
 -1.4898168283480437E-01 a       199     0    10     1    19
  8.5109995120146886E-02 a       200     0    10     1    20
 -6.2892127451302057E-02 a       201     0    11     1     1
 -1.5431522435199174E-01 a       202     0    11     1     2
  2.0134627368468241E-01 a       203     0    11     1     3
  4.7913969406232965E-02 a       204     0    11     1     4
 -4.2076005540009113E-02 a       205     0    11     1     5
 -1.5186801315130249E-01 a       206     0    11     1     6
  7.1157835933357574E-02 a       207     0    11     1     7
  1.0974365797312050E-01 a       208     0    11     1     8
 -1.0467926925830835E-01 a       209     0    11     1     9
 -1.7180726836771759E-01 a       210     0    11     1    10
 -1.7541669798968382E-01 a       211     0    11     1    11
 -8.1215087858372836E-02 a       212     0    11     1    12
 -5.8475281801618605E-03 a       213     0    11     1    13
 -3.7478793865503512E-03 a       214     0    11     1    14
 -1.5248212203902961E-01 a       215     0    11     1    15
  4.3265813025929682E-02 a       216     0    11     1    16
  1.2610478566407976E-01 a       217     0    11     1    17
  8.0128305481140749E-02 a       218     0    11     1    18
 -5.6379074493373302E-02 a       219     0    11     1    19
  1.7891552899825267E-01 a       220     0    11     1    20
 -5.1745521962480313E-02 a       221     0    12     1     1
  6.1663007952188195E-02 a       222     0    12     1     2
 -1.6225440559070263E-02 a       223     0    12     1     3
  4.5579420439529783E-02 a       224     0    12     1     4
 -3.3277833378987626E-02 a       225     0    12     1     5
  4.7300541411798215E-02 a       226     0    12     1     6
 -1.0189875521053156E-01 a       227     0    12     1     7
 -4.7636791129482943E-02 a       228     0    12     1     8
  2.0389313506615714E-01 a       229     0    12     1     9
  2.0088481261001566E-02 a       230     0    12     1    10
  1.9903080104804481E-02 a       231     0    12     1    11
  3.3657078707197433E-02 a       232     0    12     1    12
  2.1638538032647148E-01 a       233     0    12     1    13
 -5.3600081163213915E-02 a       234     0    12     1    14
  4.7676380484847888E-02 a       235     0    12     1    15
  1.5270566264479609E-02 a       236     0    12     1    16
  6.7897377810385989E-02 a       237     0    12     1    17
 -5.2850722718916793E-03 a       238     0    12     1    18
  3.7819995231579910E-02 a       239     0    12     1    19
 -7.4621214153371779E-02 a       240     0    12     1    20
  1.7960631222738929E-01 a       241     0    13     1     1
 -1.6074870337769852E-02 a       242     0    13     1     2
 -1.7295587307709434E-01 a       243     0    13     1     3
  2.3968067882813374E-01 a       244     0    13     1     4
  1.2620834119322272E-01 a       245     0    13     1     5
 -9.2416147900357973E-02 a       246     0    13     1     6
 -3.6748479688937005E-02 a       247     0    13     1     7
  1.8980002050927522E-01 a       248     0    13     1     8
 -1.4328879085042265E-01 a       249     0    13     1     9
  1.0218830491469190E-01 a       250     0    13     1    10
  3.0080131977242030E-02 a       251     0    13     1    11
  6.8314388715191424E-02 a       252     0    13     1    12
  1.5567796909000137E-01 a       253     0    13     1    13
  3.2845694666451576E-02 a       254     0    13     1    14
 -5.9522087625869621E-02 a       255     0    13     1    15
  1.3303875214414190E-01 a       256     0    13     1    16
  1.4201576170144894E-01 a       257     0    13     1    17
 -1.8181880389243610E-01 a       258     0    13     1    18
 -2.4750360754279420E-03 a       259     0    13     1    19
  1.2859838195244593E-02 a       260     0    13     1    20
  5.2572008152748644E-02 a       261     0    14     1     1
  5.1730357946228375E-03 a       262     0    14     1     2
  3.8702777787482084E-03 a       263     0    14     1     3
  1.3459295380938532E-02 a       264     0    14     1     4
 -8.1241754660012350E-03 a       265     0    14     1     5
 -5.7335916201155940E-02 a       266     0    14     1     6
  2.1982753286972592E-01 a       267     0    14     1     7
  1.1974372962848251E-01 a       268     0    14     1     8
 -1.6429425576401514E-02 a       269     0    14     1     9
 -2.4893867140514944E-02 a       270     0    14     1    10
 -5.5537084732592994E-02 a       271     0    14     1    11
 -1.7306981542849630E-03 a       272     0    14     1    12
 -8.0879345112116502E-02 a       273     0    14     1    13
  4.6567321303618778E-02 a       274     0    14     1    14
 -3.4082756253282831E-02 a       275     0    14     1    15
 -2.2957756005285371E-01 a       276     0    14     1    16
  5.7420368097964816E-02 a       277     0    14     1    17
  5.7965782996305219E-02 a       278     0    14     1    18
 -2.2459468187842355E-01 a       279     0    14     1    19
  1.1593437137221070E-01 a       280     0    14     1    20
 -1.0856232645286994E-01 a       281     0    15     1     1
  2.6016073677248003E-01 a       282     0    15     1     2
  9.8523336866262412E-02 a       283     0    15     1     3
  6.8714968658303358E-02 a       284     0    15     1     4
 -9.7499921504068762E-02 a       285     0    15     1     5
 -1.0963571847852600E-01 a       286     0    15     1     6
  1.0348924626815081E-01 a       287     0    15     1     7
  2.5600138582146742E-01 a       288     0    15     1     8
  2.3183961660820621E-01 a       289     0    15     1     9
  1.7796076739731095E-01 a       290     0    15     1    10
 -1.9919569747181251E-01 a       291     0    15     1    11
 -8.5700058136353521E-02 a       292     0    15     1    12
 -3.9747494384734149E-02 a       293     0    15     1    13
  7.2330670872928146E-02 a       294     0    15     1    14
  2.1137849791976029E-01 a       295     0    15     1    15
  1.9059053008903089E-02 a       296     0    15     1    16
  1.3212143883677846E-01 a       297     0    15     1    17
  1.3013339561720633E-01 a       298     0    15     1    18
  1.1314514065708373E-01 a       299     0    15     1    19
 -1.2093066491170536E-01 a       300     0    15     1    20
 -2.3764959623404133E-01 a       301     0    16     1     1
  1.2369647907416370E-03 a       302     0    16     1     2
  1.3906715667861000E-01 a       303     0    16     1     3
  6.0526990139943532E-02 a       304     0    16     1     4
  4.0408652303712579E-02 a       305     0    16     1     5
  7.8852826286615788E-02 a       306     0    16     1     6
 -1.7488185201388531E-02 a       307     0    16     1     7
  1.2483085751058980E-01 a       308     0    16     1     8
  1.9521248720923184E-01 a       309     0    16     1     9
  9.8335725622484674E-02 a       310     0    16     1    10
 -5.3653605608981074E-02 a       311     0    16     1    11
 -3.4876348285950175E-02 a       312     0    16     1    12
 -1.7016275084770542E-02 a       313     0    16     1    13
 -6.4105582932626304E-02 a       314     0    16     1    14
  1.6122194416397437E-01 a       315     0    16     1    15
 -1.9826820778141660E-01 a       316     0    16     1    16
 -1.7418030445568587E-02 a       317     0    16     1    17
  1.6637950865853826E-01 a       318     0    16     1    18
 -1.1812747247324332E-01 a       319     0    16     1    19
 -3.9524838648816361E-02 a       320     0    16     1    20
  5.1126961333383583E-02 a       321     0    17     1     1
 -1.5270654994535211E-02 a       322     0    17     1     2
 -5.3997509352226407E-02 a       323     0    17     1     3
 -8.2410785984000978E-02 a       324     0    17     1     4
  9.5099499657873010E-02 a       325     0    17     1     5
  1.2132685202345842E-02 a       326     0    17     1     6
  1.0041946984684355E-01 a       327     0    17     1     7
  1.0519496032655574E-01 a       328     0    17     1     8
 -8.3285985820365144E-02 a       329     0    17     1     9
  1.3322822823044070E-01 a       330     0    17     1    10
  2.5486830986102972E-02 a       331     0    17     1    11
 -1.3794477351775142E-01 a       332     0    17     1    12
 -1.2408446120845555E-01 a       333     0    17     1    13
  1.0168816816892870E-01 a       334     0    17     1    14
 -1.1698548751961949E-01 a       335     0    17     1    15
 -1.1456422256696988E-01 a       336     0    17     1    16
 -1.9907319750671015E-02 a       337     0    17     1    17
 -8.8746425564918893E-02 a       338     0    17     1    18
 -1.7863297127973379E-02 a       339     0    17     1    19
  3.0319183448985265E-02 a       340     0    17     1    20
  1.2798103307355693E-01 a       341     0    18     1     1
  2.0553660441878497E-02 a       342     0    18     1     2
 -1.3074753160905193E-02 a       343     0    18     1     3
 -2.5070372191074195E-02 a       344     0    18     1     4
 -4.7196598702780562E-02 a       345     0    18     1     5
  1.1131304062546651E-01 a       346     0    18     1     6
 -4.7181096824856099E-02 a       347     0    18     1     7
 -7.5631963652957698E-02 a       348     0    18     1     8
  1.9218468714952361E-01 a       349     0    18     1     9
 -1.8472763353722679E-02 a       350     0    18     1    10
 -2.1370341838446924E-03 a       351     0    18     1    11
  5.7231178024543229E-02 a       352     0    18     1    12
 -9.6947938242113230E-02 a       353     0    18     1    13
  1.7846932761627338E-01 a       354     0    18     1    14
 -2.1548280611807968E-01 a       355     0    18     1    15
  2.5511582859877757E-01 a       356     0    18     1    16
  1.5426411172572865E-01 a       357     0    18     1    17
 -2.0950632170640332E-01 a       358     0    18     1    18
 -1.0161737635994436E-02 a       359     0    18     1    19
 -1.2265874184212294E-01 a       360     0    18     1    20
 -1.1895414548377389E-01 a       361     0    19     1     1
  3.6642220974261893E-04 a       362     0    19     1     2
  1.2749181247575753E-01 a       363     0    19     1     3
  3.2718330670213673E-02 a       364     0    19     1     4
  1.4382891519604796E-01 a       365     0    19     1     5
  5.5704202937166478E-02 a       366     0    19     1     6
 -1.4598280061937658E-02 a       367     0    19     1     7
 -6.0674982297634031E-02 a       368     0    19     1     8
  1.7674084040236349E-01 a       369     0    19     1     9
 -2.8135465347163197E-01 a       370     0    19     1    10
  4.0995403429459837E-03 a       371     0    19     1    11
  7.7229559798266498E-02 a       372     0    19     1    12
 -9.0471110589743386E-02 a       373     0    19     1    13
  1.2848130854252920E-01 a       374     0    19     1    14
 -5.1608849933063389E-02 a       375     0    19     1    15
  1.1871651436452775E-01 a       376     0    19     1    16
 -1.7767152332371172E-01 a       377     0    19     1    17
 -2.5605005912922151E-02 a       378     0    19     1    18
  8.7996940704929708E-02 a       379     0    19     1    19
 -1.8514456312417532E-01 a       380     0    19     1    20
 -1.8630795892318144E-01 a       381     0    20     1     1
 -8.6106530132482456E-02 a       382     0    20     1     2
  1.4537158657284333E-01 a       383     0    20     1     3
 -1.3240498990339730E-01 a       384     0    20     1     4
 -1.8417596808294922E-02 a       385     0    20     1     5
  9.5814425925865560E-02 a       386     0    20     1     6
  1.1069240494949666E-01 a       387     0    20     1     7
  1.5817136219550970E-01 a       388     0    20     1     8
 -1.0259387779397088E-01 a       389     0    20     1     9
 -5.0775393580655553E-02 a       390     0    20     1    10
  7.6059384701788385E-02 a       391     0    20     1    11
 -1.3101721080455056E-01 a       392     0    20     1    12
  4.0173478104699387E-02 a       393     0    20     1    13
  1.1810409029725968E-01 a       394     0    20     1    14
  1.8606878562554294E-01 a       395     0    20     1    15
  8.9382607111273271E-02 a       396     0    20     1    16
  4.9603534561212408E-02 a       397     0    20     1    17
  4.1236705808918670E-03 a       398     0    20     1    18
 -1.9927887527774607E-01 a       399     0    20     1    19
  8.7281147404369153E-03 a       400     0    20     1    20
  1.4877804816519685E-01 a       401     0    21     1     1
 -1.5198635329116386E-01 a       402     0    21     1     2
  1.2570006604535894E-01 a       403     0    21     1     3
  2.0089475739424906E-02 a       404     0    21     1     4
  2.8258563992172438E-02 a       405     0    21     1     5
  1.7333432386250725E-02 a       406     0    21     1     6
  4.6162521191661997E-02 a       407     0    21     1     7
 -8.9298401784931120E-02 a       408     0    21     1     8
  9.5416700651642011E-02 a       409     0    21     1     9
  2.5147728635455918E-01 a       410     0    21     1    10
 -1.0211224448544320E-01 a       411     0    21     1    11
 -1.2012914862450784E-01 a       412     0    21     1    12
 -7.0681818579138050E-02 a       413     0    21     1    13
 -4.0247976255733946E-02 a       414     0    21     1    14
 -2.3305228496403207E-02 a       415     0    21     1    15
 -2.5951358819282174E-02 a       416     0    21     1    16
  1.5638524370173722E-02 a       417     0    21     1    17
  3.0329599250424024E-02 a       418     0    21     1    18
 -1.5682847853103154E-02 a       419     0    21     1    19
  2.0113893704337574E-01 a       420     0    21     1    20
 -2.5017565891859921E-02 a       421     0    22     1     1
  3.4832078403361097E-02 a       422     0    22     1     2
  1.0714243300875601E-02 a       423     0    22     1     3
  2.4131574990607502E-02 a       424     0    22     1     4
 -1.3040834309625259E-02 a       425     0    22     1     5
 -5.4130093767991863E-03 a       426     0    22     1     6
 -2.9846019176116647E-02 a       427     0    22     1     7
 -1.5989923629202176E-02 a       428     0    22     1     8
  4.6628979307321239E-02 a       429     0    22     1     9
  3.3045105814136368E-02 a       430     0    22     1    10
 -3.3851489799244512E-03 a       431     0    22     1    11
 -2.4608031590498451E-02 a       432     0    22     1    12
  5.8533298135047311E-02 a       433     0    22     1    13
 -1.2108471119832705E-02 a       434     0    22     1    14
  2.9161985192740963E-02 a       435     0    22     1    15
 -1.5320817861630651E-02 a       436     0    22     1    16
  2.0705022872775897E-02 a       437     0    22     1    17
  5.3430426304270128E-03 a       438     0    22     1    18
 -5.6982946284255542E-03 a       439     0    22     1    19
  1.6827062342997690E-03 a       440     0    22     1    20
  6.7495545860046580E-02 a       441     0    23     1     1
 -1.5083155466409157E-02 a       442     0    23     1     2
 -1.4765499318999554E-02 a       443     0    23     1     3
  8.6853632667035593E-02 a       444     0    23     1     4
 -1.3820220891459706E-01 a       445     0    23     1     5
  1.8926511406056232E-01 a       446     0    23     1     6
 -8.7592230209258424E-04 a       447     0    23     1     7
  6.6316610957021085E-02 a       448     0    23     1     8
  8.6933170316933719E-02 a       449     0    23     1     9
  9.1332326855242646E-02 a       450     0    23     1    10
 -1.1001929250378616E-01 a       451     0    23     1    11
  1.9339260245470079E-02 a       452     0    23     1    12
 -6.0142641688427555E-02 a       453     0    23     1    13
 -2.4089351539265361E-01 a       454     0    23     1    14
  1.5247004234189415E-01 a       455     0    23     1    15
 -2.2794679132719556E-01 a       456     0    23     1    16
  5.3087426734583993E-03 a       457     0    23     1    17
  1.2245057414212029E-01 a       458     0    23     1    18
 -2.3294273382394860E-02 a       459     0    23     1    19
 -1.4465472482396670E-02 a       460     0    23     1    20
 -1.8085381138551404E-01 a       461     0    24     1     1
  1.0450359354997098E-01 a       462     0    24     1     2
 -9.4598570430955126E-02 a       463     0    24     1     3
  7.3273955531717949E-02 a       464     0    24     1     4
  6.5925916351350561E-02 a       465     0    24     1     5
 -9.3309975221884056E-02 a       466     0    24     1     6
 -7.7797272042165883E-02 a       467     0    24     1     7
  4.4136780325252471E-02 a       468     0    24     1     8
 -1.5748009885465664E-01 a       469     0    24     1     9
 -4.6264305690046026E-02 a       470     0    24     1    10
  1.2433387753254636E-01 a       471     0    24     1    11
  1.0682455389654999E-01 a       472     0    24     1    12
  1.0793451343623658E-01 a       473     0    24     1    13
  8.4869315476754650E-02 a       474     0    24     1    14
  6.2139949499738882E-02 a       475     0    24     1    15
 -6.3117637764896511E-02 a       476     0    24     1    16
  5.1200851227908441E-02 a       477     0    24     1    17
 -2.7080546619088425E-01 a       478     0    24     1    18
 -5.2533767645445636E-02 a       479     0    24     1    19
  1.9413129111875149E-02 a       480     0    24     1    20
  4.7438382973551248E-02 a       481     0    25     1     1
 -1.7014793573378717E-01 a       482     0    25     1     2
  1.1503116923341139E-02 a       483     0    25     1     3
 -1.0112357129295141E-01 a       484     0    25     1     4
 -2.6812232922991541E-01 a       485     0    25     1     5
 -7.4913205036845815E-02 a       486     0    25     1     6
 -1.8430631307545495E-01 a       487     0    25     1     7
 -1.4402458857152983E-01 a       488     0    25     1     8
  1.1698220842168026E-01 a       489     0    25     1     9
  1.2976680625926312E-01 a       490     0    25     1    10
  4.1777037611110132E-03 a       491     0    25     1    11
 -2.1979912014992670E-01 a       492     0    25     1    12
  1.3703681190235989E-02 a       493     0    25     1    13
 -2.5108440268681878E-02 a       494     0    25     1    14
  1.1598349332195709E-01 a       495     0    25     1    15
 -3.5046292953636274E-02 a       496     0    25     1    16
 -2.1591933949454253E-01 a       497     0    25     1    17
  2.8589374416311941E-02 a       498     0    25     1    18
 -3.9739211739325563E-02 a       499     0    25     1    19
  3.0567748086769414E-01 a       500     0    25     1    20
 -1.4515812966792946E-01 a       501     0    26     1     1
  8.0668449497303840E-02 a       502     0    26     1     2
  1.4050758798533153E-02 a       503     0    26     1     3
  1.9670435348940651E-01 a       504     0    26     1     4
 -5.7761118074067773E-02 a       505     0    26     1     5
 -7.4161485724336326E-02 a       506     0    26     1     6
 -1.2425871627745005E-02 a       507     0    26     1     7
  1.8693608083148583E-01 a       508     0    26     1     8
 -1.1929720922967917E-02 a       509     0    26     1     9
 -1.0615904406493477E-01 a       510     0    26     1    10
 -9.7738759642891377E-03 a       511     0    26     1    11
  5.5656299992513911E-02 a       512     0    26     1    12
  4.2325573449405712E-02 a       513     0    26     1    13
 -4.1612793300516808E-02 a       514     0    26     1    14
  4.6641904006730961E-02 a       515     0    26     1    15
  1.1492540673141071E-02 a       516     0    26     1    16
  5.8791649249367736E-02 a       517     0    26     1    17
  6.2464748498493684E-02 a       518     0    26     1    18
  1.0405958300456382E-01 a       519     0    26     1    19
 -5.4293157706248658E-02 a       520     0    26     1    20
  1.5136332564069710E-02 a       521     0    27     1     1
 -8.6114256172174115E-03 a       522     0    27     1     2
 -1.4693640066368745E-02 a       523     0    27     1     3
 -2.1217435638224494E-02 a       524     0    27     1     4
  2.1830474874700193E-02 a       525     0    27     1     5
  1.8463516060223779E-03 a       526     0    27     1     6
  2.5446098148277849E-02 a       527     0    27     1     7
  2.5365279987863754E-02 a       528     0    27     1     8
 -1.9955950378440449E-02 a       529     0    27     1     9
  2.3580388425726524E-02 a       530     0    27     1    10
  8.7087935325071385E-03 a       531     0    27     1    11
 -2.2597929596580038E-02 a       532     0    27     1    12
 -3.6042634276606790E-02 a       533     0    27     1    13
  2.0044557578846003E-02 a       534     0    27     1    14
 -2.9019994800744384E-02 a       535     0    27     1    15
 -1.9817331514668090E-02 a       536     0    27     1    16
 -5.3994789572627379E-03 a       537     0    27     1    17
 -1.6102272109269268E-02 a       538     0    27     1    18
 -1.0094270236587920E-03 a       539     0    27     1    19
  6.4999232010857291E-03 a       540     0    27     1    20
  9.8955311064706966E-02 a       541     0    28     1     1
  6.3606461685257520E-02 a       542     0    28     1     2
  6.1377788995700580E-02 a       543     0    28     1     3
  7.6424343644041798E-02 a       544     0    28     1     4
  1.4912283568922796E-01 a       545     0    28     1     5
  8.4670467138000721E-02 a       546     0    28     1     6
  1.0615309143674731E-01 a       547     0    28     1     7
 -8.8394340670424315E-02 a       548     0    28     1     8
  2.2885386255660756E-01 a       549     0    28     1     9
  6.6188083170300518E-02 a       550     0    28     1    10
 -6.1034366889111395E-02 a       551     0    28     1    11
  5.5745197147827469E-02 a       552     0    28     1    12
  9.4218560238128000E-03 a       553     0    28     1    13
  1.2697362597751158E-01 a       554     0    28     1    14
 -7.9105490909025425E-02 a       555     0    28     1    15
 -4.2059204585978248E-02 a       556     0    28     1    16
  7.1679321800692558E-02 a       557     0    28     1    17
 -1.8454452140629260E-01 a       558     0    28     1    18
 -9.7755624821561860E-02 a       559     0    28     1    19
 -3.3016154889599122E-02 a       560     0    28     1    20
 -1.0710690024201450E-01 a       561     0    29     1     1
 -4.7941900393268996E-02 a       562     0    29     1     2
  6.6637621126627855E-02 a       563     0    29     1     3
 -3.9679145077265561E-02 a       564     0    29     1     4
 -7.3440193761915351E-02 a       565     0    29     1     5
 -4.3811883431751221E-02 a       566     0    29     1     6
  2.6187755677898594E-01 a       567     0    29     1     7
 -4.4113105256937776E-02 a       568     0    29     1     8
  7.1580381984291383E-02 a       569     0    29     1     9
 -2.9703806990052310E-02 a       570     0    29     1    10
 -1.1154288562731466E-02 a       571     0    29     1    11
 -1.2027622138234044E-01 a       572     0    29     1    12
 -1.7386067540496442E-01 a       573     0    29     1    13
  2.5432287240547760E-02 a       574     0    29     1    14
 -2.1490056936810487E-02 a       575     0    29     1    15
  5.2316232468352999E-02 a       576     0    29     1    16
 -5.1366338314760146E-02 a       577     0    29     1    17
  1.3826749460695736E-01 a       578     0    29     1    18
 -2.4939638601145588E-02 a       579     0    29     1    19
 -8.6992787137421021E-02 a       580     0    29     1    20
  1.9412255530975097E-02 a       581     0    30     1     1
  4.2861011040583596E-02 a       582     0    30     1     2
 -1.1108760343507017E-02 a       583     0    30     1     3
 -7.3135585910814829E-02 a       584     0    30     1     4
  7.3550267063367510E-03 a       585     0    30     1     5
  9.2637600768488912E-03 a       586     0    30     1     6
  2.0478115626491190E-02 a       587     0    30     1     7
 -8.4601866659131303E-02 a       588     0    30     1     8
 -5.7981364102233590E-02 a       589     0    30     1     9
  1.0163766889420570E-01 a       590     0    30     1    10
  4.9919872994692027E-02 a       591     0    30     1    11
 -8.7311243730068856E-03 a       592     0    30     1    12
  8.6734196020578636E-02 a       593     0    30     1    13
  3.5592268280300959E-02 a       594     0    30     1    14
  4.7054643901441165E-02 a       595     0    30     1    15
  1.7212874957266106E-01 a       596     0    30     1    16
  1.1228213270359933E-02 a       597     0    30     1    17
  8.4162722827583636E-02 a       598     0    30     1    18
  1.0580365039139493E-02 a       599     0    30     1    19
 -1.6171482210720287E-01 a       600     0    30     1    20
  6.9589653783927272E-02 a       601     0    31     1     1
 -6.3215589347390730E-02 a       602     0    31     1     2
  6.0933111037914718E-02 a       603     0    31     1     3
 -7.8529265159319558E-02 a       604     0    31     1     4
 -4.2658142535288660E-03 a       605     0    31     1     5
 -1.3094811207951947E-02 a       606     0    31     1     6
 -2.2953967326801984E-02 a       607     0    31     1     7
 -1.1488718012909292E-02 a       608     0    31     1     8
 -4.6187150773006449E-03 a       609     0    31     1     9
  1.9071882240333060E-01 a       610     0    31     1    10
 -2.9602956416552938E-02 a       611     0    31     1    11
 -7.0139060493877428E-02 a       612     0    31     1    12
 -9.3296289636559282E-02 a       613     0    31     1    13
 -7.9798908562770512E-02 a       614     0    31     1    14
 -2.0877475995846273E-02 a       615     0    31     1    15
 -1.1889989606624504E-02 a       616     0    31     1    16
  1.2878412884731464E-02 a       617     0    31     1    17
  1.0811342218887920E-01 a       618     0    31     1    18
  2.5150138642739073E-02 a       619     0    31     1    19
  1.2542378661664838E-01 a       620     0    31     1    20
  2.9809396405690320E-02 a       621     0    32     1     1
  1.4853758113124248E-02 a       622     0    32     1     2
  8.3795758331692300E-03 a       623     0    32     1     3
  3.1446097058951857E-02 a       624     0    32     1     4
 -5.0090675844499683E-03 a       625     0    32     1     5
  1.0525371666030884E-02 a       626     0    32     1     6
 -5.9713370683346177E-03 a       627     0    32     1     7
 -1.0336413823084568E-02 a       628     0    32     1     8
 -4.3322207147547184E-03 a       629     0    32     1     9
  6.1051521923947548E-02 a       630     0    32     1    10
 -1.6589572256770210E-02 a       631     0    32     1    11
 -4.5168807619544192E-02 a       632     0    32     1    12
  1.2940371891570872E-02 a       633     0    32     1    13
  1.2927005137311759E-02 a       634     0    32     1    14
  9.3270454547936497E-03 a       635     0    32     1    15
 -2.7468765846585204E-02 a       636     0    32     1    16
 -1.3430664893439682E-02 a       637     0    32     1    17
  5.4058707995479228E-03 a       638     0    32     1    18
 -2.5792988455307586E-02 a       639     0    32     1    19
  3.1040250581586201E-02 a       640     0    32     1    20
  2.9311372475013135E-02 a       641     0    33     1     1
 -5.1311713218764859E-03 a       642     0    33     1     2
  5.0255912825948178E-02 a       643     0    33     1     3
  2.0309829662672590E-01 a       644     0    33     1     4
  6.1442425958809395E-03 a       645     0    33     1     5
 -2.1171536850617893E-02 a       646     0    33     1     6
  8.4471407166154550E-03 a       647     0    33     1     7
  2.4285589719433079E-02 a       648     0    33     1     8
 -3.1166657698531657E-02 a       649     0    33     1     9
  1.2406904991646124E-01 a       650     0    33     1    10
 -7.1418192740681813E-02 a       651     0    33     1    11
 -5.3241748365000584E-02 a       652     0    33     1    12
  3.1153929115222592E-02 a       653     0    33     1    13
 -2.4976919586580663E-02 a       654     0    33     1    14
  1.6580838876091480E-01 a       655     0    33     1    15
  3.7766554665336544E-02 a       656     0    33     1    16
 -2.8719331135366194E-01 a       657     0    33     1    17
 -2.4795639948502791E-02 a       658     0    33     1    18
  7.5889055713951034E-02 a       659     0    33     1    19
  1.8719329470584264E-01 a       660     0    33     1    20
 -2.1170987495736138E-02 a       661     0    34     1     1
  3.8601862408961532E-02 a       662     0    34     1     2
 -7.4201039258004711E-02 a       663     0    34     1     3
 -8.1664966081761173E-02 a       664     0    34     1     4
  8.4425544637297387E-02 a       665     0    34     1     5
  1.3888195493519372E-02 a       666     0    34     1     6
 -1.2210710390398885E-01 a       667     0    34     1     7
  7.7304147058187916E-02 a       668     0    34     1     8
 -8.1828458350368616E-02 a       669     0    34     1     9
 -2.6077486999339386E-02 a       670     0    34     1    10
  3.6615959747512625E-02 a       671     0    34     1    11
  1.2098775982348084E-02 a       672     0    34     1    12
  5.0770343222622513E-02 a       673     0    34     1    13
  7.9495903501827971E-03 a       674     0    34     1    14
  3.6130946981564314E-03 a       675     0    34     1    15
 -1.1539913939798953E-01 a       676     0    34     1    16
  7.4435539548622254E-02 a       677     0    34     1    17
 -4.4629887460552450E-02 a       678     0    34     1    18
 -2.9961333736512000E-02 a       679     0    34     1    19
  3.5719695011018460E-02 a       680     0    34     1    20
 -6.6516376734413615E-02 a       681     0    35     1     1
  1.0685083669371787E-01 a       682     0    35     1     2
  1.2431132843401213E-01 a       683     0    35     1     3
  6.8221995008940009E-02 a       684     0    35     1     4
 -2.2184508089941976E-01 a       685     0    35     1     5
 -9.3312608934517233E-02 a       686     0    35     1     6
  8.2690664307143086E-02 a       687     0    35     1     7
 -7.7714383264981104E-02 a       688     0    35     1     8
  1.2668716240983285E-01 a       689     0    35     1     9
  1.1845618918496961E-01 a       690     0    35     1    10
 -4.3523301596321493E-02 a       691     0    35     1    11
 -3.6964718520206656E-02 a       692     0    35     1    12
 -7.8596239744468055E-02 a       693     0    35     1    13
 -7.4587791911687087E-02 a       694     0    35     1    14
  6.9139756828032028E-02 a       695     0    35     1    15
 -7.6926495217973664E-02 a       696     0    35     1    16
  1.8326777075497857E-02 a       697     0    35     1    17
  7.8375305900467984E-02 a       698     0    35     1    18
  9.4244695863582263E-04 a       699     0    35     1    19
 -9.3918425126049820E-03 a       700     0    35     1    20
  1.3663878939337246E-02 a       701     0    36     1     1
  1.9588803670011762E-01 a       702     0    36     1     2
  1.1674577379270458E-01 a       703     0    36     1     3
  1.9882474721582161E-01 a       704     0    36     1     4
 -1.2930602433215488E-01 a       705     0    36     1     5
 -2.7798963239040742E-02 a       706     0    36     1     6
  2.2703582429549937E-02 a       707     0    36     1     7
 -7.9727807663975817E-02 a       708     0    36     1     8
 -3.7583476881150837E-02 a       709     0    36     1     9
  1.3566278722221214E-01 a       710     0    36     1    10
 -7.5233918109451459E-02 a       711     0    36     1    11
 -1.2973016779278171E-01 a       712     0    36     1    12
  6.6956931001381698E-02 a       713     0    36     1    13
  4.6548508286397457E-02 a       714     0    36     1    14
  8.1679682977529477E-02 a       715     0    36     1    15
 -6.1615847833068303E-02 a       716     0    36     1    16
 -1.1207256535037576E-01 a       717     0    36     1    17
  1.9414260327966355E-02 a       718     0    36     1    18
 -1.1936908162938453E-01 a       719     0    36     1    19
 -7.7678431880446319E-02 a       720     0    36     1    20
  1.0333267172707726E-04 a       721     0    37     1     1
 -8.7336374163431013E-03 a       722     0    37     1     2
 -9.4213425966310858E-04 a       723     0    37     1     3
 -4.8196950157762585E-03 a       724     0    37     1     4
  1.1186452941493747E-03 a       725     0    37     1     5
  2.7892519425054157E-03 a       726     0    37     1     6
  3.7428716128205847E-03 a       727     0    37     1     7
  2.9230727324638684E-05 a       728     0    37     1     8
  6.5414933204206082E-03 a       729     0    37     1     9
 -5.5291767486337904E-04 a       730     0    37     1    10
  3.7384805481108269E-03 a       731     0    37     1    11
  1.1751250749223388E-02 a       732     0    37     1    12
 -6.1473858014607493E-03 a       733     0    37     1    13
 -1.4695613166018076E-03 a       734     0    37     1    14
 -3.2712374337566215E-03 a       735     0    37     1    15
  9.7406445938332982E-03 a       736     0    37     1    16
 -3.4548865518953956E-03 a       737     0    37     1    17
 -4.5055314538102898E-03 a       738     0    37     1    18
  7.5973703922645576E-03 a       739     0    37     1    19
 -2.8954501484978286E-03 a       740     0    37     1    20
 -2.7357032913148848E-02 a       741     0    38     1     1
  1.2154120088536335E-01 a       742     0    38     1     2
  1.5109608653272719E-01 a       743     0    38     1     3
  7.4896700434022662E-02 a       744     0    38     1     4
 -3.0997171286523833E-02 a       745     0    38     1     5
  2.2902826677995273E-03 a       746     0    38     1     6
 -3.3572721936263712E-02 a       747     0    38     1     7
 -5.0614809000552145E-02 a       748     0    38     1     8
 -2.6727390381926446E-02 a       749     0    38     1     9
  1.3475905787373446E-01 a       750     0    38     1    10
 -4.6594730402339503E-02 a       751     0    38     1    11
 -4.2288623831079647E-02 a       752     0    38     1    12
  1.7529411183845191E-02 a       753     0    38     1    13
  1.0911411650559472E-02 a       754     0    38     1    14
  5.9213738651719826E-02 a       755     0    38     1    15
  4.7252842844884596E-02 a       756     0    38     1    16
  4.9941472778545451E-02 a       757     0    38     1    17
 -7.5878618246231114E-02 a       758     0    38     1    18
 -5.3277647718775821E-02 a       759     0    38     1    19
 -9.2312957129068549E-02 a       760     0    38     1    20
 -8.9864518415227579E-02 a       761     0    39     1     1
 -2.8546010211510216E-02 a       762     0    39     1     2
  3.2375268192015375E-02 a       763     0    39     1     3
 -1.0372222943254364E-01 a       764     0    39     1     4
 -7.4528979557266908E-02 a       765     0    39     1     5
 -2.0235218460742489E-02 a       766     0    39     1     6
  1.1854962437043084E-01 a       767     0    39     1     7
 -6.1571683204283785E-03 a       768     0    39     1     8
  1.2759245499073382E-02 a       769     0    39     1     9
 -2.0511469430978153E-03 a       770     0    39     1    10
 -2.8287919579563066E-02 a       771     0    39     1    11
 -1.3780239263180841E-01 a       772     0    39     1    12
 -2.2912921637138491E-02 a       773     0    39     1    13
  8.6191078694888110E-02 a       774     0    39     1    14
 -3.3752919962983345E-02 a       775     0    39     1    15
  6.5186741304915031E-05 a       776     0    39     1    16
 -6.7536627128620338E-02 a       777     0    39     1    17
  8.2821631182981262E-02 a       778     0    39     1    18
 -1.6707598307620489E-01 a       779     0    39     1    19
  3.1218171724589495E-02 a       780     0    39     1    20
  8.7337610226220233E-02 a       781     0    40     1     1
 -6.9917155906147388E-02 a       782     0    40     1     2
 -5.2578853473649739E-02 a       783     0    40     1     3
  1.0728087743031337E-02 a       784     0    40     1     4
  1.3665290795671564E-01 a       785     0    40     1     5
  1.5830565710211966E-01 a       786     0    40     1     6
  8.6764227764510413E-02 a       787     0    40     1     7
  1.0703368768684732E-02 a       788     0    40     1     8
 -2.6597166471174820E-02 a       789     0    40     1     9
  3.8929065013205276E-02 a       790     0    40     1    10
 -3.8017470391896790E-02 a       791     0    40     1    11
 -4.2144915151006691E-02 a       792     0    40     1    12
 -1.1488050543047752E-01 a       793     0    40     1    13
  2.3908009315594381E-02 a       794     0    40     1    14
  4.8465276709112690E-03 a       795     0    40     1    15
 -1.3912579217181809E-01 a       796     0    40     1    16
  2.1653239132039615E-03 a       797     0    40     1    17
 -2.8539753797244407E-02 a       798     0    40     1    18
 -5.5476635412855191E-02 a       799     0    40     1    19
  3.9050946643716555E-02 a       800     0    40     1    20
 -1.9613820209615686E-02 a       801     0    41     1     1
 -1.1677665370910059E-01 a       802     0    41     1     2
 -3.7540947577845443E-02 a       803     0    41     1     3
 -9.9611218834101525E-02 a       804     0    41     1     4
  3.3036365992078418E-02 a       805     0    41     1     5
 -4.1855491617926822E-02 a       806     0    41     1     6
 -1.5766440338847963E-02 a       807     0    41     1     7
  1.3046724491793199E-01 a       808     0    41     1     8
  6.0762107706752611E-02 a       809     0    41     1     9
  4.7739955700867878E-02 a       810     0    41     1    10
  8.3599294879783230E-03 a       811     0    41     1    11
 -4.7904303018190394E-03 a       812     0    41     1    12
 -3.1252242782888136E-02 a       813     0    41     1    13
 -3.3706790201595428E-02 a       814     0    41     1    14
 -5.5382233588730005E-02 a       815     0    41     1    15
  7.9165620185846722E-03 a       816     0    41     1    16
  9.5902471267742206E-02 a       817     0    41     1    17
  9.1135064355685899E-02 a       818     0    41     1    18
  6.6096353424182908E-02 a       819     0    41     1    19
  1.7949242709297900E-01 a       820     0    41     1    20
 -3.4882906218870863E-03 a       821     0    42     1     1
  1.4705552525677250E-02 a       822     0    42     1     2
  6.7997430788924729E-03 a       823     0    42     1     3
  1.9662114082266836E-03 a       824     0    42     1     4
 -6.9897609980583322E-04 a       825     0    42     1     5
 -7.2273774932109297E-03 a       826     0    42     1     6
 -1.5328251508302320E-03 a       827     0    42     1     7
 -4.2661599346732466E-04 a       828     0    42     1     8
 -5.8961572191764721E-03 a       829     0    42     1     9
  2.3709581472341219E-02 a       830     0    42     1    10
 -7.3517846297810668E-03 a       831     0    42     1    11
 -3.1137197728172229E-02 a       832     0    42     1    12
  3.2645054935865336E-03 a       833     0    42     1    13
  8.6665428740923551E-03 a       834     0    42     1    14
  5.6412742912578424E-03 a       835     0    42     1    15
 -2.2479395613471329E-02 a       836     0    42     1    16
  7.4979539121278740E-03 a       837     0    42     1    17
  1.2940898124672924E-03 a       838     0    42     1    18
 -1.6924834736264951E-02 a       839     0    42     1    19
  1.4713475533898566E-02 a       840     0    42     1    20
 -6.4823252360384442E-02 a       841     0    43     1     1
 -6.5514162270014463E-03 a       842     0    43     1     2
 -1.7095371221130640E-02 a       843     0    43     1     3
  5.8576424149392854E-02 a       844     0    43     1     4
  4.4325728956191218E-02 a       845     0    43     1     5
 -3.2709062687447041E-02 a       846     0    43     1     6
  1.6918802621745860E-01 a       847     0    43     1     7
  4.7562966011374420E-02 a       848     0    43     1     8
  1.4027994416432121E-01 a       849     0    43     1     9
 -3.4222156946481251E-02 a       850     0    43     1    10
 -1.3553947997799933E-02 a       851     0    43     1    11
  9.8201164289413154E-02 a       852     0    43     1    12
 -7.5655505973827364E-02 a       853     0    43     1    13
 -9.0072096070660815E-02 a       854     0    43     1    14
  8.6224754760258371E-02 a       855     0    43     1    15
 -5.1658734649396694E-02 a       856     0    43     1    16
  4.2698055096600136E-02 a       857     0    43     1    17
  1.1747291283387747E-02 a       858     0    43     1    18
  1.7629053956376223E-01 a       859     0    43     1    19
  3.5950961391632154E-02 a       860     0    43     1    20
  1.4111999030548808E-01 a       861     0    44     1     1
  1.4906458217159645E-02 a       862     0    44     1     2
 -2.2303208378384915E-02 a       863     0    44     1     3
  8.0206866411711999E-02 a       864     0    44     1     4
 -1.4998332693533525E-02 a       865     0    44     1     5
  2.4509741116055590E-02 a       866     0    44     1     6
 -1.2848323216090934E-01 a       867     0    44     1     7
 -3.8540285412967064E-02 a       868     0    44     1     8
 -1.7728189985259938E-02 a       869     0    44     1     9
  8.9843282277318096E-02 a       870     0    44     1    10
  3.6648843076368350E-02 a       871     0    44     1    11
  1.4229871561877561E-01 a       872     0    44     1    12
 -3.4086795945818859E-03 a       873     0    44     1    13
 -1.2167689787596186E-01 a       874     0    44     1    14
  1.8053782358607006E-02 a       875     0    44     1    15
 -1.3617161826063342E-02 a       876     0    44     1    16
  1.8093077306067085E-01 a       877     0    44     1    17
 -3.3986615534627125E-02 a       878     0    44     1    18
  1.8868326191497486E-01 a       879     0    44     1    19
 -1.0081433305532867E-02 a       880     0    44     1    20
 -4.5832086356077689E-02 a       881     0    45     1     1
 -1.2352892496955719E-02 a       882     0    45     1     2
 -1.1872753089758387E-01 a       883     0    45     1     3
 -2.2927862409691735E-01 a       884     0    45     1     4
 -5.5042260119882776E-03 a       885     0    45     1     5
 -4.7664984122100920E-02 a       886     0    45     1     6
 -1.3635094331967043E-01 a       887     0    45     1     7
 -5.1212172884333239E-02 a       888     0    45     1     8
 -1.4958250826500669E-01 a       889     0    45     1     9
 -2.9481573613167422E-01 a       890     0    45     1    10
  1.5240245778799597E-01 a       891     0    45     1    11
  7.0809271240618449E-02 a       892     0    45     1    12
  1.3593892688111728E-01 a       893     0    45     1    13
  1.0678450916041127E-01 a       894     0    45     1    14
 -1.3553165863087546E-01 a       895     0    45     1    15
  9.6940421467542934E-02 a       896     0    45     1    16
  5.9834812308182231E-02 a       897     0    45     1    17
 -1.1586999692577241E-01 a       898     0    45     1    18
 -7.9304812929430202E-02 a       899     0    45     1    19
 -1.3584387867136158E-01 a       900     0    45     1    20
 -1.1459527277248105E-01 a       901     0    46     1     1
  1.0987935230709759E-02 a       902     0    46     1     2
 -3.5725793941539024E-03 a       903     0    46     1     3
 -1.0288764686470661E-01 a       904     0    46     1     4
 -2.9010282280361011E-02 a       905     0    46     1     5
 -1.6489604208699816E-02 a       906     0    46     1     6
  1.3284567590310078E-01 a       907     0    46     1     7
  1.4291497079957508E-02 a       908     0    46     1     8
  6.4685997579711524E-02 a       909     0    46     1     9
 -7.0034330693360819E-02 a       910     0    46     1    10
  6.4207611282653815E-03 a       911     0    46     1    11
 -5.8148720120496059E-02 a       912     0    46     1    12
 -7.2702416817753066E-02 a       913     0    46     1    13
 -3.2249014266015489E-04 a       914     0    46     1    14
  8.5461879249638176E-03 a       915     0    46     1    15
 -7.6134801528401921E-02 a       916     0    46     1    16
  4.1158037905984990E-02 a       917     0    46     1    17
  6.9066939198338437E-02 a       918     0    46     1    18
 -6.0208067348350554E-02 a       919     0    46     1    19
 -6.5472189952506740E-02 a       920     0    46     1    20
 -1.4344092062616789E-02 a       921     0    47     1     1
 -2.6282677119128491E-03 a       922     0    47     1     2
 -2.5433912230959934E-03 a       923     0    47     1     3
 -8.5376979285285044E-03 a       924     0    47     1     4
  2.4378978955524021E-04 a       925     0    47     1     5
 -4.5818481119938130E-03 a       926     0    47     1     6
 -1.9029508032226464E-03 a       927     0    47     1     7
  2.6375511126241259E-03 a       928     0    47     1     8
  6.5953853213189710E-03 a       929     0    47     1     9
 -2.5250775152316336E-02 a       930     0    47     1    10
  6.2676532586474331E-03 a       931     0    47     1    11
  1.8045027195641373E-02 a       932     0    47     1    12
  2.4833588336763543E-03 a       933     0    47     1    13
 -8.0505605509499610E-03 a       934     0    47     1    14
 -8.4779749436850586E-05 a       935     0    47     1    15
  1.0999145100881642E-02 a       936     0    47     1    16
  7.2870418211979128E-03 a       937     0    47     1    17
 -6.1469221923544362E-04 a       938     0    47     1    18
  1.0967134581498655E-02 a       939     0    47     1    19
 -1.3716292249376911E-02 a       940     0    47     1    20
  3.1380084717696849E-02 a       941     0    48     1     1
 -3.1194309072502362E-02 a       942     0    48     1     2
  3.9318727923735496E-02 a       943     0    48     1     3
  5.5517282386491222E-02 a       944     0    48     1     4
  4.5363705268646783E-02 a       945     0    48     1     5
  5.3885317146728569E-02 a       946     0    48     1     6
  3.9071205766000219E-02 a       947     0    48     1     7
 -4.4647190156022684E-02 a       948     0    48     1     8
  5.1395394004143426E-02 a       949     0    48     1     9
  4.5067065559120587E-02 a       950     0    48     1    10
 -4.0310319690649507E-02 a       951     0    48     1    11
 -5.5498674168991541E-02 a       952     0    48     1    12
 -1.5187256952420528E-02 a       953     0    48     1    13
  3.7540904613025929E-02 a       954     0    48     1    14
  2.6411552563464183E-02 a       955     0    48     1    15
 -8.0635969326416819E-03 a       956     0    48     1    16
 -1.3875165495890060E-01 a       957     0    48     1    17
 -3.3894235802984306E-02 a       958     0    48     1    18
 -7.7946480808208971E-02 a       959     0    48     1    19
  2.3560730795932554E-02 a       960     0    48     1    20
 -6.1559733508216405E-02 a       961     0    49     1     1
 -2.6661160171976245E-02 a       962     0    49     1     2
 -1.4010762509750864E-02 a       963     0    49     1     3
 -1.1960137266440693E-01 a       964     0    49     1     4
 -1.1575067271575036E-02 a       965     0    49     1     5
  4.6222408554296409E-03 a       966     0    49     1     6
  2.6163583781817334E-02 a       967     0    49     1     7
  1.2192391955542036E-02 a       968     0    49     1     8
  3.3082107384548066E-02 a       969     0    49     1     9
 -7.2455390939174677E-02 a       970     0    49     1    10
  3.9085969617531670E-03 a       971     0    49     1    11
 -3.4381190630632739E-02 a       972     0    49     1    12
  7.5767416413201373E-03 a       973     0    49     1    13
  2.9795268601343770E-02 a       974     0    49     1    14
 -3.4101075899828047E-02 a       975     0    49     1    15
 -2.5108066072892125E-02 a       976     0    49     1    16
 -2.2727852770429453E-02 a       977     0    49     1    17
  5.8483510612507734E-02 a       978     0    49     1    18
 -9.8278277537379652E-02 a       979     0    49     1    19
 -8.8333086949299606E-03 a       980     0    49     1    20
  1.1276060341675697E-02 a       981     0    50     1     1
 -7.5484822521118301E-03 a       982     0    50     1     2
  3.8533355541397196E-02 a       983     0    50     1     3
  3.1088292217004047E-02 a       984     0    50     1     4
  1.1613458499865470E-02 a       985     0    50     1     5
  2.8329776048309267E-02 a       986     0    50     1     6
 -2.3843787422508627E-02 a       987     0    50     1     7
  4.1553288901480412E-02 a       988     0    50     1     8
  7.7556271764191789E-02 a       989     0    50     1     9
  9.7291546879840804E-02 a       990     0    50     1    10
 -5.4119271822898857E-02 a       991     0    50     1    11
  4.1677003831002164E-03 a       992     0    50     1    12
  1.3398937414176899E-02 a       993     0    50     1    13
 -3.2205095838884534E-02 a       994     0    50     1    14
  2.8613147530874208E-02 a       995     0    50     1    15
 -3.1322913822665742E-02 a       996     0    50     1    16
  3.4593062859354387E-02 a       997     0    50     1    17
  2.5036746136707564E-02 a       998     0    50     1    18
  5.3830884105651291E-03 a       999     0    50     1    19
  7.1302381668150519E-02 a      1000     0    50     1    20
 -7.2372274074404691E-02 a      1001     0    51     1     1
 -2.2508771532411671E-02 a      1002     0    51     1     2
 -6.7800678748859240E-03 a      1003     0    51     1     3
 -1.1856612278633744E-01 a      1004     0    51     1     4
 -6.0280921660567782E-02 a      1005     0    51     1     5
 -3.1278960758659581E-02 a      1006     0    51     1     6
  5.3649592141004586E-02 a      1007     0    51     1     7
 -8.7661091112777714E-02 a      1008     0    51     1     8
 -1.1134880021875930E-02 a      1009     0    51     1     9
 -3.1237122114821502E-02 a      1010     0    51     1    10
  6.6164207803998010E-02 a      1011     0    51     1    11
  2.1110442062640490E-02 a      1012     0    51     1    12
 -9.3446217174025667E-02 a      1013     0    51     1    13
 -1.0144156540764818E-02 a      1014     0    51     1    14
 -4.8842084801062571E-02 a      1015     0    51     1    15
  1.0370153418559087E-02 a      1016     0    51     1    16
  3.0084567355094249E-01 a      1017     0    51     1    17
 -1.0473362724823850E-01 a      1018     0    51     1    18
  3.3299995161601197E-02 a      1019     0    51     1    19
  1.6817629591205138E-02 a      1020     0    51     1    20
  8.6196919839449354E-02 a      1021     0    52     1     1
  2.0318242305329878E-01 a      1022     0    52     1     2
 -1.7895434032394053E-01 a      1023     0    52     1     3
  3.7198797106549027E-03 a      1024     0    52     1     4
 -2.0482187273454217E-01 a      1025     0    52     1     5
 -3.3975862190994591E-02 a      1026     0    52     1     6
  1.7541541737634864E-01 a      1027     0    52     1     7
  3.8734473865974013E-02 a      1028     0    52     1     8
  1.7272133206344295E-01 a      1029     0    52     1     9
 -4.7882584143476167E-02 a      1030     0    52     1    10
  7.6318959337713967E-03 a      1031     0    52     1    11
  2.1610558092078760E-01 a      1032     0    52     1    12
 -3.0912388870666090E-02 a      1033     0    52     1    13
 -6.8983339656227882E-02 a      1034     0    52     1    14
 -2.1315410996658392E-03 a      1035     0    52     1    15
  1.0489510509243485E-01 a      1036     0    52     1    16
  6.6700978441953232E-02 a      1037     0    52     1    17
 -1.3940417499467492E-01 a      1038     0    52     1    18
  1.8285521118285644E-01 a      1039     0    52     1    19
  8.9708358679747635E-02 a      1040     0    52     1    20
  9.2261014341461514E-02 a      1041     0    53     1     1
 -1.4683641297732339E-01 a      1042     0    53     1     2
 -7.7262562450029396E-02 a      1043     0    53     1     3
  2.9288296743475589E-02 a      1044     0    53     1     4
  2.6939744965963013E-02 a      1045     0    53     1     5
  2.2001699891310532E-02 a      1046     0    53     1     6
 -1.9457907613038186E-01 a      1047     0    53     1     7
 -9.2305733319040809E-02 a      1048     0    53     1     8
  2.6934512725695475E-01 a      1049     0    53     1     9
  1.1274711975919660E-01 a      1050     0    53     1    10
 -4.8155419984968764E-02 a      1051     0    53     1    11
 -8.3778997906696129E-02 a      1052     0    53     1    12
  8.8496242295452984E-02 a      1053     0    53     1    13
  6.1633494962084548E-02 a      1054     0    53     1    14
 -1.7463610362109794E-01 a      1055     0    53     1    15
  4.0073181042156444E-02 a      1056     0    53     1    16
 -5.2166122029799304E-02 a      1057     0    53     1    17
  2.8485169164844498E-01 a      1058     0    53     1    18
 -1.1686564205526533E-01 a      1059     0    53     1    19
  4.9769315494611513E-02 a      1060     0    53     1    20
  5.1824085582565876E-02 a      1061     0    54     1     1
 -8.5970856365562801E-02 a      1062     0    54     1     2
 -8.4016611928044521E-02 a      1063     0    54     1     3
  1.7544282531470706E-01 a      1064     0    54     1     4
 -8.5223515101846697E-02 a      1065     0    54     1     5
 -8.6186948226874366E-02 a      1066     0    54     1     6
 -9.9761821548363674E-02 a      1067     0    54     1     7
 -1.7309801541731396E-02 a      1068     0    54     1     8
 -1.2797321533284842E-01 a      1069     0    54     1     9
 -1.7526047498316218E-02 a      1070     0    54     1    10
  6.5410426055134238E-02 a      1071     0    54     1    11
 -7.4609584869878671E-04 a      1072     0    54     1    12
  1.3418192567829057E-01 a      1073     0    54     1    13
  7.7850645646039256E-03 a      1074     0    54     1    14
 -9.6188932875657482E-02 a      1075     0    54     1    15
  2.5764668453976897E-01 a      1076     0    54     1    16
  4.3508258434359064E-02 a      1077     0    54     1    17
 -2.1857754524294373E-01 a      1078     0    54     1    18
  4.3896607301276001E-02 a      1079     0    54     1    19
 -3.3791412031986191E-02 a      1080     0    54     1    20
  1.8199883312802359E-01 a      1081     0    55     1     1
  5.7045700041646503E-02 a      1082     0    55     1     2
  4.2484196607854491E-02 a      1083     0    55     1     3
  2.4620609050757009E-01 a      1084     0    55     1     4
 -3.7338364449454771E-02 a      1085     0    55     1     5
  6.3462729369244505E-02 a      1086     0    55     1     6
 -4.9427904662160557E-02 a      1087     0    55     1     7
 -1.9275056245617642E-01 a      1088     0    55     1     8
 -4.8986554562361735E-02 a      1089     0    55     1     9
  2.5054540457214014E-01 a      1090     0    55     1    10
 -4.5366487461860804E-02 a      1091     0    55     1    11
 -7.0319212671782788E-02 a      1092     0    55     1    12
  1.5756503281086179E-01 a      1093     0    55     1    13
 -7.4574514056700847E-03 a      1094     0    55     1    14
  8.4660246405203407E-02 a      1095     0    55     1    15
  9.0122343155356228E-03 a      1096     0    55     1    16
 -2.3439495438662367E-01 a      1097     0    55     1    17
 -6.2568970736978841E-02 a      1098     0    55     1    18
 -6.4482237915934340E-02 a      1099     0    55     1    19
  2.4150298211305352E-02 a      1100     0    55     1    20
 -2.4639324809928721E-03 a      1101     0    56     1     1
  9.8896990675653704E-02 a      1102     0    56     1     2
  3.3663041962286602E-02 a      1103     0    56     1     3
 -4.3105745660811629E-02 a      1104     0    56     1     4
 -1.3852322242623212E-02 a      1105     0    56     1     5
 -6.9357770379415332E-02 a      1106     0    56     1     6
 -8.7984082271878539E-02 a      1107     0    56     1     7
 -1.4694450526583133E-01 a      1108     0    56     1     8
 -6.0752849460966228E-02 a      1109     0    56     1     9
 -4.3320656421395792E-02 a      1110     0    56     1    10
  3.9870294764455867E-02 a      1111     0    56     1    11
  6.7921073024640302E-02 a      1112     0    56     1    12
  3.3824272530684867E-02 a      1113     0    56     1    13
 -7.8055585983359210E-02 a      1114     0    56     1    14
  1.5086549866079221E-01 a      1115     0    56     1    15
  3.3829743584723834E-02 a      1116     0    56     1    16
  7.6433549831204123E-02 a      1117     0    56     1    17
  1.1494671947564875E-01 a      1118     0    56     1    18
 -1.1686425012672434E-01 a      1119     0    56     1    19
 -2.9199305382673481E-02 a      1120     0    56     1    20
 -9.3070028886816786E-02 a      1121     0    57     1     1
 -4.8456640437734164E-02 a      1122     0    57     1     2
  3.3053181226076929E-02 a      1123     0    57     1     3
  2.7175045901400567E-02 a      1124     0    57     1     4
  1.2341057808837054E-01 a      1125     0    57     1     5
 -2.2739436579072336E-01 a      1126     0    57     1     6
  1.4051448553266180E-01 a      1127     0    57     1     7
 -1.4672522177169300E-01 a      1128     0    57     1     8
 -1.0470603961367234E-01 a      1129     0    57     1     9
  4.2506511843900432E-02 a      1130     0    57     1    10
  1.6304917031544752E-01 a      1131     0    57     1    11
 -6.7238450216216536E-02 a      1132     0    57     1    12
  1.2538951635433565E-02 a      1133     0    57     1    13
  6.8816261963073291E-02 a      1134     0    57     1    14
  2.7405891720434589E-02 a      1135     0    57     1    15
 -1.2397100510701302E-01 a      1136     0    57     1    16
 -1.7948944330885484E-02 a      1137     0    57     1    17
 -3.2468929133785754E-02 a      1138     0    57     1    18
 -2.5719916165102292E-02 a      1139     0    57     1    19
  1.9260596235255323E-01 a      1140     0    57     1    20
  1.0923516607720264E-01 a      1141     0    58     1     1
 -1.1848001719668201E-01 a      1142     0    58     1     2
 -1.7995131461422198E-01 a      1143     0    58     1     3
 -1.4480981263758289E-01 a      1144     0    58     1     4
  3.7349438813079287E-03 a      1145     0    58     1     5
  1.9160540051831726E-01 a      1146     0    58     1     6
 -6.9293631360172983E-02 a      1147     0    58     1     7
 -5.4609543883227772E-02 a      1148     0    58     1     8
 -1.6249573839816542E-01 a      1149     0    58     1     9
 -7.3899919255553934E-02 a      1150     0    58     1    10
  9.3757627584308154E-02 a      1151     0    58     1    11
 -5.4367204891333828E-02 a      1152     0    58     1    12
 -1.0700197007505792E-01 a      1153     0    58     1    13
 -4.5105705437939111E-02 a      1154     0    58     1    14
  1.3825671045247290E-01 a      1155     0    58     1    15
  2.3319346681259866E-02 a      1156     0    58     1    16
 -5.6951775691872680E-02 a      1157     0    58     1    17
 -1.0163736209462931E-01 a      1158     0    58     1    18
  6.6217548719835220E-02 a      1159     0    58     1    19
 -1.2513999833390554E-01 a      1160     0    58     1    20
 -2.6284314105495632E-01 a      1161     0    59     1     1
  1.6326216587783962E-01 a      1162     0    59     1     2
 -3.6731146367979202E-02 a      1163     0    59     1     3
  2.8603985563972582E-02 a      1164     0    59     1     4
  4.3203593129626907E-03 a      1165     0    59     1     5
  1.2599817444183914E-01 a      1166     0    59     1     6
  1.1325384718473114E-01 a      1167     0    59     1     7
  3.1722148475869197E-02 a      1168     0    59     1     8
 -1.7128988302485360E-01 a      1169     0    59     1     9
 -5.5029128272416947E-02 a      1170     0    59     1    10
  6.8516664903335953E-02 a      1171     0    59     1    11
  6.0244772285637571E-02 a      1172     0    59     1    12
 -1.7989290686371115E-01 a      1173     0    59     1    13
 -4.9662774814996438E-02 a      1174     0    59     1    14
  1.5976213867413902E-01 a      1175     0    59     1    15
 -1.7725253603296517E-01 a      1176     0    59     1    16
  6.3478131987522085E-02 a      1177     0    59     1    17
 -1.5994252334873935E-01 a      1178     0    59     1    18
 -4.5704589109229884E-03 a      1179     0    59     1    19
 -8.3729746409158215E-02 a      1180     0    59     1    20
 -6.2012238888530406E-02 a      1181     0    60     1     1
  9.5848375250217915E-02 a      1182     0    60     1     2
  1.3145657011465886E-01 a      1183     0    60     1     3
  1.3318909576094376E-01 a      1184     0    60     1     4
  2.0419960740194091E-02 a      1185     0    60     1     5
  2.8534376300345398E-02 a      1186     0    60     1     6
  9.4996816023840844E-02 a      1187     0    60     1     7
  1.0232656583908788E-01 a      1188     0    60     1     8
 -1.8672532574615996E-02 a      1189     0    60     1     9
 -4.5484590442220536E-02 a      1190     0    60     1    10
 -9.0733358974060679E-02 a      1191     0    60     1    11
  7.4926923882737986E-02 a      1192     0    60     1    12
  2.1660582962889515E-03 a      1193     0    60     1    13
 -1.2549451435389183E-01 a      1194     0    60     1    14
  1.8415937346741706E-01 a      1195     0    60     1    15
  1.0908144485686321E-01 a      1196     0    60     1    16
  1.3152937767522572E-02 a      1197     0    60     1    17
 -7.7518549049902019E-02 a      1198     0    60     1    18
  1.2869066072191054E-01 a      1199     0    60     1    19
 -3.6457882247408667E-02 a      1200     0    60     1    20
 -2.4600839265841765E-01 a      1201     0    61     1     1
 -1.2280189610417340E-01 a      1202     0    61     1     2
  2.2568249808973324E-02 a      1203     0    61     1     3
 -1.0112517066485149E-01 a      1204     0    61     1     4
  9.5897614721678723E-02 a      1205     0    61     1     5
 -1.3495599673587663E-01 a      1206     0    61     1     6
 -5.8435032509389424E-02 a      1207     0    61     1     7
  2.4043535390925017E-01 a      1208     0    61     1     8
  1.3167827421953299E-01 a      1209     0    61     1     9
 -2.1065521476418081E-01 a      1210     0    61     1    10
  8.0815127477246548E-02 a      1211     0    61     1    11
  8.8077526249509944E-02 a      1212     0    61     1    12
 -9.2078855062726755E-02 a      1213     0    61     1    13
 -1.6960353627585698E-01 a      1214     0    61     1    14
  3.0138486786166842E-02 a      1215     0    61     1    15
  1.5688469342524586E-01 a      1216     0    61     1    16
  5.3430260969924301E-02 a      1217     0    61     1    17
  7.5628686939043482E-02 a      1218     0    61     1    18
  2.5863969558043648E-01 a      1219     0    61     1    19
  8.4618879093697925E-03 a      1220     0    61     1    20
 -1.4300274623171291E-01 a      1221     0    62     1     1
  1.6428998132887729E-01 a      1222     0    62     1     2
  1.4586669092520319E-01 a      1223     0    62     1     3
  5.6668263888289765E-02 a      1224     0    62     1     4
  3.3516043857856365E-02 a      1225     0    62     1     5
 -1.3920411386447676E-01 a      1226     0    62     1     6
  1.9212204712182079E-01 a      1227     0    62     1     7
  5.2056837590450558E-02 a      1228     0    62     1     8
 -6.0525832382245671E-03 a      1229     0    62     1     9
  5.0668241692118483E-02 a      1230     0    62     1    10
 -4.2650934699381998E-02 a      1231     0    62     1    11
 -6.3727340704098343E-02 a      1232     0    62     1    12
 -4.8054646337709672E-02 a      1233     0    62     1    13
  6.2562356459286539E-02 a      1234     0    62     1    14
  3.9997923322759608E-02 a      1235     0    62     1    15
 -4.0847234093882134E-02 a      1236     0    62     1    16
  7.8747423108825806E-02 a      1237     0    62     1    17
 -6.0437475834788666E-02 a      1238     0    62     1    18
 -5.0156327820329284E-02 a      1239     0    62     1    19
  1.3186280062087083E-01 a      1240     0    62     1    20
  2.7016670281707755E-01 a      1241     0    63     1     1
 -1.2263578284862341E-01 a      1242     0    63     1     2
  3.6809295998879464E-02 a      1243     0    63     1     3
  2.4463237193585877E-01 a      1244     0    63     1     4
  2.1230687898299289E-01 a      1245     0    63     1     5
 -6.5561823457857193E-03 a      1246     0    63     1     6
 -1.2329645006420833E-01 a      1247     0    63     1     7
 -1.4398833570503933E-01 a      1248     0    63     1     8
  7.2119958807431550E-02 a      1249     0    63     1     9
  1.4008117103866849E-01 a      1250     0    63     1    10
 -5.4887588366280646E-02 a      1251     0    63     1    11
 -4.4561817327393394E-02 a      1252     0    63     1    12
  1.8986804003162178E-01 a      1253     0    63     1    13
 -5.2359156153515975E-02 a      1254     0    63     1    14
 -7.8063151308696371E-02 a      1255     0    63     1    15
  5.7974681720869323E-02 a      1256     0    63     1    16
 -2.5463319262844897E-01 a      1257     0    63     1    17
  2.3102058749033288E-02 a      1258     0    63     1    18
  6.3110523890354403E-02 a      1259     0    63     1    19
 -1.8521422075991467E-01 a      1260     0    63     1    20
  1.0127515242153289E-01 a      1261     0    64     1     1
 -3.4088637104796239E-02 a      1262     0    64     1     2
  2.6374244005190405E-02 a      1263     0    64     1     3
  6.2158371875632092E-02 a      1264     0    64     1     4
  2.9616265726165082E-02 a      1265     0    64     1     5
  8.0016820798196345E-02 a      1266     0    64     1     6
  1.7869917924518555E-01 a      1267     0    64     1     7
  7.6362461976208745E-02 a      1268     0    64     1     8
 -1.3372096760786134E-02 a      1269     0    64     1     9
  1.4629226119823877E-01 a      1270     0    64     1    10
 -6.7814122108575417E-02 a      1271     0    64     1    11
 -4.1856194241574010E-02 a      1272     0    64     1    12
  7.9204502902797888E-03 a      1273     0    64     1    13
  4.5569986654720215E-02 a      1274     0    64     1    14
 -1.0868640034877884E-01 a      1275     0    64     1    15
 -1.4033488535035260E-01 a      1276     0    64     1    16
  1.5555070364263653E-02 a      1277     0    64     1    17
 -5.9728794100649393E-02 a      1278     0    64     1    18
 -9.6406672557849155E-02 a      1279     0    64     1    19
  1.4927853329704815E-01 a      1280     0    64     1    20
 -1.2803432176114479E-01 a      1281     0    65     1     1
 -1.5682507048789207E-01 a      1282     0    65     1     2
  1.7825242331764413E-01 a      1283     0    65     1     3
  9.6851566261051941E-03 a      1284     0    65     1     4
 -3.4425880851002247E-02 a      1285     0    65     1     5
 -8.6909489554213237E-02 a      1286     0    65     1     6
 -1.4410402110908876E-01 a      1287     0    65     1     7
 -1.7010681923313367E-01 a      1288     0    65     1     8
  2.4393625303870489E-01 a      1289     0    65     1     9
 -7.3752934345399659E-02 a      1290     0    65     1    10
  1.3102815252465211E-01 a      1291     0    65     1    11
  1.6665257237188924E-01 a      1292     0    65     1    12
 -1.5921244491186276E-01 a      1293     0    65     1    13
  5.7913499413032261E-02 a      1294     0    65     1    14
  1.1628135930698141E-01 a      1295     0    65     1    15
 -5.3712238675964113E-02 a      1296     0    65     1    16
  4.8829073350803394E-02 a      1297     0    65     1    17
 -3.3662223910964663E-02 a      1298     0    65     1    18
 -1.9636241591292078E-01 a      1299     0    65     1    19
 -1.3539913951940669E-01 a      1300     0    65     1    20
  1.2216682674732281E-01 a      1301     0    66     1     1
  1.2956111211620550E-01 a      1302     0    66     1     2
 -7.3737431008113100E-02 a      1303     0    66     1     3
 -3.3824646099830727E-02 a      1304     0    66     1     4
 -7.3582098841204965E-02 a      1305     0    66     1     5
  6.1609100914583693E-02 a      1306     0    66     1     6
  5.3447486515533472E-02 a      1307     0    66     1     7
  4.1404241184530226E-02 a      1308     0    66     1     8
 -5.2526755038452853E-02 a      1309     0    66     1     9
  2.1019992940098035E-02 a      1310     0    66     1    10
  6.1719866318444144E-02 a      1311     0    66     1    11
  8.5698057834468086E-02 a      1312     0    66     1    12
 -1.1213744765275947E-01 a      1313     0    66     1    13
 -7.9961051289208912E-03 a      1314     0    66     1    14
  1.8586190868780045E-01 a      1315     0    66     1    15
 -4.9142204977847888E-02 a      1316     0    66     1    16
  9.8829857241055780E-02 a      1317     0    66     1    17
 -1.4156868711097276E-01 a      1318     0    66     1    18
  1.0401453218096035E-01 a      1319     0    66     1    19
 -1.2902137333817862E-01 a      1320     0    66     1    20
  1.9311308069214252E-02 a      1321     0    67     1     1
 -4.5493857277846557E-02 a      1322     0    67     1     2
 -1.0766007432883565E-01 a      1323     0    67     1     3
  1.0412668774744695E-02 a      1324     0    67     1     4
  1.1707667108012702E-01 a      1325     0    67     1     5
 -1.1107993645251525E-01 a      1326     0    67     1     6
  3.9768262365224433E-02 a      1327     0    67     1     7
  6.1046097406180569E-02 a      1328     0    67     1     8
 -1.7460159035649281E-01 a      1329     0    67     1     9
 -1.4848472047012845E-01 a      1330     0    67     1    10
  8.9714710309014428E-02 a      1331     0    67     1    11
 -4.7553861990212519E-02 a      1332     0    67     1    12
  1.6250232413689744E-01 a      1333     0    67     1    13
  1.6291002082024950E-01 a      1334     0    67     1    14
  1.9853805675585170E-02 a      1335     0    67     1    15
  1.6367245585108747E-01 a      1336     0    67     1    16
 -3.4419745065184060E-01 a      1337     0    67     1    17
  6.7560900854676920E-02 a      1338     0    67     1    18
  4.0244454747128983E-02 a      1339     0    67     1    19
  2.9302803021887362E-02 a      1340     0    67     1    20
 -8.7001066542296543E-02 a      1341     0    68     1     1
 -1.6560948904963507E-01 a      1342     0    68     1     2
 -3.4029143654415450E-01 a      1343     0    68     1     3
 -2.1941060402271328E-01 a      1344     0    68     1     4
  1.3474369328921451E-01 a      1345     0    68     1     5
  2.9061309677813514E-03 a      1346     0    68     1     6
 -1.2996490118222268E-01 a      1347     0    68     1     7
  6.3484159023769055E-02 a      1348     0    68     1     8
  1.5110505792800277E-01 a      1349     0    68     1     9
  2.4403481487185533E-01 a      1350     0    68     1    10
  4.9294096834181345E-02 a      1351     0    68     1    11
 -8.4669972358199952E-02 a      1352     0    68     1    12
  8.0390621044467023E-02 a      1353     0    68     1    13
  1.1664789264175854E-01 a      1354     0    68     1    14
 -1.0748309454521061E-01 a      1355     0    68     1    15
 -1.4763924834691231E-01 a      1356     0    68     1    16
 -9.1727839752643869E-02 a      1357     0    68     1    17
 -4.9875906208947239E-02 a      1358     0    68     1    18
  9.1094085425033805E-02 a      1359     0    68     1    19
 -1.0725579857340570E-01 a      1360     0    68     1    20
 -1.7376611441547343E-01 a      1361     0    69     1     1
  1.1159446778358374E-01 a      1362     0    69     1     2
  7.8094522892482990E-02 a      1363     0    69     1     3
 -4.4295186211512162E-02 a      1364     0    69     1     4
 -1.3941002820512519E-01 a      1365     0    69     1     5
 -3.2980035326317082E-02 a      1366     0    69     1     6
 -4.3685173879069471E-02 a      1367     0    69     1     7
 -7.3298926985085083E-02 a      1368     0    69     1     8
  4.2787557235932611E-02 a      1369     0    69     1     9
  3.1126858255499004E-02 a      1370     0    69     1    10
 -2.0278557603626859E-03 a      1371     0    69     1    11
  1.6402594309420293E-01 a      1372     0    69     1    12
 -1.4117785305789318E-01 a      1373     0    69     1    13
  1.6780753035937676E-01 a      1374     0    69     1    14
  3.2884592748317502E-02 a      1375     0    69     1    15
  2.5870164092843567E-01 a      1376     0    69     1    16
  9.3581872605324593E-02 a      1377     0    69     1    17
  8.4147297781215658E-02 a      1378     0    69     1    18
  1.0902242293244260E-01 a      1379     0    69     1    19
 -1.0978302289132864E-01 a      1380     0    69     1    20
  6.8443938548631900E-02 a      1381     0    70     1     1
  3.6335292268251406E-03 a      1382     0    70     1     2
  8.3378105396792981E-02 a      1383     0    70     1     3
 -5.8612266371765743E-03 a      1384     0    70     1     4
 -1.1229966471865394E-01 a      1385     0    70     1     5
 -1.0861637341459103E-02 a      1386     0    70     1     6
 -2.4993322409401048E-01 a      1387     0    70     1     7
  1.3791393046893102E-01 a      1388     0    70     1     8
  1.4478174148703801E-01 a      1389     0    70     1     9
 -1.6505148915617185E-01 a      1390     0    70     1    10
 -3.2003910062837516E-02 a      1391     0    70     1    11
 -3.0540292505700194E-02 a      1392     0    70     1    12
 -1.8168641256738230E-01 a      1393     0    70     1    13
  1.1385598118965956E-01 a      1394     0    70     1    14
 -7.4988808248374894E-02 a      1395     0    70     1    15
 -4.9590303138241386E-02 a      1396     0    70     1    16
  2.6253482606047268E-01 a      1397     0    70     1    17
 -1.8163183601835581E-02 a      1398     0    70     1    18
  5.2919085732129653E-02 a      1399     0    70     1    19
 -1.2290383953967071E-01 a      1400     0    70     1    20
  2.7110350772333071E-02 a      1401     0    71     1     1
 -7.4519245958231520E-02 a      1402     0    71     1     2
  1.0820076296902950E-01 a      1403     0    71     1     3
  6.8571321858928558E-02 a      1404     0    71     1     4
 -1.0886222808154239E-01 a      1405     0    71     1     5
 -3.6791406633198830E-03 a      1406     0    71     1     6
  2.7840665955588730E-02 a      1407     0    71     1     7
 -5.2678962977638182E-02 a      1408     0    71     1     8
 -8.0396263266166529E-02 a      1409     0    71     1     9
 -3.8812685216327747E-02 a      1410     0    71     1    10
 -1.2022087393018241E-01 a      1411     0    71     1    11
  3.3695144270566350E-02 a      1412     0    71     1    12
 -8.4530415914539789E-02 a      1413     0    71     1    13
  3.7615776739069427E-02 a      1414     0    71     1    14
  1.3932750326894528E-02 a      1415     0    71     1    15
  6.8397899053536645E-02 a      1416     0    71     1    16
 -7.8747358493272371E-02 a      1417     0    71     1    17
  2.2346630385914147E-02 a      1418     0    71     1    18
 -2.3641790084210215E-02 a      1419     0    71     1    19
  1.0709735065138115E-01 a      1420     0    71     1    20
 -1.8045470988381676E-01 a      1421     0    72     1     1
  1.0117977161167115E-02 a      1422     0    72     1     2
  3.8515586767704349E-02 a      1423     0    72     1     3
  3.0318105159188671E-02 a      1424     0    72     1     4
  5.9539418516900127E-03 a      1425     0    72     1     5
  8.3194678823029097E-02 a      1426     0    72     1     6
  1.6933343704577394E-01 a      1427     0    72     1     7
  3.5700837856849063E-02 a      1428     0    72     1     8
  5.3197260701536835E-03 a      1429     0    72     1     9
 -3.5198612767929127E-01 a      1430     0    72     1    10
 -1.4167965552091785E-01 a      1431     0    72     1    11
  1.5695536193526735E-01 a      1432     0    72     1    12
 -1.1025372997503655E-01 a      1433     0    72     1    13
  1.3674637678192984E-02 a      1434     0    72     1    14
 -8.2633636045814918E-02 a      1435     0    72     1    15
 -7.7627347720561374E-02 a      1436     0    72     1    16
 -8.4666232242786590E-02 a      1437     0    72     1    17
  9.0761914193858734E-02 a      1438     0    72     1    18
 -3.3813628357851268E-02 a      1439     0    72     1    19
 -8.9307788821105488E-02 a      1440     0    72     1    20
  1.2675998155289542E-02 a      1441     0    73     1     1
 -9.8207067983408516E-02 a      1442     0    73     1     2
  5.1590004485587510E-02 a      1443     0    73     1     3
 -2.7150526630642030E-01 a      1444     0    73     1     4
 -1.9066514542772117E-01 a      1445     0    73     1     5
 -4.9732471541448227E-02 a      1446     0    73     1     6
  3.5444692330218242E-02 a      1447     0    73     1     7
 -2.6213301923340246E-02 a      1448     0    73     1     8
 -1.3288664909863105E-02 a      1449     0    73     1     9
  1.5804861541470294E-01 a      1450     0    73     1    10
 -4.1959578112670773E-02 a      1451     0    73     1    11
 -1.8047659209705352E-01 a      1452     0    73     1    12
 -2.6765577696064101E-02 a      1453     0    73     1    13
 -1.7282775944292995E-02 a      1454     0    73     1    14
 -4.3683613470787919E-02 a      1455     0    73     1    15
  1.1727276894621526E-01 a      1456     0    73     1    16
  2.5306391501522052E-01 a      1457     0    73     1    17
  1.0722064375398145E-01 a      1458     0    73     1    18
 -7.7221631004638427E-02 a      1459     0    73     1    19
  1.2116031787626813E-01 a      1460     0    73     1    20
 -8.6311176127432748E-02 a      1461     0    74     1     1
  1.5381918052077401E-01 a      1462     0    74     1     2
  1.1975011735089028E-01 a      1463     0    74     1     3
 -1.9619614860791647E-02 a      1464     0    74     1     4
  1.0935498039426970E-01 a      1465     0    74     1     5
 -2.0663580572836926E-01 a      1466     0    74     1     6
  1.9642194236881236E-01 a      1467     0    74     1     7
 -5.3105980618786984E-02 a      1468     0    74     1     8
  2.0034610730998759E-02 a      1469     0    74     1     9
  1.2017649503344399E-02 a      1470     0    74     1    10
 -3.4213170133496083E-02 a      1471     0    74     1    11
 -2.8559631404025718E-02 a      1472     0    74     1    12
 -1.2046581314552528E-01 a      1473     0    74     1    13
  1.4083744154242120E-01 a      1474     0    74     1    14
 -1.5045731140294852E-01 a      1475     0    74     1    15
  2.5631694026155370E-02 a      1476     0    74     1    16
 -3.3720818282339700E-02 a      1477     0    74     1    17
 -6.8408381305922125E-02 a      1478     0    74     1    18
 -1.0119872200048478E-01 a      1479     0    74     1    19
 -2.1361354810872708E-02 a      1480     0    74     1    20
 -1.6599629680642065E-02 a      1481     0    75     1     1
 -2.3807201547319154E-01 a      1482     0    75     1     2
  1.8786691528733065E-01 a      1483     0    75     1     3
 -8.6035114788631115E-02 a      1484     0    75     1     4
 -5.9991977851777838E-02 a      1485     0    75     1     5
 -2.9347005113871789E-02 a      1486     0    75     1     6
  4.9746310993805394E-02 a      1487     0    75     1     7
 -3.3938567061846892E-02 a      1488     0    75     1     8
  2.3498509764155992E-01 a      1489     0    75     1     9
  8.3373686923506884E-02 a      1490     0    75     1    10
  4.2890810348513442E-02 a      1491     0    75     1    11
  2.6244392095445924E-02 a      1492     0    75     1    12
 -1.7999303108690048E-01 a      1493     0    75     1    13
 -5.3543520899224636E-02 a      1494     0    75     1    14
 -9.6212485489142796E-02 a      1495     0    75     1    15
  6.4435802958576673E-03 a      1496     0    75     1    16
  7.1535361147462923E-02 a      1497     0    75     1    17
  9.1310510326842176E-02 a      1498     0    75     1    18
 -1.1646416447744867E-01 a      1499     0    75     1    19
  2.2889740602561537E-01 a      1500     0    75     1    20
  2.3932811174823428E-02 a      1501     0    76     1     1
 -3.5045822838777818E-01 a      1502     0    76     1     2
 -1.4039810807738731E-01 a      1503     0    76     1     3
 -4.9704813741940232E-02 a      1504     0    76     1     4
  1.2140415014457574E-01 a      1505     0    76     1     5
  8.4250019024941877E-02 a      1506     0    76     1     6
  6.5916159882801015E-02 a      1507     0    76     1     7
 -2.6391177650246078E-02 a      1508     0    76     1     8
 -7.6913230071785285E-02 a      1509     0    76     1     9
  6.0099267198394611E-03 a      1510     0    76     1    10
  6.1528174545784631E-02 a      1511     0    76     1    11
 -4.7516141909705774E-02 a      1512     0    76     1    12
  1.4758438542990995E-01 a      1513     0    76     1    13
  6.4520367481102819E-02 a      1514     0    76     1    14
  6.8437318150795401E-02 a      1515     0    76     1    15
  8.2419026823901759E-02 a      1516     0    76     1    16
  1.0182994251261750E-01 a      1517     0    76     1    17
 -6.3201020391234597E-02 a      1518     0    76     1    18
  7.3494046414045860E-02 a      1519     0    76     1    19
  3.5404662002116422E-02 a      1520     0    76     1    20
  1.2560636147555299E-01 a      1521     0    77     1     1
 -1.7376437579476403E-01 a      1522     0    77     1     2
 -3.9933409759862828E-02 a      1523     0    77     1     3
 -4.6576318547771368E-02 a      1524     0    77     1     4
  1.0972984847049563E-01 a      1525     0    77     1     5
  1.2425597713194533E-01 a      1526     0    77     1     6
 -9.7909048650615296E-02 a      1527     0    77     1     7
 -5.3243391631174128E-02 a      1528     0    77     1     8
 -1.2301495664658776E-01 a      1529     0    77     1     9
  2.0141145780347977E-01 a      1530     0    77     1    10
  1.4715891121526780E-02 a      1531     0    77     1    11
 -3.7499933026239204E-02 a      1532     0    77     1    12
 -4.5164255989849619E-02 a      1533     0    77     1    13
 -9.2656442357656313E-02 a      1534     0    77     1    14
  1.2058336801946833E-01 a      1535     0    77     1    15
  1.2606303236373051E-01 a      1536     0    77     1    16
 -2.8643525923796792E-01 a      1537     0    77     1    17
 -1.8971475357016338E-02 a      1538     0    77     1    18
  1.6926976763339513E-01 a      1539     0    77     1    19
 -1.4768969115215660E-01 a      1540     0    77     1    20
 -4.8815028383954240E-02 a      1541     0    78     1     1
  5.2339103926644287E-02 a      1542     0    78     1     2
 -2.5066279672048778E-02 a      1543     0    78     1     3
 -1.4651859929971603E-01 a      1544     0    78     1     4
 -1.0210866659746594E-01 a      1545     0    78     1     5
  1.7661900639329736E-01 a      1546     0    78     1     6
 -3.9709440646288674E-02 a      1547     0    78     1     7
  7.5561509530711363E-02 a      1548     0    78     1     8
  8.3860210978550787E-03 a      1549     0    78     1     9
 -1.3248223237421913E-01 a      1550     0    78     1    10
  6.1141806358706807E-02 a      1551     0    78     1    11
  4.1245688631589672E-02 a      1552     0    78     1    12
  9.6969174123553173E-02 a      1553     0    78     1    13
 -4.4575778041718757E-02 a      1554     0    78     1    14
  1.1594826305121589E-01 a      1555     0    78     1    15
  5.1256927904251612E-02 a      1556     0    78     1    16
  8.3378806507739003E-02 a      1557     0    78     1    17
  6.2658321472421064E-02 a      1558     0    78     1    18
 -7.8157780663090731E-02 a      1559     0    78     1    19
  1.4592917342342041E-01 a      1560     0    78     1    20
 -1.6402379483429941E-01 a      1561     0    79     1     1
  1.6717826967478193E-02 a      1562     0    79     1     2
 -5.9182065467033376E-02 a      1563     0    79     1     3
  1.8696553039427130E-01 a      1564     0    79     1     4
 -1.2351652062047387E-02 a      1565     0    79     1     5
 -2.0844395145238800E-01 a      1566     0    79     1     6
 -1.4598879390620714E-01 a      1567     0    79     1     7
 -2.5551717249983473E-02 a      1568     0    79     1     8
  1.6485630241039211E-02 a      1569     0    79     1     9
 -9.4242710094776624E-02 a      1570     0    79     1    10
  6.1151814912071764E-02 a      1571     0    79     1    11
 -4.1223004810683941E-03 a      1572     0    79     1    12
 -1.0334565957502630E-01 a      1573     0    79     1    13
 -5.7866508093271145E-02 a      1574     0    79     1    14
 -1.0529655674612979E-02 a      1575     0    79     1    15
  1.1920364813265082E-01 a      1576     0    79     1    16
  1.0539682787514648E-01 a      1577     0    79     1    17
  6.0504162415711056E-02 a      1578     0    79     1    18
  2.3659322722989365E-01 a      1579     0    79     1    19
 -9.2072137360968587E-02 a      1580     0    79     1    20
 -1.5358215002754688E-01 a      1581     0    80     1     1
 -5.1697231105677498E-02 a      1582     0    80     1     2
  7.7013330177405928E-02 a      1583     0    80     1     3
  1.0684933747471882E-01 a      1584     0    80     1     4
  9.0356836901912901E-02 a      1585     0    80     1     5
  1.3715465599110316E-01 a      1586     0    80     1     6
  1.5345873908200769E-01 a      1587     0    80     1     7
  2.7471636218316048E-01 a      1588     0    80     1     8
  8.0519496660189718E-02 a      1589     0    80     1     9
  1.3564810705676134E-01 a      1590     0    80     1    10
 -4.3538286315950359E-02 a      1591     0    80     1    11
 -1.2721162378537326E-01 a      1592     0    80     1    12
  4.2580692842273948E-03 a      1593     0    80     1    13
 -1.5428480404754061E-01 a      1594     0    80     1    14
 -1.3055645909831368E-01 a      1595     0    80     1    15
  1.0961228494783322E-01 a      1596     0    80     1    16
 -1.0955283809679163E-01 a      1597     0    80     1    17
 -1.0450875182861881E-01 a      1598     0    80     1    18
  2.0712882577008312E-01 a      1599     0    80     1    19
 -1.6441592003183494E-01 a      1600     0    80     1    20
  5.5707296519929471E-02 a      1601     0    81     1     1
 -6.2504655236618736E-03 a      1602     0    81     1     2
 -4.8771084609811497E-03 a      1603     0    81     1     3
 -2.5125081332097560E-01 a      1604     0    81     1     4
 -8.2356911761204271E-02 a      1605     0    81     1     5
  1.3895129489538560E-01 a      1606     0    81     1     6
 -4.5708225092297727E-01 a      1607     0    81     1     7
 -2.0251913406039540E-01 a      1608     0    81     1     8
  2.7492354407102775E-02 a      1609     0    81     1     9
  1.8082368130519264E-01 a      1610     0    81     1    10
  3.4219324221533877E-02 a      1611     0    81     1    11
 -3.1874014387542601E-02 a      1612     0    81     1    12
  1.1852946258354745E-01 a      1613     0    81     1    13
  9.2138284169800716E-02 a      1614     0    81     1    14
  5.4822871391769029E-02 a      1615     0    81     1    15
 -8.6558026699879720E-02 a      1616     0    81     1    16
  8.4420536741469474E-02 a      1617     0    81     1    17
 -9.8767875131024696E-02 a      1618     0    81     1    18
 -2.4489260719477554E-01 a      1619     0    81     1    19
  6.7476815168039231E-02 a      1620     0    81     1    20
  1.5276369267243464E-01 a      1621     0    82     1     1
  7.1410309843906034E-02 a      1622     0    82     1     2
 -1.7285245410993375E-01 a      1623     0    82     1     3
