################################################################################
# Neural network connection values (weights and biases).
################################################################################
# Col  Name       Description
################################################################################
# 1    connection Neural network connection value.
# 2    t          Connection type (a = weight, b = bias).
# 3    index      Index enumerating weights.
# 4    l_s        Starting point layer (end point layer for biases).
# 5    n_s        Starting point neuron in starting layer (end point neuron for biases).
# 6    l_e        End point layer.
# 7    n_e        End point neuron in end layer.
################################################################################
#                      1 2         3     4     5     6     7
#             connection t     index   l_s   n_s   l_e   n_e
############################################################
  3.1978177547547698E-01 a         1     0     1     1     1
  2.0775020230139860E-01 a         2     0     1     1     2
 -1.4226211599346500E-01 a         3     0     1     1     3
 -2.7952574057617829E-01 a         4     0     1     1     4
 -2.2746016470120017E-01 a         5     0     1     1     5
 -5.8773617241153729E-02 a         6     0     1     1     6
  1.6994746116072482E-01 a         7     0     1     1     7
 -2.0041738054769156E-01 a         8     0     1     1     8
  1.8777775967534463E-01 a         9     0     1     1     9
  3.5761089509836130E-01 a        10     0     1     1    10
  2.9073601357905821E-01 a        11     0     1     1    11
 -2.4325968063670012E-01 a        12     0     1     1    12
 -1.3140792963614290E-01 a        13     0     1     1    13
 -1.8375918288953214E-01 a        14     0     1     1    14
  3.5066957372080848E-02 a        15     0     1     1    15
  1.4341473033198177E-02 a        16     0     1     1    16
 -2.4927421477984738E-01 a        17     0     1     1    17
 -5.9619411286610614E-02 a        18     0     1     1    18
  1.2355658939417587E-02 a        19     0     1     1    19
 -3.7436719920992795E-01 a        20     0     1     1    20
  2.7640685437489220E-02 a        21     0     2     1     1
 -3.5061817172483196E-02 a        22     0     2     1     2
 -1.2089444341833443E-01 a        23     0     2     1     3
 -1.4616576189758457E-01 a        24     0     2     1     4
  9.1602210355070796E-02 a        25     0     2     1     5
 -3.8773074079527059E-01 a        26     0     2     1     6
 -4.4892532292324068E-03 a        27     0     2     1     7
  4.0940272488284302E-02 a        28     0     2     1     8
 -5.2447867337841500E-02 a        29     0     2     1     9
  8.9347038615416374E-02 a        30     0     2     1    10
  2.5542756856666259E-02 a        31     0     2     1    11
 -1.2483962283364448E-01 a        32     0     2     1    12
  7.7346110356003972E-02 a        33     0     2     1    13
 -9.4011090389945883E-03 a        34     0     2     1    14
 -1.1320981977231663E-01 a        35     0     2     1    15
 -7.6838528256786595E-02 a        36     0     2     1    16
 -5.5193516297241067E-03 a        37     0     2     1    17
 -1.8307609678004919E-02 a        38     0     2     1    18
  2.3815157913971507E-01 a        39     0     2     1    19
 -1.4515042324339589E-01 a        40     0     2     1    20
  9.4277378861154990E-03 a        41     0     3     1     1
  1.5876723691294634E-01 a        42     0     3     1     2
 -2.2783135428229251E-01 a        43     0     3     1     3
  2.9611677611688486E-01 a        44     0     3     1     4
  1.5098290540517173E-01 a        45     0     3     1     5
  3.1395343616988369E-01 a        46     0     3     1     6
  9.9403033044970390E-02 a        47     0     3     1     7
  8.5819175719269294E-02 a        48     0     3     1     8
 -1.5805646011652835E-01 a        49     0     3     1     9
 -1.3186434485419518E-01 a        50     0     3     1    10
  2.7348035283221966E-02 a        51     0     3     1    11
 -1.2196068083576227E-01 a        52     0     3     1    12
  2.6363395598179357E-01 a        53     0     3     1    13
  1.7024380917041537E-01 a        54     0     3     1    14
 -2.4408153155459414E-01 a        55     0     3     1    15
 -8.3247800331099284E-02 a        56     0     3     1    16
  1.0405184398017420E-01 a        57     0     3     1    17
 -2.2782168421391660E-02 a        58     0     3     1    18
  1.7602941959114862E-01 a        59     0     3     1    19
 -1.1219261188346054E-02 a        60     0     3     1    20
 -8.3755145298985367E-02 a        61     0     4     1     1
  4.8610016415665459E-02 a        62     0     4     1     2
 -9.7948065610660620E-02 a        63     0     4     1     3
 -4.0379388576680560E-02 a        64     0     4     1     4
 -9.5837154445831088E-02 a        65     0     4     1     5
  8.3929024881242251E-02 a        66     0     4     1     6
 -6.6841440802319976E-02 a        67     0     4     1     7
 -2.8743899299518184E-02 a        68     0     4     1     8
 -1.7835634958751431E-01 a        69     0     4     1     9
 -5.3197888281764361E-02 a        70     0     4     1    10
  3.3510562851815626E-02 a        71     0     4     1    11
  1.0483012280925481E-01 a        72     0     4     1    12
  3.3607821785066098E-02 a        73     0     4     1    13
 -2.4043114031784382E-02 a        74     0     4     1    14
  1.6081067530124202E-01 a        75     0     4     1    15
  1.4777378361614105E-01 a        76     0     4     1    16
 -9.1465340110950130E-02 a        77     0     4     1    17
  1.2267749041553372E-01 a        78     0     4     1    18
  3.6885427234532864E-02 a        79     0     4     1    19
 -4.2519441338103994E-02 a        80     0     4     1    20
 -3.1167385345374034E-02 a        81     0     5     1     1
  1.3321263476017725E-01 a        82     0     5     1     2
  2.6569184113885272E-02 a        83     0     5     1     3
  9.1541957724208915E-03 a        84     0     5     1     4
 -1.2401792584680936E-01 a        85     0     5     1     5
 -1.1297840716512166E-01 a        86     0     5     1     6
  4.8237799391998626E-02 a        87     0     5     1     7
  1.4988235271724865E-01 a        88     0     5     1     8
  2.0199890372835139E-02 a        89     0     5     1     9
  1.9082245687405483E-01 a        90     0     5     1    10
 -1.2266811094337537E-01 a        91     0     5     1    11
  2.4910514671784076E-01 a        92     0     5     1    12
 -9.7597877607496941E-02 a        93     0     5     1    13
 -1.8142195791499599E-01 a        94     0     5     1    14
  4.1012512058702912E-02 a        95     0     5     1    15
 -1.6083104153465222E-01 a        96     0     5     1    16
 -1.9450781015204591E-01 a        97     0     5     1    17
 -1.2558398589435682E-01 a        98     0     5     1    18
 -9.7986558555702916E-02 a        99     0     5     1    19
 -1.8524214059038549E-02 a       100     0     5     1    20
 -2.8928214094416466E-01 a       101     0     6     1     1
 -4.5496939197088887E-02 a       102     0     6     1     2
 -5.0276731478134738E-02 a       103     0     6     1     3
  2.5920505987142117E-01 a       104     0     6     1     4
  9.6866597779610458E-02 a       105     0     6     1     5
 -2.5477838238327782E-01 a       106     0     6     1     6
 -3.2647717815002042E-01 a       107     0     6     1     7
  4.1259325369319938E-01 a       108     0     6     1     8
  1.7502937523411968E-01 a       109     0     6     1     9
 -4.3758199950521853E-01 a       110     0     6     1    10
 -4.4967422103850790E-01 a       111     0     6     1    11
  3.6079164512850909E-01 a       112     0     6     1    12
  1.6541080880718922E-01 a       113     0     6     1    13
 -6.3917712477122982E-02 a       114     0     6     1    14
 -4.7525097015030632E-01 a       115     0     6     1    15
 -3.1146357935449737E-01 a       116     0     6     1    16
  7.4472365701448229E-01 a       117     0     6     1    17
 -9.1874349697566582E-02 a       118     0     6     1    18
  6.6577016899524111E-01 a       119     0     6     1    19
  3.2507228807694732E-01 a       120     0     6     1    20
  1.8725285354566229E-01 a       121     0     7     1     1
 -7.3782878171530120E-02 a       122     0     7     1     2
 -1.7007409382265073E-01 a       123     0     7     1     3
  2.5384594209128347E-01 a       124     0     7     1     4
  1.2125132252917085E-01 a       125     0     7     1     5
 -9.7462793691440050E-02 a       126     0     7     1     6
 -4.8641137831275834E-02 a       127     0     7     1     7
  7.2875424124914795E-02 a       128     0     7     1     8
 -9.7714562530077098E-02 a       129     0     7     1     9
  1.6472511600770021E-01 a       130     0     7     1    10
 -1.7202617431041717E-01 a       131     0     7     1    11
  1.5269977775972582E-01 a       132     0     7     1    12
  1.0446991600433725E-01 a       133     0     7     1    13
 -1.4509655950644304E-01 a       134     0     7     1    14
 -6.3366579930278596E-02 a       135     0     7     1    15
  1.5032580872670298E-01 a       136     0     7     1    16
  3.3512416846635967E-01 a       137     0     7     1    17
  2.2934986213252240E-01 a       138     0     7     1    18
 -1.7606054828701084E-01 a       139     0     7     1    19
 -6.5896633884103065E-02 a       140     0     7     1    20
 -1.5266113782498067E-01 a       141     0     8     1     1
 -1.7277428813439447E-01 a       142     0     8     1     2
  8.0429854008161897E-02 a       143     0     8     1     3
  5.0768782046058968E-02 a       144     0     8     1     4
 -2.2275748571219747E-02 a       145     0     8     1     5
  1.9062151011831135E-01 a       146     0     8     1     6
  1.4771022760101174E-01 a       147     0     8     1     7
  4.0251751909067629E-02 a       148     0     8     1     8
  2.2159007679097095E-01 a       149     0     8     1     9
  9.4490623515918956E-02 a       150     0     8     1    10
 -4.5255197287847285E-02 a       151     0     8     1    11
  5.5466164460631781E-02 a       152     0     8     1    12
 -1.0204595197608475E-01 a       153     0     8     1    13
  3.6036785043912431E-02 a       154     0     8     1    14
 -4.2411187594426400E-02 a       155     0     8     1    15
  1.1624267409881095E-01 a       156     0     8     1    16
  5.2635157608329479E-02 a       157     0     8     1    17
  1.9372009453479125E-02 a       158     0     8     1    18
 -1.1958294493688296E-01 a       159     0     8     1    19
 -5.5197260503516615E-02 a       160     0     8     1    20
 -1.8615735252671135E-02 a       161     0     9     1     1
 -6.0938027653520702E-02 a       162     0     9     1     2
 -1.0789065502546170E-01 a       163     0     9     1     3
  7.9946885442068072E-02 a       164     0     9     1     4
  1.5028801320504668E-02 a       165     0     9     1     5
  3.5629040603262566E-02 a       166     0     9     1     6
  2.0200878819607571E-02 a       167     0     9     1     7
 -1.6955047949837410E-01 a       168     0     9     1     8
  1.4125541290114438E-01 a       169     0     9     1     9
  1.0416233794209303E-02 a       170     0     9     1    10
  8.1232350544909807E-02 a       171     0     9     1    11
 -2.5630422739612801E-01 a       172     0     9     1    12
  5.1096679021517662E-02 a       173     0     9     1    13
  1.9292092485114626E-01 a       174     0     9     1    14
 -8.1609497467251713E-02 a       175     0     9     1    15
 -6.1485914445749773E-02 a       176     0     9     1    16
  9.7684467380296139E-02 a       177     0     9     1    17
 -5.5576135262045280E-02 a       178     0     9     1    18
  6.8136932817964471E-02 a       179     0     9     1    19
  5.0660750154836703E-02 a       180     0     9     1    20
  6.9811973118645815E-02 a       181     0    10     1     1
  4.7560003408499335E-02 a       182     0    10     1     2
  2.5341751419666514E-01 a       183     0    10     1     3
 -8.8959957042328425E-02 a       184     0    10     1     4
  9.0976217450361080E-02 a       185     0    10     1     5
  1.0334279153860458E-01 a       186     0    10     1     6
  1.0657446336422421E-01 a       187     0    10     1     7
  1.6274015138593895E-01 a       188     0    10     1     8
  8.4612937959436710E-02 a       189     0    10     1     9
 -5.5663127675171876E-02 a       190     0    10     1    10
  1.8009810053769557E-01 a       191     0    10     1    11
 -1.6894556041151551E-01 a       192     0    10     1    12
  3.1068659086804624E-02 a       193     0    10     1    13
 -1.0933997018462961E-01 a       194     0    10     1    14
 -3.7918123826833731E-02 a       195     0    10     1    15
 -1.1671276689746836E-01 a       196     0    10     1    16
  6.8824907139832581E-02 a       197     0    10     1    17
  9.2721736519766576E-02 a       198     0    10     1    18
  1.1263843650371753E-01 a       199     0    10     1    19
 -1.5204831448260304E-02 a       200     0    10     1    20
 -2.0348122505844210E-01 a       201     0    11     1     1
  7.8315487395235653E-02 a       202     0    11     1     2
 -1.2724648621397469E-01 a       203     0    11     1     3
  2.1988253224464677E-01 a       204     0    11     1     4
 -1.5671978272716275E-01 a       205     0    11     1     5
  1.2957124347885232E-01 a       206     0    11     1     6
  4.1415906363875105E-01 a       207     0    11     1     7
 -1.8235777534898368E-01 a       208     0    11     1     8
  1.2290178546629638E-01 a       209     0    11     1     9
  2.4263983896536301E-01 a       210     0    11     1    10
 -8.2902148761772487E-02 a       211     0    11     1    11
 -3.4031834789650495E-01 a       212     0    11     1    12
 -2.0146360243743430E-01 a       213     0    11     1    13
 -3.4449700272328659E-01 a       214     0    11     1    14
  2.5519185106737585E-01 a       215     0    11     1    15
  1.1707664088314937E-01 a       216     0    11     1    16
  2.0213297009477310E-01 a       217     0    11     1    17
  3.5418973188860536E-01 a       218     0    11     1    18
 -2.7109143127710011E-01 a       219     0    11     1    19
 -1.1683176550646227E-01 a       220     0    11     1    20
 -9.8493181842689764E-02 a       221     0    12     1     1
  1.0368950535950743E-01 a       222     0    12     1     2
 -1.6329205794817857E-02 a       223     0    12     1     3
 -8.4274412030697271E-02 a       224     0    12     1     4
  1.9790788725669212E-01 a       225     0    12     1     5
  1.1315840479639926E-01 a       226     0    12     1     6
  4.3545394504541937E-02 a       227     0    12     1     7
  1.4492885019668746E-02 a       228     0    12     1     8
 -3.0412807641397793E-01 a       229     0    12     1     9
 -1.1245341535762844E-01 a       230     0    12     1    10
  3.7298992482727986E-02 a       231     0    12     1    11
  1.9627690553687166E-01 a       232     0    12     1    12
  1.9634368247839887E-01 a       233     0    12     1    13
  2.2338203478005532E-02 a       234     0    12     1    14
  1.6289410457908315E-01 a       235     0    12     1    15
 -6.1767547739353203E-02 a       236     0    12     1    16
 -6.7147830386638657E-02 a       237     0    12     1    17
  1.6892203826171498E-01 a       238     0    12     1    18
 -1.5129179938539303E-01 a       239     0    12     1    19
  1.8196639105807480E-01 a       240     0    12     1    20
  2.8763751929454395E-01 a       241     0    13     1     1
 -1.5344840855840752E-01 a       242     0    13     1     2
  1.3091305152633581E-01 a       243     0    13     1     3
  7.9325748423602432E-02 a       244     0    13     1     4
 -4.8897646085905806E-02 a       245     0    13     1     5
 -5.3422456286951879E-02 a       246     0    13     1     6
 -1.3929053643780301E-01 a       247     0    13     1     7
 -1.1399912285110177E-01 a       248     0    13     1     8
 -2.1712859619357339E-01 a       249     0    13     1     9
  1.1874888296516391E-02 a       250     0    13     1    10
 -1.0991600471962840E-01 a       251     0    13     1    11
  7.7084786238076963E-02 a       252     0    13     1    12
 -5.5305923699628293E-02 a       253     0    13     1    13
  1.2330176849089965E-01 a       254     0    13     1    14
  2.5377731120390395E-01 a       255     0    13     1    15
 -5.2360326633584794E-02 a       256     0    13     1    16
 -2.4712163453015212E-01 a       257     0    13     1    17
  1.5162365998069938E-01 a       258     0    13     1    18
  1.3513804436095777E-02 a       259     0    13     1    19
  1.4991840503720988E-01 a       260     0    13     1    20
 -1.0539617142796039E-01 a       261     0    14     1     1
  1.2627334281555236E-01 a       262     0    14     1     2
 -1.6395765389894279E-01 a       263     0    14     1     3
  1.2856411817366095E-01 a       264     0    14     1     4
 -2.4411340304060850E-01 a       265     0    14     1     5
 -2.5387924363485619E-02 a       266     0    14     1     6
 -7.6617627129564034E-02 a       267     0    14     1     7
  2.0013570132114486E-01 a       268     0    14     1     8
  5.1047520198776508E-02 a       269     0    14     1     9
 -1.8353942999107194E-02 a       270     0    14     1    10
 -7.4565139086095883E-02 a       271     0    14     1    11
  7.4250274638104866E-02 a       272     0    14     1    12
  5.7153069161462317E-03 a       273     0    14     1    13
 -5.2288253716200148E-02 a       274     0    14     1    14
 -2.6595532798109157E-02 a       275     0    14     1    15
  1.6738290382491705E-01 a       276     0    14     1    16
 -1.3074482758078793E-01 a       277     0    14     1    17
  4.1975968764045718E-02 a       278     0    14     1    18
  9.8769738869179710E-02 a       279     0    14     1    19
  1.1289460938873418E-01 a       280     0    14     1    20
  3.1166863741966030E-02 a       281     0    15     1     1
 -1.4031739507375554E-01 a       282     0    15     1     2
 -1.6503653870055635E-02 a       283     0    15     1     3
 -4.6144312240942550E-02 a       284     0    15     1     4
  1.4991161367941364E-01 a       285     0    15     1     5
 -2.1890760572511161E-01 a       286     0    15     1     6
  6.8137156252725345E-02 a       287     0    15     1     7
 -8.8393260221817690E-02 a       288     0    15     1     8
 -2.0927303141028152E-02 a       289     0    15     1     9
  1.0771732999037315E-01 a       290     0    15     1    10
 -1.6894034727951149E-01 a       291     0    15     1    11
  6.3175138967386260E-02 a       292     0    15     1    12
 -1.0897975914580200E-01 a       293     0    15     1    13
  7.0961770844391037E-02 a       294     0    15     1    14
  7.1122921212781118E-02 a       295     0    15     1    15
  1.3053400708777846E-01 a       296     0    15     1    16
  2.4751024160759977E-01 a       297     0    15     1    17
  7.4285954322020176E-02 a       298     0    15     1    18
 -6.5365979054593473E-02 a       299     0    15     1    19
  1.8561498761927259E-01 a       300     0    15     1    20
  8.0702144952099042E-02 a       301     0    16     1     1
 -1.8901008131018995E-01 a       302     0    16     1     2
 -6.6068220764236185E-02 a       303     0    16     1     3
  1.2891167759613070E-01 a       304     0    16     1     4
  8.2302951420363785E-02 a       305     0    16     1     5
 -4.8175521581634441E-02 a       306     0    16     1     6
 -5.6866684593591788E-02 a       307     0    16     1     7
  3.2846149790847040E-01 a       308     0    16     1     8
  2.5211518873394645E-01 a       309     0    16     1     9
 -1.5601216998567879E-01 a       310     0    16     1    10
 -2.4010088029578935E-02 a       311     0    16     1    11
  2.3996033549197313E-01 a       312     0    16     1    12
  2.3670931963724354E-01 a       313     0    16     1    13
  6.1498371445392261E-02 a       314     0    16     1    14
 -4.9720132287569740E-01 a       315     0    16     1    15
  4.7580287304521005E-02 a       316     0    16     1    16
  1.5060483065040012E-01 a       317     0    16     1    17
 -1.0286096200046908E-01 a       318     0    16     1    18
  7.1258968730232297E-01 a       319     0    16     1    19
  2.4249031156937531E-01 a       320     0    16     1    20
  1.2245545853642574E-01 a       321     0    17     1     1
  6.4598590501731973E-02 a       322     0    17     1     2
 -5.6680499758151086E-02 a       323     0    17     1     3
  1.7310763992788158E-01 a       324     0    17     1     4
  1.0505239412934339E-01 a       325     0    17     1     5
 -1.8173581505776687E-01 a       326     0    17     1     6
  1.1479154787133904E-01 a       327     0    17     1     7
  5.4370332579157694E-02 a       328     0    17     1     8
  3.6128948276275420E-02 a       329     0    17     1     9
 -2.1298595146083441E-02 a       330     0    17     1    10
 -5.0994427953511438E-02 a       331     0    17     1    11
 -1.6486826486897771E-01 a       332     0    17     1    12
 -1.6342004683678227E-01 a       333     0    17     1    13
  9.1350936037190550E-02 a       334     0    17     1    14
 -1.1437650812838938E-01 a       335     0    17     1    15
  1.6974731315792073E-02 a       336     0    17     1    16
 -9.3467173965296635E-02 a       337     0    17     1    17
 -6.7773890306833229E-02 a       338     0    17     1    18
 -6.8912834710166501E-02 a       339     0    17     1    19
 -1.1154500878759761E-01 a       340     0    17     1    20
  3.5661491767358688E-01 a       341     0    18     1     1
  1.0489555597383980E-01 a       342     0    18     1     2
 -1.4642821641022404E-02 a       343     0    18     1     3
 -6.6585835108937855E-02 a       344     0    18     1     4
  1.6703424312798834E-01 a       345     0    18     1     5
  2.0404031668355865E-01 a       346     0    18     1     6
  3.2279999444963681E-02 a       347     0    18     1     7
  9.0063161023455504E-02 a       348     0    18     1     8
  1.0857328125635897E-02 a       349     0    18     1     9
 -6.6005139370845206E-02 a       350     0    18     1    10
 -2.0142755848882457E-01 a       351     0    18     1    11
  2.0443574152162491E-01 a       352     0    18     1    12
  9.5371433870836991E-02 a       353     0    18     1    13
  3.3140913498834529E-01 a       354     0    18     1    14
 -4.1047085626568297E-01 a       355     0    18     1    15
 -1.9395594651098402E-01 a       356     0    18     1    16
 -2.0102091761792631E-01 a       357     0    18     1    17
 -1.0243978774867567E-01 a       358     0    18     1    18
 -4.5480652250982197E-02 a       359     0    18     1    19
  1.4630317853018021E-01 a       360     0    18     1    20
 -1.2901213108941187E-01 a       361     0    19     1     1
  2.6412197100427965E-03 a       362     0    19     1     2
  7.7492327192743210E-02 a       363     0    19     1     3
 -1.9348918718012073E-01 a       364     0    19     1     4
 -3.8631974050564961E-02 a       365     0    19     1     5
 -8.4172875617972834E-02 a       366     0    19     1     6
  5.0142074362998612E-02 a       367     0    19     1     7
  1.7716004594657778E-01 a       368     0    19     1     8
  6.9044499680280910E-02 a       369     0    19     1     9
  1.0623633295526960E-01 a       370     0    19     1    10
 -6.0667109435478275E-02 a       371     0    19     1    11
  9.4204037207532065E-02 a       372     0    19     1    12
 -9.2897139966609636E-03 a       373     0    19     1    13
 -5.8556938463628166E-02 a       374     0    19     1    14
  4.8416865059124223E-02 a       375     0    19     1    15
  2.0600068997878432E-01 a       376     0    19     1    16
 -3.9170242724571161E-02 a       377     0    19     1    17
 -1.5772830233067338E-02 a       378     0    19     1    18
  1.2538158612438927E-01 a       379     0    19     1    19
 -1.6497353486848834E-01 a       380     0    19     1    20
  1.1526375588533723E-01 a       381     0    20     1     1
  1.2648800817650196E-01 a       382     0    20     1     2
 -5.8020661020600391E-02 a       383     0    20     1     3
 -3.4760387110202254E-02 a       384     0    20     1     4
  2.0265978632573067E-02 a       385     0    20     1     5
  5.0276260376166351E-02 a       386     0    20     1     6
  8.5036114884288860E-02 a       387     0    20     1     7
  1.9067007939194666E-01 a       388     0    20     1     8
  8.6898905967236206E-03 a       389     0    20     1     9
  9.7176233439100104E-02 a       390     0    20     1    10
 -2.1755931782697119E-01 a       391     0    20     1    11
  1.4283825462110367E-01 a       392     0    20     1    12
  1.8497298780963395E-01 a       393     0    20     1    13
 -7.9644365724428248E-02 a       394     0    20     1    14
  3.1501164574850686E-02 a       395     0    20     1    15
 -2.7897646545814534E-02 a       396     0    20     1    16
 -1.3288875368243688E-01 a       397     0    20     1    17
  2.0107733085045398E-01 a       398     0    20     1    18
  7.0745081852281816E-02 a       399     0    20     1    19
 -9.7799595305229275E-02 a       400     0    20     1    20
 -1.9836826345732306E-02 a       401     0    21     1     1
  2.5867442232906417E-02 a       402     0    21     1     2
  2.0866644398312917E-01 a       403     0    21     1     3
  2.0755766937880504E-02 a       404     0    21     1     4
  3.3166640469557016E-02 a       405     0    21     1     5
 -2.0714647974463452E-01 a       406     0    21     1     6
  3.2901231583174130E-02 a       407     0    21     1     7
 -8.5378592937397801E-02 a       408     0    21     1     8
  6.3602175298155789E-02 a       409     0    21     1     9
  3.4514091248764533E-02 a       410     0    21     1    10
  3.1492648732231349E-01 a       411     0    21     1    11
 -8.0271621019306419E-02 a       412     0    21     1    12
 -1.6998021842611014E-01 a       413     0    21     1    13
 -2.5754004098290972E-01 a       414     0    21     1    14
  3.0909945287586515E-01 a       415     0    21     1    15
  2.4437353685813468E-01 a       416     0    21     1    16
  9.2524432775596646E-02 a       417     0    21     1    17
 -3.5825035618533591E-02 a       418     0    21     1    18
 -4.1366491186226748E-02 a       419     0    21     1    19
 -1.9380846189955489E-01 a       420     0    21     1    20
  7.3796177213128505E-02 a       421     0    22     1     1
 -1.6901848728247168E-01 a       422     0    22     1     2
  2.4042022176252908E-02 a       423     0    22     1     3
 -2.5903354723421469E-02 a       424     0    22     1     4
  8.1441898043184066E-02 a       425     0    22     1     5
  1.1572366768683759E-01 a       426     0    22     1     6
 -2.4011624878496302E-01 a       427     0    22     1     7
  1.4586195865453672E-01 a       428     0    22     1     8
 -1.0871489294868003E-01 a       429     0    22     1     9
 -5.2852960501888771E-02 a       430     0    22     1    10
 -1.1827317200971080E-01 a       431     0    22     1    11
  4.9293509120121801E-02 a       432     0    22     1    12
  2.9884224598910880E-02 a       433     0    22     1    13
  7.5148489117353220E-03 a       434     0    22     1    14
 -4.6768130064650054E-02 a       435     0    22     1    15
 -1.9739956144301685E-02 a       436     0    22     1    16
  5.4896442653775808E-02 a       437     0    22     1    17
  7.3729224560785026E-02 a       438     0    22     1    18
  8.6383087609925441E-02 a       439     0    22     1    19
  9.7185794056652286E-02 a       440     0    22     1    20
  1.7041425318096667E-01 a       441     0    23     1     1
  6.0762260248783277E-02 a       442     0    23     1     2
 -1.6898914878876284E-01 a       443     0    23     1     3
 -9.7500429121588853E-03 a       444     0    23     1     4
 -3.8188809065276004E-02 a       445     0    23     1     5
  6.0344184356075373E-02 a       446     0    23     1     6
  2.1870249887814971E-01 a       447     0    23     1     7
  1.4096341538067589E-01 a       448     0    23     1     8
 -1.0456787119621415E-01 a       449     0    23     1     9
  8.3285499036967803E-02 a       450     0    23     1    10
 -2.5927148773814823E-01 a       451     0    23     1    11
 -2.5828469329707743E-02 a       452     0    23     1    12
  1.4800096962379111E-01 a       453     0    23     1    13
 -1.3389067210187932E-02 a       454     0    23     1    14
 -1.3906812923010941E-02 a       455     0    23     1    15
 -3.3105409263120855E-01 a       456     0    23     1    16
 -1.8893619032711285E-02 a       457     0    23     1    17
 -6.0648475498921488E-02 a       458     0    23     1    18
  6.4851904739958791E-02 a       459     0    23     1    19
  8.4663502686889769E-02 a       460     0    23     1    20
  1.0995963297629820E-01 a       461     0    24     1     1
  8.2437844978225771E-03 a       462     0    24     1     2
  1.9924310553215852E-01 a       463     0    24     1     3
  2.4261517174983011E-01 a       464     0    24     1     4
  6.4652686000911022E-02 a       465     0    24     1     5
 -8.3161516990579207E-02 a       466     0    24     1     6
  1.7107793587955462E-02 a       467     0    24     1     7
  6.6587192208757293E-02 a       468     0    24     1     8
  1.7319918806040405E-01 a       469     0    24     1     9
 -6.3143707347658840E-02 a       470     0    24     1    10
  1.2728044663031146E-01 a       471     0    24     1    11
  5.1930267202409834E-02 a       472     0    24     1    12
  1.8283609108880935E-02 a       473     0    24     1    13
  1.3059622338742230E-01 a       474     0    24     1    14
 -1.5344323663495280E-01 a       475     0    24     1    15
  1.0905774866006744E-01 a       476     0    24     1    16
 -9.8172959659677442E-02 a       477     0    24     1    17
  4.1992548298007285E-03 a       478     0    24     1    18
  6.4967801792267160E-02 a       479     0    24     1    19
  8.2751777583075850E-02 a       480     0    24     1    20
 -2.9762535970832088E-02 a       481     0    25     1     1
  9.6922224786491998E-02 a       482     0    25     1     2
 -5.1893701356157673E-02 a       483     0    25     1     3
 -1.6875467659363294E-01 a       484     0    25     1     4
  6.4251374316297682E-02 a       485     0    25     1     5
 -1.7161894228213342E-01 a       486     0    25     1     6
 -1.9809224954664569E-03 a       487     0    25     1     7
  4.9315262098457859E-02 a       488     0    25     1     8
  7.4864688509972072E-03 a       489     0    25     1     9
  1.5586149500622451E-01 a       490     0    25     1    10
 -2.5366229445552550E-02 a       491     0    25     1    11
  2.1719374828504923E-01 a       492     0    25     1    12
  1.0680924657349386E-01 a       493     0    25     1    13
  1.0181863632234940E-01 a       494     0    25     1    14
 -1.8755430074071988E-02 a       495     0    25     1    15
 -1.4975208791939348E-01 a       496     0    25     1    16
  2.6258521944440054E-02 a       497     0    25     1    17
  1.1492469872552029E-01 a       498     0    25     1    18
 -1.0117325198375073E-01 a       499     0    25     1    19
 -1.1197578655598484E-01 a       500     0    25     1    20
  5.3883517789108645E-02 a       501     0    26     1     1
 -1.2552708584462544E-01 a       502     0    26     1     2
 -4.9092663839156288E-02 a       503     0    26     1     3
  1.4745989305151389E-01 a       504     0    26     1     4
 -7.1543531558729443E-03 a       505     0    26     1     5
 -4.7645004074594245E-02 a       506     0    26     1     6
 -3.2886209512668511E-02 a       507     0    26     1     7
  1.1445438713180431E-01 a       508     0    26     1     8
  1.2561930167718086E-01 a       509     0    26     1     9
 -1.3960750851717069E-01 a       510     0    26     1    10
 -2.4856715230780488E-01 a       511     0    26     1    11
  1.2222952161433444E-01 a       512     0    26     1    12
  4.4496071931278441E-02 a       513     0    26     1    13
  1.8265828550520999E-01 a       514     0    26     1    14
 -2.6400196575601248E-01 a       515     0    26     1    15
  2.8646442433974761E-01 a       516     0    26     1    16
  1.9658414648977618E-01 a       517     0    26     1    17
  1.9094255118678355E-01 a       518     0    26     1    18
  2.5590764680972056E-01 a       519     0    26     1    19
  2.3284927303874421E-03 a       520     0    26     1    20
 -4.9588318864654285E-02 a       521     0    27     1     1
  8.6075191002306761E-02 a       522     0    27     1     2
 -4.2010159856595208E-03 a       523     0    27     1     3
 -2.2899834923605627E-02 a       524     0    27     1     4
 -2.6363464350398689E-02 a       525     0    27     1     5
 -7.9401477649319263E-02 a       526     0    27     1     6
  2.4808710237686521E-02 a       527     0    27     1     7
 -7.2700001042503640E-02 a       528     0    27     1     8
 -3.5894279298331992E-02 a       529     0    27     1     9
  4.1843845170061192E-02 a       530     0    27     1    10
 -1.2118155442667482E-01 a       531     0    27     1    11
 -1.0452368025538911E-01 a       532     0    27     1    12
  1.5367662754569439E-01 a       533     0    27     1    13
 -3.1079279963710238E-02 a       534     0    27     1    14
  1.0100281097883640E-01 a       535     0    27     1    15
  2.6782359404124396E-02 a       536     0    27     1    16
 -1.3290830241575166E-02 a       537     0    27     1    17
 -5.8096848961289964E-02 a       538     0    27     1    18
  3.8046502453694744E-03 a       539     0    27     1    19
  2.4066772543679983E-03 a       540     0    27     1    20
  1.3771024737369459E-02 a       541     0    28     1     1
  8.5797849420701122E-02 a       542     0    28     1     2
 -9.0480558657999005E-02 a       543     0    28     1     3
  6.3595265268301462E-02 a       544     0    28     1     4
 -1.8192428746345976E-01 a       545     0    28     1     5
  1.0653236430877601E-01 a       546     0    28     1     6
  5.5727723056299250E-02 a       547     0    28     1     7
  5.7585348862523575E-02 a       548     0    28     1     8
 -6.8423895913065219E-02 a       549     0    28     1     9
  3.0485230879161279E-01 a       550     0    28     1    10
  1.5849069391167309E-01 a       551     0    28     1    11
 -1.2018746136731473E-01 a       552     0    28     1    12
 -1.6734148569627152E-01 a       553     0    28     1    13
 -1.6495959855105902E-01 a       554     0    28     1    14
  1.4268361911071847E-01 a       555     0    28     1    15
 -2.3219715632758645E-01 a       556     0    28     1    16
 -1.8274951164087044E-01 a       557     0    28     1    17
  1.2733057316275997E-01 a       558     0    28     1    18
 -1.0850197548376316E-02 a       559     0    28     1    19
  2.8835267261706754E-01 a       560     0    28     1    20
  4.3227711506463519E-02 a       561     0    29     1     1
  4.2809823442971358E-02 a       562     0    29     1     2
  6.2245754493807391E-02 a       563     0    29     1     3
 -8.0944097269439103E-02 a       564     0    29     1     4
  4.8963013197972714E-02 a       565     0    29     1     5
 -7.6251111370021857E-02 a       566     0    29     1     6
  1.7329654756768193E-02 a       567     0    29     1     7
  1.1548491429516590E-01 a       568     0    29     1     8
 -4.8968205524483888E-02 a       569     0    29     1     9
  5.4486912407589343E-02 a       570     0    29     1    10
  4.8408549334238285E-02 a       571     0    29     1    11
  4.9887477580808519E-02 a       572     0    29     1    12
 -9.0423795218568595E-02 a       573     0    29     1    13
 -1.5495908666849270E-01 a       574     0    29     1    14
 -6.7409775901717928E-02 a       575     0    29     1    15
  1.6472918308224294E-01 a       576     0    29     1    16
 -3.2517015783467634E-02 a       577     0    29     1    17
  4.3135318699811014E-02 a       578     0    29     1    18
  1.4138385529480055E-01 a       579     0    29     1    19
 -8.7144895504135747E-02 a       580     0    29     1    20
  2.2989327269950302E-01 a       581     0    30     1     1
 -1.9082643462872910E-02 a       582     0    30     1     2
  2.9295162098977906E-01 a       583     0    30     1     3
  7.0100748574849048E-02 a       584     0    30     1     4
  1.5762984783603658E-02 a       585     0    30     1     5
  3.8913384799186143E-02 a       586     0    30     1     6
  1.9350815688071751E-01 a       587     0    30     1     7
  1.2605731603817691E-01 a       588     0    30     1     8
  1.5986273372991580E-01 a       589     0    30     1     9
 -6.2717308609297282E-03 a       590     0    30     1    10
  1.9726129283623169E-02 a       591     0    30     1    11
  3.5528576496248923E-02 a       592     0    30     1    12
 -2.1361824406132887E-01 a       593     0    30     1    13
 -7.9009217604993562E-02 a       594     0    30     1    14
  1.0337465313078688E-01 a       595     0    30     1    15
 -1.5351034224343382E-01 a       596     0    30     1    16
 -2.0500116849087539E-02 a       597     0    30     1    17
 -7.3877397492115110E-02 a       598     0    30     1    18
 -1.0527727638424966E-01 a       599     0    30     1    19
  2.0490226977233802E-01 a       600     0    30     1    20
  4.9808419466771468E-02 a       601     0    31     1     1
 -5.6237243864583945E-02 a       602     0    31     1     2
  5.0776298244040854E-02 a       603     0    31     1     3
  1.3246374055593879E-01 a       604     0    31     1     4
  1.5886125157298725E-01 a       605     0    31     1     5
 -1.5963097934681039E-01 a       606     0    31     1     6
  5.7749452099312556E-03 a       607     0    31     1     7
 -2.4511102091104100E-02 a       608     0    31     1     8
 -1.3139946907209316E-02 a       609     0    31     1     9
 -1.0634045925641177E-01 a       610     0    31     1    10
  1.1995765827757493E-01 a       611     0    31     1    11
  1.4470007187532821E-01 a       612     0    31     1    12
 -1.6959835612483207E-01 a       613     0    31     1    13
  1.4812342815207014E-01 a       614     0    31     1    14
  2.0842959008802842E-01 a       615     0    31     1    15
  1.5516248148775305E-01 a       616     0    31     1    16
  6.3699470852705310E-04 a       617     0    31     1    17
 -1.6665852586579580E-01 a       618     0    31     1    18
 -2.5226989570734111E-02 a       619     0    31     1    19
 -1.2206857438196232E-01 a       620     0    31     1    20
 -3.9530845980060647E-03 a       621     0    32     1     1
 -1.0812471843810946E-01 a       622     0    32     1     2
  7.5785644351857348E-02 a       623     0    32     1     3
  6.9129946455732186E-02 a       624     0    32     1     4
  1.1588830933021314E-01 a       625     0    32     1     5
 -3.1109791409898294E-02 a       626     0    32     1     6
  2.3309699733620867E-01 a       627     0    32     1     7
 -1.8531580465879904E-01 a       628     0    32     1     8
  6.4181209938498615E-02 a       629     0    32     1     9
 -1.0244903356763710E-02 a       630     0    32     1    10
  1.0958713612349877E-01 a       631     0    32     1    11
  7.3154192609501914E-02 a       632     0    32     1    12
 -1.5966681776761926E-01 a       633     0    32     1    13
 -1.0289271793320298E-01 a       634     0    32     1    14
 -4.2533929459808065E-02 a       635     0    32     1    15
 -7.8698497956847441E-02 a       636     0    32     1    16
  1.0419328317815406E-02 a       637     0    32     1    17
 -3.0539366903718868E-01 a       638     0    32     1    18
  1.3788473805521764E-01 a       639     0    32     1    19
  1.0603856656769381E-01 a       640     0    32     1    20
 -6.5335441458106949E-02 a       641     0    33     1     1
  1.0391711013430090E-02 a       642     0    33     1     2
 -2.8096357995104931E-01 a       643     0    33     1     3
 -1.7137942919901952E-01 a       644     0    33     1     4
 -1.6234598748227594E-01 a       645     0    33     1     5
  4.1067591306654022E-02 a       646     0    33     1     6
  7.7109620624598030E-02 a       647     0    33     1     7
 -6.0670581039992497E-02 a       648     0    33     1     8
  3.1937929454144885E-02 a       649     0    33     1     9
  1.9692176704422353E-02 a       650     0    33     1    10
 -1.5150872450044089E-01 a       651     0    33     1    11
 -5.3011348927378882E-02 a       652     0    33     1    12
  2.3949991795715805E-01 a       653     0    33     1    13
 -9.3120897453008791E-02 a       654     0    33     1    14
  1.6086425576879809E-02 a       655     0    33     1    15
 -2.3435040795671552E-01 a       656     0    33     1    16
 -1.0496361299123954E-02 a       657     0    33     1    17
 -1.9516884483373517E-01 a       658     0    33     1    18
 -2.3745699592901209E-02 a       659     0    33     1    19
  9.2703208078818169E-02 a       660     0    33     1    20
 -2.7580391799319162E-02 a       661     0    34     1     1
 -4.3447420833104745E-02 a       662     0    34     1     2
  4.0839796439894334E-02 a       663     0    34     1     3
  1.3366536764387626E-03 a       664     0    34     1     4
 -3.1843880916021153E-02 a       665     0    34     1     5
 -1.2944440067746333E-02 a       666     0    34     1     6
  1.3724510798115203E-02 a       667     0    34     1     7
 -7.9641432327224523E-02 a       668     0    34     1     8
  1.2225329598514553E-01 a       669     0    34     1     9
  1.0721173434761500E-02 a       670     0    34     1    10
 -1.9082666207963117E-01 a       671     0    34     1    11
  7.3087432151622667E-02 a       672     0    34     1    12
 -6.6453258341302959E-02 a       673     0    34     1    13
  7.4753838565631739E-02 a       674     0    34     1    14
  6.9884784386999715E-03 a       675     0    34     1    15
  3.2691288280362094E-02 a       676     0    34     1    16
 -4.1325763802551534E-02 a       677     0    34     1    17
  2.2921201552367942E-02 a       678     0    34     1    18
 -4.9754996099337936E-02 a       679     0    34     1    19
  1.1457157392648940E-02 a       680     0    34     1    20
 -8.7492141677517205E-03 a       681     0    35     1     1
  8.5692624745586865E-02 a       682     0    35     1     2
 -6.2164477619591214E-02 a       683     0    35     1     3
 -7.7839844701562008E-02 a       684     0    35     1     4
  7.4183271762892494E-02 a       685     0    35     1     5
 -5.7628163515465076E-02 a       686     0    35     1     6
  1.1518102124456217E-01 a       687     0    35     1     7
  7.5460071042019794E-02 a       688     0    35     1     8
 -3.4190635294519788E-02 a       689     0    35     1     9
  1.5123195648501933E-01 a       690     0    35     1    10
 -7.2654079138855771E-02 a       691     0    35     1    11
  7.4237072956566730E-02 a       692     0    35     1    12
  1.5053082385382283E-01 a       693     0    35     1    13
 -1.2899142462612822E-02 a       694     0    35     1    14
 -1.3932819448283718E-02 a       695     0    35     1    15
  1.1257583598923971E-02 a       696     0    35     1    16
 -8.7835289472490627E-02 a       697     0    35     1    17
  1.1227432792566701E-01 a       698     0    35     1    18
  8.4104660428119427E-02 a       699     0    35     1    19
 -8.5816806812066979E-02 a       700     0    35     1    20
  2.5376145763129607E-02 a       701     0    36     1     1
 -6.8471872088444324E-02 a       702     0    36     1     2
  2.1969158205112480E-01 a       703     0    36     1     3
  3.7005131522164454E-02 a       704     0    36     1     4
  1.8234769850899585E-02 a       705     0    36     1     5
  8.5147778262820301E-03 a       706     0    36     1     6
 -4.0988495869872049E-02 a       707     0    36     1     7
 -2.5064814172796247E-02 a       708     0    36     1     8
  6.4040555071765412E-02 a       709     0    36     1     9
 -1.1119512657504053E-01 a       710     0    36     1    10
 -1.5008911000079375E-01 a       711     0    36     1    11
 -7.8516426227375896E-02 a       712     0    36     1    12
 -9.8314812075968400E-02 a       713     0    36     1    13
 -1.7620013666243214E-02 a       714     0    36     1    14
 -1.4857628033971229E-01 a       715     0    36     1    15
  1.6531223587261590E-01 a       716     0    36     1    16
  1.0106141119885677E-01 a       717     0    36     1    17
 -1.1395799155363007E-02 a       718     0    36     1    18
  6.5297651622232264E-02 a       719     0    36     1    19
  4.6765648420733795E-02 a       720     0    36     1    20
  1.8002338790474343E-01 a       721     0    37     1     1
  9.7467625919978360E-02 a       722     0    37     1     2
  1.0969436980346019E-01 a       723     0    37     1     3
 -1.3190992634882306E-01 a       724     0    37     1     4
 -3.3544272080186549E-03 a       725     0    37     1     5
 -5.1244702253447329E-02 a       726     0    37     1     6
  3.7008938363674290E-02 a       727     0    37     1     7
  2.0881094601383571E-01 a       728     0    37     1     8
 -1.5581069265529590E-03 a       729     0    37     1     9
 -1.5108256381068366E-01 a       730     0    37     1    10
 -7.1469604403364931E-02 a       731     0    37     1    11
  7.9902068156947767E-02 a       732     0    37     1    12
 -2.3902675416253658E-02 a       733     0    37     1    13
  6.3924887702181007E-02 a       734     0    37     1    14
  6.1967427208615061E-02 a       735     0    37     1    15
 -4.4585894213242288E-03 a       736     0    37     1    16
  1.4776562746831708E-02 a       737     0    37     1    17
  1.2939703137286143E-01 a       738     0    37     1    18
 -1.1355070934060248E-01 a       739     0    37     1    19
 -6.5419355034886495E-02 a       740     0    37     1    20
 -2.0306046807259833E-02 a       741     0    38     1     1
  6.2583170808347882E-02 a       742     0    38     1     2
  1.9367690957597428E-02 a       743     0    38     1     3
 -5.9558758573924363E-02 a       744     0    38     1     4
  9.4573506773531671E-02 a       745     0    38     1     5
  2.7154451224535282E-02 a       746     0    38     1     6
  2.0807116006314307E-02 a       747     0    38     1     7
  7.3192180903683013E-02 a       748     0    38     1     8
 -1.5530824520409675E-01 a       749     0    38     1     9
  1.8038673063393487E-01 a       750     0    38     1    10
  2.4469965736424296E-01 a       751     0    38     1    11
 -1.3143011964546053E-01 a       752     0    38     1    12
 -3.2185500008280979E-02 a       753     0    38     1    13
 -1.3419347883635768E-01 a       754     0    38     1    14
  1.6457447677974139E-02 a       755     0    38     1    15
 -1.1240417657970063E-01 a       756     0    38     1    16
 -1.6562827591534025E-02 a       757     0    38     1    17
  2.1474048925836270E-01 a       758     0    38     1    18
 -4.1207294180922546E-02 a       759     0    38     1    19
  5.7050387379053116E-02 a       760     0    38     1    20
  3.4528723883860593E-02 a       761     0    39     1     1
  3.9737804616485892E-02 a       762     0    39     1     2
  1.4733561063894404E-01 a       763     0    39     1     3
  2.6273435424832910E-02 a       764     0    39     1     4
  9.8371645049095777E-02 a       765     0    39     1     5
 -3.3334568071071512E-02 a       766     0    39     1     6
 -7.4019937045420856E-02 a       767     0    39     1     7
  5.6343578845209540E-02 a       768     0    39     1     8
 -5.6593712371433576E-02 a       769     0    39     1     9
 -3.5743392537749441E-02 a       770     0    39     1    10
  1.9108880841010462E-01 a       771     0    39     1    11
 -1.1536067193418742E-02 a       772     0    39     1    12
 -1.0667921241084262E-01 a       773     0    39     1    13
 -5.3585963705258012E-02 a       774     0    39     1    14
 -9.1397860508035375E-02 a       775     0    39     1    15
  7.1943723583825975E-02 a       776     0    39     1    16
  3.4862402872765062E-02 a       777     0    39     1    17
 -5.8761493560057845E-02 a       778     0    39     1    18
  4.8432943251619516E-02 a       779     0    39     1    19
 -6.0754098024786117E-02 a       780     0    39     1    20
  4.7562668356123612E-02 a       781     0    40     1     1
 -4.2057829570914182E-03 a       782     0    40     1     2
  1.7254261283304331E-02 a       783     0    40     1     3
  6.5523942783542108E-02 a       784     0    40     1     4
 -1.3838257115939170E-01 a       785     0    40     1     5
 -6.1427818119508572E-03 a       786     0    40     1     6
 -2.8473807032493217E-02 a       787     0    40     1     7
  3.1505925801627949E-02 a       788     0    40     1     8
  6.0668359780861672E-02 a       789     0    40     1     9
  2.2484173555657679E-02 a       790     0    40     1    10
 -1.9929281569842309E-03 a       791     0    40     1    11
 -4.0162203725629571E-02 a       792     0    40     1    12
 -8.0751835632928121E-02 a       793     0    40     1    13
 -9.4698861019050645E-02 a       794     0    40     1    14
  4.0105043488541228E-02 a       795     0    40     1    15
 -1.5736911655218927E-01 a       796     0    40     1    16
  8.6958179264544182E-03 a       797     0    40     1    17
 -5.7782081152210882E-02 a       798     0    40     1    18
 -9.1919314481050923E-02 a       799     0    40     1    19
  1.1694682259026228E-01 a       800     0    40     1    20
 -1.2905590328122746E-01 a       801     0    41     1     1
  7.8939479076223923E-02 a       802     0    41     1     2
  8.5478708255970516E-03 a       803     0    41     1     3
  1.0097805316269251E-01 a       804     0    41     1     4
  2.1143776881114976E-02 a       805     0    41     1     5
 -3.1951123596324890E-02 a       806     0    41     1     6
 -6.4876032772944001E-02 a       807     0    41     1     7
  1.0841622110992219E-01 a       808     0    41     1     8
 -2.7280790615156329E-03 a       809     0    41     1     9
  2.6018456478853921E-02 a       810     0    41     1    10
  1.0792780844697651E-01 a       811     0    41     1    11
  1.0624989186632276E-01 a       812     0    41     1    12
 -1.6512275263427068E-01 a       813     0    41     1    13
  3.5070755195474708E-02 a       814     0    41     1    14
  2.5496638964014592E-02 a       815     0    41     1    15
 -9.0292442526500784E-03 a       816     0    41     1    16
 -2.6601782761321111E-02 a       817     0    41     1    17
  7.4312357777987045E-02 a       818     0    41     1    18
 -1.2653993743703865E-01 a       819     0    41     1    19
 -2.2120536864289247E-02 a       820     0    41     1    20
 -7.8440188473972203E-02 a       821     0    42     1     1
 -7.3492116803422491E-02 a       822     0    42     1     2
 -1.2066020072877419E-01 a       823     0    42     1     3
  1.1633975342040338E-01 a       824     0    42     1     4
 -1.1174819970532729E-01 a       825     0    42     1     5
  4.3348444674379434E-02 a       826     0    42     1     6
  1.2960442620921439E-01 a       827     0    42     1     7
  3.8149342753219920E-02 a       828     0    42     1     8
  1.2574175513916941E-01 a       829     0    42     1     9
  1.4369238395806555E-01 a       830     0    42     1    10
 -1.4139702556409908E-02 a       831     0    42     1    11
  5.0466254441487279E-02 a       832     0    42     1    12
 -1.0456281476658798E-01 a       833     0    42     1    13
 -2.5895096980181612E-02 a       834     0    42     1    14
  7.5760297319313913E-02 a       835     0    42     1    15
  9.7602532958218885E-02 a       836     0    42     1    16
 -1.6900785687591982E-01 a       837     0    42     1    17
 -2.0835369671188528E-02 a       838     0    42     1    18
  7.9595101831948123E-02 a       839     0    42     1    19
  1.1886039102843571E-01 a       840     0    42     1    20
  4.2146001899846880E-02 a       841     0    43     1     1
 -8.2563871747040815E-03 a       842     0    43     1     2
 -1.8955293830367018E-01 a       843     0    43     1     3
  6.4656626774555734E-02 a       844     0    43     1     4
 -1.4771263464329604E-01 a       845     0    43     1     5
  2.1773528072131905E-02 a       846     0    43     1     6
  9.3971846374450121E-02 a       847     0    43     1     7
 -8.9817000406839959E-02 a       848     0    43     1     8
  7.2826617203141625E-02 a       849     0    43     1     9
 -5.6298053673227988E-02 a       850     0    43     1    10
 -2.2843420565694694E-01 a       851     0    43     1    11
  4.1977408582055085E-02 a       852     0    43     1    12
 -3.6590445181171986E-02 a       853     0    43     1    13
  3.8809495663836048E-02 a       854     0    43     1    14
 -2.7017548326100236E-02 a       855     0    43     1    15
 -2.2948806006421470E-02 a       856     0    43     1    16
  7.4011522240049052E-03 a       857     0    43     1    17
  7.1485027015127873E-03 a       858     0    43     1    18
 -3.7644144536049348E-02 a       859     0    43     1    19
  1.9543290003730805E-02 a       860     0    43     1    20
 -2.3207405006748442E-02 a       861     0    44     1     1
 -3.0722227079324788E-02 a       862     0    44     1     2
 -2.6931796137687973E-02 a       863     0    44     1     3
 -1.7186831133942784E-02 a       864     0    44     1     4
 -1.7815032870806886E-02 a       865     0    44     1     5
 -4.0457450370229610E-02 a       866     0    44     1     6
  9.2610381976758166E-02 a       867     0    44     1     7
 -1.9198428582159193E-03 a       868     0    44     1     8
  6.3754448302133948E-02 a       869     0    44     1     9
  1.8527333096850528E-02 a       870     0    44     1    10
 -1.1531429494623344E-01 a       871     0    44     1    11
  6.7561996649056627E-02 a       872     0    44     1    12
  6.2552752266771009E-03 a       873     0    44     1    13
  3.5287670134057751E-02 a       874     0    44     1    14
  6.2147126680866659E-02 a       875     0    44     1    15
 -2.9801719090584902E-03 a       876     0    44     1    16
 -4.4543197196706776E-02 a       877     0    44     1    17
  6.6396335950891117E-02 a       878     0    44     1    18
 -6.0320039333279341E-02 a       879     0    44     1    19
  3.6921490231853281E-02 a       880     0    44     1    20
 -2.8735653393324179E-02 a       881     0    45     1     1
  7.9308772571997435E-03 a       882     0    45     1     2
  6.1188267501293596E-03 a       883     0    45     1     3
 -8.4607257757802742E-02 a       884     0    45     1     4
  1.2910404077773480E-01 a       885     0    45     1     5
  7.8872388717190683E-02 a       886     0    45     1     6
  1.0188688233443756E-01 a       887     0    45     1     7
  4.2968021618780688E-02 a       888     0    45     1     8
 -5.2870478185362280E-02 a       889     0    45     1     9
  9.5155492899413503E-03 a       890     0    45     1    10
  4.4177816301875096E-02 a       891     0    45     1    11
 -2.0092799736441680E-02 a       892     0    45     1    12
  4.4417218176240794E-02 a       893     0    45     1    13
  2.3801175158216812E-02 a       894     0    45     1    14
 -7.0337711971348721E-02 a       895     0    45     1    15
  1.0545154657750766E-01 a       896     0    45     1    16
 -3.9946152032250111E-02 a       897     0    45     1    17
  4.1121898602894447E-02 a       898     0    45     1    18
  7.2628459313750560E-02 a       899     0    45     1    19
 -5.3450992390985504E-02 a       900     0    45     1    20
  6.6705711281507776E-02 a       901     0    46     1     1
 -5.5396559538919574E-02 a       902     0    46     1     2
 -3.4208103392868998E-02 a       903     0    46     1     3
 -9.0540884166075575E-03 a       904     0    46     1     4
 -4.1704966080783272E-02 a       905     0    46     1     5
  7.8152699644752785E-02 a       906     0    46     1     6
 -6.4752466865733882E-02 a       907     0    46     1     7
 -4.4651313833583027E-02 a       908     0    46     1     8
 -3.5695771834558473E-03 a       909     0    46     1     9
  1.9346183403510304E-02 a       910     0    46     1    10
 -2.1124635064129446E-01 a       911     0    46     1    11
 -1.1590366370580123E-01 a       912     0    46     1    12
  2.2485931672792888E-02 a       913     0    46     1    13
 -1.2553628453398549E-02 a       914     0    46     1    14
 -5.6631695873578143E-02 a       915     0    46     1    15
  8.5494566090527510E-02 a       916     0    46     1    16
  2.5008507654340362E-02 a       917     0    46     1    17
  8.1342970025259767E-02 a       918     0    46     1    18
  7.4012694725750103E-02 a       919     0    46     1    19
  7.1803906669470853E-04 a       920     0    46     1    20
 -1.5094696818249601E-02 a       921     0    47     1     1
  1.5296784024205935E-02 a       922     0    47     1     2
  3.0656230588719174E-02 a       923     0    47     1     3
  3.4795230797187628E-03 a       924     0    47     1     4
  4.4261838703373711E-02 a       925     0    47     1     5
 -4.0062228612840756E-03 a       926     0    47     1     6
 -6.8605184742852196E-02 a       927     0    47     1     7
  3.0715358024946918E-02 a       928     0    47     1     8
 -5.7428472244268162E-02 a       929     0    47     1     9
  5.3746197786220190E-03 a       930     0    47     1    10
  7.1627767323481889E-02 a       931     0    47     1    11
 -4.3585795495969408E-02 a       932     0    47     1    12
 -6.7299582908408970E-02 a       933     0    47     1    13
  2.5119810024167508E-03 a       934     0    47     1    14
 -6.1619086352022255E-02 a       935     0    47     1    15
 -7.9094590399376285E-03 a       936     0    47     1    16
  6.3635023458548712E-02 a       937     0    47     1    17
  6.9173003083430593E-02 a       938     0    47     1    18
 -3.2484051560719721E-02 a       939     0    47     1    19
 -1.1968350009348412E-02 a       940     0    47     1    20
  2.6392344973178761E-02 a       941     0    48     1     1
  2.3474337886877136E-02 a       942     0    48     1     2
 -5.5784963243600397E-02 a       943     0    48     1     3
 -1.2153005314657905E-01 a       944     0    48     1     4
  9.4929983723955724E-02 a       945     0    48     1     5
  4.7609220100878570E-02 a       946     0    48     1     6
  1.3815603045748900E-01 a       947     0    48     1     7
  5.3400898895644484E-02 a       948     0    48     1     8
 -8.6920282738873658E-02 a       949     0    48     1     9
  1.1071186620356847E-01 a       950     0    48     1    10
 -1.5001453457129109E-02 a       951     0    48     1    11
 -6.8908572009409363E-02 a       952     0    48     1    12
  1.6630691544166931E-01 a       953     0    48     1    13
 -8.8537221026075752E-02 a       954     0    48     1    14
 -2.6609563477935942E-03 a       955     0    48     1    15
 -5.8744619147361017E-02 a       956     0    48     1    16
  2.2933798252435529E-02 a       957     0    48     1    17
  9.7450625095526683E-02 a       958     0    48     1    18
  6.2899690458675800E-02 a       959     0    48     1    19
 -1.1233516033232159E-02 a       960     0    48     1    20
  3.9207782409538594E-02 a       961     0    49     1     1
 -9.8155569185711614E-03 a       962     0    49     1     2
  1.1990924518981598E-01 a       963     0    49     1     3
  1.8264490015642093E-02 a       964     0    49     1     4
  4.0420402108788583E-02 a       965     0    49     1     5
 -4.1353642561416708E-02 a       966     0    49     1     6
  4.3678239466864673E-02 a       967     0    49     1     7
  2.5073780312531310E-02 a       968     0    49     1     8
  3.4286595144395492E-02 a       969     0    49     1     9
 -4.9150997790744826E-02 a       970     0    49     1    10
  9.0251303659312276E-02 a       971     0    49     1    11
  5.2644738821330160E-02 a       972     0    49     1    12
 -1.5162662490433121E-01 a       973     0    49     1    13
 -9.9972492363466850E-03 a       974     0    49     1    14
 -3.3741220274194558E-02 a       975     0    49     1    15
  6.3137408701562786E-02 a       976     0    49     1    16
 -4.9259194191122187E-02 a       977     0    49     1    17
 -1.4983819332103337E-01 a       978     0    49     1    18
  2.7552874530279884E-02 a       979     0    49     1    19
 -5.0006311872944718E-03 a       980     0    49     1    20
  7.9109774439122121E-02 a       981     0    50     1     1
  1.4503205016292297E-02 a       982     0    50     1     2
 -7.8675391780363840E-02 a       983     0    50     1     3
  6.5009005286848214E-04 a       984     0    50     1     4
 -6.8708050306613075E-02 a       985     0    50     1     5
 -3.4110034148164205E-03 a       986     0    50     1     6
  1.2796583271032100E-01 a       987     0    50     1     7
 -5.5190952548823599E-02 a       988     0    50     1     8
  6.9374554948450309E-02 a       989     0    50     1     9
  3.6492008369946594E-02 a       990     0    50     1    10
 -1.4028712119646730E-01 a       991     0    50     1    11
  6.4128436772215289E-02 a       992     0    50     1    12
  9.2758255038877219E-02 a       993     0    50     1    13
  2.1800427370183085E-03 a       994     0    50     1    14
  5.8825212600396373E-02 a       995     0    50     1    15
 -7.2190900550052076E-02 a       996     0    50     1    16
 -4.5281949044903083E-02 a       997     0    50     1    17
  4.9702838340588459E-02 a       998     0    50     1    18
  2.7766317856087416E-03 a       999     0    50     1    19
  1.8719404740474802E-02 a      1000     0    50     1    20
  2.4752569576897909E-01 a      1001     0    51     1     1
  9.9743773776268890E-02 a      1002     0    51     1     2
 -1.8861358250068316E-01 a      1003     0    51     1     3
  8.1811895817019503E-02 a      1004     0    51     1     4
 -2.4399894171176062E-01 a      1005     0    51     1     5
  7.8898319036598136E-02 a      1006     0    51     1     6
 -1.4123645357118825E-01 a      1007     0    51     1     7
  9.9551465939727649E-02 a      1008     0    51     1     8
 -3.1680494908022677E-01 a      1009     0    51     1     9
 -1.7011607566160764E-01 a      1010     0    51     1    10
 -2.9737763251018429E-01 a      1011     0    51     1    11
  6.4455936301576353E-02 a      1012     0    51     1    12
 -1.6947715652494985E-01 a      1013     0    51     1    13
  4.1964160766389125E-01 a      1014     0    51     1    14
  3.5325157785462535E-01 a      1015     0    51     1    15
  1.2873719319577598E-01 a      1016     0    51     1    16
 -1.3854975196753391E-01 a      1017     0    51     1    17
  8.5828318268773331E-03 a      1018     0    51     1    18
  1.3503020153607020E-01 a      1019     0    51     1    19
  2.9302170235912608E-02 a      1020     0    51     1    20
 -1.4385801743036644E-01 a      1021     0    52     1     1
 -6.4431118561419781E-03 a      1022     0    52     1     2
  6.5240903487011989E-02 a      1023     0    52     1     3
 -2.1021283123087012E-01 a      1024     0    52     1     4
 -8.9171252308356555E-02 a      1025     0    52     1     5
  1.1830865829229552E-01 a      1026     0    52     1     6
 -1.5017273494893060E-01 a      1027     0    52     1     7
  1.2734649367828085E-01 a      1028     0    52     1     8
  2.7092877940112999E-02 a      1029     0    52     1     9
 -3.9217782322972322E-02 a      1030     0    52     1    10
  1.5173034511467348E-01 a      1031     0    52     1    11
  1.7269291065317094E-01 a      1032     0    52     1    12
 -1.9160885677434786E-01 a      1033     0    52     1    13
 -8.9175277956859617E-02 a      1034     0    52     1    14
  3.9383969646160283E-01 a      1035     0    52     1    15
 -1.0270193123331134E-01 a      1036     0    52     1    16
  7.5315502349685232E-02 a      1037     0    52     1    17
  1.0685398533391975E-01 a      1038     0    52     1    18
 -4.8423119984309837E-01 a      1039     0    52     1    19
 -1.5131196984162687E-01 a      1040     0    52     1    20
  1.2794938264950539E-01 a      1041     0    53     1     1
 -2.4674361793055771E-01 a      1042     0    53     1     2
 -2.5343731990452262E-01 a      1043     0    53     1     3
 -3.4023249925613125E-01 a      1044     0    53     1     4
  2.7375953756933019E-01 a      1045     0    53     1     5
  8.2715333111969713E-02 a      1046     0    53     1     6
  1.5187505869959791E-01 a      1047     0    53     1     7
 -2.7848579555621750E-01 a      1048     0    53     1     8
  5.2232962253797688E-01 a      1049     0    53     1     9
  7.8700541485415088E-01 a      1050     0    53     1    10
  3.2326818225562792E-01 a      1051     0    53     1    11
  1.9281185684492927E-01 a      1052     0    53     1    12
  2.2139169562175354E-01 a      1053     0    53     1    13
 -5.7118380896813203E-01 a      1054     0    53     1    14
 -1.1228249049196408E-01 a      1055     0    53     1    15
 -2.1579463780098659E-01 a      1056     0    53     1    16
 -4.7352086811416461E-01 a      1057     0    53     1    17
 -8.5421681913085981E-02 a      1058     0    53     1    18
 -2.3153361967165473E-01 a      1059     0    53     1    19
  2.0849337938948734E-02 a      1060     0    53     1    20
 -3.5822079724664085E-02 a      1061     0    54     1     1
 -3.3624271012611832E-02 a      1062     0    54     1     2
  2.6126175908625846E-02 a      1063     0    54     1     3
  9.2890379684773428E-02 a      1064     0    54     1     4
  9.8219636922157974E-02 a      1065     0    54     1     5
  1.8786485166417755E-01 a      1066     0    54     1     6
  9.3899067376260498E-02 a      1067     0    54     1     7
  1.5242000946984791E-01 a      1068     0    54     1     8
  1.8222283406659645E-01 a      1069     0    54     1     9
  8.6770903354501910E-02 a      1070     0    54     1    10
  2.8943669767246247E-02 a      1071     0    54     1    11
 -1.4922899880246673E-01 a      1072     0    54     1    12
  1.4000573749485587E-01 a      1073     0    54     1    13
  1.4271540090468904E-01 a      1074     0    54     1    14
 -2.1730451720977478E-01 a      1075     0    54     1    15
 -8.8337332559946219E-02 a      1076     0    54     1    16
  6.0318413298407765E-02 a      1077     0    54     1    17
 -6.0899657345161194E-02 a      1078     0    54     1    18
 -9.5434225613680423E-02 a      1079     0    54     1    19
  1.4724216882277677E-01 a      1080     0    54     1    20
 -1.1530910935829219E-01 a      1081     0    55     1     1
 -1.9680227012694201E-02 a      1082     0    55     1     2
  4.0537015830746308E-02 a      1083     0    55     1     3
  1.2673258412109895E-01 a      1084     0    55     1     4
 -1.5802726906475859E-01 a      1085     0    55     1     5
 -2.3639336134729564E-03 a      1086     0    55     1     6
  2.9135504493686175E-02 a      1087     0    55     1     7
  7.3155752215695938E-02 a      1088     0    55     1     8
 -3.3506435948533302E-02 a      1089     0    55     1     9
  1.1776680354548942E-01 a      1090     0    55     1    10
 -8.0066873073379438E-02 a      1091     0    55     1    11
 -8.4734732375801772E-02 a      1092     0    55     1    12
 -2.7870037399100356E-01 a      1093     0    55     1    13
 -1.8508245572345147E-01 a      1094     0    55     1    14
 -3.9875346248703494E-02 a      1095     0    55     1    15
 -1.6389377296651042E-01 a      1096     0    55     1    16
 -7.7162071153253284E-02 a      1097     0    55     1    17
 -7.8710667902018236E-02 a      1098     0    55     1    18
 -5.4712796274048417E-02 a      1099     0    55     1    19
  9.1484076892307059E-02 a      1100     0    55     1    20
  6.4312744021786467E-02 a      1101     0    56     1     1
 -8.4097384505743500E-02 a      1102     0    56     1     2
  6.8526550756633928E-02 a      1103     0    56     1     3
  1.4781791963206467E-01 a      1104     0    56     1     4
  2.3655089508557464E-02 a      1105     0    56     1     5
  3.4155209028503018E-02 a      1106     0    56     1     6
  1.3152181459325632E-01 a      1107     0    56     1     7
  1.1429726353452716E-02 a      1108     0    56     1     8
 -1.2563103467435414E-02 a      1109     0    56     1     9
  1.1643250125769510E-01 a      1110     0    56     1    10
 -1.9455772510013797E-01 a      1111     0    56     1    11
  5.8242427216173412E-02 a      1112     0    56     1    12
  1.1083305374532525E-01 a      1113     0    56     1    13
  1.3484501335836946E-01 a      1114     0    56     1    14
 -1.6674609256187670E-01 a      1115     0    56     1    15
  1.4445474939356384E-01 a      1116     0    56     1    16
  4.5862357621431822E-02 a      1117     0    56     1    17
 -4.8188453408263790E-02 a      1118     0    56     1    18
  7.2426100479191929E-02 a      1119     0    56     1    19
 -1.6345161617792862E-02 a      1120     0    56     1    20
  2.7327263488820589E-02 a      1121     0    57     1     1
  2.8280861537199981E-01 a      1122     0    57     1     2
  1.9412205677990899E-01 a      1123     0    57     1     3
  1.7683615477837425E-01 a      1124     0    57     1     4
 -3.4501822213628447E-01 a      1125     0    57     1     5
 -4.4085966001490152E-02 a      1126     0    57     1     6
  1.0535954885140321E-01 a      1127     0    57     1     7
 -1.3408222746503337E-01 a      1128     0    57     1     8
 -7.4835548926383680E-02 a      1129     0    57     1     9
 -1.4694306744325042E-01 a      1130     0    57     1    10
 -2.4627553932330656E-01 a      1131     0    57     1    11
 -2.6487155932051071E-01 a      1132     0    57     1    12
  1.6799398048592176E-02 a      1133     0    57     1    13
  3.0782452354274009E-01 a      1134     0    57     1    14
 -2.2681000446744326E-01 a      1135     0    57     1    15
  1.5169424946762330E-01 a      1136     0    57     1    16
  1.2156786319361104E-01 a      1137     0    57     1    17
  2.8364315719420552E-01 a      1138     0    57     1    18
  1.9118034842619477E-01 a      1139     0    57     1    19
  1.7415422704144798E-02 a      1140     0    57     1    20
  2.1246658779867275E-01 a      1141     0    58     1     1
 -1.1866419836668447E-01 a      1142     0    58     1     2
  8.4152389058391910E-02 a      1143     0    58     1     3
 -4.3407494996732944E-02 a      1144     0    58     1     4
 -3.3607706724591124E-02 a      1145     0    58     1     5
 -2.0277722441585569E-01 a      1146     0    58     1     6
  8.0603600411053744E-02 a      1147     0    58     1     7
 -1.2544508343906240E-02 a      1148     0    58     1     8
  8.1530217725931775E-02 a      1149     0    58     1     9
  1.2111908220472135E-01 a      1150     0    58     1    10
  6.2918248417817596E-02 a      1151     0    58     1    11
  1.3919583947121503E-01 a      1152     0    58     1    12
 -1.3244111214634019E-01 a      1153     0    58     1    13
  7.4855341294133380E-04 a      1154     0    58     1    14
 -2.2424139740173901E-02 a      1155     0    58     1    15
 -8.3304790317033806E-02 a      1156     0    58     1    16
  3.1225764261047586E-02 a      1157     0    58     1    17
  1.1609746028781820E-01 a      1158     0    58     1    18
  3.2271164117128270E-02 a      1159     0    58     1    19
  2.5284169422470665E-02 a      1160     0    58     1    20
  1.2510435608726556E-01 a      1161     0    59     1     1
  9.3019108265370770E-02 a      1162     0    59     1     2
  1.1411387657607029E-01 a      1163     0    59     1     3
 -2.0368725768606419E-02 a      1164     0    59     1     4
 -1.6459634389798659E-02 a      1165     0    59     1     5
 -2.4097134650327614E-02 a      1166     0    59     1     6
 -1.2145136699401103E-01 a      1167     0    59     1     7
  1.9528576868765302E-01 a      1168     0    59     1     8
 -8.0790058075230937E-03 a      1169     0    59     1     9
  9.8113668821777453E-02 a      1170     0    59     1    10
 -3.5233992444190988E-02 a      1171     0    59     1    11
  2.1374964928598419E-01 a      1172     0    59     1    12
 -6.4440730798848683E-02 a      1173     0    59     1    13
  3.2047469756651568E-03 a      1174     0    59     1    14
 -7.8426112739629045E-02 a      1175     0    59     1    15
 -3.8247197082337585E-02 a      1176     0    59     1    16
 -6.3592386327078018E-02 a      1177     0    59     1    17
  1.6124464713982462E-01 a      1178     0    59     1    18
 -9.8726045996238049E-02 a      1179     0    59     1    19
 -8.8068451776720888E-02 a      1180     0    59     1    20
  1.8376531106946616E-02 a      1181     0    60     1     1
  1.5197493950645558E-01 a      1182     0    60     1     2
  3.5438654829652577E-01 a      1183     0    60     1     3
 -5.7545037365947176E-02 a      1184     0    60     1     4
 -1.9249479008828363E-01 a      1185     0    60     1     5
 -4.2229283973378862E-01 a      1186     0    60     1     6
 -9.0071110317918882E-02 a      1187     0    60     1     7
  1.5426910283299347E-01 a      1188     0    60     1     8
 -2.2145328523729491E-01 a      1189     0    60     1     9
  1.1785314457487023E-01 a      1190     0    60     1    10
 -1.0280183724696622E-01 a      1191     0    60     1    11
 -3.2927456507876091E-01 a      1192     0    60     1    12
  1.2047849909230168E-01 a      1193     0    60     1    13
  2.2449001785354886E-01 a      1194     0    60     1    14
  3.9583919965951830E-01 a      1195     0    60     1    15
  1.6010989376839241E-01 a      1196     0    60     1    16
  1.0530770192457409E-01 a      1197     0    60     1    17
  1.8273686945377038E-01 a      1198     0    60     1    18
  9.3219528669048399E-04 a      1199     0    60     1    19
 -1.0831810089130073E-01 a      1200     0    60     1    20
  4.9280457857540441E-02 a      1201     0    61     1     1
  6.9497274057625291E-02 a      1202     0    61     1     2
  2.9720425747317938E-02 a      1203     0    61     1     3
 -1.6373871402710991E-01 a      1204     0    61     1     4
 -1.4272996783019944E-02 a      1205     0    61     1     5
 -1.4046536223017721E-02 a      1206     0    61     1     6
  1.3032656722926167E-01 a      1207     0    61     1     7
  1.4136365566691889E-02 a      1208     0    61     1     8
 -1.0167441172236080E-01 a      1209     0    61     1     9
 -1.3044053267054437E-01 a      1210     0    61     1    10
  2.1612357813608210E-01 a      1211     0    61     1    11
  3.3290242316931576E-02 a      1212     0    61     1    12
 -1.5104768427136064E-01 a      1213     0    61     1    13
 -8.5500640866235711E-02 a      1214     0    61     1    14
  8.1575699312798539E-02 a      1215     0    61     1    15
  1.1978885695873313E-01 a      1216     0    61     1    16
  2.5057310376548216E-02 a      1217     0    61     1    17
 -5.4822974387107030E-02 a      1218     0    61     1    18
 -6.1233309108706530E-02 a      1219     0    61     1    19
  1.0691836629282142E-01 a      1220     0    61     1    20
  1.2511290072604095E-01 a      1221     0    62     1     1
  8.9813666211794124E-02 a      1222     0    62     1     2
  7.4436198151621405E-02 a      1223     0    62     1     3
 -6.4575890404426475E-02 a      1224     0    62     1     4
 -1.8577436272624506E-03 a      1225     0    62     1     5
  3.8450961004568282E-02 a      1226     0    62     1     6
 -4.4450616950677382E-02 a      1227     0    62     1     7
 -3.4352004911229382E-02 a      1228     0    62     1     8
  7.9885643220423477E-04 a      1229     0    62     1     9
  2.5837163667796287E-02 a      1230     0    62     1    10
  2.8359730948400957E-01 a      1231     0    62     1    11
 -8.7814678137305632E-03 a      1232     0    62     1    12
  1.3750328138419091E-01 a      1233     0    62     1    13
  7.5366422001824473E-02 a      1234     0    62     1    14
  1.1338793527817295E-01 a      1235     0    62     1    15
  9.3581859260333577E-02 a      1236     0    62     1    16
 -1.0956930527094896E-01 a      1237     0    62     1    17
  1.3019811208195139E-01 a      1238     0    62     1    18
  1.3206233151859950E-01 a      1239     0    62     1    19
  5.3515324149956717E-02 a      1240     0    62     1    20
  9.4178220042397495E-02 a      1241     0    63     1     1
  3.3032916568923522E-02 a      1242     0    63     1     2
 -7.7688324892131122E-02 a      1243     0    63     1     3
 -7.4586189571770193E-03 a      1244     0    63     1     4
 -3.3413163682238067E-02 a      1245     0    63     1     5
 -1.1646464710969105E-01 a      1246     0    63     1     6
  3.3957833315625088E-02 a      1247     0    63     1     7
 -9.5453926516353982E-02 a      1248     0    63     1     8
 -1.6448978688275523E-02 a      1249     0    63     1     9
 -5.2661866562773565E-02 a      1250     0    63     1    10
 -9.5183251738341045E-03 a      1251     0    63     1    11
  5.2352703997496555E-03 a      1252     0    63     1    12
  1.2241665427772314E-01 a      1253     0    63     1    13
  4.1024075082674326E-02 a      1254     0    63     1    14
  2.6914116186075039E-02 a      1255     0    63     1    15
  2.2256646380705701E-02 a      1256     0    63     1    16
 -4.1525526340364514E-02 a      1257     0    63     1    17
  1.2100361262134215E-01 a      1258     0    63     1    18
  2.6716417612751509E-02 a      1259     0    63     1    19
  2.5743091645278479E-02 a      1260     0    63     1    20
 -1.1928247035309797E-01 a      1261     0    64     1     1
 -7.0278195897112955E-02 a      1262     0    64     1     2
  5.4365433796855780E-02 a      1263     0    64     1     3
 -3.5174698490165808E-02 a      1264     0    64     1     4
 -8.4964346412169892E-02 a      1265     0    64     1     5
  4.7218842589004523E-02 a      1266     0    64     1     6
 -1.5208746189917113E-01 a      1267     0    64     1     7
 -2.4478067571389549E-02 a      1268     0    64     1     8
  2.5942884424683323E-02 a      1269     0    64     1     9
  5.8195424991317482E-02 a      1270     0    64     1    10
  1.4065294130737505E-01 a      1271     0    64     1    11
 -8.7702599321940092E-02 a      1272     0    64     1    12
  6.3043162157272126E-02 a      1273     0    64     1    13
 -1.2435213723139817E-01 a      1274     0    64     1    14
  6.0263349225788812E-02 a      1275     0    64     1    15
  4.4412292133522734E-02 a      1276     0    64     1    16
 -5.4206106201461532E-02 a      1277     0    64     1    17
 -1.1827482359733109E-01 a      1278     0    64     1    18
  1.6536456615847933E-02 a      1279     0    64     1    19
  7.0321722936763559E-02 a      1280     0    64     1    20
  2.8080250659816567E-02 a      1281     0    65     1     1
  6.0427847678036418E-02 a      1282     0    65     1     2
  1.7880491746629290E-01 a      1283     0    65     1     3
  3.2056523958236653E-02 a      1284     0    65     1     4
 -7.1550602494806215E-02 a      1285     0    65     1     5
 -1.9327027425176679E-02 a      1286     0    65     1     6
  1.1889101743210248E-01 a      1287     0    65     1     7
 -7.6716719153392551E-02 a      1288     0    65     1     8
  1.0725090651211213E-02 a      1289     0    65     1     9
 -2.0769616749648470E-01 a      1290     0    65     1    10
 -1.2939035293183074E-01 a      1291     0    65     1    11
  2.5308669109400841E-02 a      1292     0    65     1    12
  8.7584052181150507E-02 a      1293     0    65     1    13
  1.2683414356422767E-01 a      1294     0    65     1    14
  8.9664033949390515E-02 a      1295     0    65     1    15
 -2.7466127366522153E-02 a      1296     0    65     1    16
 -8.5603339344902038E-02 a      1297     0    65     1    17
  6.3576035252127421E-03 a      1298     0    65     1    18
 -9.8071603751693770E-02 a      1299     0    65     1    19
 -2.1267224154676856E-02 a      1300     0    65     1    20
 -3.6384614425969614E-01 a      1301     0    66     1     1
  1.0903544361444925E-01 a      1302     0    66     1     2
 -2.4363348278522437E-01 a      1303     0    66     1     3
 -8.8379168586984996E-02 a      1304     0    66     1     4
  2.6594403269555639E-01 a      1305     0    66     1     5
 -1.9420517927139885E-01 a      1306     0    66     1     6
  8.6101434948256048E-02 a      1307     0    66     1     7
 -2.4224370015489957E-01 a      1308     0    66     1     8
 -2.5431611559002681E-02 a      1309     0    66     1     9
 -1.8869857497912104E-01 a      1310     0    66     1    10
  1.2787393015043630E-01 a      1311     0    66     1    11
  2.1293263836534906E-01 a      1312     0    66     1    12
 -1.4643268571797369E-01 a      1313     0    66     1    13
 -1.4600372848042812E-02 a      1314     0    66     1    14
 -4.0230551034878947E-01 a      1315     0    66     1    15
  4.5405895668644794E-02 a      1316     0    66     1    16
  6.0633706324676594E-02 a      1317     0    66     1    17
  6.2892347281946856E-02 a      1318     0    66     1    18
  9.7250404587478884E-02 a      1319     0    66     1    19
  4.8131715454677515E-01 a      1320     0    66     1    20
 -9.6673079266374223E-02 a      1321     0    67     1     1
  1.9937485304704631E-02 a      1322     0    67     1     2
 -1.0706387292296360E-01 a      1323     0    67     1     3
 -5.2739769316382645E-03 a      1324     0    67     1     4
 -2.7316098250039789E-01 a      1325     0    67     1     5
 -6.7342385880835354E-02 a      1326     0    67     1     6
 -2.6978920320325256E-01 a      1327     0    67     1     7
 -8.8842055951034154E-03 a      1328     0    67     1     8
  6.6049761662971190E-02 a      1329     0    67     1     9
 -3.8461450082079532E-02 a      1330     0    67     1    10
 -4.4403972616611269E-02 a      1331     0    67     1    11
  1.2311293521856144E-01 a      1332     0    67     1    12
 -6.6522829985370832E-02 a      1333     0    67     1    13
  1.7181824128862949E-01 a      1334     0    67     1    14
 -2.0077853470464002E-01 a      1335     0    67     1    15
 -9.2869149856869671E-02 a      1336     0    67     1    16
  1.0035531864485232E-01 a      1337     0    67     1    17
  7.8186023183555137E-02 a      1338     0    67     1    18
  9.0073536451714849E-03 a      1339     0    67     1    19
 -7.5885894686981162E-02 a      1340     0    67     1    20
  1.6987634709579192E-02 a      1341     0    68     1     1
  4.0184914557546580E-01 a      1342     0    68     1     2
  1.7520465513179267E-01 a      1343     0    68     1     3
 -2.1973871814641981E-03 a      1344     0    68     1     4
  1.8491735670250056E-02 a      1345     0    68     1     5
 -1.4081241015953283E-01 a      1346     0    68     1     6
  2.5478764570166396E-01 a      1347     0    68     1     7
  1.9634119066820760E-01 a      1348     0    68     1     8
 -3.8261598658060969E-01 a      1349     0    68     1     9
 -9.5423500422146784E-02 a      1350     0    68     1    10
  8.8266207552091885E-02 a      1351     0    68     1    11
 -6.2446426085841211E-01 a      1352     0    68     1    12
 -2.3241970614980387E-01 a      1353     0    68     1    13
  3.4868974593035895E-01 a      1354     0    68     1    14
  2.4788008259165478E-01 a      1355     0    68     1    15
  3.2420168710074818E-02 a      1356     0    68     1    16
 -9.1611233726918109E-02 a      1357     0    68     1    17
  1.8745614158145872E-02 a      1358     0    68     1    18
  2.0482958793896044E-01 a      1359     0    68     1    19
 -3.6576814892033083E-01 a      1360     0    68     1    20
 -2.4919815480495135E-02 a      1361     0    69     1     1
 -1.7757712984791757E-02 a      1362     0    69     1     2
 -8.1646666581085103E-02 a      1363     0    69     1     3
 -1.2836158584699631E-01 a      1364     0    69     1     4
 -1.8415939544559341E-02 a      1365     0    69     1     5
 -1.0651513665184863E-01 a      1366     0    69     1     6
  1.3858278978628205E-01 a      1367     0    69     1     7
 -2.7940702827058006E-01 a      1368     0    69     1     8
 -7.6903995554778323E-02 a      1369     0    69     1     9
 -1.7868285151073857E-01 a      1370     0    69     1    10
 -1.9389538337199388E-01 a      1371     0    69     1    11
  1.5315021591790748E-01 a      1372     0    69     1    12
  4.4674112148612485E-02 a      1373     0    69     1    13
 -1.4844031213282544E-01 a      1374     0    69     1    14
  1.2826295137053334E-01 a      1375     0    69     1    15
  2.9315175381849381E-02 a      1376     0    69     1    16
  1.0650608899175935E-01 a      1377     0    69     1    17
 -9.5075701869403201E-02 a      1378     0    69     1    18
  1.5339032547003464E-01 a      1379     0    69     1    19
 -6.3597695205686547E-02 a      1380     0    69     1    20
 -8.6044251027261945E-02 a      1381     0    70     1     1
 -1.0082492476002299E-01 a      1382     0    70     1     2
  1.0299303485901523E-01 a      1383     0    70     1     3
  1.1229787914185527E-02 a      1384     0    70     1     4
  3.1240430618795247E-02 a      1385     0    70     1     5
 -3.1169461683565242E-03 a      1386     0    70     1     6
  4.9139627244640910E-02 a      1387     0    70     1     7
 -1.8783134418105321E-01 a      1388     0    70     1     8
  2.4085563527674998E-02 a      1389     0    70     1     9
 -8.2733816022651757E-02 a      1390     0    70     1    10
 -2.5497207678008469E-03 a      1391     0    70     1    11
 -1.3798854806598065E-01 a      1392     0    70     1    12
 -6.8052562445736209E-02 a      1393     0    70     1    13
 -8.5622051941342467E-02 a      1394     0    70     1    14
 -7.3815147756748245E-02 a      1395     0    70     1    15
  2.1594068271292205E-01 a      1396     0    70     1    16
  1.9025359719051692E-02 a      1397     0    70     1    17
 -2.8559418894771299E-01 a      1398     0    70     1    18
  7.1893040003016009E-02 a      1399     0    70     1    19
 -2.1462249008793391E-01 a      1400     0    70     1    20
 -1.0194880592207790E-02 a      1401     0    71     1     1
  1.0555828144053948E-01 a      1402     0    71     1     2
 -1.4378514277283455E-01 a      1403     0    71     1     3
  1.0206812972685710E-01 a      1404     0    71     1     4
  6.0095517631309055E-02 a      1405     0    71     1     5
 -4.9174006123667933E-03 a      1406     0    71     1     6
 -2.9025118698896644E-02 a      1407     0    71     1     7
  8.9976989450248360E-02 a      1408     0    71     1     8
 -1.1832243825676059E-01 a      1409     0    71     1     9
  1.2831736424676893E-01 a      1410     0    71     1    10
 -3.8382731648207925E-03 a      1411     0    71     1    11
 -5.3705106026513280E-02 a      1412     0    71     1    12
  1.0159405285500354E-01 a      1413     0    71     1    13
 -7.9271960317876020E-02 a      1414     0    71     1    14
  1.1744285526129611E-01 a      1415     0    71     1    15
 -1.0554171233849194E-01 a      1416     0    71     1    16
  1.2478743301667912E-01 a      1417     0    71     1    17
  2.8181037092251082E-01 a      1418     0    71     1    18
  6.7383055443380607E-02 a      1419     0    71     1    19
 -1.2434561139139730E-01 a      1420     0    71     1    20
  2.9015095875471814E-02 a      1421     0    72     1     1
  6.8672168732549551E-04 a      1422     0    72     1     2
 -1.4055676682828040E-02 a      1423     0    72     1     3
  3.1557573749806511E-01 a      1424     0    72     1     4
  1.6478040559196555E-01 a      1425     0    72     1     5
 -2.0659489807423556E-01 a      1426     0    72     1     6
 -2.3727414204235416E-02 a      1427     0    72     1     7
 -9.2017279190018494E-02 a      1428     0    72     1     8
  7.5133690536399914E-02 a      1429     0    72     1     9
 -1.7737762272989641E-01 a      1430     0    72     1    10
  5.7108950209144069E-02 a      1431     0    72     1    11
  9.5505542650719158E-02 a      1432     0    72     1    12
 -3.2860317135590553E-02 a      1433     0    72     1    13
 -1.4472134893220337E-01 a      1434     0    72     1    14
  1.6735206422872125E-02 a      1435     0    72     1    15
 -1.0942888602494803E-01 a      1436     0    72     1    16
  1.6004184823163226E-01 a      1437     0    72     1    17
 -1.1178373943194049E-01 a      1438     0    72     1    18
  5.5454510005378793E-02 a      1439     0    72     1    19
 -1.9984081878126676E-02 a      1440     0    72     1    20
 -1.0395477240829888E-01 a      1441     0    73     1     1
  3.6936294939082917E-02 a      1442     0    73     1     2
 -2.7077334087101407E-01 a      1443     0    73     1     3
 -1.4723173928518176E-02 a      1444     0    73     1     4
 -1.6503615713035883E-02 a      1445     0    73     1     5
 -1.6209929969956990E-01 a      1446     0    73     1     6
  1.3141498380186134E-01 a      1447     0    73     1     7
 -8.1154991214126199E-02 a      1448     0    73     1     8
 -8.5621705472609777E-02 a      1449     0    73     1     9
 -7.2956695286565384E-02 a      1450     0    73     1    10
 -6.6615959794405086E-02 a      1451     0    73     1    11
 -8.7325565236790831E-02 a      1452     0    73     1    12
  2.1659571253895554E-01 a      1453     0    73     1    13
  8.4491370839277311E-02 a      1454     0    73     1    14
  7.4161079882359093E-02 a      1455     0    73     1    15
  1.8345558385477342E-01 a      1456     0    73     1    16
  1.3785415830344860E-01 a      1457     0    73     1    17
 -2.3789850691615811E-02 a      1458     0    73     1    18
 -8.6656289897693931E-02 a      1459     0    73     1    19
 -1.2062545534836111E-01 a      1460     0    73     1    20
 -1.1463324614003870E-01 a      1461     0    74     1     1
 -1.1952773866959178E-02 a      1462     0    74     1     2
 -1.8450553146508855E-01 a      1463     0    74     1     3
 -8.3366844874794441E-02 a      1464     0    74     1     4
  4.8285953277449854E-02 a      1465     0    74     1     5
 -9.3620728988352900E-02 a      1466     0    74     1     6
 -7.7381751310762539E-02 a      1467     0    74     1     7
 -4.5260489709593794E-02 a      1468     0    74     1     8
 -9.8915206346484978E-03 a      1469     0    74     1     9
 -2.5601982088446724E-02 a      1470     0    74     1    10
  2.4927383463682073E-01 a      1471     0    74     1    11
 -1.8435859337711627E-01 a      1472     0    74     1    12
 -6.0231324350302679E-02 a      1473     0    74     1    13
 -1.4679223621445897E-01 a      1474     0    74     1    14
  3.0070457770744907E-02 a      1475     0    74     1    15
 -9.1804051259191215E-03 a      1476     0    74     1    16
 -1.7156865222706531E-02 a      1477     0    74     1    17
 -1.3930502537779452E-01 a      1478     0    74     1    18
 -1.9032219550667851E-02 a      1479     0    74     1    19
  8.9173513070058649E-02 a      1480     0    74     1    20
 -3.5812429204945033E-02 a      1481     0    75     1     1
 -3.5916922625854902E-01 a      1482     0    75     1     2
 -1.1471867938578099E-01 a      1483     0    75     1     3
  2.8937631388525331E-01 a      1484     0    75     1     4
  6.9445218870107489E-02 a      1485     0    75     1     5
  2.8652896986563875E-01 a      1486     0    75     1     6
 -2.0572633521203137E-01 a      1487     0    75     1     7
 -6.2779215200562677E-02 a      1488     0    75     1     8
  2.3967434558976258E-01 a      1489     0    75     1     9
 -2.5040765368477269E-01 a      1490     0    75     1    10
 -1.3545033912942547E-01 a      1491     0    75     1    11
  5.1559341716931506E-01 a      1492     0    75     1    12
 -1.1295212924583008E-01 a      1493     0    75     1    13
 -5.3181406474935933E-01 a      1494     0    75     1    14
 -1.8279716626318002E-01 a      1495     0    75     1    15
  4.9591942059877582E-02 a      1496     0    75     1    16
  1.1946301784795381E-01 a      1497     0    75     1    17
  5.0151369421843818E-02 a      1498     0    75     1    18
  1.1937957479135407E-01 a      1499     0    75     1    19
  1.6866602220258592E-01 a      1500     0    75     1    20
 -1.7482212178938406E-01 a      1501     0    76     1     1
 -1.1263797129232538E-01 a      1502     0    76     1     2
 -1.5125053234001595E-01 a      1503     0    76     1     3
 -4.4077023805394550E-02 a      1504     0    76     1     4
  1.6278073283840205E-01 a      1505     0    76     1     5
  5.9236622873660057E-02 a      1506     0    76     1     6
  3.3098213398870729E-02 a      1507     0    76     1     7
  3.2288492435231048E-02 a      1508     0    76     1     8
  3.3691480085175925E-02 a      1509     0    76     1     9
 -5.8470654408582262E-02 a      1510     0    76     1    10
 -5.7849898019400124E-02 a      1511     0    76     1    11
 -8.9363245315361786E-02 a      1512     0    76     1    12
 -3.7882437588106430E-02 a      1513     0    76     1    13
  1.3027730887675026E-01 a      1514     0    76     1    14
 -2.3294144062827819E-02 a      1515     0    76     1    15
 -9.7337471875497961E-02 a      1516     0    76     1    16
 -8.9471050551063525E-02 a      1517     0    76     1    17
  1.1088179256477769E-01 a      1518     0    76     1    18
 -1.7606390617777765E-01 a      1519     0    76     1    19
  4.3475861477298539E-02 a      1520     0    76     1    20
 -4.7619049758748720E-02 a      1521     0    77     1     1
 -5.5900650176827091E-02 a      1522     0    77     1     2
  6.2967771770721208E-03 a      1523     0    77     1     3
  9.3807442206087568E-02 a      1524     0    77     1     4
  9.5889733831612020E-02 a      1525     0    77     1     5
 -2.4525437972121599E-02 a      1526     0    77     1     6
  6.8217866540567964E-03 a      1527     0    77     1     7
  8.1995580610324151E-02 a      1528     0    77     1     8
  3.1872496095718197E-02 a      1529     0    77     1     9
 -2.6792030122105303E-02 a      1530     0    77     1    10
 -4.1691218582983844E-02 a      1531     0    77     1    11
  4.8558269215475701E-02 a      1532     0    77     1    12
  9.3652768911012485E-02 a      1533     0    77     1    13
 -5.1495282532201113E-02 a      1534     0    77     1    14
 -2.9402703454556256E-02 a      1535     0    77     1    15
 -1.0548299710671233E-01 a      1536     0    77     1    16
  5.4155488762457328E-02 a      1537     0    77     1    17
 -1.0756798935022395E-01 a      1538     0    77     1    18
 -3.8012380443664152E-03 a      1539     0    77     1    19
 -2.0610536615758422E-02 a      1540     0    77     1    20
 -5.5618697724526170E-02 a      1541     0    78     1     1
  9.2343455006651684E-02 a      1542     0    78     1     2
  1.8360948092639212E-01 a      1543     0    78     1     3
 -4.2727027048538015E-02 a      1544     0    78     1     4
  2.4803402122622303E-01 a      1545     0    78     1     5
  4.0863672284845748E-02 a      1546     0    78     1     6
  5.4914665589577860E-02 a      1547     0    78     1     7
 -1.5556671132662325E-01 a      1548     0    78     1     8
 -1.8425862412520592E-02 a      1549     0    78     1     9
  6.7772581753595698E-02 a      1550     0    78     1    10
 -1.1907440000790304E-01 a      1551     0    78     1    11
  8.0609141265924819E-02 a      1552     0    78     1    12
  1.5744051505743192E-01 a      1553     0    78     1    13
 -3.5312102586685580E-02 a      1554     0    78     1    14
 -7.6906065327402833E-03 a      1555     0    78     1    15
 -7.1144275038117669E-02 a      1556     0    78     1    16
  8.7185318070172615E-02 a      1557     0    78     1    17
  6.4132718136710551E-02 a      1558     0    78     1    18
 -1.0219973135878170E-02 a      1559     0    78     1    19
 -5.0171966240322156E-02 a      1560     0    78     1    20
 -5.5582007005329809E-02 a      1561     0    79     1     1
  9.2550822657482532E-02 a      1562     0    79     1     2
  8.1030723257783918E-02 a      1563     0    79     1     3
 -1.4690277436874797E-02 a      1564     0    79     1     4
  2.5516786272472036E-01 a      1565     0    79     1     5
 -3.2595319776301389E-02 a      1566     0    79     1     6
  3.4713154375869991E-02 a      1567     0    79     1     7
 -3.0212410248435628E-02 a      1568     0    79     1     8
 -1.3080950901708274E-01 a      1569     0    79     1     9
 -1.8691803658851955E-01 a      1570     0    79     1    10
  1.8400336360781461E-01 a      1571     0    79     1    11
 -4.8300133547130024E-02 a      1572     0    79     1    12
 -6.8097184452923537E-02 a      1573     0    79     1    13
  1.5990305480273212E-01 a      1574     0    79     1    14
 -3.5291480429982787E-03 a      1575     0    79     1    15
 -2.0424710956189505E-02 a      1576     0    79     1    16
  4.9818836753577768E-02 a      1577     0    79     1    17
  2.1309553794268028E-02 a      1578     0    79     1    18
 -5.2867965951072279E-02 a      1579     0    79     1    19
  6.7003433532474732E-02 a      1580     0    79     1    20
  1.4136249010110388E-01 a      1581     0    80     1     1
  3.5931051077527740E-02 a      1582     0    80     1     2
 -1.4034059852447922E-01 a      1583     0    80     1     3
 -4.1442061025901332E-02 a      1584     0    80     1     4
  2.1515022222616362E-01 a      1585     0    80     1     5
  1.8836674749320062E-01 a      1586     0    80     1     6
  2.2463351327749053E-02 a      1587     0    80     1     7
  1.9232178239348521E-01 a      1588     0    80     1     8
  4.5351134488757314E-02 a      1589     0    80     1     9
  1.2786636608826968E-01 a      1590     0    80     1    10
 -1.0962526789865226E-01 a      1591     0    80     1    11
  8.7608788880787925E-03 a      1592     0    80     1    12
  6.4844340988456955E-02 a      1593     0    80     1    13
 -1.7836408989718208E-02 a      1594     0    80     1    14
 -2.9308508273085475E-02 a      1595     0    80     1    15
 -1.2006222607928360E-01 a      1596     0    80     1    16
  2.1547655654363773E-01 a      1597     0    80     1    17
  1.6004131285739717E-01 a      1598     0    80     1    18
 -2.3865322566366119E-02 a      1599     0    80     1    19
 -5.3194918731878552E-02 a      1600     0    80     1    20
 -3.5621898204216185E-02 a      1601     0    81     1     1
 -3.7384453381308309E-02 a      1602     0    81     1     2
  4.3336507785871953E-01 a      1603     0    81     1     3
  5.4102678528164215E-02 a      1604     0    81     1     4
  1.1946844789575939E-01 a      1605     0    81     1     5
  1.3014811775399110E-01 a      1606     0    81     1     6
 -1.4753311353314523E-02 a      1607     0    81     1     7
  4.4050740106148717E-01 a      1608     0    81     1     8
  3.1701459511811393E-02 a      1609     0    81     1     9
 -4.5957342812022017E-02 a      1610     0    81     1    10
 -1.3552007296610696E-02 a      1611     0    81     1    11
  3.9061719282434465E-01 a      1612     0    81     1    12
 -4.2253658850986647E-01 a      1613     0    81     1    13
 -3.4094959376719608E-02 a      1614     0    81     1    14
  8.3757367824006265E-02 a      1615     0    81     1    15
 -1.4717046771075337E-01 a      1616     0    81     1    16
 -1.5131195113223236E-02 a      1617     0    81     1    17
 -9.2298702591335838E-02 a      1618     0    81     1    18
  5.6598863567945114E-02 a      1619     0    81     1    19
 -3.1170897478186022E-01 a      1620     0    81     1    20
  1.2155772209268560E-01 a      1621     0    82     1     1
 -8.6223032717393983E-02 a      1622     0    82     1     2
  3.1243004030636055E-03 a      1623     0    82     1     3
