################################################################################
# Neural network connection values (weights and biases).
################################################################################
# Col  Name       Description
################################################################################
# 1    connection Neural network connection value.
# 2    t          Connection type (a = weight, b = bias).
# 3    index      Index enumerating weights.
# 4    l_s        Starting point layer (end point layer for biases).
# 5    n_s        Starting point neuron in starting layer (end point neuron for biases).
# 6    l_e        End point layer.
# 7    n_e        End point neuron in end layer.
################################################################################
#                      1 2         3     4     5     6     7
#             connection t     index   l_s   n_s   l_e   n_e
############################################################
  1.1119325636112440E-02 a         1     0     1     1     1
 -4.6009456823417672E-02 a         2     0     1     1     2
  5.5491737524518234E-02 a         3     0     1     1     3
  4.6315303201921687E-01 a         4     0     1     1     4
  4.0955746901142309E-01 a         5     0     1     1     5
  1.0528465605490898E-01 a         6     0     1     1     6
 -4.1614684152717170E-03 a         7     0     1     1     7
 -2.2745286250661767E-01 a         8     0     1     1     8
 -1.1975399594347562E-01 a         9     0     1     1     9
 -1.1803596859928718E-01 a        10     0     1     1    10
  9.1785424877640180E-03 a        11     0     1     1    11
 -2.2072834468837073E-02 a        12     0     1     1    12
  5.1372078608941973E-01 a        13     0     1     1    13
 -1.9776390646084559E-02 a        14     0     1     1    14
 -3.8288441437098342E-01 a        15     0     1     1    15
  6.2372632638757516E-02 a        16     0     1     1    16
 -1.0219096936258901E-01 a        17     0     1     1    17
  1.9531577986078658E-01 a        18     0     1     1    18
  2.9911584346087988E-01 a        19     0     1     1    19
 -2.8548145734415808E-01 a        20     0     1     1    20
 -2.4539837695254484E-02 a        21     0     2     1     1
  3.1383996144062076E-01 a        22     0     2     1     2
  4.6265215065070975E-02 a        23     0     2     1     3
 -1.6372961482600445E-01 a        24     0     2     1     4
 -3.9391377133572462E-03 a        25     0     2     1     5
  7.0590363468369652E-02 a        26     0     2     1     6
 -1.7083103879296411E-03 a        27     0     2     1     7
 -1.8526543973268159E-01 a        28     0     2     1     8
  2.4905689975568723E-01 a        29     0     2     1     9
 -1.4958614315376373E-01 a        30     0     2     1    10
 -9.4355607611163461E-02 a        31     0     2     1    11
 -5.9244429770260065E-02 a        32     0     2     1    12
 -2.3490779686725852E-01 a        33     0     2     1    13
 -5.3422782224069147E-02 a        34     0     2     1    14
  2.9857016373384761E-02 a        35     0     2     1    15
 -7.1709296796375138E-02 a        36     0     2     1    16
  6.0384610861584512E-03 a        37     0     2     1    17
 -2.3126874143457266E-02 a        38     0     2     1    18
  1.7768999668042646E-02 a        39     0     2     1    19
  8.3804646442541500E-02 a        40     0     2     1    20
 -1.8742843310658558E-01 a        41     0     3     1     1
  2.3213855708874914E-01 a        42     0     3     1     2
  1.5879106379457270E-01 a        43     0     3     1     3
 -1.0655826561381466E-01 a        44     0     3     1     4
  4.4657836061607104E-01 a        45     0     3     1     5
  3.1744927686103382E-02 a        46     0     3     1     6
  8.7993949387815528E-03 a        47     0     3     1     7
  2.8133433234718269E-01 a        48     0     3     1     8
  1.7106618588740180E-01 a        49     0     3     1     9
 -1.8606834428486491E-01 a        50     0     3     1    10
 -1.3121591879894601E-01 a        51     0     3     1    11
  5.2923695169188947E-02 a        52     0     3     1    12
 -2.3456984868043024E-01 a        53     0     3     1    13
 -1.4692348602507599E-01 a        54     0     3     1    14
 -1.9459782399235614E-01 a        55     0     3     1    15
 -1.9392530207184355E-01 a        56     0     3     1    16
  4.9537167231795937E-02 a        57     0     3     1    17
 -1.1909144656560193E-01 a        58     0     3     1    18
  1.6748517567394389E-01 a        59     0     3     1    19
 -7.8044021977813599E-02 a        60     0     3     1    20
 -6.5227667757732158E-03 a        61     0     4     1     1
 -1.1952181563203614E-03 a        62     0     4     1     2
  2.4317640024932013E-02 a        63     0     4     1     3
  2.4462224276504987E-01 a        64     0     4     1     4
 -2.8246752455371706E-02 a        65     0     4     1     5
  1.0875099473264788E-01 a        66     0     4     1     6
  3.8275799361570106E-02 a        67     0     4     1     7
 -9.7688881755355977E-02 a        68     0     4     1     8
 -4.2874214953167636E-02 a        69     0     4     1     9
  1.5306639165730354E-01 a        70     0     4     1    10
 -6.8631016092437491E-03 a        71     0     4     1    11
  6.2390301716372127E-03 a        72     0     4     1    12
 -9.7530160077355682E-02 a        73     0     4     1    13
 -5.7432756682429031E-02 a        74     0     4     1    14
 -2.2929844244487036E-02 a        75     0     4     1    15
  3.3861108125694740E-02 a        76     0     4     1    16
 -1.1727380171791335E-01 a        77     0     4     1    17
 -3.0023256924400176E-02 a        78     0     4     1    18
 -7.8345317051772431E-02 a        79     0     4     1    19
 -1.2368554078150322E-02 a        80     0     4     1    20
 -3.3814926617920162E-02 a        81     0     5     1     1
 -6.7189716476493230E-02 a        82     0     5     1     2
  2.2450401155648672E-01 a        83     0     5     1     3
  1.5629468675321719E-02 a        84     0     5     1     4
 -9.0369290450484391E-02 a        85     0     5     1     5
  1.2898750092660399E-01 a        86     0     5     1     6
  8.3857948252809740E-03 a        87     0     5     1     7
 -2.9544918053817416E-02 a        88     0     5     1     8
  8.5095557326611837E-02 a        89     0     5     1     9
 -8.2337437236930155E-02 a        90     0     5     1    10
 -1.3297238591367327E-01 a        91     0     5     1    11
  2.3133771161010057E-02 a        92     0     5     1    12
  2.5571307154184342E-01 a        93     0     5     1    13
 -2.1922146985029912E-02 a        94     0     5     1    14
 -7.9437456603108185E-03 a        95     0     5     1    15
  1.5896119980134474E-01 a        96     0     5     1    16
 -9.4234518952433288E-02 a        97     0     5     1    17
  1.5887599518218729E-01 a        98     0     5     1    18
  2.0171812924454577E-01 a        99     0     5     1    19
 -4.3944258715269816E-02 a       100     0     5     1    20
  2.0106412752236077E-01 a       101     0     6     1     1
 -5.2452314682009386E-02 a       102     0     6     1     2
  2.6666943719209035E-01 a       103     0     6     1     3
 -4.5174127173343198E-01 a       104     0     6     1     4
 -6.0077261204430865E-01 a       105     0     6     1     5
  1.4416222947901089E-01 a       106     0     6     1     6
  2.3383916238166794E-01 a       107     0     6     1     7
  2.2214106923907576E-02 a       108     0     6     1     8
  3.0046592689103047E-01 a       109     0     6     1     9
 -3.4106934377521568E-02 a       110     0     6     1    10
  6.6540148925301534E-01 a       111     0     6     1    11
  3.9666693385277403E-02 a       112     0     6     1    12
 -5.7398331976441652E-01 a       113     0     6     1    13
 -2.5241781646750749E-01 a       114     0     6     1    14
 -4.1589778796035065E-01 a       115     0     6     1    15
 -1.3640448896209259E-01 a       116     0     6     1    16
  3.1157389381221412E-01 a       117     0     6     1    17
 -2.1185823852709390E-01 a       118     0     6     1    18
  1.8398471784656964E-01 a       119     0     6     1    19
 -2.4219120679385464E-01 a       120     0     6     1    20
 -3.8495173232076288E-03 a       121     0     7     1     1
 -2.6578626409571177E-02 a       122     0     7     1     2
 -8.6490052521279864E-03 a       123     0     7     1     3
 -1.8248619593808504E-01 a       124     0     7     1     4
  1.6138075397245591E-01 a       125     0     7     1     5
  1.3641299928621414E-01 a       126     0     7     1     6
  2.4791819840959226E-01 a       127     0     7     1     7
  5.4666841574237304E-02 a       128     0     7     1     8
 -7.5727592558580095E-02 a       129     0     7     1     9
  6.1662749589966280E-02 a       130     0     7     1    10
 -2.2185817067185326E-01 a       131     0     7     1    11
 -8.2954162320701116E-02 a       132     0     7     1    12
 -1.8643591982267166E-01 a       133     0     7     1    13
 -1.2574807780893263E-01 a       134     0     7     1    14
  5.2076852647355364E-02 a       135     0     7     1    15
 -1.6292558557444506E-01 a       136     0     7     1    16
 -2.0687840828040441E-01 a       137     0     7     1    17
  6.1426602671681665E-02 a       138     0     7     1    18
  1.0653449158392957E-01 a       139     0     7     1    19
 -6.2271725743590259E-02 a       140     0     7     1    20
 -9.1187524289931821E-02 a       141     0     8     1     1
 -1.2748212317356300E-01 a       142     0     8     1     2
 -3.7394896301449387E-01 a       143     0     8     1     3
  1.4338011046895535E-01 a       144     0     8     1     4
  8.7726324658423255E-02 a       145     0     8     1     5
 -1.0515808930410309E-01 a       146     0     8     1     6
  2.8835016691081048E-02 a       147     0     8     1     7
 -4.2496723227402187E-02 a       148     0     8     1     8
 -4.6859627820809791E-03 a       149     0     8     1     9
  2.1053956595953779E-01 a       150     0     8     1    10
  6.5180584480497045E-02 a       151     0     8     1    11
  1.6707250318640021E-01 a       152     0     8     1    12
  8.7325241256483471E-02 a       153     0     8     1    13
  1.5856604442456287E-01 a       154     0     8     1    14
 -6.8437696425924052E-02 a       155     0     8     1    15
 -6.6278962074268893E-02 a       156     0     8     1    16
 -2.2562359016755146E-01 a       157     0     8     1    17
  5.0331780296574230E-02 a       158     0     8     1    18
  6.3309964039106631E-02 a       159     0     8     1    19
 -8.5143018449928290E-02 a       160     0     8     1    20
 -4.5639099660918517E-02 a       161     0     9     1     1
  1.0349867304481046E-01 a       162     0     9     1     2
  8.9787033796979290E-02 a       163     0     9     1     3
 -1.8226309328814430E-01 a       164     0     9     1     4
 -1.1411667411422237E-01 a       165     0     9     1     5
 -1.0714607609587339E-01 a       166     0     9     1     6
  6.3976330292338790E-02 a       167     0     9     1     7
  1.3872869947140778E-01 a       168     0     9     1     8
  1.5936303259223576E-02 a       169     0     9     1     9
 -1.1762141256882302E-01 a       170     0     9     1    10
 -5.4933407736400316E-03 a       171     0     9     1    11
 -1.3345635008889775E-01 a       172     0     9     1    12
  1.6573458929252491E-01 a       173     0     9     1    13
  1.9994553917571989E-01 a       174     0     9     1    14
 -9.8611115198203522E-03 a       175     0     9     1    15
 -3.4773326782718693E-03 a       176     0     9     1    16
 -3.7188813198364229E-02 a       177     0     9     1    17
  4.2553459833542341E-02 a       178     0     9     1    18
 -1.4615824789093118E-01 a       179     0     9     1    19
  1.0663615635045071E-01 a       180     0     9     1    20
  9.4702730765607902E-04 a       181     0    10     1     1
 -1.0086020576264627E-01 a       182     0    10     1     2
 -1.7585623580400886E-01 a       183     0    10     1     3
 -2.4410460698412847E-02 a       184     0    10     1     4
 -2.0749341055017259E-01 a       185     0    10     1     5
 -1.7050979053002518E-01 a       186     0    10     1     6
  1.4465585989999925E-02 a       187     0    10     1     7
  3.2023244735724037E-02 a       188     0    10     1     8
  1.0019771983230626E-01 a       189     0    10     1     9
  7.8378901254747266E-02 a       190     0    10     1    10
  1.6998308124506251E-01 a       191     0    10     1    11
 -7.1927149916235930E-02 a       192     0    10     1    12
 -1.7061262194782659E-01 a       193     0    10     1    13
  9.4459803535858172E-02 a       194     0    10     1    14
  7.4415436474589383E-02 a       195     0    10     1    15
 -2.0199678833558971E-01 a       196     0    10     1    16
 -5.6573832149108133E-02 a       197     0    10     1    17
 -9.2151388907034573E-02 a       198     0    10     1    18
  3.9279330856124867E-02 a       199     0    10     1    19
  7.9164143374201051E-02 a       200     0    10     1    20
 -1.6015639381849168E-03 a       201     0    11     1     1
  4.8580747982849143E-02 a       202     0    11     1     2
  1.6253139443909606E-01 a       203     0    11     1     3
  2.7645270911595587E-01 a       204     0    11     1     4
  6.6163022006322458E-02 a       205     0    11     1     5
  1.6985734517946954E-01 a       206     0    11     1     6
 -9.1670066125618815E-03 a       207     0    11     1     7
 -1.2386297077339668E-01 a       208     0    11     1     8
 -2.3773015776706971E-01 a       209     0    11     1     9
 -2.5976790680092182E-01 a       210     0    11     1    10
 -2.9595216840949579E-01 a       211     0    11     1    11
  2.2703909577974823E-01 a       212     0    11     1    12
  7.9564367825625815E-02 a       213     0    11     1    13
  4.8775672456985539E-02 a       214     0    11     1    14
  4.8308989527068436E-01 a       215     0    11     1    15
 -1.8709969504221449E-01 a       216     0    11     1    16
  3.5893113741990314E-02 a       217     0    11     1    17
  1.9628943940936852E-01 a       218     0    11     1    18
  1.9887152816477291E-01 a       219     0    11     1    19
 -2.7756510652151589E-01 a       220     0    11     1    20
  1.3940880824321464E-01 a       221     0    12     1     1
  1.4418503912823544E-01 a       222     0    12     1     2
  4.8452797102747851E-02 a       223     0    12     1     3
  2.4601592903274469E-01 a       224     0    12     1     4
  5.3688386005365692E-03 a       225     0    12     1     5
  1.1964348081233879E-01 a       226     0    12     1     6
  1.7891538857622347E-01 a       227     0    12     1     7
  9.8479864407793161E-02 a       228     0    12     1     8
 -1.9675368050155639E-01 a       229     0    12     1     9
 -2.3338156770420931E-01 a       230     0    12     1    10
  1.5175958564493372E-01 a       231     0    12     1    11
 -6.9210052168965114E-02 a       232     0    12     1    12
  2.4959914001686398E-01 a       233     0    12     1    13
 -1.0101539490932816E-01 a       234     0    12     1    14
  3.7514867300273827E-02 a       235     0    12     1    15
  1.2027485559480192E-01 a       236     0    12     1    16
  2.4563460177628818E-01 a       237     0    12     1    17
  1.3291102196611954E-01 a       238     0    12     1    18
 -2.0721783603988955E-01 a       239     0    12     1    19
 -5.2337257646510892E-02 a       240     0    12     1    20
  6.3446527522435667E-02 a       241     0    13     1     1
  1.3746625990067657E-01 a       242     0    13     1     2
 -1.1291411047537318E-01 a       243     0    13     1     3
  5.4160115459773533E-02 a       244     0    13     1     4
  2.0507745485823090E-01 a       245     0    13     1     5
 -5.6249806013267185E-02 a       246     0    13     1     6
 -2.6458258264252976E-01 a       247     0    13     1     7
 -8.9700246224785757E-02 a       248     0    13     1     8
  2.2655580348089699E-01 a       249     0    13     1     9
  1.3147667195561841E-01 a       250     0    13     1    10
 -2.5856527430806220E-01 a       251     0    13     1    11
  8.3942599333307402E-02 a       252     0    13     1    12
 -1.4498654863269961E-01 a       253     0    13     1    13
 -1.3164529056699970E-01 a       254     0    13     1    14
  5.0837315925926954E-02 a       255     0    13     1    15
 -1.8220630316979072E-01 a       256     0    13     1    16
 -2.8289134982411260E-02 a       257     0    13     1    17
  5.3876639934110973E-02 a       258     0    13     1    18
 -8.6574908940699816E-02 a       259     0    13     1    19
  2.5750000858639793E-01 a       260     0    13     1    20
  1.5021814483630544E-01 a       261     0    14     1     1
  4.2979952074183356E-02 a       262     0    14     1     2
  1.4381822360050398E-02 a       263     0    14     1     3
  1.4911157835429054E-01 a       264     0    14     1     4
  5.0173058516387266E-02 a       265     0    14     1     5
 -2.9545316632680335E-01 a       266     0    14     1     6
 -7.0941827675218005E-02 a       267     0    14     1     7
  3.7618216983218718E-04 a       268     0    14     1     8
  8.6852511507181540E-02 a       269     0    14     1     9
 -1.5707873432671299E-02 a       270     0    14     1    10
  1.4529122181409804E-01 a       271     0    14     1    11
  9.5291322668710071E-02 a       272     0    14     1    12
 -7.8176082523671461E-02 a       273     0    14     1    13
  1.4118440688476491E-01 a       274     0    14     1    14
 -6.7835982557554395E-02 a       275     0    14     1    15
 -2.3167856012072768E-01 a       276     0    14     1    16
 -2.2648178684446246E-01 a       277     0    14     1    17
 -1.5512833182541501E-02 a       278     0    14     1    18
  1.2792618674565426E-01 a       279     0    14     1    19
 -1.6203623586268409E-01 a       280     0    14     1    20
  1.6121302973133617E-01 a       281     0    15     1     1
 -1.1619324015302383E-02 a       282     0    15     1     2
  2.1631241905591239E-01 a       283     0    15     1     3
  4.9064767719301371E-02 a       284     0    15     1     4
  2.3827099300484136E-01 a       285     0    15     1     5
  1.8676804571238156E-01 a       286     0    15     1     6
 -2.1481772321668119E-01 a       287     0    15     1     7
 -6.6530933740811482E-02 a       288     0    15     1     8
 -1.1206074181011184E-01 a       289     0    15     1     9
 -3.2701863497574542E-02 a       290     0    15     1    10
 -4.5531345847998166E-02 a       291     0    15     1    11
  8.1609306976441837E-02 a       292     0    15     1    12
 -8.5400210048458186E-02 a       293     0    15     1    13
 -1.4430783833550268E-01 a       294     0    15     1    14
  1.2757788911919518E-02 a       295     0    15     1    15
 -1.5996505356375945E-01 a       296     0    15     1    16
  5.2783133696069288E-02 a       297     0    15     1    17
 -2.9756577390957321E-02 a       298     0    15     1    18
 -5.6469583700419559E-02 a       299     0    15     1    19
 -8.7892796639758464E-02 a       300     0    15     1    20
 -9.7212026098402293E-02 a       301     0    16     1     1
  1.0424421391198621E-01 a       302     0    16     1     2
  9.7928962624430294E-02 a       303     0    16     1     3
 -7.7544318098887429E-03 a       304     0    16     1     4
 -1.6468269353372897E-01 a       305     0    16     1     5
  1.1529486439003814E-01 a       306     0    16     1     6
  2.9159540151277652E-01 a       307     0    16     1     7
  4.7320232497889980E-01 a       308     0    16     1     8
  1.8394836863463590E-01 a       309     0    16     1     9
  2.1560201216852218E-01 a       310     0    16     1    10
  9.9741327183545073E-02 a       311     0    16     1    11
 -5.6613031077253108E-02 a       312     0    16     1    12
 -2.1449757361400107E-01 a       313     0    16     1    13
 -6.5557925966206063E-02 a       314     0    16     1    14
 -3.6702973402265227E-01 a       315     0    16     1    15
  1.6697631335462432E-01 a       316     0    16     1    16
 -1.2284994021331114E-02 a       317     0    16     1    17
 -3.0063021641291238E-01 a       318     0    16     1    18
 -8.7916537137543299E-02 a       319     0    16     1    19
 -1.6092679919396177E-01 a       320     0    16     1    20
  1.3387553329227830E-01 a       321     0    17     1     1
 -1.2389794154793790E-01 a       322     0    17     1     2
  8.8582994145968250E-02 a       323     0    17     1     3
  1.7392436912794496E-01 a       324     0    17     1     4
  1.4234074669082322E-01 a       325     0    17     1     5
  7.0882285768880018E-02 a       326     0    17     1     6
  5.6159327077518244E-02 a       327     0    17     1     7
  7.7231622259138585E-02 a       328     0    17     1     8
 -9.8272316022738726E-02 a       329     0    17     1     9
  2.6815003651451402E-01 a       330     0    17     1    10
 -1.1068875687722568E-01 a       331     0    17     1    11
  2.7224982038669504E-01 a       332     0    17     1    12
 -9.9637215878112126E-02 a       333     0    17     1    13
 -1.0665364632711621E-01 a       334     0    17     1    14
  2.7710949395538181E-01 a       335     0    17     1    15
 -3.8479668771171108E-02 a       336     0    17     1    16
  1.3710664943276354E-01 a       337     0    17     1    17
 -1.5389734478608816E-01 a       338     0    17     1    18
  1.0261399100393805E-02 a       339     0    17     1    19
 -6.1922745911546515E-03 a       340     0    17     1    20
 -2.8320359559563607E-01 a       341     0    18     1     1
 -2.4820621249092312E-01 a       342     0    18     1     2
  9.1552651853167855E-02 a       343     0    18     1     3
  3.0766084926614007E-02 a       344     0    18     1     4
 -9.0610059913536628E-02 a       345     0    18     1     5
  2.1559209834494253E-01 a       346     0    18     1     6
  7.3270837929541435E-02 a       347     0    18     1     7
  1.8229186909811998E-01 a       348     0    18     1     8
  1.7146407493500365E-01 a       349     0    18     1     9
  1.9047184830365624E-01 a       350     0    18     1    10
 -1.7524982705494692E-02 a       351     0    18     1    11
 -1.1032707319213781E-02 a       352     0    18     1    12
 -1.3736541049794590E-01 a       353     0    18     1    13
  8.2074673546167792E-02 a       354     0    18     1    14
 -2.1416420772909076E-01 a       355     0    18     1    15
  8.8249488080159588E-02 a       356     0    18     1    16
  1.8756321148190419E-01 a       357     0    18     1    17
 -2.1808378126577463E-01 a       358     0    18     1    18
 -1.9371044528987816E-01 a       359     0    18     1    19
  1.6373414801876907E-01 a       360     0    18     1    20
 -8.0005529316544921E-02 a       361     0    19     1     1
  7.0041661746938308E-02 a       362     0    19     1     2
  1.8454903432758865E-01 a       363     0    19     1     3
  2.2603384098305820E-01 a       364     0    19     1     4
  9.5245417695163492E-03 a       365     0    19     1     5
  3.5936231713392490E-02 a       366     0    19     1     6
  8.7986199229806050E-02 a       367     0    19     1     7
  9.7427108745874499E-02 a       368     0    19     1     8
  2.0372805003393002E-01 a       369     0    19     1     9
 -3.6537079498877925E-03 a       370     0    19     1    10
 -1.5040267701468782E-01 a       371     0    19     1    11
  9.5568075074444717E-02 a       372     0    19     1    12
 -3.0869239940029031E-01 a       373     0    19     1    13
  4.5898867347528752E-02 a       374     0    19     1    14
 -6.1626952736526491E-02 a       375     0    19     1    15
 -1.0839042612929691E-02 a       376     0    19     1    16
 -1.8887263620084557E-01 a       377     0    19     1    17
 -1.4443969099092993E-01 a       378     0    19     1    18
 -9.3504333461303782E-02 a       379     0    19     1    19
  5.6145707090851885E-02 a       380     0    19     1    20
 -1.0919311137863198E-01 a       381     0    20     1     1
 -1.2569584783368584E-01 a       382     0    20     1     2
 -2.9963471528287537E-02 a       383     0    20     1     3
 -5.0835307647130561E-02 a       384     0    20     1     4
 -1.1878250600195146E-01 a       385     0    20     1     5
  1.4880680914034229E-02 a       386     0    20     1     6
  2.0077046321388098E-01 a       387     0    20     1     7
  8.6871163209765678E-02 a       388     0    20     1     8
  1.4613197436004458E-01 a       389     0    20     1     9
  3.3379459534920213E-02 a       390     0    20     1    10
  7.5945893127241204E-02 a       391     0    20     1    11
  6.0652660836931487E-02 a       392     0    20     1    12
  9.2465092948945657E-02 a       393     0    20     1    13
  1.2647363012101556E-01 a       394     0    20     1    14
 -1.4449183969404078E-01 a       395     0    20     1    15
  6.7177339812401829E-03 a       396     0    20     1    16
  1.3990719290120321E-01 a       397     0    20     1    17
 -5.2159713478397082E-02 a       398     0    20     1    18
 -1.4753669181844903E-01 a       399     0    20     1    19
 -7.5375800821205086E-03 a       400     0    20     1    20
  2.1469495312111168E-02 a       401     0    21     1     1
  3.2922033032541337E-01 a       402     0    21     1     2
  8.0287558658334243E-02 a       403     0    21     1     3
  7.4388011795688005E-02 a       404     0    21     1     4
 -3.3734733804794984E-02 a       405     0    21     1     5
 -2.4484936384762254E-01 a       406     0    21     1     6
  6.7453571957757684E-03 a       407     0    21     1     7
 -1.7372156598998620E-01 a       408     0    21     1     8
 -1.6470073039107253E-01 a       409     0    21     1     9
 -3.0127392922830259E-01 a       410     0    21     1    10
 -1.2342725287484106E-01 a       411     0    21     1    11
 -2.6437599674582955E-02 a       412     0    21     1    12
 -1.0184701743239970E-01 a       413     0    21     1    13
  2.1340350690523945E-02 a       414     0    21     1    14
  2.9144765816018675E-01 a       415     0    21     1    15
  1.7904789506596144E-01 a       416     0    21     1    16
 -2.0372405309666455E-01 a       417     0    21     1    17
  7.0733677302376063E-02 a       418     0    21     1    18
 -9.8896546530239882E-02 a       419     0    21     1    19
 -5.1574145941395144E-02 a       420     0    21     1    20
 -7.4640677206538983E-02 a       421     0    22     1     1
  1.2524148875665350E-01 a       422     0    22     1     2
 -4.7951500964947109E-02 a       423     0    22     1     3
 -6.3095902075597107E-02 a       424     0    22     1     4
  2.6191548152386940E-01 a       425     0    22     1     5
 -5.3777414055857356E-02 a       426     0    22     1     6
  6.3800922838307156E-02 a       427     0    22     1     7
  6.8342565498649074E-02 a       428     0    22     1     8
  1.3570969660634519E-01 a       429     0    22     1     9
 -1.4483284540836433E-01 a       430     0    22     1    10
 -9.0599243448018951E-02 a       431     0    22     1    11
  2.4485742930411857E-02 a       432     0    22     1    12
 -2.2172609826730921E-01 a       433     0    22     1    13
  4.6929111062718847E-02 a       434     0    22     1    14
 -6.1005446382113242E-02 a       435     0    22     1    15
  1.1736426199463368E-01 a       436     0    22     1    16
  4.7783808621207104E-02 a       437     0    22     1    17
  4.6143442154434743E-02 a       438     0    22     1    18
  8.6438958967864771E-02 a       439     0    22     1    19
 -1.4945375756161366E-02 a       440     0    22     1    20
 -2.7146965354811498E-01 a       441     0    23     1     1
 -6.2832870635556870E-02 a       442     0    23     1     2
 -1.4908648899739793E-01 a       443     0    23     1     3
  2.1501181982481946E-01 a       444     0    23     1     4
  2.2863359529295170E-02 a       445     0    23     1     5
 -1.1363479802252846E-01 a       446     0    23     1     6
  1.2816857395125565E-02 a       447     0    23     1     7
  3.1394957434549058E-02 a       448     0    23     1     8
  2.4119019633574676E-01 a       449     0    23     1     9
 -1.6609476762854689E-01 a       450     0    23     1    10
 -3.1802898363400162E-01 a       451     0    23     1    11
  1.2294847759620707E-01 a       452     0    23     1    12
 -2.6712865537256519E-02 a       453     0    23     1    13
  1.1442362672127393E-01 a       454     0    23     1    14
 -2.1998981405049692E-01 a       455     0    23     1    15
  7.5726606717663953E-03 a       456     0    23     1    16
  1.0766656616228125E-01 a       457     0    23     1    17
  1.4194140564331786E-01 a       458     0    23     1    18
 -2.7418219573297282E-02 a       459     0    23     1    19
  2.0139752709634462E-01 a       460     0    23     1    20
  2.6886218560289615E-01 a       461     0    24     1     1
 -1.3273814825636103E-02 a       462     0    24     1     2
  1.3539742053673506E-01 a       463     0    24     1     3
  8.7986072778164143E-02 a       464     0    24     1     4
 -6.4316134967961304E-03 a       465     0    24     1     5
  4.9771140462927660E-02 a       466     0    24     1     6
  1.0785415309748111E-01 a       467     0    24     1     7
  2.1166045599263925E-02 a       468     0    24     1     8
 -3.0973237468096410E-02 a       469     0    24     1     9
 -2.6336702975117217E-03 a       470     0    24     1    10
 -7.4248408249917144E-02 a       471     0    24     1    11
  9.3219600344593562E-02 a       472     0    24     1    12
 -1.0605184441601224E-01 a       473     0    24     1    13
 -2.0062005934812131E-02 a       474     0    24     1    14
  4.7896076308026718E-02 a       475     0    24     1    15
  5.7996135832309822E-02 a       476     0    24     1    16
 -2.6113315402581067E-02 a       477     0    24     1    17
  2.0768739773470633E-02 a       478     0    24     1    18
  1.4110257690604489E-01 a       479     0    24     1    19
 -5.1953802744945106E-02 a       480     0    24     1    20
 -1.6008904850177902E-01 a       481     0    25     1     1
 -1.8620234705324670E-01 a       482     0    25     1     2
  3.7826174744013362E-02 a       483     0    25     1     3
  1.1444936471032273E-01 a       484     0    25     1     4
 -7.5749813174921049E-02 a       485     0    25     1     5
  1.1315100381609243E-01 a       486     0    25     1     6
 -2.1873338564805325E-01 a       487     0    25     1     7
  1.3153818798599845E-01 a       488     0    25     1     8
 -9.2320200828449064E-02 a       489     0    25     1     9
 -2.3417499799116034E-03 a       490     0    25     1    10
 -6.6015513620247671E-02 a       491     0    25     1    11
 -3.7001016644453385E-03 a       492     0    25     1    12
  4.4921940247107085E-02 a       493     0    25     1    13
 -1.7283231400312568E-01 a       494     0    25     1    14
  5.9022247461539668E-02 a       495     0    25     1    15
 -3.9291691692328566E-02 a       496     0    25     1    16
 -7.0003829769321416E-02 a       497     0    25     1    17
 -3.6884386935459625E-02 a       498     0    25     1    18
  7.7455065809555551E-02 a       499     0    25     1    19
  3.9775733113118418E-02 a       500     0    25     1    20
  2.4633214993474647E-01 a       501     0    26     1     1
 -5.6582371061670723E-02 a       502     0    26     1     2
 -1.4384568062777381E-02 a       503     0    26     1     3
 -1.2024082143511050E-01 a       504     0    26     1     4
 -1.2466572189857153E-01 a       505     0    26     1     5
  1.4434214978075238E-01 a       506     0    26     1     6
  9.7783878303309285E-02 a       507     0    26     1     7
  1.9898841735634587E-01 a       508     0    26     1     8
  4.5342411263547010E-02 a       509     0    26     1     9
  1.9753055246596551E-01 a       510     0    26     1    10
  2.8844195758717529E-02 a       511     0    26     1    11
  2.1828510776157366E-02 a       512     0    26     1    12
 -1.5578017497128804E-01 a       513     0    26     1    13
 -1.6128941618842793E-01 a       514     0    26     1    14
 -3.8928043651867955E-01 a       515     0    26     1    15
  2.3560387970051330E-02 a       516     0    26     1    16
 -2.2442345792911950E-01 a       517     0    26     1    17
 -2.5155864402198636E-02 a       518     0    26     1    18
  9.3188465864401243E-02 a       519     0    26     1    19
 -5.8200414079426097E-02 a       520     0    26     1    20
 -5.4872488202136575E-02 a       521     0    27     1     1
 -2.8409461961512530E-04 a       522     0    27     1     2
 -3.4314641043901292E-02 a       523     0    27     1     3
  6.4212997267162758E-02 a       524     0    27     1     4
 -4.5648685216195535E-02 a       525     0    27     1     5
 -1.4414029865540218E-01 a       526     0    27     1     6
 -2.5842361738246718E-02 a       527     0    27     1     7
  2.7337535506839722E-03 a       528     0    27     1     8
 -5.4950124283643736E-02 a       529     0    27     1     9
 -4.1484207094227205E-02 a       530     0    27     1    10
  3.6860948994053788E-02 a       531     0    27     1    11
 -8.4106996634228326E-02 a       532     0    27     1    12
  5.4877526982655342E-02 a       533     0    27     1    13
  9.6575019490639291E-02 a       534     0    27     1    14
 -5.2856281484187258E-02 a       535     0    27     1    15
  6.2555020648738247E-02 a       536     0    27     1    16
  2.4519327576347054E-02 a       537     0    27     1    17
 -4.7641017637766341E-02 a       538     0    27     1    18
 -2.0632140084208450E-01 a       539     0    27     1    19
  3.6951371496584506E-02 a       540     0    27     1    20
 -2.8468428523358933E-02 a       541     0    28     1     1
 -1.8663399405478667E-01 a       542     0    28     1     2
 -1.2060242974667156E-01 a       543     0    28     1     3
 -1.4728668904204227E-02 a       544     0    28     1     4
 -2.8626690224096519E-02 a       545     0    28     1     5
  9.5858688422108512E-02 a       546     0    28     1     6
 -1.1424370524886399E-01 a       547     0    28     1     7
  7.0015174430839815E-03 a       548     0    28     1     8
  1.0855554172395769E-01 a       549     0    28     1     9
 -8.9406118127911660E-02 a       550     0    28     1    10
 -1.6818891983138598E-01 a       551     0    28     1    11
 -3.4023691318927192E-02 a       552     0    28     1    12
  1.6497208214747752E-01 a       553     0    28     1    13
  8.9036059292782174E-02 a       554     0    28     1    14
  2.3466068463256823E-01 a       555     0    28     1    15
  2.3648094994854426E-02 a       556     0    28     1    16
  3.4531582976426112E-01 a       557     0    28     1    17
 -6.0387268958369354E-03 a       558     0    28     1    18
  1.0566288808551955E-01 a       559     0    28     1    19
  2.8025089743842990E-02 a       560     0    28     1    20
  8.0856079324563457E-02 a       561     0    29     1     1
  5.3655498819158438E-02 a       562     0    29     1     2
  3.7902605461046214E-02 a       563     0    29     1     3
 -5.8660090509350574E-02 a       564     0    29     1     4
 -5.0239298666835797E-02 a       565     0    29     1     5
 -6.7600286318913766E-02 a       566     0    29     1     6
 -1.3944919500183239E-02 a       567     0    29     1     7
  8.3934966341146333E-02 a       568     0    29     1     8
  5.9917853713865918E-02 a       569     0    29     1     9
 -1.5748180350169380E-02 a       570     0    29     1    10
  7.8922569965215475E-02 a       571     0    29     1    11
 -7.3139797546573335E-02 a       572     0    29     1    12
  5.9724732790020781E-02 a       573     0    29     1    13
 -6.1094971436709195E-02 a       574     0    29     1    14
 -1.2257978479025165E-01 a       575     0    29     1    15
 -3.9570458966619523E-02 a       576     0    29     1    16
 -2.5074323214603572E-01 a       577     0    29     1    17
  6.8473788032819477E-02 a       578     0    29     1    18
 -1.3473275224312545E-01 a       579     0    29     1    19
 -3.9082260581834755E-02 a       580     0    29     1    20
  1.7299018576832276E-01 a       581     0    30     1     1
 -6.1626846568508101E-02 a       582     0    30     1     2
  2.3527096031961636E-02 a       583     0    30     1     3
 -5.9206948746413177E-02 a       584     0    30     1     4
 -1.0097889032732222E-02 a       585     0    30     1     5
 -1.1291573471250577E-01 a       586     0    30     1     6
  1.5491441235859311E-02 a       587     0    30     1     7
 -4.7563034924080080E-02 a       588     0    30     1     8
  2.1859666650525059E-01 a       589     0    30     1     9
 -3.4842587088349530E-02 a       590     0    30     1    10
  6.8043475002874262E-02 a       591     0    30     1    11
 -3.9763064943306316E-02 a       592     0    30     1    12
  1.0186254906034649E-01 a       593     0    30     1    13
  1.9032600701932567E-01 a       594     0    30     1    14
 -9.2837047428382009E-03 a       595     0    30     1    15
 -3.4222627471052119E-01 a       596     0    30     1    16
  1.2493928276687626E-01 a       597     0    30     1    17
  3.9748477895991695E-02 a       598     0    30     1    18
  3.5231686676850178E-02 a       599     0    30     1    19
 -7.6400642797226706E-02 a       600     0    30     1    20
  1.9562384730424109E-01 a       601     0    31     1     1
  1.4920865172710709E-01 a       602     0    31     1     2
  1.8758264043173739E-01 a       603     0    31     1     3
  2.9484935122348738E-01 a       604     0    31     1     4
  1.0984491423616100E-01 a       605     0    31     1     5
 -1.3061588001124136E-01 a       606     0    31     1     6
  1.0782485946120747E-01 a       607     0    31     1     7
  1.5665269357125516E-01 a       608     0    31     1     8
 -5.5324945009240505E-02 a       609     0    31     1     9
 -3.1712331101781233E-02 a       610     0    31     1    10
 -1.0278288911893918E-01 a       611     0    31     1    11
  9.2424394982863983E-04 a       612     0    31     1    12
 -1.4470062002890438E-01 a       613     0    31     1    13
 -5.4656759875036397E-02 a       614     0    31     1    14
  1.2801519910709427E-01 a       615     0    31     1    15
  7.5308168220899932E-02 a       616     0    31     1    16
 -1.0531661328562972E-01 a       617     0    31     1    17
 -1.2000363008053461E-01 a       618     0    31     1    18
 -9.6061721962766078E-02 a       619     0    31     1    19
  1.2993658684985276E-01 a       620     0    31     1    20
  5.4002315995081644E-02 a       621     0    32     1     1
  1.0288625003973548E-01 a       622     0    32     1     2
 -1.4068563720207716E-01 a       623     0    32     1     3
  9.4549800051080182E-03 a       624     0    32     1     4
 -5.9618872410374765E-02 a       625     0    32     1     5
  9.1378142579554792E-03 a       626     0    32     1     6
  5.0736669714140196E-02 a       627     0    32     1     7
  7.5893333060105816E-02 a       628     0    32     1     8
 -1.0913968822150436E-01 a       629     0    32     1     9
  9.4336500451372263E-02 a       630     0    32     1    10
 -1.1602641929280023E-01 a       631     0    32     1    11
  1.0204137608965053E-01 a       632     0    32     1    12
 -2.7373912197988862E-03 a       633     0    32     1    13
  9.5321090279866641E-02 a       634     0    32     1    14
  1.4923854785640808E-01 a       635     0    32     1    15
 -4.4703374588629892E-02 a       636     0    32     1    16
  5.2397658202894624E-02 a       637     0    32     1    17
 -4.8591273107104642E-02 a       638     0    32     1    18
  1.0006575230588663E-01 a       639     0    32     1    19
  5.1216393705408723E-02 a       640     0    32     1    20
 -3.1938044873234578E-01 a       641     0    33     1     1
  1.2828658197151217E-02 a       642     0    33     1     2
  3.7483942759742414E-02 a       643     0    33     1     3
  1.3259064560414022E-01 a       644     0    33     1     4
 -3.3696644761995451E-02 a       645     0    33     1     5
 -1.8977433493405513E-02 a       646     0    33     1     6
  7.2044235601491133E-02 a       647     0    33     1     7
 -6.3422006328996333E-02 a       648     0    33     1     8
  5.5847652679734246E-02 a       649     0    33     1     9
 -7.4261285816917960E-02 a       650     0    33     1    10
 -7.4402435609700932E-02 a       651     0    33     1    11
  8.0248477755217890E-03 a       652     0    33     1    12
 -1.7088133888829918E-02 a       653     0    33     1    13
  7.1132542619793127E-02 a       654     0    33     1    14
 -2.6730733051496650E-02 a       655     0    33     1    15
  1.3199767613670252E-01 a       656     0    33     1    16
  1.1021592841818470E-01 a       657     0    33     1    17
  7.1676527092391668E-02 a       658     0    33     1    18
 -1.4888250410789650E-01 a       659     0    33     1    19
  5.1642474070648758E-02 a       660     0    33     1    20
  6.5448928667657391E-02 a       661     0    34     1     1
 -5.7591326531274856E-02 a       662     0    34     1     2
  4.8176532046840671E-02 a       663     0    34     1     3
  1.8356698919923024E-02 a       664     0    34     1     4
  4.6448968370437917E-02 a       665     0    34     1     5
  6.4431124469894602E-02 a       666     0    34     1     6
 -9.6920627688232668E-03 a       667     0    34     1     7
 -4.5617151688171091E-02 a       668     0    34     1     8
 -9.7699235677486777E-03 a       669     0    34     1     9
  8.1289619542766506E-02 a       670     0    34     1    10
 -3.5398192007328124E-03 a       671     0    34     1    11
  4.6342415685395454E-02 a       672     0    34     1    12
 -8.9428927622968266E-02 a       673     0    34     1    13
  2.7194164792336231E-04 a       674     0    34     1    14
  8.8964056840743599E-02 a       675     0    34     1    15
  3.2751175131507763E-02 a       676     0    34     1    16
  4.2588837677891053E-02 a       677     0    34     1    17
 -1.1022903882472679E-01 a       678     0    34     1    18
  2.1110466266980413E-01 a       679     0    34     1    19
 -1.0456527895698451E-02 a       680     0    34     1    20
 -9.6490940265117148E-02 a       681     0    35     1     1
 -2.2581814144611412E-01 a       682     0    35     1     2
  1.7133622874344884E-01 a       683     0    35     1     3
  1.7360908112161424E-01 a       684     0    35     1     4
 -1.0016356146647687E-01 a       685     0    35     1     5
  1.0602233305883586E-01 a       686     0    35     1     6
 -5.0773203139345774E-02 a       687     0    35     1     7
  5.0832160731584641E-02 a       688     0    35     1     8
 -4.7354571882305810E-02 a       689     0    35     1     9
 -3.7148467842855956E-02 a       690     0    35     1    10
 -5.5186788725786043E-02 a       691     0    35     1    11
 -2.3199653134996976E-02 a       692     0    35     1    12
 -1.2283891333268121E-01 a       693     0    35     1    13
  9.7463168385310051E-02 a       694     0    35     1    14
 -3.0859007970336829E-02 a       695     0    35     1    15
 -2.3959282300425377E-02 a       696     0    35     1    16
 -2.2919498769842034E-02 a       697     0    35     1    17
  7.5821295770578681E-02 a       698     0    35     1    18
  1.5021626494336195E-02 a       699     0    35     1    19
  2.9466767695158304E-02 a       700     0    35     1    20
  1.0871319922272163E-01 a       701     0    36     1     1
 -1.2236867660868879E-02 a       702     0    36     1     2
 -5.2284796080251043E-02 a       703     0    36     1     3
 -1.8207683494272442E-01 a       704     0    36     1     4
 -9.1190973820146931E-02 a       705     0    36     1     5
  9.1917917885665681E-02 a       706     0    36     1     6
 -1.7691696285801098E-02 a       707     0    36     1     7
 -4.1189520672922614E-02 a       708     0    36     1     8
  2.3639368318235928E-02 a       709     0    36     1     9
  8.5533801659037290E-02 a       710     0    36     1    10
  3.4205048299226430E-02 a       711     0    36     1    11
  5.7869685234523703E-02 a       712     0    36     1    12
 -7.0745151461148667E-02 a       713     0    36     1    13
 -1.0581088772491090E-01 a       714     0    36     1    14
 -8.9910442009091970E-02 a       715     0    36     1    15
 -4.9704640351788773E-02 a       716     0    36     1    16
 -2.2176924695205819E-01 a       717     0    36     1    17
  7.3588079934502837E-02 a       718     0    36     1    18
  1.1166897017715173E-01 a       719     0    36     1    19
 -1.0362342775442897E-01 a       720     0    36     1    20
 -3.4138206132418226E-02 a       721     0    37     1     1
 -9.9284980988039243E-02 a       722     0    37     1     2
  2.9079835126272152E-01 a       723     0    37     1     3
  7.7358859887898743E-02 a       724     0    37     1     4
  1.3769777055649376E-01 a       725     0    37     1     5
  1.8591348401808899E-01 a       726     0    37     1     6
  4.5653779286715927E-02 a       727     0    37     1     7
  6.0776907028677806E-03 a       728     0    37     1     8
  8.9005367456546636E-02 a       729     0    37     1     9
 -8.2410300421078275E-02 a       730     0    37     1    10
  7.2047967727094778E-02 a       731     0    37     1    11
  3.6796741082582747E-02 a       732     0    37     1    12
  5.2243365627383291E-02 a       733     0    37     1    13
 -6.0605359529874170E-02 a       734     0    37     1    14
 -6.1698388272327716E-02 a       735     0    37     1    15
 -1.1868934545892555E-01 a       736     0    37     1    16
  2.9181447040130919E-02 a       737     0    37     1    17
 -1.7047330098631455E-04 a       738     0    37     1    18
 -8.9904164384056531E-02 a       739     0    37     1    19
 -8.1844315510617938E-02 a       740     0    37     1    20
 -1.3098508697855249E-01 a       741     0    38     1     1
 -4.5600239944105933E-02 a       742     0    38     1     2
 -1.0123799602347298E-01 a       743     0    38     1     3
 -5.2746004445725352E-02 a       744     0    38     1     4
  1.7102134473734133E-02 a       745     0    38     1     5
 -1.1080274065044492E-01 a       746     0    38     1     6
 -1.7128890753761167E-01 a       747     0    38     1     7
 -6.7015829231835591E-02 a       748     0    38     1     8
  8.8436687169523548E-02 a       749     0    38     1     9
 -2.7696797890447135E-02 a       750     0    38     1    10
  6.1744465926037093E-02 a       751     0    38     1    11
 -2.5432452984321695E-02 a       752     0    38     1    12
  1.8919281404886593E-01 a       753     0    38     1    13
  1.9883360350149837E-01 a       754     0    38     1    14
  1.0127786499015033E-01 a       755     0    38     1    15
 -1.0177779323392179E-01 a       756     0    38     1    16
  7.1950490732105091E-02 a       757     0    38     1    17
 -3.3902360570964650E-02 a       758     0    38     1    18
  5.4976857413070533E-02 a       759     0    38     1    19
 -5.8841515242081074E-02 a       760     0    38     1    20
  4.0412239074864964E-02 a       761     0    39     1     1
  9.5229449411923878E-02 a       762     0    39     1     2
  8.3268606258759065E-02 a       763     0    39     1     3
 -1.7170102916994445E-02 a       764     0    39     1     4
 -7.8703408492873717E-02 a       765     0    39     1     5
 -8.6021470217098245E-02 a       766     0    39     1     6
  3.4889981699706106E-02 a       767     0    39     1     7
  3.8726235179908121E-02 a       768     0    39     1     8
  4.1050400094224684E-02 a       769     0    39     1     9
 -3.6605670302310572E-02 a       770     0    39     1    10
  5.5123278077747737E-02 a       771     0    39     1    11
 -6.7618255367517029E-03 a       772     0    39     1    12
  9.3493561412513221E-02 a       773     0    39     1    13
 -6.8760284566642071E-02 a       774     0    39     1    14
 -1.2262314808948177E-01 a       775     0    39     1    15
 -7.3040638085748552E-02 a       776     0    39     1    16
 -2.2272436855533070E-01 a       777     0    39     1    17
  1.7406396511472638E-01 a       778     0    39     1    18
 -2.0821536391710493E-01 a       779     0    39     1    19
  1.4688780319108646E-02 a       780     0    39     1    20
 -7.6557281393406701E-02 a       781     0    40     1     1
  8.2209892763455708E-02 a       782     0    40     1     2
 -8.5834086916685023E-02 a       783     0    40     1     3
  2.2530987594608265E-03 a       784     0    40     1     4
  1.4504831248423966E-01 a       785     0    40     1     5
 -8.7560990997808091E-02 a       786     0    40     1     6
  1.1741763881228178E-02 a       787     0    40     1     7
  8.5195334160884179E-02 a       788     0    40     1     8
  1.2116827122080111E-01 a       789     0    40     1     9
  1.8896956294760705E-02 a       790     0    40     1    10
 -3.5349687685317819E-03 a       791     0    40     1    11
 -1.7567767965415020E-02 a       792     0    40     1    12
  1.0975610786581542E-01 a       793     0    40     1    13
 -9.0781029936230870E-02 a       794     0    40     1    14
  8.7259997571445563E-02 a       795     0    40     1    15
 -1.2823563778502811E-01 a       796     0    40     1    16
  2.1365653253863436E-02 a       797     0    40     1    17
  1.5219965954008489E-02 a       798     0    40     1    18
  6.2471732792070429E-03 a       799     0    40     1    19
 -9.6140908032812000E-02 a       800     0    40     1    20
  8.1702357178253790E-02 a       801     0    41     1     1
  2.9004011412956561E-02 a       802     0    41     1     2
  1.9709554140946692E-02 a       803     0    41     1     3
  4.1884137854235087E-02 a       804     0    41     1     4
  9.7996672820938949E-02 a       805     0    41     1     5
  2.7808255301441757E-02 a       806     0    41     1     6
  7.2728253838978268E-02 a       807     0    41     1     7
  8.8492925759606045E-02 a       808     0    41     1     8
 -9.4932352663855524E-02 a       809     0    41     1     9
 -4.1186846914197869E-02 a       810     0    41     1    10
  4.6231323926520365E-02 a       811     0    41     1    11
 -7.1565685415884372E-02 a       812     0    41     1    12
  9.7116107786374459E-02 a       813     0    41     1    13
 -4.9503996902292742E-02 a       814     0    41     1    14
  1.5901438604417159E-02 a       815     0    41     1    15
  9.8408765988015401E-02 a       816     0    41     1    16
  1.2088601145038555E-01 a       817     0    41     1    17
 -3.3451719681401003E-02 a       818     0    41     1    18
 -4.7797049413598816E-02 a       819     0    41     1    19
  3.7337082346954265E-02 a       820     0    41     1    20
 -3.7503550121418254E-02 a       821     0    42     1     1
  1.1390723491396336E-01 a       822     0    42     1     2
 -9.9486171359824876E-02 a       823     0    42     1     3
  1.7716629658379623E-01 a       824     0    42     1     4
 -7.0759711333020017E-02 a       825     0    42     1     5
 -2.0752147384837405E-01 a       826     0    42     1     6
 -3.9813294887643173E-02 a       827     0    42     1     7
 -4.0387019381157185E-02 a       828     0    42     1     8
  1.6293776907610715E-02 a       829     0    42     1     9
  1.0540402757682057E-01 a       830     0    42     1    10
  8.3563054995752645E-02 a       831     0    42     1    11
  9.7111583784443761E-02 a       832     0    42     1    12
 -1.2857161435378836E-01 a       833     0    42     1    13
  2.1098914295235183E-01 a       834     0    42     1    14
  1.0996769159613097E-01 a       835     0    42     1    15
 -1.7807138289414956E-01 a       836     0    42     1    16
 -1.3108975807154463E-01 a       837     0    42     1    17
  3.4799091827330906E-03 a       838     0    42     1    18
  1.8167798648317916E-02 a       839     0    42     1    19
 -3.6325578309465034E-02 a       840     0    42     1    20
  6.9489391493896158E-02 a       841     0    43     1     1
 -7.1453231878906689E-02 a       842     0    43     1     2
 -4.1363553253514432E-03 a       843     0    43     1     3
 -5.5018504531154415E-02 a       844     0    43     1     4
 -1.7235609141636122E-02 a       845     0    43     1     5
  1.2979689589135793E-01 a       846     0    43     1     6
  6.7847779467149566E-02 a       847     0    43     1     7
 -1.8161980156608800E-02 a       848     0    43     1     8
 -7.3252503360057342E-02 a       849     0    43     1     9
 -6.5783996999342509E-02 a       850     0    43     1    10
 -6.7052148942576328E-02 a       851     0    43     1    11
 -4.4705974691458268E-02 a       852     0    43     1    12
 -1.3180416505839282E-01 a       853     0    43     1    13
 -1.2394939462428847E-01 a       854     0    43     1    14
 -2.9330372171816443E-02 a       855     0    43     1    15
  1.7317060093188424E-01 a       856     0    43     1    16
  1.4126656209702240E-01 a       857     0    43     1    17
  1.5507391019778315E-02 a       858     0    43     1    18
  3.8447236177087472E-02 a       859     0    43     1    19
  2.2120982436702442E-02 a       860     0    43     1    20
 -4.4354145144218527E-03 a       861     0    44     1     1
 -9.8098400996220428E-02 a       862     0    44     1     2
  1.4363140793382891E-02 a       863     0    44     1     3
 -1.2550156623669302E-02 a       864     0    44     1     4
  1.1273518804592830E-01 a       865     0    44     1     5
  5.3500952766803979E-02 a       866     0    44     1     6
 -5.3516543012896739E-02 a       867     0    44     1     7
  1.9219990153907813E-02 a       868     0    44     1     8
  1.2311686209919259E-04 a       869     0    44     1     9
  9.1533885239751520E-02 a       870     0    44     1    10
  7.3149977596623839E-02 a       871     0    44     1    11
 -1.8771309415621440E-02 a       872     0    44     1    12
 -3.7195029325119637E-02 a       873     0    44     1    13
 -1.2339475178907523E-02 a       874     0    44     1    14
  7.6502640038298972E-02 a       875     0    44     1    15
 -6.5495846501042440E-02 a       876     0    44     1    16
  4.1462936484714726E-02 a       877     0    44     1    17
 -8.8623633011856745E-02 a       878     0    44     1    18
  1.4688631169646954E-01 a       879     0    44     1    19
 -8.6539481566551432E-02 a       880     0    44     1    20
  5.7360789598894263E-02 a       881     0    45     1     1
 -9.3915932762131310E-02 a       882     0    45     1     2
  1.2566754398215105E-01 a       883     0    45     1     3
 -8.0354903181097503E-02 a       884     0    45     1     4
 -1.5674417464106596E-01 a       885     0    45     1     5
 -7.6854262849467567E-03 a       886     0    45     1     6
 -3.2607488964762378E-02 a       887     0    45     1     7
 -6.4104722614356430E-02 a       888     0    45     1     8
 -7.7413814303252337E-02 a       889     0    45     1     9
  2.5899973672539466E-03 a       890     0    45     1    10
  9.2390653085583724E-02 a       891     0    45     1    11
 -1.0884713824385117E-01 a       892     0    45     1    12
  8.5178465261010784E-03 a       893     0    45     1    13
  1.1326998222754715E-01 a       894     0    45     1    14
 -5.6058883794345281E-02 a       895     0    45     1    15
 -4.7755389464418131E-02 a       896     0    45     1    16
 -6.3891252680304045E-02 a       897     0    45     1    17
  7.2825990956886105E-02 a       898     0    45     1    18
 -1.7836959228190841E-02 a       899     0    45     1    19
  3.9402005318608949E-02 a       900     0    45     1    20
 -7.9874022445977827E-02 a       901     0    46     1     1
  1.0582463855138576E-01 a       902     0    46     1     2
  1.2349511630006464E-02 a       903     0    46     1     3
 -4.7545581017578824E-02 a       904     0    46     1     4
  4.3417761426464488E-02 a       905     0    46     1     5
  2.0283887419311072E-02 a       906     0    46     1     6
  5.0352313835815982E-02 a       907     0    46     1     7
 -2.1986960583383198E-03 a       908     0    46     1     8
  3.6602007544326527E-02 a       909     0    46     1     9
  8.0144587371289447E-02 a       910     0    46     1    10
  3.9567508456173232E-02 a       911     0    46     1    11
  5.4577204783254361E-02 a       912     0    46     1    12
  6.4124943396187281E-02 a       913     0    46     1    13
 -1.3792308465335415E-01 a       914     0    46     1    14
  2.9665513035994830E-02 a       915     0    46     1    15
  8.4278311194241270E-02 a       916     0    46     1    16
 -1.3140693798808323E-01 a       917     0    46     1    17
  2.6221370542529182E-02 a       918     0    46     1    18
 -1.7832196623206977E-02 a       919     0    46     1    19
 -3.5211382447179751E-02 a       920     0    46     1    20
 -4.9311377825086787E-02 a       921     0    47     1     1
  3.6733977289038995E-02 a       922     0    47     1     2
  1.3821581189344833E-02 a       923     0    47     1     3
  1.0493144639647234E-01 a       924     0    47     1     4
  6.1715281287173129E-02 a       925     0    47     1     5
 -4.0475817806730353E-02 a       926     0    47     1     6
  6.6872992264095134E-03 a       927     0    47     1     7
 -2.8441445148950299E-02 a       928     0    47     1     8
  1.9412454329840699E-02 a       929     0    47     1     9
 -4.6340276013027433E-02 a       930     0    47     1    10
  3.8344741846199300E-02 a       931     0    47     1    11
  8.4139665071666647E-02 a       932     0    47     1    12
 -1.9452348008126177E-01 a       933     0    47     1    13
 -1.9537221470149090E-02 a       934     0    47     1    14
 -5.1922208671103851E-02 a       935     0    47     1    15
  1.2996818134869165E-01 a       936     0    47     1    16
  3.6960339617576311E-02 a       937     0    47     1    17
 -9.1987407407291125E-02 a       938     0    47     1    18
 -1.4067761743481116E-01 a       939     0    47     1    19
  4.9379688909556588E-02 a       940     0    47     1    20
 -9.0184579675318260E-02 a       941     0    48     1     1
 -6.1133083404498944E-03 a       942     0    48     1     2
  4.3977899365269472E-03 a       943     0    48     1     3
  6.7693970984304727E-02 a       944     0    48     1     4
  1.2691654202215512E-02 a       945     0    48     1     5
 -1.0557570702463841E-01 a       946     0    48     1     6
 -8.0983295329847660E-02 a       947     0    48     1     7
 -1.1033184061863298E-03 a       948     0    48     1     8
  1.1944255397128201E-01 a       949     0    48     1     9
 -1.0377111137761654E-02 a       950     0    48     1    10
 -8.6516398429726943E-03 a       951     0    48     1    11
  1.4916959585478218E-02 a       952     0    48     1    12
  2.4149253584699885E-02 a       953     0    48     1    13
  6.6721806770632996E-02 a       954     0    48     1    14
  1.8912682186535485E-02 a       955     0    48     1    15
  2.5545928094131070E-02 a       956     0    48     1    16
 -5.3940360708172125E-02 a       957     0    48     1    17
 -2.2615960040839999E-02 a       958     0    48     1    18
 -5.1241732538741883E-02 a       959     0    48     1    19
 -3.4899424914174239E-03 a       960     0    48     1    20
  1.3608019226886578E-01 a       961     0    49     1     1
 -2.0974329002033148E-02 a       962     0    49     1     2
  6.7331688822561173E-02 a       963     0    49     1     3
 -1.4409277470195594E-02 a       964     0    49     1     4
 -9.2523576249390463E-02 a       965     0    49     1     5
  8.5737595276511296E-03 a       966     0    49     1     6
  2.5370222762944358E-02 a       967     0    49     1     7
  1.7915175119815011E-02 a       968     0    49     1     8
 -4.9366356810992421E-03 a       969     0    49     1     9
 -3.9600925260503041E-03 a       970     0    49     1    10
 -1.7738242520597924E-02 a       971     0    49     1    11
 -7.6139415707869640E-02 a       972     0    49     1    12
  6.1359079672233696E-02 a       973     0    49     1    13
  2.7550686165327295E-02 a       974     0    49     1    14
 -3.7960928413022371E-02 a       975     0    49     1    15
 -6.6568903610789959E-02 a       976     0    49     1    16
 -1.0380112103795262E-01 a       977     0    49     1    17
  8.9738226030642951E-02 a       978     0    49     1    18
  2.1601732828234119E-02 a       979     0    49     1    19
  9.6001824722419769E-03 a       980     0    49     1    20
 -2.4772547719809669E-03 a       981     0    50     1     1
 -6.5732443959132358E-02 a       982     0    50     1     2
  4.8396413928468753E-02 a       983     0    50     1     3
  1.0995260799478121E-01 a       984     0    50     1     4
  9.3334825962231027E-02 a       985     0    50     1     5
  6.0267951729955339E-02 a       986     0    50     1     6
 -7.9431749199796939E-03 a       987     0    50     1     7
  3.0809860576996181E-02 a       988     0    50     1     8
  1.3714306431338261E-01 a       989     0    50     1     9
 -1.2782387986892978E-02 a       990     0    50     1    10
 -3.0633398773559948E-02 a       991     0    50     1    11
  3.3207063666250265E-02 a       992     0    50     1    12
 -6.7510962517424292E-02 a       993     0    50     1    13
 -1.1565792610938357E-01 a       994     0    50     1    14
  4.2295331002022742E-02 a       995     0    50     1    15
 -7.8057781171316496E-04 a       996     0    50     1    16
 -3.6382566574869849E-03 a       997     0    50     1    17
  2.0320289995045936E-02 a       998     0    50     1    18
  4.5335163481008814E-02 a       999     0    50     1    19
 -7.1111182553595886E-02 a      1000     0    50     1    20
 -3.3374568105089331E-01 a      1001     0    51     1     1
  3.5796077051696029E-01 a      1002     0    51     1     2
 -1.9447298933737725E-01 a      1003     0    51     1     3
 -1.7479226084917945E-01 a      1004     0    51     1     4
  2.2112656969816660E-01 a      1005     0    51     1     5
 -1.9448543786056555E-01 a      1006     0    51     1     6
  1.6090469696787721E-01 a      1007     0    51     1     7
 -1.1181486913403590E-01 a      1008     0    51     1     8
 -1.2371358670736504E-01 a      1009     0    51     1     9
  3.0777966050302330E-01 a      1010     0    51     1    10
  2.1039798460115758E-01 a      1011     0    51     1    11
  1.3821433438102496E-01 a      1012     0    51     1    12
  1.7503371108922108E-01 a      1013     0    51     1    13
 -2.2986041327525381E-01 a      1014     0    51     1    14
 -1.8639991199023578E-01 a      1015     0    51     1    15
  3.6004001993262341E-01 a      1016     0    51     1    16
 -1.6855952295375815E-02 a      1017     0    51     1    17
 -2.3173494179235732E-01 a      1018     0    51     1    18
 -1.4652413511129891E-01 a      1019     0    51     1    19
  6.2120601547641663E-01 a      1020     0    51     1    20
 -1.8650853030788045E-01 a      1021     0    52     1     1
 -1.8299337970585680E-02 a      1022     0    52     1     2
 -2.6522808241802320E-01 a      1023     0    52     1     3
  1.0100325160871432E-01 a      1024     0    52     1     4
 -9.7822667668849117E-02 a      1025     0    52     1     5
  2.2985120051599094E-02 a      1026     0    52     1     6
 -8.6402768896228985E-02 a      1027     0    52     1     7
 -1.2263005164848795E-01 a      1028     0    52     1     8
 -1.1944316057525951E-02 a      1029     0    52     1     9
  4.1677433759422247E-02 a      1030     0    52     1    10
  1.2159913730018337E-01 a      1031     0    52     1    11
 -2.4912113607501901E-01 a      1032     0    52     1    12
  1.1063362225253275E-01 a      1033     0    52     1    13
 -1.4899747888929140E-02 a      1034     0    52     1    14
  6.2905626804973441E-02 a      1035     0    52     1    15
  2.2974008364565951E-01 a      1036     0    52     1    16
 -1.2339648499145209E-01 a      1037     0    52     1    17
 -1.4310535903668533E-02 a      1038     0    52     1    18
 -4.5989486196652364E-02 a      1039     0    52     1    19
 -9.8845867708199656E-02 a      1040     0    52     1    20
 -1.8809135419270848E-01 a      1041     0    53     1     1
 -1.1365597692568877E-01 a      1042     0    53     1     2
  3.4980207171377858E-01 a      1043     0    53     1     3
  2.7000468810576500E-01 a      1044     0    53     1     4
  3.5191471572835600E-02 a      1045     0    53     1     5
  3.3734398908964630E-01 a      1046     0    53     1     6
 -5.2197608665686707E-02 a      1047     0    53     1     7
 -1.9043407458199629E-01 a      1048     0    53     1     8
  4.1872014825983289E-01 a      1049     0    53     1     9
 -1.7061113191517585E-01 a      1050     0    53     1    10
 -4.5994925292419381E-01 a      1051     0    53     1    11
 -5.5527566710750198E-01 a      1052     0    53     1    12
  3.8084409965982559E-03 a      1053     0    53     1    13
 -1.3849852008120169E-02 a      1054     0    53     1    14
  8.3581481384524847E-01 a      1055     0    53     1    15
 -2.0104911024572070E-01 a      1056     0    53     1    16
 -2.7885503863839456E-01 a      1057     0    53     1    17
  5.1053147900736373E-01 a      1058     0    53     1    18
 -5.2531265805475437E-02 a      1059     0    53     1    19
 -8.2326841560723429E-01 a      1060     0    53     1    20
 -2.4669678958893276E-03 a      1061     0    54     1     1
 -1.3078055476554554E-01 a      1062     0    54     1     2
  1.1394475736975360E-01 a      1063     0    54     1     3
 -2.6457876158384953E-02 a      1064     0    54     1     4
 -2.0180579089550427E-02 a      1065     0    54     1     5
 -8.3387268463495853E-02 a      1066     0    54     1     6
 -3.7188213692715494E-02 a      1067     0    54     1     7
  4.1767276103446167E-02 a      1068     0    54     1     8
  1.0880910138407829E-01 a      1069     0    54     1     9
  2.2316658639934725E-01 a      1070     0    54     1    10
  1.5798655010961468E-01 a      1071     0    54     1    11
  2.4067444157043375E-02 a      1072     0    54     1    12
 -5.0502095010443795E-02 a      1073     0    54     1    13
 -6.0022488577294454E-02 a      1074     0    54     1    14
 -3.3284512241771334E-02 a      1075     0    54     1    15
 -2.8493360463594192E-01 a      1076     0    54     1    16
  4.7796773113669743E-03 a      1077     0    54     1    17
  1.6021607419782199E-02 a      1078     0    54     1    18
 -1.2172329610889891E-01 a      1079     0    54     1    19
  1.3039238596282746E-03 a      1080     0    54     1    20
 -4.7862965078620014E-02 a      1081     0    55     1     1
  6.8613587837471082E-02 a      1082     0    55     1     2
  1.1350437556342982E-01 a      1083     0    55     1     3
  3.3056695021186154E-02 a      1084     0    55     1     4
  2.4343928674752453E-02 a      1085     0    55     1     5
  1.9921181883783882E-02 a      1086     0    55     1     6
  7.4506502906758074E-02 a      1087     0    55     1     7
 -3.1096747800457049E-02 a      1088     0    55     1     8
 -3.1453802401396343E-02 a      1089     0    55     1     9
 -7.0647759821616252E-03 a      1090     0    55     1    10
  4.3503259779583490E-02 a      1091     0    55     1    11
 -7.2035430558001351E-02 a      1092     0    55     1    12
  8.9024439350729234E-02 a      1093     0    55     1    13
 -1.0711904223462701E-02 a      1094     0    55     1    14
  2.2177624492458664E-01 a      1095     0    55     1    15
 -1.7480975195479490E-01 a      1096     0    55     1    16
  4.6136200727520907E-02 a      1097     0    55     1    17
  1.2827707822657117E-01 a      1098     0    55     1    18
  1.7874178405515850E-01 a      1099     0    55     1    19
 -5.5377535117279712E-02 a      1100     0    55     1    20
 -1.7372977137088971E-01 a      1101     0    56     1     1
 -5.4789460049410633E-02 a      1102     0    56     1     2
  1.5780908167685145E-01 a      1103     0    56     1     3
 -1.3623335141602891E-01 a      1104     0    56     1     4
  2.3751285426625782E-01 a      1105     0    56     1     5
  2.2837123906508347E-01 a      1106     0    56     1     6
  5.5159855369648778E-02 a      1107     0    56     1     7
 -8.3197334516999941E-02 a      1108     0    56     1     8
  6.9822673675996094E-02 a      1109     0    56     1     9
  1.3884672980353469E-01 a      1110     0    56     1    10
 -4.1347372378710756E-03 a      1111     0    56     1    11
 -6.5687313407869312E-04 a      1112     0    56     1    12
 -6.8461827762901301E-02 a      1113     0    56     1    13
  5.7604181213727658E-02 a      1114     0    56     1    14
  2.1065213616886977E-01 a      1115     0    56     1    15
  1.1100154566574466E-01 a      1116     0    56     1    16
 -1.6153139141347750E-01 a      1117     0    56     1    17
  1.0330319548539302E-02 a      1118     0    56     1    18
 -1.7748824521218912E-01 a      1119     0    56     1    19
 -2.7787886952396385E-01 a      1120     0    56     1    20
  3.5717831649429899E-01 a      1121     0    57     1     1
 -1.4212949922039303E-01 a      1122     0    57     1     2
  8.9901516466208663E-03 a      1123     0    57     1     3
 -1.2601377527647994E-01 a      1124     0    57     1     4
 -2.4746121767349777E-01 a      1125     0    57     1     5
 -1.1242017160536825E-03 a      1126     0    57     1     6
  6.7362160335240645E-02 a      1127     0    57     1     7
 -2.2649154923245700E-05 a      1128     0    57     1     8
 -1.3431221450083067E-01 a      1129     0    57     1     9
 -3.1931824411818394E-01 a      1130     0    57     1    10
 -3.0690321364752769E-02 a      1131     0    57     1    11
  3.4550737596373872E-02 a      1132     0    57     1    12
  2.5919319046917361E-01 a      1133     0    57     1    13
 -6.5988703088621245E-02 a      1134     0    57     1    14
  2.9525733141914062E-01 a      1135     0    57     1    15
  1.5269432998458904E-01 a      1136     0    57     1    16
 -1.2474415162444613E-01 a      1137     0    57     1    17
  8.4504306600906839E-02 a      1138     0    57     1    18
  2.4440526895736506E-01 a      1139     0    57     1    19
  8.9132368686265756E-02 a      1140     0    57     1    20
 -1.2635179487414136E-01 a      1141     0    58     1     1
  3.6701939513988056E-02 a      1142     0    58     1     2
 -1.3134643798231974E-01 a      1143     0    58     1     3
 -1.1975437621821163E-01 a      1144     0    58     1     4
 -1.2478792442108981E-01 a      1145     0    58     1     5
 -1.3604186096229293E-01 a      1146     0    58     1     6
  1.6023935677546109E-02 a      1147     0    58     1     7
 -7.7502614643568821E-02 a      1148     0    58     1     8
 -4.0650994540174845E-02 a      1149     0    58     1     9
 -1.2722109782070734E-01 a      1150     0    58     1    10
 -2.1193646082970488E-01 a      1151     0    58     1    11
 -2.9964800136239572E-01 a      1152     0    58     1    12
  6.8627492212534016E-02 a      1153     0    58     1    13
 -2.5345830618772541E-01 a      1154     0    58     1    14
 -5.1007020178281751E-02 a      1155     0    58     1    15
  1.1804562851241007E-01 a      1156     0    58     1    16
  6.7334324726645911E-02 a      1157     0    58     1    17
  2.9747666914205795E-01 a      1158     0    58     1    18
  1.5948606269790891E-01 a      1159     0    58     1    19
 -1.2396550996536973E-01 a      1160     0    58     1    20
  1.2779354958112563E-01 a      1161     0    59     1     1
  4.8386844328472067E-02 a      1162     0    59     1     2
 -2.5738533441228850E-01 a      1163     0    59     1     3
  2.1490049997572203E-01 a      1164     0    59     1     4
 -4.0481887142734541E-02 a      1165     0    59     1     5
  7.0549785908774143E-02 a      1166     0    59     1     6
  4.6350222004458284E-02 a      1167     0    59     1     7
  1.8452440079507110E-02 a      1168     0    59     1     8
  2.0932793305118182E-02 a      1169     0    59     1     9
 -1.9007727044453399E-01 a      1170     0    59     1    10
 -7.9954479741268417E-02 a      1171     0    59     1    11
  7.4326191698126667E-02 a      1172     0    59     1    12
 -2.7313879223411029E-03 a      1173     0    59     1    13
 -8.2325155827127031E-02 a      1174     0    59     1    14
 -1.3770152564646826E-01 a      1175     0    59     1    15
  9.6763161857452637E-02 a      1176     0    59     1    16
  7.5383860239978187E-02 a      1177     0    59     1    17
  6.7548618913511285E-02 a      1178     0    59     1    18
 -8.0300036182319096E-02 a      1179     0    59     1    19
 -4.2011521976294340E-02 a      1180     0    59     1    20
 -8.3700945557732290E-02 a      1181     0    60     1     1
 -1.0236355723579785E-01 a      1182     0    60     1     2
  1.4098005638152358E-01 a      1183     0    60     1     3
 -3.2303560590156134E-02 a      1184     0    60     1     4
 -7.6451308214780606E-02 a      1185     0    60     1     5
  1.6270193545393781E-02 a      1186     0    60     1     6
  2.0288954954710200E-01 a      1187     0    60     1     7
  1.1298453756056617E-01 a      1188     0    60     1     8
 -4.0532877838381998E-01 a      1189     0    60     1     9
  3.0198310507237668E-02 a      1190     0    60     1    10
 -8.9468709828514251E-02 a      1191     0    60     1    11
  3.3634614634230425E-01 a      1192     0    60     1    12
  4.4225964196548354E-02 a      1193     0    60     1    13
 -1.4904123831573260E-01 a      1194     0    60     1    14
  4.7239439948378793E-02 a      1195     0    60     1    15
  1.2979590053084245E-01 a      1196     0    60     1    16
 -1.8574691644158473E-01 a      1197     0    60     1    17
 -1.2226031381609402E-01 a      1198     0    60     1    18
  2.9205977606874472E-02 a      1199     0    60     1    19
  3.7186884054771191E-01 a      1200     0    60     1    20
  1.2471651764245558E-02 a      1201     0    61     1     1
 -9.2035763967819831E-02 a      1202     0    61     1     2
  1.4991968386118512E-02 a      1203     0    61     1     3
 -4.8423989041947127E-02 a      1204     0    61     1     4
  1.2886213045946127E-01 a      1205     0    61     1     5
 -6.5183597224232170E-02 a      1206     0    61     1     6
 -1.0613074974732131E-01 a      1207     0    61     1     7
 -1.4380817103084678E-01 a      1208     0    61     1     8
  9.6036919813333052E-02 a      1209     0    61     1     9
  2.6568696029874956E-02 a      1210     0    61     1    10
  5.9085070719160492E-02 a      1211     0    61     1    11
  2.6406507284423588E-02 a      1212     0    61     1    12
 -1.2253942039578179E-01 a      1213     0    61     1    13
 -5.7085633736244049E-02 a      1214     0    61     1    14
  7.7404417728566433E-02 a      1215     0    61     1    15
  3.6885481795799285E-02 a      1216     0    61     1    16
  2.8686133693021944E-02 a      1217     0    61     1    17
 -2.7615734325787265E-02 a      1218     0    61     1    18
  1.0117513663530980E-01 a      1219     0    61     1    19
  8.7252805421537249E-03 a      1220     0    61     1    20
  9.0021609099795832E-04 a      1221     0    62     1     1
 -1.5863012860438805E-01 a      1222     0    62     1     2
  2.8671429871316417E-02 a      1223     0    62     1     3
  1.4169416579189731E-01 a      1224     0    62     1     4
  2.6230899476859994E-02 a      1225     0    62     1     5
  1.0738256360043963E-01 a      1226     0    62     1     6
 -4.9423655553767036E-02 a      1227     0    62     1     7
  1.1758012515541912E-01 a      1228     0    62     1     8
 -5.8146229108775871E-02 a      1229     0    62     1     9
  2.6293087093322291E-03 a      1230     0    62     1    10
  3.6861998734330582E-02 a      1231     0    62     1    11
  1.1309346762749752E-02 a      1232     0    62     1    12
  2.9577947859302667E-02 a      1233     0    62     1    13
 -4.2642099991891350E-02 a      1234     0    62     1    14
  5.6200043698645778E-02 a      1235     0    62     1    15
  4.3543222752833170E-02 a      1236     0    62     1    16
 -1.9383995798580494E-02 a      1237     0    62     1    17
 -2.5324930349959001E-03 a      1238     0    62     1    18
 -9.1015530401043113E-02 a      1239     0    62     1    19
  3.1316312140360195E-03 a      1240     0    62     1    20
  4.4504175325234825E-02 a      1241     0    63     1     1
 -1.0535293291282478E-01 a      1242     0    63     1     2
 -4.0579618662092157E-02 a      1243     0    63     1     3
 -8.9932124508019767E-02 a      1244     0    63     1     4
  1.2742825238276090E-01 a      1245     0    63     1     5
  1.5154794723187370E-01 a      1246     0    63     1     6
 -1.5435585553821110E-02 a      1247     0    63     1     7
 -1.7462798823934442E-01 a      1248     0    63     1     8
 -1.9406651633382552E-02 a      1249     0    63     1     9
  7.1421336507794100E-02 a      1250     0    63     1    10
  7.9619351515840986E-02 a      1251     0    63     1    11
 -1.9660908193941748E-01 a      1252     0    63     1    12
  1.0348818312770340E-01 a      1253     0    63     1    13
  1.9388711635626053E-03 a      1254     0    63     1    14
 -9.3432128329605471E-02 a      1255     0    63     1    15
 -1.5461472903399542E-01 a      1256     0    63     1    16
  4.4659378565676144E-02 a      1257     0    63     1    17
  9.0786568648279789E-02 a      1258     0    63     1    18
  3.7818614053527141E-02 a      1259     0    63     1    19
 -1.9991271841050601E-01 a      1260     0    63     1    20
  9.0479744677238502E-02 a      1261     0    64     1     1
 -1.0446253872275661E-01 a      1262     0    64     1     2
  7.4300519058278724E-02 a      1263     0    64     1     3
  1.3784106505961899E-01 a      1264     0    64     1     4
 -5.7463331270018347E-02 a      1265     0    64     1     5
  2.6712836063959376E-02 a      1266     0    64     1     6
 -1.0624340099825520E-01 a      1267     0    64     1     7
 -5.7357740841331675E-02 a      1268     0    64     1     8
  1.3966710580945019E-01 a      1269     0    64     1     9
  3.2428393924119458E-03 a      1270     0    64     1    10
 -8.2298344100435294E-02 a      1271     0    64     1    11
  8.6894598332942774E-02 a      1272     0    64     1    12
 -6.6618266607413434E-02 a      1273     0    64     1    13
  5.7133337274641059E-02 a      1274     0    64     1    14
 -7.9165369441574068E-03 a      1275     0    64     1    15
  8.2616415430621620E-02 a      1276     0    64     1    16
 -1.0359230329822786E-01 a      1277     0    64     1    17
  2.3274431493473090E-02 a      1278     0    64     1    18
 -4.1045538290806177E-02 a      1279     0    64     1    19
  4.8487544501722218E-03 a      1280     0    64     1    20
  1.1547253038876659E-01 a      1281     0    65     1     1
 -2.4623148740219639E-01 a      1282     0    65     1     2
  6.3896970738788056E-02 a      1283     0    65     1     3
  2.5334903911101325E-02 a      1284     0    65     1     4
 -1.3699652543900767E-01 a      1285     0    65     1     5
 -1.9942137074092821E-02 a      1286     0    65     1     6
 -3.0120513066063536E-03 a      1287     0    65     1     7
  1.0991798777369678E-01 a      1288     0    65     1     8
  2.5657151894163267E-02 a      1289     0    65     1     9
  2.3117918397969787E-02 a      1290     0    65     1    10
 -1.3081361292359311E-01 a      1291     0    65     1    11
 -1.0536395716828148E-01 a      1292     0    65     1    12
  2.5119410081014915E-02 a      1293     0    65     1    13
  3.8294676283994432E-02 a      1294     0    65     1    14
  7.7701764709271190E-02 a      1295     0    65     1    15
  2.5655695663546699E-02 a      1296     0    65     1    16
  3.9929337077368059E-02 a      1297     0    65     1    17
 -7.1164346806570536E-02 a      1298     0    65     1    18
  2.7914374321058540E-02 a      1299     0    65     1    19
  6.6710354081055329E-02 a      1300     0    65     1    20
 -1.4291300927013273E-01 a      1301     0    66     1     1
  1.4183681717210336E-02 a      1302     0    66     1     2
  1.8205878362522565E-01 a      1303     0    66     1     3
 -3.9325038764878867E-01 a      1304     0    66     1     4
 -1.6951658061280334E-01 a      1305     0    66     1     5
 -4.6860284507616971E-03 a      1306     0    66     1     6
  1.6658712041769436E-01 a      1307     0    66     1     7
  3.3468614603248452E-02 a      1308     0    66     1     8
  2.1468229456723731E-01 a      1309     0    66     1     9
 -1.3364460739716555E-01 a      1310     0    66     1    10
  1.2433369763125719E-01 a      1311     0    66     1    11
 -1.0408071409697564E-01 a      1312     0    66     1    12
 -2.0964224233806175E-01 a      1313     0    66     1    13
  5.7853183951319644E-02 a      1314     0    66     1    14
  2.6173312700038648E-01 a      1315     0    66     1    15
 -2.8827354368668562E-01 a      1316     0    66     1    16
  2.9952744319627883E-01 a      1317     0    66     1    17
 -2.3410391780133036E-01 a      1318     0    66     1    18
 -3.9823811577195806E-02 a      1319     0    66     1    19
 -1.3781475178645036E-01 a      1320     0    66     1    20
  6.4526071861766149E-02 a      1321     0    67     1     1
  1.0143549051884997E-01 a      1322     0    67     1     2
 -3.7261999892021731E-02 a      1323     0    67     1     3
  2.5933785587057379E-01 a      1324     0    67     1     4
 -2.6946248750408065E-02 a      1325     0    67     1     5
  2.2284779866689187E-02 a      1326     0    67     1     6
  6.4613360637333403E-02 a      1327     0    67     1     7
 -8.3119139347630169E-02 a      1328     0    67     1     8
 -3.4862500968836762E-03 a      1329     0    67     1     9
 -7.5879628708838395E-02 a      1330     0    67     1    10
  1.4732247953216818E-01 a      1331     0    67     1    11
 -8.6833433857807063E-02 a      1332     0    67     1    12
  1.5174885166093052E-01 a      1333     0    67     1    13
  1.6120789852241321E-01 a      1334     0    67     1    14
 -3.4857409751416678E-02 a      1335     0    67     1    15
  7.1221439277852211E-02 a      1336     0    67     1    16
  6.2845662761822407E-02 a      1337     0    67     1    17
 -2.2610816490470506E-01 a      1338     0    67     1    18
 -1.7627449017056099E-02 a      1339     0    67     1    19
  3.2981513358503994E-02 a      1340     0    67     1    20
  3.9672735222975188E-02 a      1341     0    68     1     1
 -1.0781592361648200E-01 a      1342     0    68     1     2
 -1.2397745957006880E-01 a      1343     0    68     1     3
  2.2659037875617657E-01 a      1344     0    68     1     4
 -6.0101464733066289E-02 a      1345     0    68     1     5
 -4.2350156734846456E-01 a      1346     0    68     1     6
  3.7424649523955890E-02 a      1347     0    68     1     7
 -2.9402438448521756E-01 a      1348     0    68     1     8
 -2.6436563208742403E-01 a      1349     0    68     1     9
 -3.9949488420725356E-02 a      1350     0    68     1    10
 -1.0047384369571796E-01 a      1351     0    68     1    11
  3.7014032342543884E-01 a      1352     0    68     1    12
  3.1007948202144520E-01 a      1353     0    68     1    13
  1.7530667565312874E-01 a      1354     0    68     1    14
 -3.8424090264489785E-01 a      1355     0    68     1    15
  3.5778903599453366E-01 a      1356     0    68     1    16
  1.4265502146163667E-01 a      1357     0    68     1    17
 -7.2430072542152460E-04 a      1358     0    68     1    18
  3.5320122401977860E-01 a      1359     0    68     1    19
  4.5381727550357698E-01 a      1360     0    68     1    20
  6.7705561512229756E-02 a      1361     0    69     1     1
  1.7463275325510119E-01 a      1362     0    69     1     2
  1.3339696186278774E-01 a      1363     0    69     1     3
  2.1961840764999605E-02 a      1364     0    69     1     4
 -5.6754388410812935E-02 a      1365     0    69     1     5
  1.0201118049813547E-01 a      1366     0    69     1     6
  1.1598388316363598E-01 a      1367     0    69     1     7
 -3.4088966200819047E-02 a      1368     0    69     1     8
 -4.1916377570721287E-02 a      1369     0    69     1     9
 -1.5582453909022145E-01 a      1370     0    69     1    10
  4.4627315275785367E-02 a      1371     0    69     1    11
  1.2258637070697647E-02 a      1372     0    69     1    12
 -1.1920297352238431E-02 a      1373     0    69     1    13
  3.9930289359324370E-02 a      1374     0    69     1    14
  9.4723143916437783E-02 a      1375     0    69     1    15
  3.7776784011908572E-02 a      1376     0    69     1    16
 -1.4156746870917700E-01 a      1377     0    69     1    17
 -5.7386042368308944E-02 a      1378     0    69     1    18
 -3.1824550738390474E-02 a      1379     0    69     1    19
 -1.8358435707021916E-02 a      1380     0    69     1    20
  2.2204449064449530E-01 a      1381     0    70     1     1
  8.2433131946667612E-02 a      1382     0    70     1     2
 -1.9150000866922565E-01 a      1383     0    70     1     3
  1.9896899678948497E-02 a      1384     0    70     1     4
  1.1637101148422335E-01 a      1385     0    70     1     5
 -7.8965759097575347E-02 a      1386     0    70     1     6
  3.8792319952823041E-02 a      1387     0    70     1     7
 -1.0997927179062138E-01 a      1388     0    70     1     8
 -1.5969543877590481E-01 a      1389     0    70     1     9
 -6.9801631032095903E-03 a      1390     0    70     1    10
 -4.8928833067293745E-02 a      1391     0    70     1    11
 -1.7171473878772550E-01 a      1392     0    70     1    12
 -2.1980517100932820E-01 a      1393     0    70     1    13
  1.8320023559452453E-01 a      1394     0    70     1    14
 -1.5800238139574185E-01 a      1395     0    70     1    15
  9.7716696596312796E-02 a      1396     0    70     1    16
 -6.8853614678676149E-03 a      1397     0    70     1    17
  1.4574754739884072E-01 a      1398     0    70     1    18
  4.7832127043154107E-02 a      1399     0    70     1    19
 -5.4857328762912081E-03 a      1400     0    70     1    20
 -1.2562577884869069E-01 a      1401     0    71     1     1
 -3.0791067494700439E-02 a      1402     0    71     1     2
  3.4869657922175203E-02 a      1403     0    71     1     3
  2.3679097348464412E-01 a      1404     0    71     1     4
 -1.4671373824530440E-01 a      1405     0    71     1     5
 -1.0249116923177351E-01 a      1406     0    71     1     6
 -2.1593970574722740E-01 a      1407     0    71     1     7
 -5.8979559220018081E-02 a      1408     0    71     1     8
  1.0161105250110412E-01 a      1409     0    71     1     9
 -1.2014423011583820E-01 a      1410     0    71     1    10
  2.2118555865256151E-01 a      1411     0    71     1    11
 -7.5975276937505790E-02 a      1412     0    71     1    12
 -1.3890526454341356E-01 a      1413     0    71     1    13
 -1.5182762263403857E-01 a      1414     0    71     1    14
 -1.9400912726061495E-01 a      1415     0    71     1    15
  6.0173837024763206E-02 a      1416     0    71     1    16
 -1.2710988304852397E-01 a      1417     0    71     1    17
  6.3170244297304404E-02 a      1418     0    71     1    18
 -4.3045057356506884E-02 a      1419     0    71     1    19
  2.6045142038486663E-01 a      1420     0    71     1    20
 -1.0892940613935222E-01 a      1421     0    72     1     1
  1.0731721602514573E-01 a      1422     0    72     1     2
  1.7348494762073877E-01 a      1423     0    72     1     3
 -6.9032100565692631E-02 a      1424     0    72     1     4
  9.6805404807628531E-02 a      1425     0    72     1     5
 -1.2742956156279922E-01 a      1426     0    72     1     6
  1.0371318405849586E-01 a      1427     0    72     1     7
  8.1221952058779093E-02 a      1428     0    72     1     8
  2.2940477523236105E-01 a      1429     0    72     1     9
 -1.1423623864045720E-01 a      1430     0    72     1    10
 -9.0459540403314664E-02 a      1431     0    72     1    11
 -4.2341391285921084E-02 a      1432     0    72     1    12
 -1.5012194732978446E-01 a      1433     0    72     1    13
  5.0143626856227648E-02 a      1434     0    72     1    14
 -1.7365601806124756E-01 a      1435     0    72     1    15
  1.1181410271936046E-01 a      1436     0    72     1    16
  4.1539355931970327E-02 a      1437     0    72     1    17
  1.9822153141848253E-01 a      1438     0    72     1    18
  4.8765082309268376E-02 a      1439     0    72     1    19
  4.6486518551328855E-02 a      1440     0    72     1    20
  3.2418581213467335E-01 a      1441     0    73     1     1
 -6.4316866926156291E-02 a      1442     0    73     1     2
 -5.9360988100652393E-02 a      1443     0    73     1     3
 -1.5643798823973359E-01 a      1444     0    73     1     4
  1.4545416246053192E-01 a      1445     0    73     1     5
  8.3771393217884654E-02 a      1446     0    73     1     6
 -9.4093660190129907E-02 a      1447     0    73     1     7
  7.0297780561520848E-02 a      1448     0    73     1     8
  2.2715516300329142E-01 a      1449     0    73     1     9
 -1.2968777489507421E-02 a      1450     0    73     1    10
 -1.6494212404807523E-01 a      1451     0    73     1    11
  1.0001253847667107E-02 a      1452     0    73     1    12
 -5.7604487739157099E-02 a      1453     0    73     1    13
 -2.1739591475791853E-01 a      1454     0    73     1    14
 -7.9821027450352067E-03 a      1455     0    73     1    15
  7.7354369793406486E-02 a      1456     0    73     1    16
 -1.7160453986775279E-01 a      1457     0    73     1    17
 -1.1481021119403739E-01 a      1458     0    73     1    18
  4.5713680531760004E-02 a      1459     0    73     1    19
  3.6400944990745296E-02 a      1460     0    73     1    20
 -2.0170423702299714E-01 a      1461     0    74     1     1
  1.3032510219953705E-01 a      1462     0    74     1     2
 -4.5420282674814641E-03 a      1463     0    74     1     3
 -8.4541723579289019E-02 a      1464     0    74     1     4
  2.8746608211461866E-01 a      1465     0    74     1     5
 -2.0767193239988269E-01 a      1466     0    74     1     6
 -9.8261162188204992E-02 a      1467     0    74     1     7
  1.2705912586687876E-01 a      1468     0    74     1     8
  5.4368516414884079E-03 a      1469     0    74     1     9
 -7.1399194309287428E-02 a      1470     0    74     1    10
  4.5670728024333916E-03 a      1471     0    74     1    11
 -1.0225255735343000E-01 a      1472     0    74     1    12
  1.5845226612512638E-02 a      1473     0    74     1    13
  8.1370357991531458E-02 a      1474     0    74     1    14
  6.5802512164152135E-03 a      1475     0    74     1    15
 -7.0768399063493331E-02 a      1476     0    74     1    16
 -1.6408902851148174E-01 a      1477     0    74     1    17
  2.2901504130297613E-02 a      1478     0    74     1    18
 -9.3325830516692479E-02 a      1479     0    74     1    19
 -5.9964419970646880E-02 a      1480     0    74     1    20
  1.0451617224388042E-01 a      1481     0    75     1     1
  3.4067123579946701E-01 a      1482     0    75     1     2
  7.5694514301140853E-02 a      1483     0    75     1     3
 -1.4475210540762343E-01 a      1484     0    75     1     4
 -2.7136192754316707E-01 a      1485     0    75     1     5
  3.6301660750051196E-01 a      1486     0    75     1     6
 -2.5331273150318945E-01 a      1487     0    75     1     7
  1.4635408990184956E-01 a      1488     0    75     1     8
  1.3671731986002311E-01 a      1489     0    75     1     9
  2.9835970956741020E-01 a      1490     0    75     1    10
 -2.0998069326257231E-02 a      1491     0    75     1    11
 -6.4407956222660837E-02 a      1492     0    75     1    12
  1.2201380041330875E-01 a      1493     0    75     1    13
 -4.4281465718108204E-02 a      1494     0    75     1    14
  2.7977213885911612E-01 a      1495     0    75     1    15
  7.9141345290590553E-02 a      1496     0    75     1    16
 -6.2634300709646026E-02 a      1497     0    75     1    17
 -1.7013074992540961E-01 a      1498     0    75     1    18
  9.2190559185189563E-02 a      1499     0    75     1    19
 -2.5526879073711001E-01 a      1500     0    75     1    20
  1.6221914287788213E-03 a      1501     0    76     1     1
  1.0100458770908941E-01 a      1502     0    76     1     2
 -3.0469184958870421E-01 a      1503     0    76     1     3
  4.5317501416984228E-02 a      1504     0    76     1     4
 -1.5717782384250062E-01 a      1505     0    76     1     5
  2.0842608931086869E-03 a      1506     0    76     1     6
  5.0434197697009367E-02 a      1507     0    76     1     7
  1.1886342318626716E-02 a      1508     0    76     1     8
  6.7951419336723532E-03 a      1509     0    76     1     9
 -4.5065225814079575E-02 a      1510     0    76     1    10
 -7.9538527733127251E-02 a      1511     0    76     1    11
 -5.2492499220480077E-02 a      1512     0    76     1    12
  8.2619338390943042E-02 a      1513     0    76     1    13
 -1.8904635814662593E-01 a      1514     0    76     1    14
  8.8082150052953667E-02 a      1515     0    76     1    15
  1.9441917987649274E-01 a      1516     0    76     1    16
  5.1832919078238109E-02 a      1517     0    76     1    17
 -4.7084004561174328E-02 a      1518     0    76     1    18
  6.2964738129707390E-02 a      1519     0    76     1    19
 -2.1245449077784497E-02 a      1520     0    76     1    20
 -1.6827115350905975E-02 a      1521     0    77     1     1
  2.0805301270796445E-01 a      1522     0    77     1     2
  6.7973497744363513E-03 a      1523     0    77     1     3
 -2.0611427088591477E-01 a      1524     0    77     1     4
 -8.6746477458862728E-02 a      1525     0    77     1     5
 -8.3190897571182379E-02 a      1526     0    77     1     6
  4.5356862695623550E-02 a      1527     0    77     1     7
 -6.0264594341757474E-02 a      1528     0    77     1     8
  4.1865665411259446E-02 a      1529     0    77     1     9
  1.8088115759294743E-02 a      1530     0    77     1    10
 -5.9274273098966324E-02 a      1531     0    77     1    11
  1.0790129307674715E-01 a      1532     0    77     1    12
  7.4896008603496248E-03 a      1533     0    77     1    13
 -5.4032880946280802E-02 a      1534     0    77     1    14
  3.3321312151123120E-02 a      1535     0    77     1    15
 -4.1532062293642763E-03 a      1536     0    77     1    16
 -1.1249669051986481E-01 a      1537     0    77     1    17
 -8.8092251074920760E-02 a      1538     0    77     1    18
 -1.0604696724020857E-01 a      1539     0    77     1    19
 -8.6539298157235531E-02 a      1540     0    77     1    20
  1.0658638364574136E-01 a      1541     0    78     1     1
 -1.2035692525155285E-01 a      1542     0    78     1     2
  1.8807053209383498E-01 a      1543     0    78     1     3
 -2.5506024740714651E-02 a      1544     0    78     1     4
 -2.3432826810863241E-01 a      1545     0    78     1     5
 -4.5074019260478541E-02 a      1546     0    78     1     6
 -5.7859528054094791E-02 a      1547     0    78     1     7
  1.9250414486524056E-01 a      1548     0    78     1     8
 -1.2254278244327598E-02 a      1549     0    78     1     9
 -3.3045990798239826E-02 a      1550     0    78     1    10
  8.1688794547034066E-02 a      1551     0    78     1    11
  2.3778901056867047E-02 a      1552     0    78     1    12
  1.8668618090869865E-02 a      1553     0    78     1    13
  9.1329014970456979E-02 a      1554     0    78     1    14
  8.3116367514687803E-02 a      1555     0    78     1    15
 -1.7425856203287984E-01 a      1556     0    78     1    16
 -1.4922140238887355E-01 a      1557     0    78     1    17
  4.3639408443762004E-02 a      1558     0    78     1    18
  7.4867613034134958E-02 a      1559     0    78     1    19
  6.4255989338552991E-02 a      1560     0    78     1    20
 -1.6526360555612365E-01 a      1561     0    79     1     1
 -2.2268655175711031E-02 a      1562     0    79     1     2
  7.8452306863466520E-02 a      1563     0    79     1     3
 -1.1856238649234813E-01 a      1564     0    79     1     4
  1.1755322375506541E-01 a      1565     0    79     1     5
  5.2666318021769770E-02 a      1566     0    79     1     6
  1.4684690781558962E-01 a      1567     0    79     1     7
  1.3860581438681982E-01 a      1568     0    79     1     8
 -1.2628412690001117E-01 a      1569     0    79     1     9
  2.9818153215786836E-02 a      1570     0    79     1    10
 -2.6879758227002330E-02 a      1571     0    79     1    11
 -7.7830604138618892E-02 a      1572     0    79     1    12
 -5.9151065988797054E-02 a      1573     0    79     1    13
 -7.5556835796697322E-02 a      1574     0    79     1    14
  3.0900236294741767E-02 a      1575     0    79     1    15
 -2.4844538755307363E-01 a      1576     0    79     1    16
  9.8835571687494808E-02 a      1577     0    79     1    17
  1.2825227039773110E-01 a      1578     0    79     1    18
  2.8843391478955590E-02 a      1579     0    79     1    19
 -1.2567488192608403E-02 a      1580     0    79     1    20
 -1.5118880706448868E-02 a      1581     0    80     1     1
  1.6024727479550208E-01 a      1582     0    80     1     2
  9.2042134233835171E-02 a      1583     0    80     1     3
  2.4305596824994967E-02 a      1584     0    80     1     4
  3.5810093475392658E-04 a      1585     0    80     1     5
  1.4991499856972063E-02 a      1586     0    80     1     6
  1.0845808001856069E-02 a      1587     0    80     1     7
 -8.8068007459121425E-02 a      1588     0    80     1     8
 -1.2257501732299203E-02 a      1589     0    80     1     9
 -3.0225127045199712E-03 a      1590     0    80     1    10
  1.1442662288798534E-01 a      1591     0    80     1    11
 -1.8569290572583552E-02 a      1592     0    80     1    12
  5.2438390112503848E-02 a      1593     0    80     1    13
 -9.1366133551474438E-02 a      1594     0    80     1    14
 -1.0402029812304896E-01 a      1595     0    80     1    15
 -1.4306574159489246E-01 a      1596     0    80     1    16
 -1.4360215175749752E-01 a      1597     0    80     1    17
  2.2490816188019969E-01 a      1598     0    80     1    18
  1.6948122062282106E-01 a      1599     0    80     1    19
 -4.4695887744978298E-02 a      1600     0    80     1    20
 -9.6316809584457319E-02 a      1601     0    81     1     1
  5.9418297253579777E-02 a      1602     0    81     1     2
  4.1935189503417583E-02 a      1603     0    81     1     3
 -3.6875275602045031E-02 a      1604     0    81     1     4
  3.1366038869143874E-02 a      1605     0    81     1     5
 -8.2485724730104293E-02 a      1606     0    81     1     6
 -1.5819919425309584E-01 a      1607     0    81     1     7
 -7.2171584693953739E-02 a      1608     0    81     1     8
 -5.7954578462613121E-02 a      1609     0    81     1     9
  8.6689511296884139E-02 a      1610     0    81     1    10
  4.1187456935464738E-02 a      1611     0    81     1    11
 -1.0203012175032775E-01 a      1612     0    81     1    12
 -1.4971285384705807E-01 a      1613     0    81     1    13
 -9.3754389211762407E-02 a      1614     0    81     1    14
 -8.7785233121034298E-02 a      1615     0    81     1    15
  1.1556633058973953E-01 a      1616     0    81     1    16
  1.0640513872140059E-01 a      1617     0    81     1    17
  4.0639179956898509E-02 a      1618     0    81     1    18
  1.2525696635829631E-01 a      1619     0    81     1    19
  9.1076768553354698E-02 a      1620     0    81     1    20
  7.1484752199853605E-02 a      1621     0    82     1     1
  3.1800320271709377E-02 a      1622     0    82     1     2
  3.2006088157399142E-03 a      1623     0    82     1     3
